100 100
6 -0.05016839 0.03204574 -0.0261679 0.24523011 0.25303262 -0.4336782 0.13372616 0.40005836 0.11761485 0.026415613 0.03916816 0.23993528 -0.116423845 0.15244858 0.1479577 -0.12236398 0.08862592 0.31576228 -0.29473916 -0.044528645 0.60506094 0.043131858 0.3058536 -0.25396946 0.08841526 -0.095363416 -0.10604821 0.37988842 -0.13315883 -0.2458597 0.10458548 -0.041827433 -0.25843206 -0.47889584 0.09380884 -0.3857249 0.26193422 -0.1238953 0.31287706 -0.20977716 -0.30372384 -0.0014948067 -0.032957114 -0.11360595 0.35349894 0.059327945 -0.2053076 0.41243562 0.25711566 -0.12790169 0.09745311 0.12160952 -0.13853097 -0.0988235 0.21892475 -0.047509424 0.40527996 -0.44135663 -0.7228042 0.110627666 0.14008541 0.06956181 -0.098208636 -0.2927687 0.43716252 -0.048252605 -0.016832912 0.38475472 -0.119366474 0.39508593 0.07312372 -0.28297067 0.17044348 -0.20707732 -0.09973995 -0.24955718 0.32976538 0.1979575 -0.75556767 -0.63802916 -0.5786828 -0.030254759 -0.09900735 0.107729204 0.13308549 0.03568193 0.12989458 0.071633436 -0.14466658 -0.36892757 0.3763805 -0.43532148 0.4350689 -0.118203305 0.3720016 0.28364947 -0.29066902 -0.17252636 -0.113925084 0.1585502
99 0.21389377 0.26379177 -0.1594469 0.025555974 -0.103028536 -0.023366822 0.069187894 -0.009487288 0.018519547 0.09230232 -0.13397856 -0.30649504 0.38131666 0.34526634 0.52851194 0.08056107 0.40898126 -0.5527649 0.05359509 0.10044809 0.45411325 0.24276769 0.4892743 -0.42903778 0.021287225 0.49979463 -0.08610045 -0.25814357 -0.08139438 0.41175634 0.22202177 0.06797255 0.25929487 -0.49152637 0.08684473 0.2958999 -0.04166958 0.193337 -0.26350477 0.027490834 -0.20722002 -0.17815131 -0.35630208 -0.07249298 -0.07441597 0.10695452 -0.04619947 0.037333008 0.23093909 -0.4137176 0.0781636 -0.35315108 -0.4532451 -0.20412572 0.26209638 0.35824087 -0.12779494 0.20113792 -0.16524482 -0.05065451 -0.3521122 0.07333661 -0.3920742 0.3151664 0.23359509 0.53575534 -0.31202322 0.016747862 -0.03737346 0.23296644 -0.8032999 0.08555821 -0.040719267 -0.20971705 -0.35258397 -0.50577694 -0.34581137 -0.18819991 0.26112643 0.35512924 -0.1269057 0.09228777 -0.1000766 -0.08018547 0.513659 -0.7676451 0.15327841 0.19417945 0.392324 0.15757361 0.20193708 0.21639635 -0.44556823 -0.41605645 -0.008154505 -0.25472304 0.18131155 0.29779208 -0.37416282 -0.18340535
29 0.38801056 0.3684024 -0.0120347645 0.1256736 0.021224542 -0.24452303 -0.28014594 0.1504327 0.044925943 -0.35936219 0.20548294 0.086547926 0.18570812 -0.10444373 0.029103152 -0.06597496 0.109927304 -0.3120665 -0.5547402 -0.43095806 0.107861675 -0.07943403 -0.096744105 -0.19974771 0.24236754 -0.15181482 0.01860454 0.43858287 -0.3075176 0.44590455 0.12786052 -0.21080613 -0.11783885 -0.40210852 -0.32217482 0.10498895 -0.17677113 0.41995552 -0.05530951 -0.20001718 -0.38979843 -0.103757955 -0.0002123523 0.7057934 0.5982952 0.015160446 -0.378149 -0.4568704 0.36000517 0.16842423 0.10626633 0.22782108 -0.14271644 -0.16316932 -0.21063632 -0.52438146 0.23846719 -0.22200471 -0.4006684 0.25182438 -0.07030382 -0.053449955 0.18405175 -0.04196824 -0.16270186 0.30443984 0.47959876 0.34076613 0.45243096 -0.1331172 0.017636608 -0.10536258 -0.06650432 0.11699084 0.16064972 0.032900486 0.47438437 -0.23521736 -0.20613758 -0.15017803 -0.09025815 0.06975753 0.053921144 -0.19826871 0.46065593 -0.16756107 -0.30726695 -0.13495626 0.5838749 0.31189126 0.24753405 0.19995849 0.16578844 -0.5257381 0.10220681 0.4376879 0.05395449 0.0054042265 0.19299799 0.051943406
88 0.050594453 0.40147784 0.20300518 0.23908162 0.487149 -0.025477268 0.25127944 0.6947813 -0.057547502 -0.3627311 0.13426474 0.23557599 0.3092418 -0.050971515 0.26299477 -0.22545692 0.42820328 -0.388035 -0.66426724 -0.3062197 0.1934215 0.103307806 -0.014507218 0.1667192 -0.15834007 0.21994424 -0.14119387 0.13662268 -0.307195 0.01891139 -0.35674345 0.49034932 -0.4016045 -0.46893856 0.2806017 0.39201 0.027785558 -0.28501496 -0.085888706 0.20227261 -0.24227752 -0.062238134 0.2415984 0.014996928 0.30434084 0.13435946 -0.052585866 0.0958015 -0.03572817 -0.15225278 0.04070196 0.22519849 -0.46048066 -0.57780915 0.037975688 -0.3172864 -0.27688313 0.5116024 -0.293057 0.07274893 0.159839 0.24802682 0.33503833 0.16293477 0.5747276 -0.3480385 0.12792294 0.21240637 -0.08407517 -0.41963494 0.25995004 -0.10032987 -0.28094566 -0.08515266 0.11136357 -0.10722751 -0.21969299 0.17681767 -0.52461654 -0.23264033 -0.18060362 -0.11231688 0.015634913 0.1357845 0.073799014 -0.11942039 0.8711104 0.37016734 0.21091634 -0.20868215 0.047350064 0.27507818 -0.049431805 0.05625692 0.7693833 0.0917727 -0.30850828 -0.2739518 -0.21618412 -0.18964699
43 0.41364017 -0.34799194 -0.03503415 0.2554147 0.05547317 0.14583847 0.1621062 0.27514184 -0.19473803 0.17063142 0.028113006 0.23710956 0.20112348 0.42396298 -0.031817045 -0.0070842705 0.0396286 0.7313731 -0.032423526 -0.16771999 0.03421141 -0.17299502 0.20764253 -0.02034933 0.18757485 -0.1152498 0.12060867 0.65823346 -0.49751806 0.29057914 -0.014257864 0.39321798 0.538607 -0.039555006 0.02459373 -0.018224439 -0.11650617 -0.29653066 -0.18388131 -0.05035549 -0.18246128 -0.3030311 -0.13933226 0.07820854 0.007986374 -0.035414986 0.12758793 0.08933727 0.032088436 -0.37369624 0.26567364 -0.23395252 -0.17709811 -0.6020969 0.11635511 -0.025746766 -0.6894045 -0.12409681 -0.11889445 -0.22483611 -0.039994314 -0.2595053 0.0535891 0.21669744 -0.1893915 0.004852185 0.4230067 0.23499498 -0.38957986 0.75943255 -0.15951501 -0.4055101 -0.22835854 0.15347998 0.009911764 0.11695713 -0.07342044 0.0759444 -0.5359121 -0.13112192 -0.1380919 0.030019257 -0.09353417 0.53309 -0.3323793 -0.1818901 0.5507716 -0.34349936 -0.06967173 0.24243493 0.44396028 -0.2618629 0.2501809 0.2893394 -0.05459298 -0.120883554 0.36170998 0.14901789 0.19640206 0.051281057
86 -0.007834105 0.090137884 -0.5070061 -0.29295605 -0.31261006 -0.0050127856 0.41696024 0.3543072 -0.016707132 -0.23013031 0.010352629 -0.076099336 -0.62180346 -0.46115837 -0.099492595 -0.24423769 -0.19652653 -0.18767336 -0.34047434 -0.039233476 -0.2964476 -0.09035071 0.46324307 0.5576497 -0.261652 -0.1455281 -0.3112993 -0.37068793 0.39645904 0.14527954 -0.25011554 -0.28959215 0.30716833 -0.43078342 0.22139473 -0.10462012 0.37707964 0.10383757 0.3458189 -0.37542692 0.20498073 -0.39853612 0.19287398 -0.3756997 0.119863875 -0.09444871 0.06390468 0.3829232 -0.18034928 0.4157443 0.20945746 -0.081293955 0.36309448 -0.09997035 -0.08373036 0.0112285195 0.7987108 0.45943487 -0.5304218 -0.091475636 0.08980648 -0.23482206 0.23519479 0.00694953 0.16109623 0.31636247 0.34274763 0.2092358 -0.55983967 -0.23447421 -0.064295985 0.2898842 0.34182605 0.16482148 0.053579036 0.0630228 -0.08531517 0.27360275 0.28674698 0.13685393 0.13810718 -0.1738373 0.07828072 -0.1412739 -0.07124445 -0.19299111 -0.25313902 0.60187405 -0.101973295 0.34274372 0.20961806 -0.010338421 0.19469635 -0.020278621 0.21444198 0.024554124 0.30725938 -0.20366028 -0.10596943 -0.2883948
35 0.31590292 0.12139906 -0.20691194 -0.17993714 0.046750955 0.014852226 0.13964418 -0.031990524 0.40397593 -0.20792842 0.46704087 -0.07937376 0.024613943 0.40996352 0.0044744527 -0.43708292 0.018259365 0.35525432 -0.34004188 -0.449383 0.08110522 -0.17053945 0.26758152 0.18019941 -0.30172032 -0.306321 0.29879183 -0.53556496 -0.07496301 -0.18901604 0.30507573 0.01348874 0.31225896 -0.42653373 -0.31456375 -0.053774104 0.0005615775 0.111992724 0.15513079 -0.5369894 0.29959357 -0.16821888 -0.1680911 -0.6851067 0.1969139 0.2822077 -0.25944957 -0.27071592 0.33034167 -0.18353286 0.28360942 -0.11585171 -0.112605385 -0.17575413 -0.16015787 -0.13050675 -0.10846244 -0.26611787 0.1011513 0.0025301268 0.38391456 -0.19862494 0.2983966 0.0295993 0.04953846 0.16906703 -0.15710853 -0.3238284 -0.3958493 -0.13625392 -0.32435814 -0.12610401 -0.27950788 0.29329413 0.086469635 -0.08918521 0.045659877 0.0189424 -0.044258785 0.1719475 0.39860338 -0.5133648 -0.29216617 -0.085925296 -0.32826766 -0.13009335 -0.026801521 -0.57447016 0.24305947 0.19207186 -0.16512363 0.03516509 0.17706834 -0.044961777 0.17395936 0.100826226 0.10937831 -0.13499285 -0.16505358 -0.33219942
94 0.39390102 -0.06576519 0.19141051 -0.10014468 0.25220308 0.041134953 -0.021252403 0.24221642 -0.1625597 -0.57111573 0.0064247996 0.0719949 0.07509581 0.3846033 0.3963221 0.4034672 0.2914256 -0.1692218 -0.41678506 -0.17698266 -0.22780046 -0.1874246 -0.18250087 -0.12945424 -0.175671 0.21731207 -0.1954041 0.44269586 0.07048121 0.1876566 -0.17416395 0.4199219 -0.37557164 -0.26874894 -0.3313133 0.13858311 0.101761244 0.045073062 -0.44872707 0.24233732 0.23152311 0.110392034 0.020591838 -0.2421856 0.28889292 -0.2563899 -0.44390923 -0.2702365 0.35187483 0.28120294 -0.47140017 -0.08204349 0.091966674 -0.5404436 0.100075364 0.39520398 -0.48064148 0.43233564 0.48539883 -0.07250006 -0.016735313 -0.32496604 -0.12799354 0.6542183 -0.012860618 0.26424965 0.021850964 -0.24953593 -0.09091688 0.30881947 -0.11728381 -0.052578036 -0.6116992 -0.2534875 0.026147176 -0.4011419 0.2879725 -0.28698215 -0.087796815 0.2473417 -0.28472677 -0.44412312 -0.5319606 0.6178383 0.12939095 -0.032117628 0.22562806 0.42652202 0.21760474 0.0728842 -0.05642395 -0.17994307 0.21691544 0.29921755 -0.06068168 -0.42402175 0.13218933 -0.29523364 -0.040789276 0.3811195
89 -0.44657558 0.28570458 0.3325753 -0.031972762 0.16321318 -0.014466132 0.42255417 0.15362468 -0.2909849 -0.16893366 0.33760077 -0.91323096 0.09499035 -0.118583925 0.41611642 0.18806218 -0.36122513 0.47509596 0.080159254 -0.10973756 0.18857288 -0.0759563 0.30557042 -0.5038699 0.2115969 0.32406443 -0.2468675 -0.40815696 -0.34164777 -0.22384438 -0.11472458 -0.055513524 0.37336746 0.1989534 0.104957424 0.06905592 0.23467734 0.44329122 0.14273041 -0.77983624 -0.3063813 -0.21021071 0.052943345 0.4622883 0.04358693 -0.02662073 0.13748704 0.11566179 0.25893563 -0.27099207 0.34616604 0.17381859 0.5938662 -0.14679316 0.1485941 -0.37343547 0.044120956 0.03089231 -0.38118356 0.016908195 -0.3846684 -0.22881082 0.28066704 0.043042533 -0.56394523 0.2093956 -0.2286934 0.21529123 -0.15342283 0.46621108 -0.41748214 -0.09733582 0.6270912 0.103706315 -0.10484411 -0.06453593 0.22525969 -0.37299943 0.08277339 0.06020159 0.14643219 0.26969513 0.5308175 -0.4455561 0.15092352 0.07624405 0.09168267 0.063953176 -0.047570564 0.28109336 0.30170885 0.1639551 -0.023400255 0.09680893 0.38022554 0.5290546 0.10252605 0.28595895 0.27973256 -0.2970822
13 0.02888064 -0.14592059 0.014499023 -0.029894762 -0.026778553 -0.20300679 -0.6125213 0.20400871 -0.25423735 -0.23507017 0.105567195 0.114506535 -0.6902782 -0.02220331 0.022051904 0.32095316 0.00857825 -0.3007217 -0.18027472 -0.12628783 -0.001620898 -0.3112586 -0.07324322 -0.24028262 0.07849969 -0.046658553 0.31431133 0.050358467 0.12118187 0.20190069 0.56662214 0.15016359 0.2766971 -0.34085372 -0.17741619 0.14549339 0.02714411 0.00946048 -0.20802502 -0.1977405 0.18642898 0.30711982 0.022017565 -0.32530954 0.24988283 -0.07034665 -0.24174686 -0.06238445 0.7012459 0.47289312 0.27026457 0.2958065 0.2304355 0.59318745 -0.12934935 -0.4127793 -0.46371835 0.081906974 0.4011031 -0.4928469 0.027529903 0.5779078 -0.07894131 0.20033637 -0.12389857 0.30039364 0.06830454 -0.28978977 -0.09726307 -0.043367904 0.10260524 0.11198546 -0.25784373 -0.30183548 0.18781011 0.11493564 0.38544598 -0.28320545 0.047739126 0.060945958 -0.032017607 -0.49061522 -0.49003142 0.032327276 -0.23776191 -0.11561106 -0.17197047 -0.13448119 0.08661099 0.7236581 0.2557332 0.13998069 0.24346451 0.1614319 0.5258451 0.04781311 -0.20747311 0.014980005 0.2568594 -0.091102965
47 0.21022889 -0.18199354 0.0073529463 -0.38539264 0.14801104 -0.4011113 -0.11346647 -0.16517198 -0.3201017 0.13743995 0.3046949 -0.29499584 0.18039422 0.5345102 0.002803402 0.21718007 0.012925201 0.21312165 0.14370035 -0.35870945 -0.15085225 -0.121951 0.03012746 -0.3656876 -0.057389442 -0.17038545 0.25494274 0.38749728 -0.5880131 0.36527953 0.59631526 0.18339914 0.5048616 0.113941096 -0.18831345 0.15340972 -0.1783284 0.02093917 -0.644934 -0.09400645 -0.12538198 -0.09422052 -0.24114446 0.33379292 -0.0691805 -0.04592246 -0.15237722 -0.38294017 -0.078523256 -0.06466016 0.31250292 0.11179015 0.17243674 0.0626817 -0.37305987 -0.03706521 -0.23040265 0.24987979 0.44672614 0.5145688 -0.088060975 -0.3690316 0.15583475 0.053599738 -0.5900001 0.096376725 -0.13836372 -0.20957313 0.08007498 -0.10849982 -0.14270298 -0.10817477 -0.09289875 0.35145593 0.312661 0.17860848 -0.328485 -0.06402067 0.076253995 -0.25660324 0.21182872 0.27544072 -0.0982172 0.5896105 -0.37061924 0.27431428 0.41348696 -0.2739592 0.1490499 0.4628523 0.5951868 0.46126282 -0.30818003 -0.39080682 -0.3607258 -0.10100845 0.6310789 -0.2721751 0.65642834 -0.20219618
75 0.097054064 -0.048722766 0.29168975 -0.43281123 0.1316969 -0.36243334 0.11590239 0.09868024 0.0945463 -0.04273392 -0.1259456 0.20085451 -0.3462551 -0.6113999 0.14744705 0.22833253 -0.39657146 -0.3055176 0.047211032 -0.73862034 -0.03397127 0.29963243 -0.339762 -0.11231863 -0.2346317 0.046459656 -0.038097568 0.014675261 0.5111232 0.2043608 0.16105051 0.029533613 -0.0008372659 0.4982995 0.050073482 0.1930605 0.061975375 -0.70241165 0.05965225 -0.023247913 -0.22003254 -0.32958332 0.2004639 0.62538755 0.38568 -0.0035664174 0.5004053 -0.10870769 -0.0027370425 0.16754028 -0.09778271 -0.17420521 0.70711976 0.4102159 -0.38308918 0.42453834 -0.2863348 0.2319922 0.14490339 -0.1508759 0.2713319 0.08445568 -0.069653615 -0.45499042 0.02282541 0.5329378 0.13306412 -0.15480044 -0.677827 0.09511924 -0.27265322 0.5218704 0.1749499 0.0015031799 0.09242904 0.36648288 0.12965012 -0.08797072 0.066838704 0.2884817 -0.0152940955 0.18249696 -0.58833545 -0.30194137 0.2561637 0.21799846 -0.5530113 -0.6477293 0.42021233 0.16047157 0.38113615 -0.29027924 -0.0033421416 0.2596988 0.23144469 -0.3618144 -0.19788997 -0.43652567 -0.06337186 -0.03021447
46 -0.102719426 -0.20522168 0.17775026 -0.6372167 0.29402614 0.0427256 -0.049400702 0.063847125 0.52579165 -0.64568233 0.043373846 -0.84083337 0.4090917 0.18019459 0.03651492 -0.5305274 0.4221214 -0.12218893 0.43148288 -0.36609718 -0.98282856 0.10879087 -0.2670476 0.046139944 0.19531702 0.17871597 -0.7126958 0.2812956 -0.6730643 0.03072105 -0.021376686 0.4307333 0.026489602 0.32945147 -0.37172055 -0.6032396 -0.30094495 -0.31340793 0.32532948 -0.3756046 -0.46792862 -0.00248146 -0.15993576 0.31560215 -0.24128973 -0.15570514 0.8859965 0.15827936 -0.26548123 0.027968498 0.42041954 -0.21716702 0.27701113 -0.11044618 -0.62188697 0.006863905 -0.56345224 0.057098188 -0.1427819 -0.060763855 -0.15540071 0.054338627 0.25003332 0.3877145 0.23782042 -0.21972711 0.6429506 -0.39018813 -0.33647823 0.21806623 0.5923759 0.8696413 0.08441854 0.30852816 -0.17382142 0.43758246 0.24514163 -0.31582344 -0.45516646 -0.10534925 -0.070462614 -0.07412118 0.035575654 0.4607328 -0.032504212 -0.01988696 0.36102542 -0.43117714 0.16554998 0.62700826 0.59147847 -0.024631254 -0.18735994 0.28072986 0.08318564 0.15345785 0.6124431 0.03429407 0.24763735 0.055316087
45 -0.2978473 -0.035582766 -0.2864573 -0.7103614 0.27041405 -0.76803803 -0.6187999 0.015363104 0.12976891 0.0693424 -0.007462416 -0.025751038 -0.34746438 -0.21105807 0.46065763 -0.10122717 0.35917267 -0.4166673 0.2928997 -0.41281885 -0.09965855 0.122579254 -0.08744075 0.1179642 -0.1495596 0.30380827 -0.07473007 -0.06461713 0.08175043 0.16844028 0.64129615 0.283249 -0.08152047 -0.12896536 -0.07743121 -0.3574823 -0.10483472 0.14484353 -0.2116961 -0.12852153 -0.07058314 -0.046338663 0.04465397 0.1609294 0.35293818 0.19573927 -0.33115983 -0.1746584 -0.05024557 -0.10446558 -0.20707099 0.22700813 -0.10363188 0.37555784 -0.6149154 -0.1823708 0.3092569 0.03565791 0.41368064 0.3973842 0.17153957 0.14377029 0.21830472 0.22186394 0.57987505 0.3627058 0.3181035 -0.1390553 0.24407709 -0.18891437 0.37000307 0.26778522 -0.3019542 0.36862 0.36668894 0.20583323 0.26331183 0.007960084 0.054227456 -0.010203742 -0.15681568 -0.4905426 0.08023247 -0.085900314 0.2762795 0.07112753 0.05199654 0.054956395 0.4791741 -0.017685708 0.90354294 0.2711171 -0.031139491 -0.1939153 0.121352054 -0.10671742 0.6735723 -0.43354708 -0.6450275 0.4405852
17 0.05780121 0.779585 -0.18820357 -0.36875382 -0.034238264 -0.34485587 0.32925132 0.39031178 -0.5077923 -0.144527 -0.2472151 -0.3203859 -0.119800605 -0.53258884 0.147532 0.36178237 0.38891616 -0.1528897 -0.07259358 -0.8587109 0.1329404 0.22874866 -0.28549895 -0.5522958 -0.19929762 0.18393682 0.29078102 -0.37117866 0.12931597 -0.25161296 0.13146901 -0.079543665 0.13845587 -0.1625219 -0.011392982 -0.04754932 0.58875215 0.33367357 -0.15111367 0.07094326 0.21879789 -0.0016235934 0.14595042 0.07046358 0.14038931 0.14293814 -0.47127557 -0.24233453 0.0945407 0.37424362 -0.45086136 0.33014646 0.042676955 0.018216366 0.115589075 -0.077195935 0.06746421 -0.05874254 -0.37596625 0.35384446 -0.008527075 -0.12988849 0.0014537496 0.47390944 0.06426644 0.1950316 -0.37572983 -0.1755263 -0.05782608 0.4919918 -0.33218092 -0.5107861 0.023617558 -0.2592471 0.010078439 -0.46111536 0.525076 0.33305785 0.085005224 0.115389355 0.09865929 0.42472148 0.018874418 -0.32049012 -0.05911407 -0.042173214 0.3178235 0.54493797 -0.08320638 -0.5128128 0.15973409 0.09392213 0.022251412 0.5981882 0.15590316 -0.5888688 -0.20697607 -0.18740079 -0.0033400944 0.25494385
64 0.008611185 -0.190721 0.22065115 0.2035876 -0.06253735 0.12730025 -0.16222003 0.24862072 -0.4241772 0.20270361 -0.03416961 0.12350362 0.06216213 0.16705872 -0.29781893 -0.48462602 0.0056739706 0.055263862 -0.28929925 -0.27066743 0.49918884 -0.22065514 0.027333684 -0.2909293 -0.5088406 -0.087642394 0.20674564 0.4961521 -0.13454235 -0.20845625 -0.32756868 0.051253457 -0.09627164 0.097408555 0.061311707 0.23984079 0.15287097 -0.34346518 -0.3984544 0.46668845 0.0071873097 -0.23944382 0.3081831 0.4929467 0.5439689 -0.28391612 -0.05995221 -0.30966002 0.3721389 -0.34292328 -0.19779705 -0.09213867 -0.0973592 0.13189974 0.10640655 0.09012168 0.40632275 0.31825408 0.269993 0.20265825 0.5343308 -0.73639643 0.13168177 0.23010856 0.21068628 0.30910665 -0.13529563 0.49390554 0.0978596 0.4078672 -0.43338692 -0.09029434 0.13965526 -0.26675436 0.4792063 0.4812404 0.06142569 -0.052146 -0.30267718 -0.36312944 -0.109607525 -0.033338405 -0.59963816 0.16418588 0.11563358 0.07638657 -0.6358995 0.050888006 0.6760191 0.5203422 0.22380376 -0.29187584 -0.1572908 -0.3331665 -0.24895884 0.5877813 0.64186007 0.39352122 0.28572518 -0.24981208
67 0.19467422 -0.4484468 0.14388841 -0.44277707 0.11865823 -0.15455166 -0.004372995 0.4304204 0.06737487 -0.3151547 -0.39549467 -0.3116115 -0.3035333 0.40564144 0.10876168 0.10397515 -0.7878177 0.12803604 -0.16236413 0.13870074 0.2632391 0.027474917 0.18733194 0.6251987 -0.3254075 0.12520269 0.18477097 -0.6563859 0.5844652 -0.094067685 0.018429255 -0.118695036 0.11421415 0.03672947 -0.012887785 0.26802596 0.4868838 0.12759064 -0.31586212 -0.3338833 -0.08427253 -0.12273238 -0.07005974 -0.18553336 0.005087352 0.06757524 -0.3182356 -0.028801939 0.20249975 -0.070495926 0.03585202 -0.19335116 0.18686646 -0.2858269 -0.03289951 0.04613671 0.15898734 -0.36697528 0.06165548 -0.091079965 0.23346841 -0.052670266 0.052649844 0.22867338 -0.2552677 0.24533394 0.04981016 0.024019973 -0.14627746 0.14747684 -0.101401225 0.39313868 -0.17452614 -0.04691316 0.14324047 -0.048998773 0.45575076 0.13695736 0.28741306 0.10803511 0.30161977 -0.540861 -0.21538717 -0.13458839 -0.0073201037 0.33812243 -0.5239129 0.099431865 -0.32988748 -0.039884843 0.6130378 0.22725777 0.11676793 0.14438142 0.06095409 0.251978 -0.11188075 -0.42700768 -0.1762247 -0.2232136
65 -0.071661346 0.057711776 -0.31606406 -0.37202245 0.08049095 -0.53043157 -0.15815006 0.07563724 0.21410315 0.1746714 -0.3099522 -0.03073433 -0.24975166 -0.23126546 -0.08601043 -0.73488516 0.15355891 -0.26407897 0.47945014 -0.37056655 -0.4393462 0.12566839 -0.27608678 0.09037323 0.13248627 -0.2518359 -0.25691444 -0.017278662 -0.29206023 0.13406761 -0.47416666 -0.025797527 0.110602774 0.079326205 -0.32142633 0.044587854 -0.4890467 -0.30146104 0.3313425 -0.1906108 0.39746094 -0.26325482 0.38762122 -0.15464555 -0.19240293 -0.288315 -0.30566347 -0.34988692 0.31901684 0.098569445 0.1449172 -0.0036301955 0.45073277 0.50111604 0.27570787 -0.2352995 0.6194412 0.31037992 0.26662338 0.623005 0.12506768 -0.3696038 0.018670743 0.2098921 0.35108462 0.38988668 -0.066983216 -0.18231402 -0.15772721 -0.53455985 0.34425253 -0.02213326 0.30856648 0.2159244 0.47199285 0.25590622 0.07469049 0.6553492 -0.008785262 -0.5559104 0.099813744 0.6271647 -0.057257306 0.05319746 -0.14082953 0.54749286 0.16015923 0.05189138 0.6913889 0.113211155 0.20009796 0.33316484 -0.29577604 -0.24954553 -0.19574049 0.025095856 0.19478433 0.1667561 0.88225585 -0.30452064
4 0.36268118 -0.4455228 -0.09681742 -0.020904161 0.17125003 -0.6949155 -0.68232554 0.21991788 0.31359178 0.32017854 -0.33231115 -0.047318596 -0.21452914 0.36954874 -0.26886603 -0.057871055 -0.37665662 -0.015460731 0.4044056 0.09359592 -0.2077019 -0.06092369 -0.31189722 0.35697478 -0.05583701 -0.095112234 -0.10381275 0.31654227 0.7411552 0.028453449 0.1627627 0.34781635 0.5431534 0.44838914 -0.30552626 -0.13184367 -0.11670229 -0.35933644 -0.0024886832 -0.614504 -0.08071132 -0.056784034 0.34294286 0.22547075 -0.4995289 -0.098232605 -0.029274745 -0.1386341 0.30756333 -0.443946 -0.17887634 0.02584348 0.29426184 0.2482433 0.2553565 -0.09262579 -0.1614184 -0.37706703 0.8796457 0.26317132 0.33029264 0.50235695 -0.025767295 0.1767254 -0.2637428 -0.051504362 0.4309276 0.39653465 -0.29905808 0.40172008 0.27468023 -0.3670105 -0.017540313 0.35792518 0.34879288 0.27591166 -0.09567849 0.27573237 -0.75363576 -0.70769906 -0.41686973 0.100316964 -0.5201574 0.13717678 0.41881552 0.1878009 0.2447454 0.033102132 0.07505119 -0.3211171 0.5681935 -0.023078753 0.30118647 0.45257527 0.17139173 -0.25182003 -0.21801217 0.24178626 0.36477378 0.29596403
84 0.44014668 0.30401555 -0.4131462 -0.08748464 -0.18083037 0.08947209 0.15601702 -0.1353106 0.12513627 0.078002244 0.007722649 0.44333276 0.24242213 0.2493255 -0.019637933 -0.2077841 0.29508984 -0.51023054 -0.49268383 -0.3177992 -0.21789268 0.105481625 -0.3229313 0.06304505 0.17927738 -0.2924396 0.07251829 -0.1382848 0.1857242 0.25824708 -0.17459112 -0.45289963 0.4663922 -0.20181368 -0.29213318 0.2728993 -0.11280459 0.073804826 -0.17819425 -0.4563894 -0.39195105 0.034344647 0.060914006 -0.067810476 0.22644399 -0.091011494 -0.45588022 -0.32871 -0.041503977 0.5170795 -0.4141605 -0.13181113 -0.45783076 0.11770489 0.173661 0.12802896 -0.05524988 0.10615651 -0.287167 0.21106435 -0.13067366 -0.18079275 -0.2992513 0.08409265 -0.17815079 0.23985577 -0.10410691 0.03683669 -0.28555918 0.39811903 0.22255953 0.3204881 0.22972873 -0.23091882 0.0153553365 -0.58768845 0.029549515 0.58859104 -0.19540499 -0.5889267 0.10974575 -0.07350197 -0.41759875 0.2891715 0.21457624 -0.023966921 -0.14874911 -0.22674221 -0.020806363 -0.02739988 0.13586317 0.21862741 -0.16345412 0.22889628 -0.086483195 -0.451783 -0.18998861 -0.28283885 -0.0061156075 0.27316347
80 0.21770798 0.32571873 -0.3540081 0.535257 -0.10734565 0.068558775 -0.100648075 0.29873455 -0.006329148 -0.4715544 0.043408927 -0.49730283 0.20386778 0.137273 0.0016547674 0.10344546 0.17570321 -0.28499302 0.13975419 -0.13455951 -0.5574233 0.13480677 -0.35679793 -0.2213847 0.8145267 -0.24992764 -0.22076403 0.39292207 -0.52585244 0.18678257 -0.3786464 -0.47674412 -0.16243903 -0.34892198 -0.6014757 0.316411 0.22061709 0.24463497 0.2586885 -0.5150408 -0.38679257 -0.31764948 -0.088266805 0.04386631 0.15579478 -0.06872096 -0.4517858 -0.09678572 0.10885564 0.58524865 0.10654206 -0.09141554 0.10292599 -0.23806243 0.17196187 -0.027834952 0.49662215 -0.22583733 -0.7804092 -0.115006916 -0.30835015 0.15784393 0.24304909 0.009519368 -0.8408351 0.21171913 -0.30042517 0.19216396 0.43977946 -0.25457707 0.50686276 -0.0642926 -0.06297859 0.22973238 0.14559254 -0.06826797 -0.037948143 0.08764703 -0.13717787 -0.27213642 -0.0010362978 -0.037467543 -0.08011665 0.16651063 0.014830736 0.23770164 -0.024124965 0.21091716 0.26228923 0.68497413 -0.18423447 0.31430766 0.14841662 0.45650768 0.25635588 0.2592718 -0.5371641 -0.02460248 -0.17644066 -0.08748852
40 0.5279351 0.47290593 0.7966839 0.10794583 -0.44871467 -0.0073652705 -0.104520135 -0.18651704 -0.21121608 0.08712111 -0.32675052 -0.17882197 0.0076705203 0.07399526 -0.05602692 -0.23952979 -0.14107445 -0.378004 -0.048935972 -0.2054469 -0.14540313 0.031558115 -0.22942606 0.21618101 -0.11589937 0.121404104 -0.5103134 0.22575487 0.51170856 0.48250666 0.6211923 -0.018815627 0.4086803 -0.6790227 -0.10537703 -0.0906644 0.38061008 0.37923083 -0.07279495 -0.35800105 0.13523422 -0.051420104 0.35200343 0.25411093 0.044067927 -0.34531522 0.052496724 -0.022091947 -0.025179619 0.22190106 0.31378463 0.47243518 -0.15317386 0.10093068 -0.35721523 -0.8437043 -0.051150445 -0.039252393 -0.2659684 -0.4682808 -0.3251611 0.697345 0.15897721 0.4202075 -0.15330909 -0.12920937 1.0376087 0.02805898 -0.36413336 0.26126495 0.062663354 0.45102474 0.13258605 -0.05251272 0.24243759 0.1454329 0.13540453 0.13587768 0.23672147 0.54536515 -0.10929556 -0.529174 -0.09104976 -0.26112148 0.09775729 0.107945226 -0.108533874 0.5842094 -0.0146828005 0.56167006 0.47191966 0.10739559 0.16394657 -0.8225882 0.20502031 -0.13823988 -0.38595596 0.4988379 0.5452565 -0.11276916
70 -0.036319334 0.059891287 0.031756774 0.6736136 0.073435485 -0.27638257 -0.37089646 0.186272 0.10465656 -0.29406917 -0.26253593 -0.56017745 -0.09120706 0.491 0.6468078 -0.11933129 -0.6251923 0.029564906 0.07709562 -0.15975788 0.20803958 0.20107721 -0.030300431 -0.17967038 0.5111191 0.1277102 -0.6173879 0.39715454 -0.1813097 -0.31277403 -0.3319292 0.118847445 0.21143219 -0.11233575 -0.111748256 0.030766033 0.0995351 -0.14719152 -0.1579116 0.48013172 0.5072964 -0.3630935 -0.17452905 -0.24557571 -0.41638395 -0.23389421 -0.07430109 0.1774036 0.045976255 0.40235922 0.6018993 -0.11071103 0.12978151 0.15734185 0.064138964 0.21800497 -0.032779545 -0.26196533 -0.39224803 0.0137964 -0.16945244 0.40776134 -0.123597234 -0.14973372 0.1050048 0.137736 -0.09531883 0.15314749 -0.51752794 0.76325786 -0.14634623 -0.3418999 -0.0069287983 -0.22478962 -0.08692781 -0.03483842 -0.2479597 0.2853731 0.55008024 0.12599362 -0.4212002 0.547364 -0.28133598 -0.11952518 -0.33239627 0.0531852 0.96006674 0.16101192 0.12689628 -0.13902178 -0.21060008 -0.06054251 -0.19950373 0.19589797 -0.057570886 -0.08631843 -0.34333953 0.10651193 0.07365744 0.22302984
44 -0.26175246 -0.20860483 -0.09043341 0.066528365 -0.1696059 0.030392347 -0.23961961 0.43180203 -0.2375642 0.07149064 -0.09639577 -0.25598747 -0.36732268 0.24131973 0.36375484 0.13879198 0.03564784 0.33635557 0.16271706 0.21762489 0.3878969 -0.33479133 0.14064147 -0.36193535 -0.23258428 0.57889676 -0.032104895 0.08587902 -0.36447287 0.083101206 0.055430856 -0.16098861 0.10276455 -0.39156142 -0.27339622 0.03290873 0.4030627 0.6042112 -0.51970816 -0.12073435 0.51878864 0.33429402 0.027642176 -0.3463847 -0.0443888 -0.5851728 0.018635595 0.1916932 0.41802245 -0.0049708225 -0.34167048 -0.73179317 0.07232705 -0.08682881 -0.03869603 -0.04913108 0.0037925597 -0.23927878 0.6847767 -1.009615 -0.041525695 -0.038839154 0.12779069 0.22496656 -0.13200639 0.6730801 0.21086091 0.4888165 -0.32677463 0.38843098 0.17316976 0.28345457 -0.1878553 0.03425086 0.26672554 0.05318876 -0.11960599 -0.13741702 -0.41668472 -0.03794407 -0.1340764 -0.23931828 -0.26438615 0.43998876 -0.5009274 -0.2495437 -0.19038196 0.13660719 -0.496474 0.42719713 0.034694366 -0.2584481 -0.069816075 -0.12464767 0.17256479 0.5162369 0.5648085 0.3324099 -0.38572335 0.25141332
10 0.32053775 0.0010684307 -0.022013742 -0.21569376 -0.13548145 -0.24633855 0.6017212 -0.05877273 -0.34765106 -0.50311685 0.044778414 -0.20520675 -0.0022592186 -0.01822833 -0.21345037 -0.15172324 0.2815294 -0.07485372 -0.28050518 -0.6117754 -0.092064895 0.08514904 0.19196227 0.19987161 -0.1660022 -0.2599652 -0.07846055 0.0046799206 0.52350557 -0.40258145 0.1719331 0.7579833 0.5042919 0.326739 0.006260169 -0.43488216 0.46512625 -0.59233373 -0.081232734 0.32377064 0.10725148 -0.31294066 0.2071829 -0.1667064 0.14010632 0.0240399 0.27519 -0.47055262 0.16177894 0.042937327 -0.0699012 0.2717641 0.21659987 -0.2072413 0.11344152 0.26133373 -0.19963159 0.44985893 0.04201378 0.57167244 0.37186483 -0.6698577 0.28961807 0.25288385 0.114438765 -0.042542044 0.00722929 -0.6045318 -0.45381412 0.8384125 -0.8316191 -0.4951572 -0.14850831 -0.1763072 -0.30989176 -0.20461182 0.41245472 0.07459456 -0.039832514 0.2461221 0.23634233 0.12781417 -0.4035399 0.083785184 0.13087481 -0.22655551 0.058167335 -0.21167992 0.60873204 0.082135595 0.1680571 -0.44514263 -0.08523763 0.2921257 0.04772097 -0.5010093 0.49505082 -0.5267438 0.3886681 -0.1240066
32 0.3125927 0.63550436 0.092020184 0.1180781 0.09094452 0.01501831 0.34098956 0.69964874 -0.17885832 -0.009333269 -0.29841512 -0.05579117 0.24469717 -0.019643134 -0.059542727 0.05855018 -0.01230051 0.25041854 0.04074548 -0.7274566 0.15432869 0.060736585 -0.04392405 -0.10285951 -0.13895376 -0.21853626 0.08560936 0.03212859 -0.20776968 0.13333733 -0.20655486 -0.071951754 0.16450463 -0.16487695 -0.080282934 0.3224306 0.42847544 0.007436651 -0.020258747 -0.10255819 0.17244454 -0.087717354 0.04915793 0.04242194 -0.28866324 -0.25991884 0.29418743 0.018761864 -0.1781316 -0.1753606 -0.39976195 -0.13443868 0.15092793 -0.46925706 0.044859566 0.07188392 -0.41906744 0.082180224 -0.20036295 -0.13523138 0.54244685 -0.13077076 0.33419314 0.055524264 -0.4176372 0.006189815 0.004106927 0.32676426 -0.2837942 -0.019319255 -0.4491802 -0.35591075 -0.16481589 0.041457817 -0.011627419 0.050082758 -0.5914488 0.19482738 -0.05019592 0.31717333 0.82943994 0.62873656 -0.20592411 -0.087109156 -0.3008492 0.056160048 0.3121022 0.14577322 0.30416775 0.019433659 -0.17352107 -0.2621213 -0.4122236 0.13316585 0.028226437 -0.14867382 -0.39972714 0.18684 0.19494098 -0.43751195
36 -0.13631324 -0.18083346 -0.0881605 -0.02640048 0.16298918 -0.1757184 0.2021727 0.43488443 -0.4975931 0.105290756 -0.09955537 0.03286436 0.40684563 0.2093078 -0.37043646 -0.070106626 -0.1075014 0.36073816 0.12499767 -0.23209241 0.32863727 -0.7274767 0.10489362 -0.3465617 -0.14630495 -0.042566445 -0.18025358 0.65144056 -0.058147576 0.1612041 -0.13331115 -0.022686645 0.25308034 0.13336577 0.11849959 -0.21705022 0.29293674 0.12782192 -0.08012295 -0.00097873 0.11030921 -0.035927847 -0.018761223 0.16755185 0.43919894 -0.48841122 0.30185667 0.07077772 0.34453747 -0.115787014 -0.17556328 -0.05311481 -0.12106328 -0.110606 -0.04481619 -0.018382858 0.47785547 -0.13585536 0.45627663 -0.21320522 0.07242351 -0.76692533 0.46872193 0.10274675 -0.5986539 0.6636544 0.51760113 0.46388856 -0.23503481 0.57793576 -0.5161117 0.12581119 0.13714725 0.15183136 -0.011362085 -0.033337 0.3051205 -0.34922442 0.03848245 0.37928498 -0.31191665 0.27708662 -0.038749117 0.5232263 0.12707931 -0.14344102 -0.25928774 0.40140796 0.23619922 0.4130091 0.2546079 -0.24494159 0.35857514 -0.15414023 -0.31258598 0.15391345 0.69682884 0.15784842 0.15757254 0.117153175
62 -0.11479761 0.07931645 0.019952599 -0.42083472 0.3696789 -0.19722144 -0.58163416 0.09446019 0.5171917 0.011096594 0.3115066 -0.025320733 0.10788526 0.6296264 0.47779125 -0.58720225 -0.15959512 -0.20667659 -0.31934127 0.1473326 0.002625378 -0.4392333 0.25025767 0.1999135 -0.3596816 -0.09795282 -0.17400879 -0.28296018 -0.21222149 0.116203204 0.07268379 0.0551135 0.0159604 0.056857634 -0.116728485 0.037550457 -0.69642913 0.39622918 -0.09380313 -0.3890756 -0.060183544 0.17894503 0.052194513 -0.17390345 -0.26516 -0.14024241 -0.3085292 -0.06831138 0.26776302 -0.070505 -0.12357718 -0.07086597 0.44660884 -0.23784786 -0.0027065922 -0.025795462 -0.4721732 0.42409867 0.43336087 0.25350955 0.33126932 -0.14999877 -0.044688668 0.120665774 0.01864489 -0.034088414 0.01615507 0.2334323 -0.23649757 0.033570115 0.058148105 0.11414197 0.09672865 -0.1894439 0.14966021 -0.091819584 -0.2956664 -0.051392484 0.199771 -0.11650969 0.1813881 -0.06793373 -0.22719617 0.036240745 0.28489238 -0.10581243 0.34901342 -0.23454069 0.34903482 -0.08525658 0.25908348 0.17883353 -0.31312484 -0.34224892 -0.05428633 0.19099748 0.18848366 0.32847995 -0.18716213 -0.103883445
71 0.35225937 0.4324312 -0.2890018 0.2862794 -0.21638405 -0.092033215 0.68452173 -0.17691241 0.1305564 0.06665588 0.072886 0.24827453 0.10237568 -0.08909364 -0.09508304 0.14798935 0.3369982 -0.26057518 0.22053617 -0.41083458 -0.008096621 0.6018113 0.0008955478 0.26546305 0.3396331 -0.4234002 -0.11644182 0.14515178 -0.3638975 0.58106416 0.33213958 -0.26250482 0.88229465 -0.64804476 -0.2953403 0.29038075 -0.3104009 -0.41483927 0.13888386 -0.014797238 0.06773142 -0.023326041 -0.12813166 -0.43753684 0.3552405 0.09931288 -0.027630461 -0.34517998 0.07630557 0.46777034 0.01911522 -0.066124715 -0.27379924 0.4605137 0.43059132 -0.010002516 -0.123635426 0.3675765 -0.74042624 0.23778605 -0.18702371 0.04245723 -0.38214254 -0.042991746 -0.18695068 -0.0654127 -0.17066516 -0.44027984 -0.10731774 -0.20946088 0.071348764 -0.26279187 0.548311 -0.019337187 0.13827702 -0.1555448 -0.48551586 0.31268403 -0.1000087 -0.11507843 0.4846659 0.16110851 -0.050318345 0.3754677 -0.45435905 -0.045958232 0.35478583 -0.20849335 0.3478814 0.058752406 0.054471 0.023552878 -0.21220395 -0.36433756 -0.06288509 -0.20128545 -0.2830807 -0.25408602 0.6672676 -0.18976575
5 -0.2775012 -0.20866734 -0.37643978 0.044891447 -0.04430986 0.044009037 -0.36856684 0.55204904 -0.4849669 0.15556896 -0.24030468 0.144833 0.21038449 0.32879147 -0.3281683 -0.4959302 0.32385457 -0.12834649 0.20065193 -0.73087275 0.05902998 -0.50743735 -0.07577393 0.1852894 0.03027387 0.07121617 -0.054314017 0.54914653 0.0024253973 -0.014008171 -0.3354898 0.042603854 -0.057967197 -0.42969385 0.53558934 -0.15664977 0.20540568 -0.47596592 0.26138696 0.27811366 -0.22020324 -0.027374588 -0.23911361 -0.24672173 0.38534364 -0.32888475 0.23912355 0.65778524 -0.19490999 -0.016034188 -0.07121213 -0.034461647 -0.676678 0.4105175 0.12092129 -0.10748105 0.4854766 0.0026126162 0.21250448 0.0036101725 0.19219615 -0.5248269 0.2755515 0.3154792 0.04408734 0.26095363 0.17908558 0.4815541 -0.18625687 0.3969489 0.37694585 0.3671819 0.08922512 0.21010192 -0.18208778 0.25771856 -0.04395909 -0.013058937 0.09484437 -0.06625174 -0.39856592 -0.09657929 -0.15747648 0.2961414 0.15168518 0.2616011 0.18250473 0.3775083 0.4859142 0.63882184 0.1297708 -0.23161294 0.3057296 0.3907706 -0.1960149 0.5194576 0.37457645 -0.047959916 0.008797335 -0.02022721
79 0.05211079 -0.335821 -0.0010030575 0.46254218 0.28540877 -0.044132452 -0.17797697 0.9293793 -0.057188537 -0.15381174 -0.03539604 -0.10854163 -0.0035258813 0.12667811 -0.25776553 -0.4703507 0.03587579 -0.8041413 -0.71338487 -0.52196133 0.5471947 -0.104995295 0.276415 -0.18459031 -0.13243027 -0.17059757 -0.093244486 0.07802819 -0.32205084 -0.121585295 0.32647672 0.27321154 0.17772576 -0.035859082 -0.0013755077 -0.23616214 0.10006302 -0.41554537 -0.27344593 0.65676457 -0.23008904 -0.26198784 0.04250515 0.30754703 -0.12612894 0.09584654 0.6720928 -0.12911521 0.04149406 0.34857902 -0.04459496 -0.10780552 -0.19417132 0.43999836 -0.5572362 0.08216627 0.1435146 0.020431988 -0.4722181 0.5919884 0.9124664 0.23581015 0.37754577 -0.032466367 -0.048908394 -0.4046402 -0.31203115 0.10085378 -0.03386124 -0.50811476 0.13495012 -0.10673866 -0.22476158 -0.20235565 -0.21905449 0.11153738 -0.11744567 0.15378708 -0.29248825 -0.34439474 0.39829472 0.18971029 -0.43832418 0.24381246 -0.5832683 -0.055646252 0.56147283 -0.02282336 0.04847502 0.0034733848 0.081660606 -0.0765595 -0.071347095 0.01749739 0.42669192 0.32481557 -0.03715885 -0.56455356 -0.40528226 -0.5168657
21 0.23399769 0.013430005 0.4430374 0.12965222 0.2965983 -0.09232706 0.039087787 -0.5401366 0.20493677 0.013937644 0.30089238 -0.41053998 0.32918948 0.6423679 0.27397773 0.029240826 -0.50608385 0.15178752 -0.14721566 -0.07469767 -0.3793053 0.3878612 0.33851707 -0.13079698 0.40182513 -0.029038554 0.05143164 0.43539283 -0.2133905 -0.032532036 0.2027956 -0.13574466 0.017126348 0.2579481 -0.30114543 0.33036122 0.3599215 -0.0713397 0.15943357 -0.7303221 -0.40806794 -0.777154 -0.134986 0.6551743 0.4985108 0.42861637 -0.012832297 -0.12213402 -0.42450994 -0.3892394 0.29334897 0.12324502 0.2031149 -0.64798003 -0.41894224 0.13534398 -0.269394 0.15197253 -0.5607125 -0.16769555 0.27667063 -0.045115877 0.020921322 0.04159268 0.2539288 -0.1285608 0.109496325 0.29245028 0.15728636 0.6005607 -0.42655239 0.059934728 0.14662549 0.33837587 0.11778846 0.021609351 -0.6668593 -0.4458553 0.096580446 0.24203973 0.5866762 -0.5229238 -0.39827582 -0.45738557 0.54156303 0.019505763 -0.24931479 -0.48664775 0.34047642 0.5778435 0.34017077 0.2389552 -0.025476221 -0.3097715 0.12192968 0.27569893 0.07373122 0.24148357 -0.27925712 -0.43944213
55 0.47956693 -0.11823077 0.04613812 0.026919248 0.020028127 -0.44858226 -0.3711681 0.4232457 0.15074526 -0.23490204 0.28058234 0.3931232 0.019572891 0.2970982 0.22244854 0.46118656 -0.23820642 -0.15792125 0.05474791 -0.47799477 0.36363253 0.19068566 -0.1546512 0.043328807 -0.116183 0.4881012 -0.29049477 0.19921389 -0.078953885 0.5200266 0.07970365 -0.15447694 0.54382455 -0.29049534 0.089309916 0.13982211 -0.6209952 0.21420686 -0.28918445 -0.076430835 -0.108282365 0.035524253 -0.06373442 -0.21650442 0.11322753 -0.18642582 -0.007587601 -0.23312058 -0.15137233 0.40437526 -0.0841218 -0.0032450838 -0.45156845 0.5541834 0.81492513 -0.37979513 0.23242119 -0.28258598 -0.33752316 0.19717476 -0.33390325 0.0835231 -0.32703984 0.6615933 -0.18369764 0.2113669 0.343384 -0.034789048 0.024905585 0.5452386 0.22181354 -0.5418217 0.49391413 -0.22676398 0.25373805 -0.18331301 -0.11257396 0.3202922 -0.47536576 -0.41264156 0.062890984 0.058226187 0.14693955 0.49206263 0.15972114 0.23766156 0.2569271 0.49940434 -0.3907038 -0.27793878 0.2076697 0.06863062 0.17249198 0.006537426 -0.0879738 0.29358172 -0.22118875 -0.15507652 0.058492884 0.29569826
0 0.26210636 0.023823107 -0.31819606 -0.43848932 -0.4283129 -0.034279533 -0.02264123 0.189199 -0.25457838 -0.052500788 -0.31865507 0.27618197 -0.009385513 0.41093165 0.010382136 0.22382542 0.33840176 -0.24448223 0.5225207 -0.3961322 -0.18346217 0.163242 -0.10645016 0.09449884 0.19101273 0.024472924 0.33124533 -0.058219075 -0.21403874 0.6557674 0.29980615 0.019607533 -0.1429678 -0.3038296 -0.32902187 0.22221163 -0.044022575 0.014341171 -0.07911415 -0.24035968 -0.5935036 -0.04169784 -0.31157827 0.06968984 0.54595715 0.1954868 -0.3744718 -0.08893797 0.13926145 -0.093024686 -0.389566 0.1590918 -0.03704425 -0.24276263 0.35294464 -0.0338867 -0.24297422 -0.22719029 -0.24056828 -0.10435612 -0.21658455 -0.4363536 -0.27637413 0.4715185 -0.2942061 0.11492863 -0.134419 -0.41188395 0.23005268 0.17766935 0.40475166 0.05940704 -0.26782238 0.23022954 0.10018588 -0.041121505 0.19034672 0.09184332 -0.03444524 0.064812385 0.53284025 -0.55268943 -0.014882808 0.21507792 0.25893876 0.22289714 -0.100567386 -0.05605917 0.30408055 0.6098472 0.5493643 -0.04030613 0.1040215 -0.04598583 -0.4909374 0.12750085 -0.10940835 -0.4053442 0.44866455 0.11265638
58 -0.091258034 0.16068578 -0.09158555 -0.21190551 0.2442351 -0.20118448 -0.11201334 0.6102608 0.3630351 0.11542444 -0.11356011 -0.14879474 0.09652608 0.4487959 0.02411699 -0.1691194 -0.27832314 -0.05801769 0.0046810587 0.4408677 -0.27846652 -0.039845567 -0.2673008 -0.19737317 -0.0762102 0.13175337 -0.18378401 -0.0791904 -0.17803441 0.11158483 0.019600073 -0.3571665 -0.09441464 -0.28849024 -0.058337547 0.20495906 -0.008849903 -0.032974914 0.35574314 -0.15750973 -0.0001626837 0.16445975 0.047650542 -0.37254897 0.3064172 -0.093337834 0.032769542 0.5303955 0.42968002 -0.13403974 -0.15447293 0.07121828 0.0031645852 0.030316152 0.26284254 0.17656784 0.5096391 0.4012696 0.09159025 -0.41518608 0.2158088 -0.16672307 -0.039720606 0.15165095 0.45027274 -0.025350988 0.026019383 -0.028798578 -0.025358792 -0.08408161 0.17192379 0.07159766 0.198144 -0.019141605 0.30356824 0.06588729 -0.258024 -0.13223425 -0.10446705 0.5449872 -0.3707224 -0.19044478 -0.23991112 -0.05485607 0.27298078 -0.29597664 0.18875438 0.91851074 0.30036536 0.5751635 0.4633506 0.2935715 0.166473 -0.33066067 0.31635016 0.14639038 -0.139029 0.36480364 -0.06340263 0.23848765
50 0.7458065 -0.005141198 0.034228116 -0.26153612 -0.5078868 0.20124373 0.15498644 -0.23383838 -0.22817172 0.272402 0.21562903 -0.11708557 -0.26247394 -0.11807443 0.016367467 -0.24852051 -0.19152611 0.059880476 -0.12805384 0.3155204 0.19887906 -0.021813199 0.5441829 -0.5742227 -0.22037968 0.12245641 0.1692585 0.13228177 -0.2508351 0.52184117 0.4508561 -0.6038032 0.5645824 -0.7335241 0.011894888 -0.0022556172 -0.3908157 0.22533368 -0.29941347 -0.17592907 -0.18240106 -0.23591013 -0.23773436 0.25353837 -0.0142842 -0.32435727 -0.13337587 -0.22959778 0.21958677 0.15718241 0.6608516 -0.16603224 -0.032890867 -0.1868222 0.25797623 -0.048878364 0.3459466 0.39583102 -0.24325107 -0.3824508 -0.38444033 -0.16862051 -0.29804352 -0.25442404 -0.41123652 0.58198965 -0.01967508 -0.01798086 -0.28811705 -0.2062882 -0.84528047 0.083613075 0.36504516 -0.12562276 0.28591883 0.1350932 -0.17754461 0.026724579 -0.13490759 0.3023657 -0.4755285 0.12830761 -0.40617043 0.077676445 -0.13136673 -0.6534954 -0.3958343 0.134384 -0.23570652 0.60977215 0.2653909 0.26672438 0.08488621 -0.8415241 0.39494878 0.036822204 0.48304397 0.45012462 0.042954378 -0.53393996
85 0.28094402 0.35400668 0.3361904 -0.57879907 -0.13044451 0.43413067 0.17019343 0.022590434 0.10099985 0.36534348 -0.13101643 -0.34455675 -0.034669958 -0.10685411 0.38326085 0.07100594 -0.148873 0.55195916 0.2058889 -0.27087343 0.27957356 -0.077220134 -0.040563893 0.420499 -0.6475695 0.30752838 0.0018173252 -0.29888746 -0.17356044 0.08677217 -0.6408216 -0.38037091 0.38000154 -0.9370641 0.09606736 0.22977516 0.2844002 0.4840137 -0.5446677 -0.09133215 0.025759878 0.3580617 -0.05404096 -0.05031263 0.121728644 -0.67365634 -0.3094968 0.44358662 0.32831407 -0.14819972 0.14449766 -0.1406764 -0.25501007 -0.29472995 0.2600086 -0.24586158 0.013698797 0.20793873 0.7129611 -0.57858056 -0.727942 -0.11876521 -0.2498461 0.41559935 -0.29528525 0.47494155 -0.0593424 0.44628957 -0.37352428 -0.1333478 -0.15518178 0.44392627 -0.0043612854 0.3517002 0.4686128 0.17037734 -0.04469353 0.028046891 -0.1547044 0.12636454 -0.4131834 -0.419841 -0.06734246 0.13854477 -0.16582197 0.19129497 -0.024362316 0.6501857 0.18806747 0.23891963 0.043593146 0.09244857 -0.11891579 0.03285342 0.10604664 0.2004448 0.377886 0.83199537 0.099939056 0.013243353
82 -0.049212303 0.090087295 0.37137738 0.10182744 -0.07106958 0.21940659 0.50095284 0.10543925 -0.34962365 0.24413048 -0.13336885 -0.05193425 -0.49887794 -0.41466892 0.36771983 -0.003738483 0.06645003 -0.06725296 0.12220595 0.09020163 0.36557955 0.40197575 0.5906971 0.014256226 -0.03197177 0.49144349 -0.5917284 -0.2315276 0.03420537 0.07210676 -0.0009786492 0.35786614 0.49800628 -0.09140809 -0.13096358 -0.42274454 0.04009792 0.043095153 0.0019539201 -0.3512357 -0.017466793 -0.1435425 0.14640021 0.58227116 -0.068585426 -0.32610077 0.30352756 -0.28316432 0.19591482 -0.09187664 -0.73000103 0.13319875 0.25876608 0.012715594 0.34130517 -0.0009923227 -0.6337416 0.31136706 -0.12179915 -0.11609316 -0.11519223 0.10308003 -0.31882894 0.19363073 -0.2742691 0.23665266 -0.22981507 -0.04616573 -0.5427306 0.584789 -0.60244024 0.39983645 0.4866467 -0.65776485 0.015536407 0.14392845 -0.08663823 -0.10830629 -0.36003852 -0.25253397 0.29499924 -0.1450451 -0.038550273 0.08786882 0.002361486 -0.44609752 0.2167582 0.21417576 -0.42903355 -0.6418378 0.106695235 -0.6075182 0.11927382 -0.12244184 0.3237433 -0.25364313 0.6652833 0.4027801 -0.31760812 -0.19981705
87 -0.28326234 -0.28596422 -0.060676295 0.5095804 -0.18377255 0.21410361 0.060987648 0.3596176 -0.55043644 -0.15674023 -0.12659284 -0.12614028 -0.032755796 0.5452201 0.24740885 0.18244952 -0.2219713 0.0023849679 -0.24633358 0.010078236 0.49316373 -0.33474877 0.07894626 0.35067472 0.74284405 -0.018752374 0.1357432 -0.18161057 0.24083361 0.23791796 -0.09762844 0.31499025 0.8209227 -0.14335695 -0.10200516 0.35050285 0.45025477 0.35199502 -0.29840755 -0.17123015 0.2886908 -0.20859481 0.2463867 -0.40847972 0.024120474 -0.21738741 -0.20359975 -0.30683908 0.6606999 0.39373916 -0.39922258 0.02666717 -0.18260767 0.15736577 0.22320423 -0.08904041 -0.12650277 0.14174849 -0.19009078 0.041423526 -0.17968963 -0.39516884 0.08285101 0.3890135 -0.74659306 0.40953806 0.009205318 -0.07733712 -0.1853714 1.1691508 0.35238564 -0.34969074 -0.030668832 -0.066368625 -0.21034965 -0.5038048 0.5364712 0.21364038 0.6016439 0.31765136 0.6161219 -0.10796523 0.24919139 -0.09388895 -0.26159608 0.118077256 0.2578469 0.25395757 0.011942085 0.33331865 0.23648012 -0.1103141 -0.091490604 0.37236434 -0.28543392 0.2904746 0.06563163 -0.72396785 0.2687519 0.24666649
68 -0.12357623 0.1992385 -0.45713103 -0.2698459 -0.34456238 0.005311036 0.047781754 -0.19055118 -0.23589265 -0.51659024 0.18932061 -0.30160886 -0.115104586 -0.13332158 0.2403411 -0.34282473 0.4557764 -0.7898773 -0.11208571 -0.12260436 0.084355935 0.15901154 0.33605462 -0.020852549 -0.014732408 -0.006000464 -0.10472608 -0.620759 -0.16052862 -0.25447664 -0.32474643 0.012364109 0.52059096 -0.25004777 -0.07407867 0.32884467 -0.78311974 0.058521293 -0.09616084 -0.33624074 -0.23429179 -0.14398076 0.2704746 -0.24768128 0.26150444 -0.0059169778 0.07695215 -0.356345 -0.029280147 0.097972065 0.058585014 0.18587837 0.07525539 0.33639845 0.7109864 -0.7570319 -0.383987 -0.22519132 -0.4639608 -0.072118506 -0.033631597 0.13570277 -0.21739395 0.47062436 0.03965685 0.044458907 -0.16824356 -0.07697692 -0.4642273 0.27170953 0.120039515 0.078250825 0.6634061 -0.4022819 0.007325128 0.20615463 0.017624218 0.22320437 -0.06228601 -0.5177691 0.121147506 -0.1865937 0.026280582 -0.01661615 0.4461365 0.010427208 0.105635576 0.054852404 0.024574358 -0.07178764 -0.17045923 -0.017253032 -0.07880666 0.052546825 -0.13536374 0.15226473 -0.39594632 0.3666581 0.31699175 -0.40239498
72 -0.27627146 0.06355176 0.026657073 -0.083267115 -0.16068771 -0.5716021 -0.43106055 -0.36963508 -0.18029194 0.11365338 -0.42548263 -0.5132655 -0.48718566 0.12251661 0.08529731 0.14751436 -0.37904042 -0.29749408 0.62388027 -0.07195706 0.19598538 0.22163434 -0.16132513 -0.37984157 -0.013208892 0.40771702 -0.23413059 0.14879607 -0.0022417763 0.10985823 0.62346405 -0.13314883 -0.326585 -0.2784066 -0.24923547 -0.18705386 -0.023901934 0.3024745 0.1736471 -0.122662775 0.13032076 0.09979814 -0.33204255 0.3016497 0.33026564 0.012163268 -0.5588467 -0.3432578 0.5816236 0.009156496 -0.13098568 0.101617634 0.58460623 0.14792438 0.32374886 -0.048243016 0.1927211 -0.54438794 0.47424302 0.10779912 -0.36972937 -0.0776331 -0.16454406 -0.09778577 -0.36625388 0.14125976 -0.118007995 0.17536694 0.046313338 0.6708683 0.04962776 0.028312689 0.24546604 0.057424158 0.26811182 -0.006574614 0.07064413 -0.34961322 0.29641232 -0.19102399 -0.6412695 -0.01728994 -0.14415398 -0.072628975 0.24315406 -0.23795454 0.1158016 0.12296691 -0.046426877 -0.24666347 0.2017537 -0.05019914 0.2867416 -0.39199176 -0.23364754 0.11400332 -0.13560241 0.2028297 -0.022252528 0.28231466
22 -0.40529925 0.3564822 -0.38720873 -0.5811939 0.05392159 -0.4266322 -0.013023926 -0.009927408 -0.011852138 -0.2249781 -0.019071471 -0.7389015 -0.04757469 0.49255133 0.035720296 0.041446317 0.21262808 -0.19984387 -0.17000616 -0.3002724 -0.41644222 0.37731013 -0.28368902 -0.49757174 0.08800709 -0.4086506 0.40050018 -0.069167465 -0.32385224 -0.7019576 0.07883377 -0.15727702 -0.28576702 0.19244893 -0.52238387 0.25141105 0.687033 0.27808166 -0.27244285 -0.25506878 -0.08895197 -0.14335412 0.37793353 0.10211937 -0.33573452 -0.17537363 -0.11437252 -0.029983655 -0.0031660553 0.24946195 -0.012623806 -0.05991257 0.45592466 -0.041340522 -0.16249011 0.32624817 0.6099359 -0.055897564 -0.6337465 -0.0025478993 0.115279675 0.0055483016 -0.034272976 -0.0102988025 0.10735428 -0.33620888 -0.59033495 -0.1325987 -0.18620843 0.34605634 0.5530291 -0.20877269 -0.027657019 0.58085537 0.15358543 -0.05952153 -0.0968318 0.47764185 -0.4906056 -0.5638551 0.19889721 0.20263888 -0.6760898 -0.074617356 -0.011757124 0.4467828 0.015394285 0.2585185 -0.2554239 0.4550244 0.28575358 0.3078992 -0.37527305 0.28694162 -0.09801737 0.002812183 -0.11373994 -0.24827996 0.45716533 0.054821465
91 -0.34421414 0.12532282 -0.28996816 -0.34135294 0.15943392 -0.17877215 0.47101542 0.17905584 -0.17300272 -0.036181748 -0.029861894 -0.25814044 -0.37284836 -0.78577065 -0.17260937 -0.53721756 0.26993895 0.08321385 -0.14436106 -0.41244853 -0.018878069 -0.3411869 -0.099948816 -0.2977647 -0.54273415 -0.20487411 -0.06614739 -0.2407904 -0.24889882 -0.3428222 0.21888015 -0.21459104 -0.0068310597 -0.2208364 0.18141268 -0.5020297 -0.098907635 -0.17740715 0.25926477 0.087078676 0.5238314 0.12454801 0.248617 -0.38520667 0.028660174 0.08489949 -0.12909807 0.22986788 -0.16101328 0.58928853 0.0851788 -0.29472494 0.33201596 0.1002686 -0.59352225 0.06441323 0.040217135 0.13303034 0.18177862 0.25354353 0.26963657 0.059064865 0.29486394 -0.4395517 0.1795691 0.21421161 0.0069690384 0.39464298 -0.5985152 -0.056573324 -0.10914896 0.53092235 0.3557856 -0.34324068 0.5275661 -0.121560335 -0.006341678 0.15885763 0.15905105 -0.35949108 -0.58482575 0.42023894 -0.47960958 0.43904516 -0.734228 -0.4656667 0.24707301 -0.17053476 -0.12830158 -0.61127234 -0.11343018 -0.037609097 0.10353644 0.16394305 0.34991324 -0.28884557 0.24522918 -0.31818178 -0.36965477 -0.072052374
16 -0.07992592 0.25380108 -0.43169498 -0.41650504 0.03136321 -0.14176896 0.08737312 0.5364266 0.21627708 -0.5472258 0.050783634 -0.89170724 -0.2150498 0.20039423 0.31616318 -0.10599961 0.010444447 0.13395229 0.5210809 -0.2922101 -0.0218072 -0.05103515 0.21060383 0.17536625 0.016328553 -0.043568738 -0.07706539 -0.7665223 0.2971573 -0.05693393 0.12862265 -0.28667223 0.26195398 -0.53231704 -0.06937637 -0.08188361 0.3303604 0.18237792 0.11695218 -0.8324595 -0.20986037 0.16299184 -0.3731569 -0.34508651 -0.47926202 0.029880304 0.09448531 0.0975903 -0.26880062 -0.047288265 0.053025298 -0.3147115 0.21602696 -0.12049392 0.21154198 -0.037877534 0.3578141 -0.26120526 0.0002458392 0.29518172 0.08421449 -0.09569536 0.4802249 0.032129582 -0.5122461 0.11634354 -0.04584808 0.022130772 -0.07192342 -0.4106829 0.63737845 -0.16904409 0.10893652 0.7010927 -0.25592923 -0.35437256 -0.10531809 0.22679658 -0.080299884 -0.18783818 0.32070532 0.0798823 0.51220834 -0.3061894 -0.025342803 0.33071706 0.1643552 -0.091469795 0.030486943 0.12798451 0.4375215 -0.05863439 -0.51768744 0.25258803 0.4282759 0.49157575 -0.5747126 -0.80081314 -0.032859247 -0.19953693
39 -0.25400117 0.45547318 0.0153752295 0.0742048 0.19808558 -0.1605644 -0.01088232 0.28593072 -0.6635817 -0.29908016 -0.3719724 -0.4993282 0.31805053 0.08557854 -0.009107662 0.30015302 0.25991872 -0.42147332 0.66971284 -0.42605904 -0.119326234 0.5810015 -0.8286625 -0.254438 0.09249722 0.43466088 0.17061938 0.05729549 -0.14498249 -0.02088655 0.025649926 0.14852226 -0.73085266 -0.11737469 -0.4690407 0.64335567 -0.11173967 -0.2558843 0.380823 -0.54781806 0.24217035 0.02487354 -0.13735762 -0.28729594 0.47246197 -0.15498245 -0.025117427 -0.92574173 0.026220344 -0.21193655 -1.1245267 0.1040829 -0.06387948 -0.2029459 0.67803615 -0.10854238 -0.5277634 -0.5021542 0.7226834 -0.50207114 0.34138918 0.012295169 0.12935805 0.20085497 -0.62647086 0.2728269 -0.19556507 -0.12625006 0.26623812 0.118440315 0.2720654 -0.17149007 -0.009376211 0.007606085 0.27630836 0.6667395 -0.4972086 -0.30476817 0.08177899 0.3178275 0.5892939 -0.51254916 -0.2581754 0.39824858 0.15560518 0.0151070375 0.43388507 0.4023265 -0.13862416 -0.06746788 -0.5288134 0.11288984 0.15547095 0.21053044 0.21237849 0.05047727 -0.49964577 0.109902196 -0.11109964 -0.23313472
81 -0.11887913 0.2831474 -0.15370928 -0.56630796 0.40035966 -0.53443503 -0.107381396 0.5249497 0.42776418 -0.069927596 0.009290333 -0.13152777 0.35511985 0.6151402 0.77000517 -0.16356823 0.091969684 -0.11905026 0.40139315 -0.050235398 0.22081223 0.33877733 0.43637758 -0.068704635 -0.05429048 0.09099266 -0.07851509 -0.2145314 -0.18547788 0.12869364 0.28982916 -0.121710606 0.13899592 0.18989752 -0.09718712 -0.053312737 0.16769339 0.30797252 -0.44338134 0.18003736 -0.21031977 0.074729115 -0.15044466 -0.035955768 -0.27715358 0.18028046 0.13847342 -0.10294984 -0.075686246 -0.20033343 -0.11540989 -0.2556803 -0.112135746 -0.3842314 0.05143926 0.29638508 0.2820534 0.11256154 -0.37251395 0.06029082 0.17882377 -0.13118087 0.07160945 0.4434319 0.25918564 0.22231744 -0.23524192 -0.38408047 -0.19803806 0.10635399 0.023934273 -0.22227971 -0.046528894 0.1880606 -0.10598737 -0.50372726 0.08474193 0.22175251 -0.1948618 0.38412526 0.30118266 -0.08043375 -0.079250336 -0.2539603 0.07882127 0.15478665 0.18124224 -0.007847956 0.26793343 -0.0038604683 0.6129705 0.11760298 -0.4059577 -0.031508822 0.06264767 -0.13600896 0.15644872 -0.022545129 -0.49365124 -0.039832022
49 -0.52976876 0.30765954 -0.25068876 -0.35012883 0.3345663 0.32890636 -0.14826138 0.28370947 -0.18259397 0.027911877 -0.13439146 -0.4573742 -0.043179937 0.019973427 0.38007426 -0.32416663 0.24738562 -0.39627722 0.38037434 -0.26716822 -0.0103189675 0.00642874 0.33274713 -0.4053373 0.19276692 -0.21859306 0.057223752 -0.54938966 -0.026160536 -0.085261755 0.20963484 -0.2807032 0.114513814 -0.21975344 -0.19941665 -0.16773096 -0.043508925 0.102121904 0.45255873 -0.55463153 -0.16049527 0.23547202 -0.2954786 0.32664514 0.3222718 0.071575746 0.35689563 0.0037427405 0.34611687 0.0058933785 -0.38433656 0.06827597 0.20760815 0.3875045 0.29481664 -0.012650405 -0.16005212 0.06877927 -0.16127612 -0.10214924 0.16649337 -0.027348017 -0.40019852 0.45723072 0.04187961 0.26594788 -0.4946267 -0.3301064 0.011048983 0.12177579 0.24988651 0.14768188 0.5306068 0.10442626 -0.4444778 -0.058358986 0.5226564 -0.53660375 0.28646556 0.14926745 0.3401375 -0.47973332 -0.13759327 -0.6569952 0.24973735 0.14218159 0.0012446891 0.07861369 0.39466217 0.48100802 0.3515344 -0.30820248 0.17248566 0.42635584 0.02568219 0.2868385 0.029011898 0.38452497 0.26131007 -0.43913734
74 0.2956765 -0.099035636 0.07064028 -0.15182647 0.22643983 0.1622812 0.31844443 0.086959995 -0.34331685 -0.077960305 0.2567786 -0.22833121 0.27626437 0.29007408 0.303174 -0.557164 0.2916341 0.0821478 -0.27595544 0.13014723 -0.49620184 -0.06942559 0.04311542 -0.49220216 0.47408363 -0.13612743 -0.024209816 0.43456396 -0.1830447 -0.10466373 -0.1662308 0.22398542 0.021665318 -0.0006364362 -0.0037566407 -0.1333676 -0.24382758 -0.45246533 -0.033216756 -0.2816181 -0.22542796 -0.53095835 0.17866072 0.14410746 -0.3952816 -0.2326318 -0.25470388 -0.17963028 -0.33505946 0.25714722 0.30551195 0.09430378 -0.17908986 -0.4356028 -0.045333974 0.23274806 -0.0051116184 0.8537924 -0.43047014 0.35965815 0.12908357 -0.343495 -0.00549192 0.14508586 0.222814 0.21529211 -0.03533543 -0.25808144 -0.29881686 0.119929716 -0.23881681 -0.15250605 0.20205128 -0.27516076 0.06744846 -0.32553494 -0.017916193 0.39523232 -0.19585012 0.14288372 -0.24538694 0.11609888 -0.40725186 0.17299385 0.03439095 -0.15698902 0.6109281 0.17451032 0.056067765 0.2723108 0.29284623 0.45389193 -0.23550105 0.03679394 0.54242885 -0.28399548 0.4626861 -0.25501418 0.4107843 -0.12663797
96 -0.04829951 0.12547901 0.12603456 0.21953575 -0.2177817 0.19714329 0.118318826 -0.04247991 -0.12964723 -0.1280674 -0.20870186 -0.16739157 0.35311767 0.4440206 -0.27216786 -0.19969413 0.32599255 0.39852867 0.14614514 -0.99664986 0.3173371 -0.3142386 0.2114255 0.27164477 -0.6069677 0.010222265 -0.07881809 0.14648886 -0.2946055 -0.35352832 0.17458586 0.36372432 0.4246338 -0.5189763 0.20698003 -0.18613738 0.37385353 -0.004528021 -0.032553624 0.010291778 0.15690085 0.23630092 -0.34273332 -0.51083636 0.15692645 0.12088363 0.3360269 0.49786758 -0.20410378 -0.5420426 0.24823654 -0.20318688 -0.28072587 -0.21030557 -0.06281682 -0.35865676 -0.72896683 -0.4286274 -0.114604406 -0.16722712 0.24698131 -0.005498298 0.4426142 0.48371613 0.05061327 -0.6873459 0.30560276 0.4966925 -0.45022053 0.97938454 -0.07239911 0.03957535 -0.1883176 0.29454386 -0.09501826 0.016311854 -0.4108456 -0.11119845 -0.4382145 -0.4638687 0.056143086 -0.19155326 -0.11390577 0.37871748 -0.44411662 0.113297805 0.34289575 -0.3719661 0.08376816 -0.0511666 0.093840376 -0.6870228 -0.066167325 0.52753145 -0.48418483 0.3510362 -0.3128259 0.27156338 0.10286309 -0.08040906
97 -0.33746997 -0.47061422 -0.37080684 -0.016748823 -0.06544641 -0.6364512 -0.520529 0.08529761 -0.16099656 0.023631638 0.26425886 0.08956267 -0.32550395 0.645357 0.17800045 0.014444366 0.11670869 -0.7856464 -0.15243497 0.39665213 0.34516215 -0.16601975 0.6560512 -0.0027364346 0.05064515 0.042387523 -0.061636947 0.0872517 0.029328473 0.33855212 0.64999825 0.058515746 0.1421656 -0.6198099 0.49788603 0.30326724 -0.54141957 -0.25467864 -0.41116735 0.017990727 -0.40823904 0.029534616 -0.21145338 -0.07417447 0.45132846 0.31568757 -0.32219428 -0.19501923 0.13716829 -0.2059737 0.6546479 0.09164251 -0.17835678 0.14664334 0.03194207 -0.22140045 0.197791 0.25585404 0.24108088 0.3187306 0.10622101 -0.2707293 0.2186833 0.004992427 -0.18841994 0.09648694 -0.108049065 0.26701364 0.08334106 -0.22278242 0.01689579 -0.1963506 0.17898807 0.051423166 -0.0053480146 -0.13187736 -0.21089686 -0.24819638 0.31433773 -0.13442007 -0.4270253 -0.25179893 0.07498545 -0.16362102 0.27695513 -0.1340812 0.6128361 -0.054069772 0.0036218185 0.3486806 0.7049662 0.18996385 -0.34689456 -0.49847797 0.17081279 0.19238283 -0.009267646 0.14893398 -0.4493937 -0.23422593
3 -0.0362482 -0.092366725 -0.5465821 -0.15732704 -0.13363917 -0.42430553 0.25803563 0.36432853 -0.42744935 -0.113453 -0.19270366 0.0758611 -0.40475813 0.38693842 -0.5006574 0.10147164 0.24530831 -0.6847114 0.06563931 0.3509745 0.13259405 -0.26585883 0.61365175 0.18083021 -0.11881344 -0.15347803 -0.0022331497 -0.3826368 0.23366477 0.44773158 0.52127916 0.27763316 0.45264843 -0.6116115 0.14384434 0.053778835 -0.1966291 -0.07391953 0.18230276 -0.049655445 0.34535336 0.11955223 -0.023376925 -0.5656336 -0.036679678 0.08444067 -0.03153183 -0.30940974 0.65817857 -0.32304966 -0.4469397 0.13578884 0.38226572 -0.3393252 0.6484095 -0.033901554 -0.028759671 0.3941017 0.5746474 0.2178734 0.623879 -0.80493677 0.41799328 0.19833845 -0.7635827 -0.23519923 -0.24788295 -0.11396455 -0.54843193 -0.037672434 -0.551655 -0.46799254 -0.037348703 -0.037091494 -0.12357156 -0.47322035 -0.45332408 -0.20098439 0.34797168 0.48664144 0.22516742 0.44397843 -0.031381555 -0.09187854 0.0031743885 -0.77437174 0.7402178 0.5444143 -0.0251534 -0.13534045 0.06940839 -0.21467377 -0.11230729 -0.033631798 -0.051421784 -0.47896433 -0.4198627 0.05802469 -0.16723897 -0.43836284
92 0.4740988 0.107776985 0.30276737 -0.16811314 0.31454277 -0.5389391 -0.30255157 0.44597295 0.2117349 -0.47077563 0.34027362 0.41711834 -0.18376826 0.04898001 0.5164031 0.6827661 -0.4709245 0.102720656 -0.37896642 -0.30798903 0.25938573 -0.07260529 -0.13612834 0.21391767 -0.070103444 0.25557175 0.06632156 -0.080867745 0.4664143 0.19166154 -0.17275916 -0.027008949 0.10154143 -0.15759109 0.13639273 0.524129 0.3027932 0.3939173 -0.06888884 -0.5461268 0.05241877 -0.1229 0.18890318 -0.19543065 0.19924745 -0.09292491 -0.0741016 0.24842577 0.049453944 0.26273945 0.016975163 0.044042613 -0.028062291 0.042309273 0.10587905 -0.32378414 -0.33871314 -0.34316748 0.13059229 -0.6466035 0.00422144 0.75690645 0.008244042 0.17074247 -0.007820452 0.49712896 0.54949796 0.3126659 -0.33936596 0.29968783 -0.007931242 -0.02974255 -0.084869094 -0.1598727 0.09590105 -0.3412643 -0.16382545 0.07021575 -0.36434153 0.073201016 0.16594872 -0.13293277 -0.27571756 -0.03154363 0.5245313 0.14396398 -0.35439867 0.14595503 -0.14411443 -0.10324608 -0.10981249 0.089275286 0.2734765 0.22858544 0.7135491 0.11652478 -0.55427223 -0.28346854 -0.5451082 0.026231598
31 0.38517898 -0.13305186 -0.06846287 0.19504443 -0.40173295 0.12605095 0.24634176 -0.09641471 -0.6680326 0.28645962 -0.7181006 -0.5926445 -0.08917643 -0.7777747 -0.34455433 -0.28556845 -0.09076911 0.11024938 0.20679373 -0.33551878 0.51409477 0.17373115 0.15015137 0.26667148 -0.16722004 -0.12297462 0.17939407 0.23047684 -0.09767637 0.022672256 -0.18560906 -0.51400435 0.23666519 -0.6164903 0.12057831 -0.18006207 0.015501036 -0.26562616 0.03721776 0.33754122 -0.0008397727 -0.30636457 -0.052682854 0.4449361 0.1846195 -0.111597985 -0.28967947 -0.3494808 0.0911892 0.121011764 0.16864832 -0.57773453 0.05730832 -0.2947342 0.016401557 -0.04106436 0.061216854 -0.36233068 -0.055449534 0.26384884 0.040450044 -0.13778779 -0.0444722 -0.24051762 -0.7475785 0.36183995 -0.09586671 0.93432677 0.06208003 0.005759964 -0.3671828 -0.031239692 0.3284137 -0.14674628 0.27067044 0.40418667 0.06460195 0.11860517 0.22326419 -0.30013886 -0.31381837 0.36248213 -0.35444614 0.15344478 -0.40809923 -0.23116747 -0.17429787 -0.16961908 0.22220121 -0.36146915 -0.10462486 -0.256721 0.042859722 0.14131549 0.18944007 0.2034912 0.14230978 0.26017666 -0.31983832 -0.46708503
53 -0.49093744 -0.044006236 0.2065888 0.14903566 0.4165721 -0.3779685 0.25379816 0.34182158 0.037367128 -0.18922994 0.21020581 -0.15828711 0.021786405 0.06533663 0.4412376 -0.116783045 -0.111056305 0.16531044 0.2056693 -0.06228445 -0.03679641 0.025509143 -0.20147495 -0.3994604 0.20381905 -0.23391858 -0.44432852 0.16787706 -0.2508063 -0.1618615 0.53825104 0.0843015 0.15157445 0.007999776 -0.021569856 0.13600971 -0.16757911 -0.3189293 0.18281943 -0.117815316 0.5826517 0.0520404 0.14679775 -0.26733515 0.34893385 0.06015409 -0.034665845 0.20537908 0.09845444 0.14844948 0.31146368 0.055426028 -0.044346835 0.64129615 -0.4686761 -0.006121907 -0.11966788 0.04284238 -0.23857963 -0.054365437 0.26019105 0.41027462 -0.034426328 -0.09542561 0.34324658 0.29181147 0.3339759 -0.26030084 -0.15010862 -0.053795855 -0.05446166 0.116800286 0.5577318 -0.07758381 0.29324237 0.053827774 0.23016636 -0.24193619 0.42220047 0.54793286 -0.064459935 0.0066408953 -0.15768635 -0.011597569 -0.40391934 0.19018358 0.49980456 0.086073555 0.25468147 0.13452488 0.40611318 0.14007664 -0.07019844 -0.39751765 0.12326506 0.15526173 0.13053684 0.121547036 0.49161026 0.057228904
26 0.03244584 -0.02736292 -0.03710172 -0.03333698 0.17850174 -0.27615836 0.26581118 0.08238792 0.27745247 -0.46449956 0.12593873 0.22552297 0.07074233 -0.38679498 0.028219054 0.4403677 0.41269606 -0.32470188 -0.4530372 -0.27077898 0.20846622 -0.031214764 0.11711887 -0.01900414 -0.29602298 0.07225576 0.08534905 -0.4267796 -0.05291174 0.075513974 -0.13694191 0.43089518 0.3244152 -0.2547409 0.035407398 0.52267426 0.022190457 0.002715333 -0.31965208 -0.09652846 0.08109535 0.07989555 0.19319004 -0.42704004 0.6380927 0.37625045 -0.026119122 0.22844306 0.45852232 -0.4555164 0.3447163 -0.26218292 -0.25790215 0.122938976 -0.27904844 -0.250196 -0.55974704 -0.25122818 -0.012580771 -0.23086661 -0.09211323 0.5875297 0.07705642 0.17056005 0.485816 0.09262406 0.06580899 0.22738816 -0.22428979 -0.037052605 -0.33688807 0.43236795 -0.28967535 0.008443353 0.1955395 -0.29140943 0.17093275 -0.3634203 -0.6130667 -0.4265805 -0.1744959 -0.24769017 -0.2797024 0.23396708 0.018437825 -0.37718505 -0.22885662 -0.073483914 0.46911773 0.036218982 0.15024213 0.08658644 0.015477518 0.39981163 0.27877513 -0.1622995 -0.23578131 0.019534044 -0.38672128 -0.004186713
98 -0.5833838 0.47845837 0.1314287 0.20523687 0.21366853 -0.28224584 -0.17236024 0.79157054 0.00881618 0.2552124 -0.023710689 -0.18870322 0.07081212 0.07305248 0.42835078 -0.7425338 -0.23731661 -0.054061133 0.512124 -0.13121325 0.39081234 -0.16205135 0.13425452 -0.32904655 -0.09763407 0.37783295 -0.8023245 -0.30924484 -0.24886118 0.18297394 -0.21992522 0.04665375 -0.04643616 0.2155468 0.0030560854 -0.19675069 -0.33491302 0.19693473 0.33741707 -0.29266387 0.23087879 0.0050030337 0.23196176 -0.02157358 -0.4210363 -0.38443956 0.4458777 -0.017425656 0.11685546 -0.16769703 -0.41053054 0.026536345 0.4380497 0.33540857 0.41150698 -0.23525406 0.42220977 0.27540052 0.24209656 0.28305405 0.1429088 -0.108356655 0.34941328 -0.062336616 -0.06577275 0.43180925 -0.108200446 0.092411004 -0.28093988 -0.17678463 0.14502239 -0.013898456 0.5999963 -0.21912554 0.18068492 0.18200004 -0.38555476 0.25644702 0.21745817 -0.16957693 0.2731522 0.4210314 0.2800675 -0.05802078 -0.06756956 0.1512742 0.4533997 0.2826281 0.3929899 -0.055838834 -0.048497476 -0.04533811 -0.24021643 -0.6985048 0.21562949 0.44397438 0.10015671 0.19521397 0.22279084 -0.2783641
34 -0.14987677 0.029098071 0.1040446 -0.23426943 -0.09652817 -0.38311315 0.5530792 0.017763384 0.18483752 -0.3999544 -0.29317614 0.123942405 -0.3124522 0.07489739 0.315453 0.16388766 0.086518645 -0.008733578 -0.20710804 0.6884854 -0.045474138 0.44057778 -0.07834455 0.26555085 -0.14186642 0.8164573 -0.5555581 -0.25347412 -0.5889749 0.30341056 -0.24086308 0.13619404 -0.7020754 -0.60330254 -0.013474601 0.2601816 -0.35130414 -0.08855935 0.21092142 -0.035398792 -0.45158717 -0.031704366 -0.051151663 -0.6936107 0.49178505 -0.110175095 -0.57521313 -0.18862236 0.64057565 -0.52899 -0.25367132 -0.16687883 0.58493197 -0.73995674 0.52173865 0.08913236 -0.1516175 0.29160723 -0.30793208 -0.04160445 0.11302118 -1.061527 0.07757097 -0.17302777 0.38914475 -0.30447775 0.10915547 -0.11251792 -0.28381944 0.24365792 0.059727058 0.21998942 -0.07844858 -0.7666334 0.24055314 0.037535887 -0.12596124 0.31935242 -0.016030487 -0.055783324 -0.3399946 -0.09996427 0.29648903 0.25137228 -0.07095786 -0.3922883 -0.13868305 -0.018573195 -0.15291162 -0.30799302 0.7735229 -0.08321127 -0.22154196 -0.6470195 0.13957359 -0.05872742 -0.23526424 -0.30618846 -0.4797797 0.33467287
48 -0.2152121 0.21842344 -0.022213541 -0.2492886 -0.12824628 -0.023870902 0.6061817 0.0080809845 -0.45905054 -0.32563502 0.34335616 -0.27694702 -0.28461295 -0.7187066 0.4648031 0.2998379 0.84882325 0.003068272 0.0035699848 0.056422804 0.07747351 0.3295035 0.21954618 -0.16058531 0.15985714 -0.15797825 0.088458225 0.2837128 0.0012340004 0.06031659 0.04052265 -0.23559403 -0.09721311 -0.59733 0.15650205 0.2064805 -0.14682165 -0.25512213 -0.25636265 -0.69255704 -0.5169745 0.23724122 0.28063074 0.36833283 0.16923165 -0.4161137 -0.22172773 -0.19089982 -0.36554354 0.26809254 -0.0025789523 -0.3056453 -0.024362478 -0.3076224 0.024392517 -0.054767184 -0.32214552 0.27468875 -0.5652689 -0.37125012 -0.35750157 0.23733364 -0.27242008 -0.3210845 -0.5030489 0.5803829 0.16009802 0.5394581 0.022871837 -0.22192301 0.052697282 0.15281856 0.8128855 -0.065404706 0.12217623 0.19740504 0.25252137 -0.11398 -0.59410995 -0.25350145 -0.182315 -0.07713085 0.011016456 0.088020824 0.25204808 -0.060252216 -0.10867268 -0.24401878 -0.40442705 0.055809528 0.5691774 -0.18254623 -0.50037163 0.08322275 0.8383015 0.2759692 0.07575513 0.2217353 0.018745203 -0.14427485
33 0.010141141 -0.10950377 -0.34599155 0.1931009 0.34667015 0.108919285 0.17062417 -0.118261315 0.0956758 0.10653666 -0.14311421 -0.092700526 -0.23319346 0.32720652 -0.23337455 -0.5768486 -0.2683474 0.20422056 -0.4956074 0.2571609 -0.46868497 -0.17062138 0.42589578 -0.095494606 0.13844909 -0.4624021 -0.12690856 0.044498123 -0.07207424 -0.52624637 -0.29004747 -0.21053828 0.19856972 0.044761043 -0.27193 -0.13401052 0.26009682 -0.020670649 0.009434635 -0.124818444 0.0826855 -0.0874832 0.25244838 -0.11907111 0.06314238 0.18835174 -0.62372774 0.33831188 0.16729587 0.07855356 0.12605096 -0.23571087 0.1657089 -0.34273145 -0.14449431 0.095876284 0.37369907 0.24631578 -0.43537262 0.24762277 0.2839783 0.020866422 -0.037047524 0.26822144 0.50073 -0.5597505 -0.3943309 0.3408847 -0.2758896 0.13274051 0.0987702 0.2988043 0.2215801 0.129278 0.29882687 -0.4974566 -0.13242589 0.1171265 -0.16134591 -0.71626616 -0.38738355 -0.35206696 -0.76751786 0.24720646 -0.14616641 -0.116231516 0.2001653 0.052441467 0.13830891 0.097581334 0.35567117 0.44589287 0.54106313 0.3446761 0.17290032 -0.18310635 -0.09140853 0.067808606 -0.062374376 -0.024863983
14 0.13503808 -0.3079166 0.044344574 0.27385184 -0.017291931 0.30220935 0.14754544 -0.4247001 -0.4881456 -0.14553201 -0.55494714 -0.3438467 -0.52511644 -0.401964 0.675706 0.019310756 -0.26977232 -0.07969146 -0.52642953 0.01438644 0.2710089 0.078414 0.35757083 0.9380335 -0.00342996 -0.26089284 -0.0047498085 -0.15100104 0.1576498 -0.13805762 -0.4099978 -0.1841178 0.5190468 -0.7649652 -0.20100103 -0.0012144472 -0.1963826 0.20738783 -0.22319631 0.28092337 0.41666666 -0.38022092 0.36462206 0.011666462 0.41700625 0.079793066 -0.55172384 -0.2693224 -0.31366268 0.33893538 -0.66902417 -0.12619746 0.06736318 -0.30251437 0.078163445 -0.39195216 -0.74663776 -0.20324934 -0.21079175 0.42866042 0.23407462 0.12635949 -0.5681076 0.39247406 0.06877879 -0.042262435 0.4539293 0.9440607 -0.14721058 1.0169448 0.30705306 0.014195527 0.27002686 -0.56094754 0.46267882 -0.02098688 -0.07561696 0.1308937 0.73673886 -0.52898103 0.007287934 -0.4601555 -0.24986197 0.0032239095 0.049038943 0.090921074 -0.10566739 0.35134745 0.42356896 -1.1770303 -0.027111132 -0.6908875 0.2200673 0.13119268 -0.6413641 0.043968268 -0.15267919 -0.28832832 -0.29530346 -0.000843558
52 0.33479676 -0.7192665 0.42026412 -0.20085923 -0.01988659 -0.1580598 -0.5045985 0.39273077 0.054089162 -0.162705 -0.19908568 -0.41640237 0.283199 0.66961825 -0.026246121 0.32270628 -0.49121967 -0.19614413 0.23096964 -0.26171023 0.025580548 -0.048643045 -0.30687803 0.18163869 -0.26851258 0.065710306 -0.06344066 0.5273025 0.034074083 0.02033024 -0.3213579 -0.22957988 -0.0012535324 0.14805831 0.1351674 0.16150413 -0.059958678 -0.21363467 -0.44594786 -0.007275512 -0.5835178 -0.048364695 0.03660224 0.6933024 -0.06950416 -0.23073472 0.034239385 0.3298409 -0.36807364 0.1532431 0.34185567 0.0010233338 -0.09574929 -0.050988853 0.15191093 0.33383307 0.31501687 -0.02785697 0.02702533 0.22717017 -0.20419832 -0.09707659 -0.2939494 0.40931585 -0.7372338 0.18455116 -0.10581525 0.7046061 0.27248266 0.61999017 -0.22081053 0.07799978 0.2708899 0.0058732387 0.5359864 0.13978794 -0.122884676 -0.056918472 -0.45707217 -0.54503953 -0.1857136 0.24084578 -0.50453997 0.31407687 0.5969345 0.50982535 -0.033521656 0.713316 -0.060946636 0.07435608 0.30307257 -0.13696963 -0.5267449 0.66077286 -0.42952335 0.68434507 -0.02762156 0.4371014 0.12844016 0.03309697
20 0.45287248 0.33439806 -0.20288098 0.093176216 -0.24705704 -0.058265857 -0.27640456 -0.098219424 -0.009037162 0.32399166 -0.26165417 0.45364007 -0.05074008 0.41842547 0.051030185 -0.28339815 -0.3144528 -0.46197176 -0.46409205 -0.44238326 -0.13556218 0.039255347 -0.01739786 0.08771788 -0.09804236 -0.23387463 0.06914734 -0.0070159086 0.03964224 0.37262693 0.13526691 0.18470347 0.05840211 -0.021868631 -0.0028852238 0.48589343 0.24590518 0.005667789 0.065164074 0.06136712 0.016427344 -0.5387281 -0.15409143 0.050525397 0.2391617 0.10840441 -0.15850428 0.2523467 0.07584689 -0.13699569 -0.12989414 0.15733209 0.28958556 -0.14416881 -0.023358893 0.060737584 -0.3516619 0.07969714 -0.05474419 0.044964656 0.4565608 -0.14981824 -0.0849545 -0.0059741656 0.556234 -0.29400375 0.21676432 0.19312312 -0.5189314 0.44789538 -0.19053073 -0.08086715 -0.39443725 -0.0010140076 -0.1276746 0.052513395 -0.6890196 0.22062632 0.3809492 0.16309646 0.47112796 -0.010270041 -0.5502789 -0.22183634 0.20393881 -0.17473958 0.10277701 0.002189819 0.53728914 0.516933 0.090520576 0.104805514 0.047069114 -0.444603 -0.54967004 -0.25728583 -0.09287222 0.14102072 0.4703081 -0.24209905
2 0.34862 0.39566 0.21227227 -0.36551756 0.30884716 -0.6005452 -0.12984313 -0.19081022 0.29687417 -0.08951433 -0.08057524 0.04719076 -0.031348318 0.2588744 -0.032084156 -0.57720137 -0.51318693 -0.68595076 -0.38055894 -0.300418 -0.26595804 0.43182182 0.47963312 0.5456436 -0.2105384 -0.20728077 -0.23020773 0.34407192 0.18019551 -0.09209413 0.4919884 -0.08320977 -0.33805025 0.34655902 -0.5113425 -0.46797618 0.13383979 0.20592627 0.24353874 -0.08418458 -0.14578041 -0.2839108 0.08762487 0.58278716 0.4973658 0.36649364 -0.16457592 -0.5421202 -0.2875467 0.27250317 -0.2452224 0.5242612 0.482107 -0.86374295 -0.202957 -0.37676626 0.14463502 -0.054143406 -0.32303715 0.051576514 0.4828768 0.26111895 0.19382298 -0.010141252 0.19531307 -0.44992423 0.25068069 -0.019200847 -0.22391476 -0.11276155 -0.19469541 0.38154572 -0.0065767225 0.0068215774 0.27473128 0.0894896 -0.08040109 -0.18177561 -0.1709424 -0.03873633 0.31680325 -0.72506076 -0.708099 -0.12730418 0.6004941 -0.006419183 0.013377382 -0.16009982 0.09079006 -0.46943587 -0.23447537 0.28489104 0.83519083 -0.6703168 0.25316852 -0.096064076 0.14564948 0.22284153 -0.42215428 -0.47593752
24 0.020235792 0.054668993 -0.6575499 -0.42820403 0.19831191 -0.2867573 0.068060905 0.16797142 0.0052722925 -0.45099452 0.26107642 -0.7913793 0.24966113 -0.19506823 -0.219254 -0.14375214 0.43989363 0.030169003 0.26665136 -0.404013 -0.4409262 -0.0920879 -0.16276093 -0.30661425 -0.008247621 0.04150764 0.22676851 -0.16838999 -0.36488703 -0.37903172 -0.2457612 -0.31758124 0.32873306 -0.21769641 -0.31377947 -0.45380363 -0.32019708 0.014637342 0.25741884 -0.3906884 -0.06120243 -0.03174229 -0.062804356 -0.07407812 0.18465509 0.18038505 0.078274675 -0.27987865 0.032947067 0.063043356 -0.10600109 -0.16069135 -0.2632896 -0.021535669 0.23376013 -0.31633893 0.2528713 -0.5492519 0.26693305 0.08270166 0.09983051 -0.11655217 0.19047664 0.3117631 -0.23431806 0.27002555 -0.081237346 0.13556099 -0.053107597 0.12608485 0.044017978 -0.22572869 0.3594944 0.34697586 0.19423667 -0.059830833 0.13481219 -0.23414828 -0.6757105 -0.23238474 -0.3792691 0.17429598 -0.17951089 0.18493995 0.2156403 -0.4889049 0.1122801 0.21335319 0.15816064 -0.18316744 -0.2827551 0.17270671 0.30793256 0.863281 0.43673137 0.13242762 0.12470301 0.052548356 -0.4255542 0.09073237
51 -0.31709504 -0.60995877 -0.02552019 0.39922044 0.26597446 -0.82404536 0.0014340515 0.6123008 0.09768352 -0.74824953 0.047362056 -0.42280817 -0.06852565 -0.005967071 -0.0130522195 0.50946593 -0.20454568 0.10943399 -0.0012518903 -0.06431324 0.36309898 -0.23117484 -0.023146166 0.39679587 -0.09613554 0.39095628 -0.62382853 0.28661913 -0.16773738 0.1919979 -0.09412118 0.4458633 0.028705627 -0.01697423 0.10195847 0.017459523 -0.21732317 -0.40769434 0.1363729 -0.07571628 -0.026737276 0.006375888 0.12094455 -0.3725875 0.2867886 0.028539088 0.43839246 0.09738499 0.12655488 -0.17348486 0.22767857 -0.36822066 0.59505016 -0.005120731 -0.08783046 -0.15770413 -0.1283429 -0.3048815 0.45630622 0.2200581 0.17194009 -0.091440395 0.612311 -0.29541662 -0.37564063 0.33371502 0.5518614 0.6126455 0.035349455 -0.029233335 0.11667106 0.043061245 0.08042159 -0.18394028 0.11209428 0.42187387 -0.097708486 -0.33998686 0.025424678 -0.53412205 -0.31888816 0.39269453 0.49016932 0.6502514 0.08057062 0.14020245 0.15970077 -0.32763562 0.20673843 -0.29112405 0.26689416 -0.44098952 -0.022587646 -0.013479166 -0.015167409 0.5193017 -0.18003514 -0.55502534 -0.1614792 0.080151506
59 -0.362918 -0.55726314 0.119351715 0.25341535 0.11963757 -0.47930545 -0.009679027 0.27573633 -0.43988177 -0.71171415 0.16489835 -0.19907255 -0.4606534 -0.367327 0.08812916 0.3710281 -0.12495588 -0.17069148 0.08529113 0.039120406 -0.0020683098 -0.23357287 0.15624677 -0.098947175 0.14410451 0.1067363 -0.18999536 0.5430227 -0.022394756 -0.16670598 -0.1506348 0.2720166 -0.2657937 0.23974471 0.17590256 0.22011611 -0.19604704 -0.32833016 -0.041528806 -0.07271659 0.17829113 -0.25731608 0.3103639 0.042190813 0.41532433 0.11492439 -0.4428672 0.03284323 0.02096987 0.35341072 0.21794873 -0.049672157 0.3936637 -0.10425482 -0.08739536 -0.20432955 -0.04707793 -0.18567099 -0.27935094 -0.16602588 0.1679053 0.28252122 0.14425692 -0.06436963 -0.43590662 0.31680304 0.22308 0.7073711 0.04675065 0.29517975 -0.47904122 0.06613266 0.42626086 -0.26886976 0.47617397 0.11117526 0.12294084 -0.5227952 0.04826266 0.058393132 -0.18742208 0.22781478 -0.22851694 0.2541496 0.3327654 -0.24274306 0.07840209 0.14484893 -0.12479478 -0.16987117 0.06922679 0.050046768 0.13375467 0.5423169 0.378896 0.49352992 -0.15498576 0.09261474 -0.4767642 -0.10869041
73 -0.33523294 0.6044394 -0.38405725 0.3179488 -0.16645144 -0.06548871 -0.16243468 0.62826717 -0.45367488 -0.4058362 -0.015637014 0.06659888 0.29047796 -0.024988346 -0.16486 -0.2013834 0.568041 -0.7498865 -0.045670833 -0.41003352 0.028745709 -0.26074478 -0.11144098 -0.077028364 -0.06298614 -0.082109965 -0.47060782 0.34150866 0.30845773 -0.07271703 -0.20762305 0.12657918 -0.9562779 -0.31945562 0.36904633 0.29399392 0.15445238 -0.13054842 0.5715603 -0.3602321 -0.27073047 0.098665655 -0.023652101 -0.62238294 0.22344473 -0.32036036 -0.294653 0.3803807 -0.11413741 0.25822654 -0.41948956 0.02749693 0.03816356 -0.17041954 0.40598196 0.33204854 0.16397697 0.17677082 -0.28716245 -0.13122329 0.2224732 0.15659398 0.3912937 -0.21679612 -0.64434296 0.22176069 -0.30948037 0.5592075 0.04731466 -0.17196481 -0.20106703 0.34735143 0.04811198 -0.36890095 -0.30780968 0.14448409 -0.40719217 -0.21900913 0.18773815 0.009418792 -0.10941623 -0.19144006 -0.40208247 0.56283903 0.62606084 -0.14943334 0.18861867 0.64917105 0.2481546 0.31738418 -0.6397158 -0.13993397 0.24940333 0.2488923 0.23752873 0.048973285 -0.33967286 0.2193078 -0.48527282 -0.27712518
77 0.30694878 -0.35348752 0.020005876 -0.21291924 -0.15497907 -0.41271952 -0.25127274 -0.45772642 -0.0031302553 -0.42972335 -0.17953233 -0.8356657 0.03047207 0.13495813 -0.24821995 0.13177235 0.13454518 -0.36105093 0.09892356 -0.5149284 -0.24640454 0.3988908 -0.6790891 -0.14459229 -0.21010414 0.41528133 -0.09668634 0.2237489 -0.35625234 -0.11383737 0.061879437 0.18162176 0.055885464 -0.6761135 -0.05945471 0.12104631 -0.05940142 -0.40361512 -0.12963782 0.22504117 0.2941336 -0.36140078 -0.16945438 0.10045687 0.3019011 -0.101009674 -0.051837813 -0.29000407 0.31431758 -0.08686263 0.7646988 0.0030969658 -0.1594274 0.5485338 -0.38655922 0.02207447 0.39712593 -0.14947185 0.37588602 0.26965627 -0.14396605 -0.29317614 0.08701788 0.24956475 0.36139852 0.19621316 0.12850444 -0.15886706 0.04836825 0.29673347 -0.21492215 -0.09083526 -0.24560548 0.3143902 0.27958226 0.43735775 -0.1201384 0.017637372 0.13405699 -0.013338946 -0.5770546 0.36431676 -0.103120536 0.038646158 -0.14899175 -0.11842009 0.35779366 0.31378344 0.27423662 0.47818086 0.20949565 0.1340336 -0.6927936 0.0871575 -0.26979735 -0.006414185 0.13042939 -0.09065192 0.26426739 0.21044983
38 0.154198 -0.11632053 0.24864292 -0.17246369 -0.21130721 -0.2630713 0.2992719 -0.16599366 -0.38560787 0.2899088 0.1566613 -0.15202832 0.071419805 -0.09799388 0.3856487 -0.15715116 0.06901725 0.29281265 0.40196493 0.020140965 0.4754051 0.26114476 -0.36487398 -0.66328365 -0.61716384 0.13045377 0.2266544 0.37843636 -0.22970128 0.20714284 0.9431403 -0.35775805 -0.34566233 -0.37100658 -0.0382174 -0.124502674 -0.17257863 -0.36561826 -0.04998336 0.07965705 0.18290778 -0.41830733 -0.14779752 -0.22560258 0.5310813 0.24856225 -0.286827 -0.47634196 -0.15822841 0.29091287 0.38031155 -0.29569793 -0.094381236 0.12109485 -0.066596255 0.2708139 0.3687763 -0.31514886 -0.15171145 -0.079837315 -0.113114 0.10070512 -0.18096595 -0.5036418 0.12261539 0.70500696 0.112540066 -0.27016714 -0.23989302 -0.026308276 -0.14564013 -0.14939713 0.38915205 -0.501661 0.66848284 0.2770378 0.017111395 0.3184533 -0.017444978 0.17169474 -0.5987813 -0.46697214 -0.42794976 0.7404019 -0.42563176 -0.12367977 -0.4307811 -0.21467237 -0.3244283 0.023826007 0.26677713 -0.02290358 0.25063872 -0.8402886 0.41943422 -0.12629056 0.23990521 -0.57240415 -0.120074235 -0.020189526
25 0.10550529 -0.060059134 0.04303854 -0.31449223 -0.015609494 0.49399155 -0.011155484 0.2144139 0.13153403 -0.13885942 -0.29145613 -0.38519692 -0.17408243 0.036521222 0.3582301 0.08678502 -0.38646394 0.08733098 -0.47031108 -0.2379476 -0.38319895 0.3379744 -0.7702605 0.29664183 0.007608156 0.3843766 -0.2859924 -0.048533693 -0.48897234 0.30510777 -0.63654315 -0.3123333 -0.48394746 -0.30921647 -0.12569335 0.21135086 0.19707301 0.13647449 0.021277688 -0.20834625 -0.5375959 -0.4432007 -0.08016556 0.56221914 -0.059483435 -0.3413496 -0.20678556 0.32878366 -0.21299186 0.49340495 -0.31748915 -0.41649517 0.28285187 -0.19440158 -0.29765174 0.7050851 0.10545545 0.33047622 -0.51922566 0.22641487 -0.37763467 -0.4972797 -0.47740278 -0.14158323 0.143814 0.092874646 0.11989778 0.32470617 -0.12067279 0.50424576 0.8414556 0.67314154 -0.09195591 0.049542375 0.29509065 0.347491 -0.26099122 0.42465335 0.21325406 -0.5138116 0.04787061 0.07146172 0.01886338 0.25657728 -0.20185965 0.04036347 -0.04666617 0.32708466 -0.32156503 0.24861014 0.5234603 0.059477217 -0.38798544 0.26906985 -0.32426363 0.2492303 0.40322798 -0.78948164 -0.11397046 0.5163141
63 0.025802433 0.14399482 -0.14101265 0.58998495 -0.13759515 -0.1754041 0.058396623 0.069623075 -0.39206976 0.569395 -0.60105556 0.20959415 -0.7126635 -0.19886534 -0.12321714 -0.16038191 0.120776236 -0.26498225 0.44656676 0.21659867 -0.3184577 0.4280108 0.23709163 0.15459324 0.8051052 0.31845167 -0.54674584 0.08969307 -0.072622284 0.5067323 0.30285263 0.243147 0.32249963 -0.6193073 0.18671304 0.12676884 0.16052252 -0.34148294 0.5968292 -0.6147322 -0.32331687 -0.34023258 -0.16102941 -0.022593796 -0.29314545 -0.024348294 -0.12342346 0.38354897 -0.13889802 -0.54005677 -0.16453958 0.09516482 0.15102504 0.10501239 0.19240573 -0.27393016 -0.23721044 0.2978852 -0.32456622 0.15456241 0.24699974 0.17645934 0.29391438 -0.3275682 -0.086253844 -0.46620288 0.11781281 0.36004922 -0.2044914 -0.019020583 0.16908501 0.3891502 0.09670607 -0.14004341 -0.05924187 0.086367264 -0.8988283 0.3537937 0.21677908 -0.4838058 0.004109797 0.39506578 0.12590948 -0.24699888 -0.15751934 -0.27221847 0.5239011 0.057169907 -0.06191946 0.03627513 0.67673 0.12801105 0.030099882 -0.330926 0.49099368 -0.30711076 -0.31234422 -0.14199865 -0.25145155 -0.45245367
57 0.09851804 0.028070929 -0.0075072176 0.13834739 0.0645553 0.30218053 -0.1496564 0.2844328 -0.015349014 0.046208262 -0.2619391 -0.77286583 -0.20856822 0.3305539 0.12595493 -0.00063012016 0.1839051 0.18663827 -0.027075093 -0.5085573 0.4101301 -0.1292903 0.27248198 0.057802998 -0.5871917 0.14163308 0.22106671 -0.34770763 -0.08312335 -0.04934108 0.64429706 0.016551802 0.57656306 -1.158742 -0.072802484 -0.4020048 0.49289942 0.03464878 -0.17989528 0.011720281 0.39072 0.21641941 -0.78673786 -0.47883928 -0.15922037 0.20938453 0.14399043 -0.22166842 0.34910712 -0.27183443 0.30176514 -0.1503132 -0.43830016 0.15041465 -0.12819184 0.06238763 -0.17188014 -0.08560906 0.374328 0.36500543 0.073801 -0.088601485 0.017515322 0.516433 0.12613648 -0.15749477 -0.09263591 -0.1290533 0.14692456 0.227244 0.14207573 -0.5900727 -0.6980406 0.46597555 -0.22398716 -0.15127774 0.00459139 -0.11566508 -0.03758953 -0.13300338 -0.0029813992 -0.41768706 0.21148159 -0.079334214 -1.0232079 -0.15526767 0.47837132 0.060064733 0.021943534 0.048885744 0.54209465 -0.5366689 -0.2901612 0.23570567 0.1947266 0.0986346 0.06459259 -0.3267143 -0.15279213 -0.08975978
15 0.116984256 0.61730224 -0.031547144 -0.3179169 -0.15496388 -0.10778666 0.06468576 -0.07000099 -0.19676298 -0.65981025 0.35173178 0.19069779 -0.15645131 -0.36547366 0.01840955 -0.08350131 0.4253945 0.044976875 -0.25828907 -0.8381836 0.48575145 -0.29920834 -0.028089285 -0.124453306 -0.3816471 -0.36887956 0.22535555 -0.123917356 0.58754504 -0.4385683 -0.3135713 0.8910572 -0.11358917 -0.18367957 0.1849639 0.5234656 0.4357144 -0.12930506 -0.2667408 -0.39612827 0.13363345 0.19266905 0.23422278 0.058579125 0.021590626 -0.5714943 0.075273156 0.23246522 0.59858304 -0.47315964 0.14084771 0.33612671 0.34565026 -0.1512608 -0.061600313 -0.12210789 -0.56182605 0.07451713 0.79186976 -0.38556707 0.1792238 0.293112 0.35898104 -0.597349 -0.19234788 0.37772775 0.0776111 0.22752202 -0.59505713 0.08507271 -1.0259393 -0.0184618 -0.36632597 0.4784633 -0.25650984 0.42289075 0.043540154 -0.29952317 -0.1869951 0.12264894 -0.031931166 0.4071738 -0.6699727 -0.14775084 0.58268654 -0.010731898 -0.14594983 -0.5020972 0.67888504 0.6248688 -0.07303942 -0.21754827 -0.3307961 0.2373817 0.1159234 0.029862333 -0.21013524 0.09564841 0.9293137 -0.46836948
27 -0.12031666 -0.15447654 -0.47468728 -0.21280695 0.09332257 0.09059902 0.2930876 -0.2462825 0.00153824 0.47428286 -0.15031703 0.085463196 -0.2784054 -0.31625453 0.3121495 -0.2642135 0.47544006 0.27471513 0.13659072 -0.119677685 0.17932673 0.39151102 0.14568983 0.30355015 0.2401996 -0.42022154 0.60985917 -0.42728376 0.10009103 -0.35147274 0.1723724 0.45616817 0.46680048 -0.018642746 -0.31485832 0.44667813 0.05991646 -0.39062083 -0.2432767 -0.74437267 0.00683544 0.21742538 -0.12752166 -0.37049535 -0.13437127 -0.20340551 -0.77841175 0.038578175 0.42242378 -0.568258 -0.3358252 -0.37381715 -0.45826173 0.30915442 -0.19053546 0.2064264 -0.78403443 -0.28573012 0.31054854 0.037142582 0.09311739 0.6468673 -0.70961374 -0.36440203 0.14794521 0.3854097 -0.33433795 0.10238306 0.08640651 -0.26116115 -0.22833705 0.4058639 -0.060694452 0.43414637 -0.10236896 0.3308986 0.17504707 0.18524896 -0.29201493 -0.6046529 0.47156075 -0.4596615 -0.56757283 0.5015701 -0.27058625 0.12543593 0.18669116 -0.7684589 0.24608104 -0.029898282 0.67702585 0.42877167 -0.24137117 0.06838996 0.14232288 -0.0030794616 0.7854899 0.009897258 0.57539964 -0.22897613
9 0.43819457 -0.29031074 0.252466 0.25523493 0.24428214 0.004598774 0.10783287 0.8664508 0.09943349 -0.35138813 -0.31505635 0.36496195 -0.25069448 -0.23521706 -0.3547584 0.23955591 -0.41613194 -0.42604107 -0.55755776 -0.41308907 0.4930158 0.33904105 0.015640615 0.6601562 0.035875116 0.27901828 -0.2976274 -0.00018789413 0.54285836 0.29836312 -0.65557176 0.4354209 0.24844627 -0.095855094 0.006658469 -0.07009012 0.4289835 -0.5434075 0.012171357 0.3344818 -0.07279203 -0.23973787 -0.07762257 0.070420675 0.2361807 -0.21491967 0.27550793 -0.51553416 0.8699257 0.3008916 -0.30403906 0.20629026 -0.15647888 0.1516844 0.4090432 0.44781685 0.40151998 0.47134924 -0.040462937 0.42642692 0.11663009 -0.43177092 -0.00990191 0.07008022 -0.35037854 0.24362446 -0.4178663 -0.4036661 -0.0053952076 0.09622793 -0.5772644 -0.21718186 -0.4653127 -0.18099143 -0.23925705 0.12539777 0.5626382 0.041282937 -0.40069073 -0.0426427 0.44289848 -0.023204781 -0.16897249 0.09309567 -0.34105036 -0.07263289 0.073442385 0.445867 0.025458008 0.0022804416 0.1512049 -0.2786902 0.15775101 0.8282554 0.56919664 -0.059931614 0.17198639 -0.44789225 -0.45292458 -0.1777344
41 -0.47783676 0.41518676 -0.10966936 -0.26540536 0.34814742 0.22003546 0.093815625 0.3150865 0.10987207 0.3952459 0.09231147 -0.17660151 0.37539178 0.21903813 0.17118251 -1.0423944 -0.28872716 0.39350152 0.0017884731 -0.29560393 0.22875433 -0.5481458 0.3403671 -0.0014553985 -0.28621307 -0.5159492 -0.27527422 0.06993246 0.49379298 -0.61413246 0.08993446 -0.7411239 -0.022253547 -0.32084033 0.28913045 -0.6332742 0.026447143 -0.29168835 0.89589936 -0.54696363 -0.14913645 0.21509846 -0.33928046 -0.26304525 0.440196 -0.23498155 0.2224465 0.35631275 -0.03221641 0.015801955 0.023369625 0.043970183 -0.11309532 0.15637925 0.12356581 0.34831524 0.36559424 0.3830489 0.017057918 0.0057299184 0.45178178 -0.37892124 -0.0010187115 -0.2488594 0.017380651 0.4640371 -0.04776672 0.19236624 -0.34165585 0.1384353 -0.07309152 0.30715832 0.7666064 0.06053929 -0.3726304 0.05804985 0.28065202 -0.28657806 0.37725973 0.39433402 -0.52868825 -0.6690269 -0.37503195 -0.28226927 0.2391573 0.37863094 -0.13886975 -0.13492592 0.6049546 0.122005194 0.1450247 -0.5698578 0.62308717 -0.17301285 0.29387832 0.25808135 0.34082437 0.37844568 -0.06605101 -0.18300398
78 -0.17515439 0.7134279 0.021624247 -0.3102974 0.12945719 -0.42148373 -0.26542416 0.27359703 0.6207067 0.34472844 -0.35235575 0.1940378 -0.30025956 0.3455465 0.30486533 -0.24241486 -0.5275006 0.095242016 0.060455665 -0.29105017 -0.068720035 -0.1830787 0.027945971 0.354644 -0.51121736 -0.18714444 -0.40662163 -0.3950994 0.4950144 -0.060497142 -0.0057330057 -0.2448834 -0.5543184 -0.34113845 -0.014144553 -0.47762418 0.32237852 0.58151263 0.45627403 -0.4028119 -0.038667385 0.33739522 -0.21211828 -0.43634757 -0.174081 0.034885343 -0.90453684 0.29125315 0.5195995 -0.035740923 -0.3331503 0.39170694 0.6700394 -0.55298185 0.35501087 0.31415954 0.3187353 0.15209565 0.16611244 0.4537677 -0.058320582 -0.22872595 -0.019931545 -0.05411368 -0.21852833 -0.37451634 -0.37721145 0.23990382 -0.26610467 0.3927234 -0.07965826 -0.30049446 -0.23965132 0.15816478 0.116049856 -0.7181179 -0.047517516 0.18547104 -0.01074467 -0.06692967 -0.26071036 -0.33087757 -0.3052138 -0.34227243 0.11363585 0.06623867 0.24897936 0.45000654 0.404873 -0.5826923 0.19029808 -0.20946048 0.23068982 0.20829861 0.11828896 -0.32427076 -0.55505395 0.3343982 -0.47288254 0.41523558
11 0.1837469 0.78467715 0.0819744 0.21200465 0.13600306 0.08105069 0.3761051 0.23484492 0.09592492 0.08083938 0.21821071 0.3289631 -0.225031 -0.20510677 0.21285708 0.26385543 0.12403786 0.16598609 -0.54168 -0.22872002 -0.26650256 0.1857814 -0.062211525 -0.53595024 0.013410233 0.35523728 -0.10509416 -0.25377262 -0.28409 0.41263857 0.28055465 -0.05726852 0.070890106 -0.26894918 -0.4176349 0.009697701 0.30923498 0.43980342 0.56544626 -0.77960265 -0.16506395 -0.3483039 0.011506171 0.13617532 0.45887566 0.1750232 0.07149942 0.06338645 0.38742372 -0.2338819 -0.625574 0.28626326 0.18314038 0.054414175 0.1160702 -0.21447451 -0.33469316 0.083156675 -0.76308405 -0.4363814 0.21305272 -0.077926286 -0.19577903 0.16215411 0.7217389 -0.079743944 0.3958346 -0.2257202 -0.1826775 0.5758828 -0.18319161 -0.07369042 -0.031425152 -0.3195174 -0.008746753 -0.06494169 -0.19780314 -0.08340408 -0.4665248 0.13039108 0.4697366 -0.2640393 0.07024773 -0.48022106 0.09811499 -0.6639484 -0.61229265 0.16228059 0.118785426 0.26768386 0.4030604 -0.15409158 0.4148798 -0.38991192 0.43073988 -0.0064353803 0.0024621387 0.03717117 -0.059213396 0.1236688
18 0.5439323 -0.24918357 0.56072193 -0.3733113 0.6052322 -0.5978307 -0.28097063 0.46127936 0.53725994 -0.4721649 0.049905114 0.124554716 0.0422838 0.6321131 -0.4074271 0.42970082 -1.4228742 0.37771603 -0.48090103 -0.33880398 -0.21291934 -0.22159894 -0.3217945 0.11489432 -0.7068538 0.2472501 -0.20416324 0.15924285 -0.08703538 0.33655298 0.16898692 -0.6248649 0.03236003 0.010703132 0.15485635 0.078153044 -0.39819032 -0.1307208 0.3413408 -0.16055702 -0.16644533 0.28105846 -0.51694155 0.2423383 0.45480204 0.29992625 0.27360806 0.03462569 0.2391093 0.19165246 0.7703806 -0.0615451 0.6588061 0.048927218 0.09912758 -0.09289905 -0.22060569 -0.03406101 0.21811303 0.0937498 0.23278408 -0.34050313 -0.053245768 0.08144789 -0.0029234407 -0.32501122 0.515751 -0.025951218 -0.26182494 0.19528183 0.038246155 0.13658454 0.42185068 -0.2764918 0.30068284 -0.09727266 -0.015067093 -0.4112503 -0.08336348 -0.36473235 -0.39858213 0.3610338 -0.2930389 -0.009632525 -0.13243859 0.20629062 -0.18703316 -0.25876802 -0.36391366 -0.1498721 0.41372943 0.105322555 0.51701117 0.067548 0.17347951 0.31036073 -0.6036686 -0.23567957 0.3349704 -0.0520468
56 -0.09482436 -0.22123547 -0.46185905 -0.57074815 -0.1466749 -0.500934 0.048499577 -0.19511968 0.3273098 0.16350892 -0.4706236 -0.35265666 -0.39381373 -0.21124074 -0.026561437 0.09167072 -0.12656502 -0.19669326 0.73754776 -0.24163361 0.15319334 0.71041816 0.27917093 0.28962624 -0.39050937 -0.23595782 0.27010435 -0.32980302 0.18527591 -0.15623267 0.14209859 0.11577939 0.033665437 -0.07322505 -0.0033094797 0.100484096 -0.1797174 -0.85600317 0.27528554 0.047768403 -0.07132437 -0.32033134 -0.26120096 -0.37509605 0.08881032 0.35067406 -0.064200684 0.21853742 0.21775815 -0.43280512 0.42648545 -0.23718461 0.5503067 0.21452866 0.34091604 0.5878037 0.036897574 -0.38676766 -0.27479708 0.06915477 0.04154427 0.3110367 -0.5598505 -0.3446043 0.13244885 0.05802335 -0.7578836 -0.18532312 -0.47504526 -0.16861191 -0.41862765 -0.023439001 0.16895519 0.27917588 0.056569677 0.6573889 -0.23908027 0.13786456 0.02551152 -0.19909039 -0.18462121 -0.14003998 -0.48099154 0.11711084 0.053683855 0.07542643 0.19251439 -0.16670829 0.32547575 -0.12180894 0.3671783 -0.2080822 -0.018479317 0.4753194 -0.16759212 -0.3569814 -0.446191 0.1693126 0.006406555 -0.31175506
8 0.00010959491 0.07475574 -0.064278446 -0.18128817 0.33237576 0.22716963 -0.48777023 0.6818998 -0.29403725 0.31345668 -0.43049824 -0.87231237 -0.40195897 0.21282783 0.099150024 -0.3623875 -0.65563405 0.26699546 0.35493562 0.31475568 -0.033159267 -0.19584557 0.18351375 -0.17408939 -0.09839812 0.13806997 0.20830452 -0.18107796 -0.0689666 -0.007250457 0.30870074 -0.4268481 0.32051113 -0.036491714 -0.3058052 -0.37407473 0.40456298 0.33645305 -0.18206112 -0.19452058 0.29824612 0.23076893 -0.28576073 -0.1295417 -0.79712874 -0.37183082 0.35118526 0.010320559 0.03594871 0.39974466 -0.4188092 -0.36450192 0.33285663 -0.36379284 0.14532693 0.1267834 0.0028726396 -0.035815477 0.5607328 -0.4861886 0.2571681 0.36721277 0.043905534 -0.027184892 -0.5151057 -0.15439235 -0.06765287 0.21919516 -0.19337831 0.10520785 0.6399936 -0.26280114 -0.1605008 0.30068138 0.12992586 0.18565081 -0.36474574 0.11168528 -0.027476346 0.15246968 0.199542 -0.25593463 -0.5761042 0.13814256 -0.874165 -0.30794948 0.52895594 0.4839416 -0.63957125 0.2824485 0.22482172 0.22837315 0.32358187 0.31014532 0.87167937 0.14822401 0.12619421 -0.1241259 -0.44090572 -0.27856883
90 -0.15363285 0.49812046 -0.16342646 -0.4367044 -0.1398955 -0.59760815 0.41072875 0.750662 0.74197996 0.6479434 -0.2603496 0.84246314 0.40020698 -0.15522777 0.07227479 -0.3650678 -0.39602968 0.1261954 0.5432266 -0.8535598 0.19468248 0.32761925 -0.33145145 0.45880073 -0.20612329 0.13843875 -0.1606019 -0.32625172 -0.4622115 0.5930432 0.03180474 -0.24572186 -0.11955823 0.5809196 0.14354476 -0.0588327 0.18176046 -0.17678508 0.5118169 -0.08745988 -0.39185676 -0.06346946 -0.408829 -0.48101968 0.1523206 0.1925542 -0.14974703 0.6532732 0.097995475 0.3560713 0.1045544 -0.094009094 0.036924563 0.24335988 -0.3299992 0.43202117 0.32065862 -0.0444096 -0.73973095 0.0016143072 -0.23412976 0.08201386 -0.1028683 -0.67945814 0.10015476 0.4865707 -0.24176775 -0.2810129 -0.37299052 -0.45770812 -0.18627506 0.79429543 0.20706594 -0.20371318 0.055868328 -0.026369637 -0.09546089 0.7760345 0.08740915 0.20016319 0.85386664 0.31359822 0.019004269 0.59238523 -0.48087648 0.20339707 0.01798556 -0.59170645 0.17968391 -0.020884397 0.32145435 0.596473 -0.045853168 -0.37141454 0.110492356 0.04942234 0.42183262 -0.3931742 -0.02585532 0.055816714
23 0.32462335 -0.23037438 0.44808733 -0.04265507 0.55122286 -0.24097045 0.0061719823 0.41785383 0.56644535 -0.2776065 -0.38631746 0.17288475 0.15421811 0.1109821 0.18000118 0.5947585 -0.75500953 -0.2539818 0.13655895 -0.15039352 0.42090303 0.34070712 -0.19716097 0.6286327 0.035946913 -0.009035126 -0.3252316 -0.37480733 0.06512479 0.3769407 -0.3862537 0.1869885 0.12826058 -0.05637882 -0.028146964 0.44164437 0.020509904 0.02107019 -0.13422337 0.05447971 -0.08134303 -0.11987555 -0.22503571 0.3044283 0.6411894 0.48689863 -0.5300798 0.1672188 0.66909313 -0.017796092 0.17624308 0.30374426 -0.2523638 0.12041381 -0.075365536 0.1804842 -0.23781723 -0.32861862 -0.08243959 0.32973027 -0.32735527 0.5133195 -0.36919022 0.23932195 -0.36036545 0.18060064 -0.40025696 -0.015228426 0.3221944 -0.0729559 -0.83416057 0.51747686 -0.17686576 -0.2514658 0.44368783 -0.18832004 0.29600343 -0.54988825 0.18582843 0.14360671 0.32763207 -0.22006193 -0.12173933 0.045079928 0.22870724 -0.08655939 0.2194106 0.6648899 0.45393553 -0.42711875 0.1289557 0.3586751 0.01779325 0.5070388 -0.16390787 -0.12194478 -0.15934567 0.23779656 -0.48647356 -0.042847153
30 -0.33915967 0.3957434 0.19551162 -0.09948053 0.25289533 -0.25806364 0.23674275 0.5190365 0.204208 0.20015933 -0.37931594 -0.12189909 -0.19775005 -0.18075034 0.054323003 -0.3021027 -0.12792686 0.4160483 -0.16965893 -0.3930121 0.36680034 0.3229699 -0.30600616 -0.29534957 -0.44237456 0.043683022 -0.17886713 -0.1747797 -0.3932594 -0.5779168 -0.10684964 0.1515478 -0.505131 -0.319119 0.26795375 0.26589656 0.09824108 -0.22232442 0.020311706 -0.02935619 -0.008426789 0.39998662 -0.035783406 -0.13787471 -0.43550408 -0.49571753 -0.37354037 0.38417697 0.38307658 -0.48789826 0.44791326 -0.12632754 0.14429155 -0.03388465 -0.0077377427 0.26254392 0.0020142165 0.11488153 -0.09313925 0.17017642 0.031808153 0.1513004 0.014022282 -0.53764784 0.30332044 -0.28581965 -0.34027487 0.33783495 -0.10916805 -0.25709152 -0.22690089 0.020656489 -0.07632695 0.0840369 0.2367561 0.2931042 -0.09971284 0.455714 -0.50139993 -0.62648034 -0.556144 0.5442671 -0.31638613 0.09790406 -0.6636878 0.20520632 0.6831611 0.06527509 -0.1095268 -0.34612083 0.54656404 0.21074742 -0.49416775 -0.20649251 0.38316575 0.11929991 -0.009772679 0.44849193 0.43414116 0.0012051612
54 0.31195548 0.052596338 0.008311685 -0.2795419 -0.8075753 -0.6737958 -0.32151616 -0.8788781 -0.24601631 0.36267275 -0.34437108 -0.21995483 -0.22186312 0.1036781 0.00016098822 -0.20166406 0.30010986 -0.7443597 0.269345 -0.2919604 0.07580889 0.3256493 -0.05818681 0.4913387 -0.30451345 0.24708682 0.13594028 -0.07851728 0.19723266 0.39431557 0.45777032 0.28435794 -0.029801328 -0.78827655 0.15775676 0.05328083 -0.0873258 -0.11704044 0.12755838 -0.2538417 -0.22666705 -0.7385752 0.006068256 -0.20501485 0.23972122 0.16327827 -0.66951865 -0.2956412 0.09891669 -0.3335836 0.4434889 0.4575781 0.15274945 0.21642597 -0.011364666 -0.5695814 0.17477421 -0.41936797 -0.02197749 0.43110672 -0.22103964 -0.093739554 -0.00074433925 -0.033001557 0.034983337 0.16416389 0.26735994 0.10330362 -0.37752077 0.2853993 -0.16718233 0.075890906 -0.00012480341 -0.21462828 0.15366866 0.3892196 -0.24942942 0.63996387 0.6827825 -0.19790785 -0.24869916 -0.11841201 0.1631061 -0.17884412 0.5406928 0.047355082 -0.14573282 0.033199716 0.30711043 -0.03533513 0.32232082 0.15448722 -0.30699182 -0.7765601 -0.4351528 -0.29449797 -0.3414639 -0.05893053 0.23264985 -0.23840715
60 0.33430067 0.63902783 0.052546635 0.11613397 0.053076446 -0.25556284 0.29190102 0.05956729 -0.13528186 -0.108349234 -0.049048375 0.3448436 0.41345373 0.29922155 0.77448857 -0.095673524 -0.032153066 0.3300725 -0.103323326 -0.45622224 0.11071244 0.5220496 -0.38108218 0.26351705 0.18107533 0.39424884 0.008813201 0.22092517 -0.042045552 -0.18376034 -0.2545441 0.16245152 -0.07540716 -0.046223998 -0.058207966 0.6532785 0.33816049 -0.08951827 -0.14663874 -0.023112403 0.07377779 -0.17084432 -0.083130136 -0.6184594 0.36041605 -0.32051763 -0.5411885 -0.26290035 -0.18949388 -0.13295189 -0.640356 -0.019821992 -0.48063716 -0.41965833 0.3372943 -0.015910918 -0.32415947 0.17911865 -0.1014034 -0.3435857 0.2711739 -0.20526956 0.0928114 0.05203271 0.59456074 0.43924877 0.32517198 -0.20981549 -0.16820604 0.42263365 -0.16023861 -0.06967393 -0.19791847 -0.33265698 -0.059232846 -0.020943953 -0.4131016 0.6053577 0.21880649 0.5157169 0.39321905 -0.23103112 -0.04222213 0.28314263 0.39754838 0.26288578 0.10774269 -0.2878006 0.51131636 -0.090550475 0.0880113 0.28901693 -0.24292417 -0.49977386 0.08373573 -0.25537345 0.0799889 -0.4997893 -0.08628706 0.30369666
83 0.25500777 -0.12042915 0.21825866 0.12672947 0.26218626 -0.5001248 0.10501131 -0.10291307 0.24173893 -0.12250186 -0.3096311 -0.46845296 0.16501935 0.12568149 -0.15555683 0.19935688 -0.3775051 0.12098824 0.30124328 -0.040913485 -0.10745672 0.23670088 -0.009826939 -0.44297293 0.31815812 0.14979519 -0.2908178 0.46865728 -0.26967958 0.021052763 0.26437137 0.15606906 0.19688292 0.46676365 -0.43682286 -0.24758945 0.60198057 0.11257692 0.061489828 -0.014307471 0.09168208 -0.32407928 0.036022987 0.37894526 0.29258376 0.4071685 -0.029971166 0.12789793 0.553141 0.016070222 0.4751566 -0.22856168 0.40727103 -0.2196175 -0.14360625 0.016065972 0.3552493 -0.52677214 -0.4710737 -0.05153121 -0.45165306 0.38194972 0.034608047 0.18890299 0.2998254 -0.13507296 0.19978836 -0.06469935 0.031237729 0.72224617 -0.13642943 -0.010508861 -0.114188574 0.3265212 0.013441027 -0.46206996 0.43137532 -0.22274527 -0.46206495 -0.3164076 -0.41952834 0.22516508 -0.236505 0.30055773 0.090139806 -0.19583319 0.018904865 -0.03005833 0.05105592 0.2527631 0.40308776 0.25211304 0.4727631 0.08116812 0.12023303 -0.14873129 -0.058084622 -0.21147633 0.10333993 0.19957265
