1000 100
237 -0.985429 -0.3206194 0.61079854 0.8820617 -0.3282832 -0.53695834 1.5639225 -0.15248448 -2.1968532 0.83952236 0.83184904 -2.5508916 -3.24516 -2.8352773 -1.1634753 1.8623648 0.592341 1.5699488 -6.6707144 -0.14948303 1.1044818 -4.0970387 0.99441695 -2.4067025 1.3281024 -0.41725248 -0.6881769 1.1465375 0.8001062 1.6158203 0.4224877 -0.07700818 2.8213189 2.1410925 1.4741665 3.7660508 4.093256 0.59655756 2.644445 -1.8779116 -1.8296356 -0.90581095 0.30119666 1.4515558 -0.63349336 -2.8819835 1.2805703 0.17730516 1.9918295 1.5080358 2.0527635 -0.43855512 -2.0286067 3.2798634 -3.7670965 1.2976258 2.1975017 -1.8462104 -3.6830473 2.136698 -2.6302009 2.0026913 0.96890545 1.5680456 -0.77853596 4.808234 -0.5121775 0.9569991 3.3324609 0.62542087 3.9937406 2.7081616 0.43566024 -0.109347336 0.9774749 2.0974693 2.4036038 -1.0436498 -1.1296135 -0.7423738 3.4945016 -1.4725308 0.6201615 -2.131226 1.0945286 -0.4585403 -1.5086502 -2.0695734 2.498723 0.06593874 2.3155053 1.135516 5.003701 0.9538161 1.5074655 -1.2175987 -2.2239676 2.1706674 -0.25419295 2.4589355
449 -0.69323105 -3.2999349 -2.7975132 2.36576 -2.7104135 -0.67814106 1.7068647 -1.3063976 -1.155895 -3.2479246 1.1521171 -2.3089504 -1.9126366 2.3968537 0.00789004 -0.764903 0.47814602 1.362235 -2.8029833 0.02993819 -1.3465357 -0.93794835 1.1585363 -3.551061 2.7863727 1.5140828 1.9758399 0.20912835 -2.6239572 2.0012789 1.7254965 -2.149071 -1.9124696 -2.4165616 -1.0283657 3.8736916 3.3912978 1.7962309 2.0460026 -1.125365 2.6144035 -3.9985657 1.5391178 1.7668037 1.4643736 -3.3062122 0.00061210594 1.9609345 0.60831106 -1.5785904 1.0434003 -0.57637703 0.82915604 1.1354305 -1.0746936 3.0335352 0.93268234 -1.6675771 1.7674419 0.076161355 -4.2587557 -3.5309494 0.87152225 -1.4261463 1.6900657 1.8321439 -1.1324316 -0.65538263 3.405207 1.3255279 2.3619587 -0.49997768 0.40392733 1.2733847 4.042104 0.22844392 1.3611836 -1.931296 2.3519394 -1.0851191 -1.7006567 -1.6500007 1.2687788 -1.9397874 -3.5354578 -1.8707707 0.5739957 -2.7914636 -2.960786 -3.0552166 -0.13965547 2.4162295 -0.9788138 -2.77187 0.5300769 -1.6710721 1.1110408 -0.5155116 1.665262 -3.9736228
556 1.51671 -2.6515267 -1.4839761 -1.7909044 -2.2259414 0.95149285 3.0257351 -0.45323116 -0.26100564 1.1990575 -1.0516244 -1.0532379 2.1550035 2.3208487 -0.5957678 -0.48812798 1.4806627 -0.87527895 -2.5000522 4.899987 1.6971362 1.945627 0.28079435 -3.0879648 -1.214024 -0.45123643 -4.068977 -0.08824935 -0.49957278 1.6251043 1.8446279 -2.4984953 -1.5054706 -3.1823728 -4.466109 2.2679343 -2.5178785 4.251369 2.5008352 -0.78855836 4.5616393 -3.519688 -1.688511 4.277151 -0.48959985 6.1330624 -0.08336673 -1.6476353 -1.2913353 -3.8321142 0.7089818 1.4511731 0.4607539 0.8819057 -2.0472982 -1.0012592 4.183774 -1.8065414 -2.48899 2.3908317 -2.7755954 -1.662917 2.7527027 0.24664877 3.5515895 3.3978438 -1.9231206 1.2109861 4.2506595 0.6268641 1.8340896 0.6720802 1.1301122 -0.23202652 2.581816 0.2499696 1.0220553 -1.4555955 -0.39689833 0.39002696 -0.7821754 0.6613546 1.1216193 -2.16618 0.5498821 -1.293998 -0.49957266 -0.7956473 -4.343051 -3.6156683 1.437617 1.9439882 0.8970853 2.6801891 -1.3146665 -2.0859666 -3.4827785 2.9990773 3.3666809 0.0343921
645 0.123721614 2.6670034 -2.9259412 -1.0367547 -2.2215602 -2.7131467 -3.4000256 2.165496 -1.7782778 -0.74133307 -1.9932501 2.7340546 -3.238469 4.027017 4.2696366 0.40364295 1.2272948 -2.166446 5.320561 2.4468966 -2.0474424 -4.658053 4.5389237 -0.06767582 -3.0127454 2.742485 -0.8256038 -1.6317892 1.1235306 -3.3080475 -0.51315844 -0.9036976 -1.5388235 1.4995024 0.9004359 4.290716 1.2378967 -1.0028296 2.4222176 -0.28092685 0.7018432 2.7440686 2.8479304 -0.3812172 -0.6911873 -0.51137924 2.4484477 -2.8293653 0.5892477 -4.026088 0.64615554 -1.4614596 -1.8270231 -4.7742558 0.18285048 -1.58153 3.9213104 -2.3354237 -2.6395667 -0.42688859 1.6468657 1.0876907 5.9362507 0.1873218 -3.676757 -2.875599 -3.002116 0.044605255 -1.6343405 -0.9180588 4.325979 -0.18800156 2.0122423 0.6971182 4.681658 -2.5128105 -2.7288785 -0.4422257 -4.8352966 -1.104873 0.763303 1.8613544 2.2934723 0.65226775 -0.6196373 -1.8106047 4.348647 -0.41408917 0.011376566 -3.5450084 0.19493152 0.66072214 0.871807 1.3926075 -2.2582712 3.0698555 0.23907816 0.32184017 0.64306575 1.8107262
876 0.86084723 2.646098 -2.2554138 0.6516875 -3.4320083 -1.1657424 -0.20180231 2.402036 1.5379779 -2.1919556 -3.9746475 0.467749 -1.7530686 4.139094 -0.211608 -1.4326476 -1.0383157 1.0693738 6.777515 -0.5667202 -0.025468605 -1.062893 4.838332 0.3790354 -2.049432 2.440653 -1.1206536 -1.0500214 0.06904048 0.14307286 -1.9283012 1.5574008 2.065394 -1.7666413 0.8409008 2.2786345 -3.538577 -1.523576 0.9359687 -0.09237575 0.9445506 1.8602962 -0.00913538 0.99767834 2.5517416 -2.409232 1.0164442 -1.2131981 1.2609516 -1.1274498 2.143659 2.0593624 0.52444744 1.0508024 1.8852527 -1.7912312 -2.8756733 -1.5653249 3.555598 -0.12986091 1.472344 2.6133685 5.210164 0.91142523 -0.15773714 0.5488238 1.5168862 -2.418693 -4.1272664 1.1212676 -0.5981091 1.0271381 -0.4928019 1.8030834 4.4743834 -2.8952203 -2.542231 0.6887283 -1.0410192 1.2081423 -1.7269727 -0.48776016 0.5571204 -0.09591656 -3.560055 -2.9576755 4.6878104 0.8241966 -0.9368107 -1.7162093 1.1154921 0.18778914 3.8043675 1.3784236 -4.757199 -0.5829916 -0.20649104 4.0481725 -1.0934798 1.9194237
801 -3.6866882 5.1238284 -1.4268034 -0.62976974 -2.5974627 2.053472 -4.4207864 3.0852385 -2.9511802 -1.6013359 0.7519754 0.7812531 -0.10411878 -0.46083575 -2.7417314 -3.6108556 1.385702 -0.47586578 3.4585965 1.0951482 -4.7479143 -4.64721 3.3787982 0.77408326 -4.764167 -1.3087838 -0.50762665 -3.8791566 1.5284061 -0.2988635 -1.8922086 -2.6988323 -1.5288091 -0.45660284 -0.2812158 -1.8068335 -5.132893 -1.6337273 4.625128 0.21224879 1.9738544 3.3981805 0.6958739 4.4732065 1.3492829 -0.51007736 0.42181888 1.4649811 1.6908495 -4.369071 -0.33490825 -2.302593 4.9363008 2.207915 -1.0483947 -3.0233402 -0.0081112245 -3.6723313 1.1618254 -2.811228 2.715074 3.4274147 4.072755 -6.641017 -1.5429765 -0.461146 -2.40353 0.5148302 0.9779718 -1.6528995 2.5949059 3.0849786 2.0289893 1.0837107 -3.0309343 0.074322976 1.2840807 -1.9088126 0.57482195 -1.0290431 1.3903694 -0.37086987 3.908397 -4.490317 -1.0472286 0.29767814 -3.1411085 -1.8991832 4.3684893 3.5918093 1.3829846 -1.4519079 -0.2627102 2.56081 -2.285818 2.3191507 -3.494534 -0.07198852 -2.0358388 -0.67198795
223 0.09608448 0.99008197 -2.0405638 -2.2973454 -0.42645243 -2.8114839 -2.0388935 1.3359116 -0.5899868 -1.8621626 -0.7033557 1.004698 -0.2513769 5.5048213 3.2226465 -1.0782562 0.3781495 -0.5257926 3.3667376 -1.4245412 -3.4554815 -5.025542 2.7215037 0.18705013 -0.3416575 0.14399235 -0.7194839 -2.2739594 -0.43439585 -1.7793248 -0.6490798 2.0705605 -2.1561697 4.9035387 3.868898 0.8505296 1.8448185 -0.11671439 2.1814668 0.6463596 3.4299128 0.6167906 3.6595151 -2.950788 0.7511247 -1.0445875 0.2674582 -0.47291675 -1.9670597 -2.3204489 1.4076978 0.22312546 -2.7061343 -1.6649318 3.588341 -0.8337073 2.8176825 -2.41694 -1.5243361 -0.29431215 1.3190774 -2.186046 6.1481543 -0.6705015 -1.8955685 0.9656774 -1.8548312 -4.407689 -4.2659016 -0.95142365 2.3783264 2.9544127 0.30039027 -0.20710777 4.584766 1.5713048 0.3409855 2.4528332 -4.4172482 -0.09867094 -0.21229209 -1.9372234 2.4990726 3.9504611 -3.5674157 -0.23595047 7.3501062 -1.7107269 -0.60281396 0.7126775 1.3795463 1.7119459 -0.67624354 -1.8444806 -1.0204701 4.328323 5.0590014 -2.3084743 0.30159912 2.9642434
565 2.600435 -3.0548048 0.47869626 1.294958 -1.2677381 1.8959427 3.4438536 -0.7475457 -3.5547776 0.7270715 3.1202261 -0.057185482 1.5177716 -0.060100537 -2.7881517 3.1986825 1.2940263 3.8951154 -6.237888 0.1956298 -2.5444722 2.0272512 -1.7573419 -1.6649833 1.5249176 0.38538325 -2.4058146 5.131852 3.2800336 4.9188356 -0.49773672 -0.5462378 0.8578561 1.0220797 -0.4566831 4.043295 6.0490184 0.16719604 1.5093701 0.46184832 0.78711605 -0.46345198 -0.32182756 0.5873738 -2.1588736 0.1245161 2.4346335 -3.4341192 2.0473948 -2.0722418 3.3154147 -0.17208081 1.3741758 -3.2902904 -1.1813835 1.7361475 -1.3068334 2.1262698 -1.9184961 3.292384 1.580751 -1.3573747 1.3027924 2.09449 1.7834193 2.0212986 -4.8836694 4.926217 0.12913343 -0.5152625 4.3970065 1.2222536 -0.46729738 1.1160308 -2.5893917 0.84696895 1.3373214 -4.5341377 1.4809144 -2.629841 1.4124694 -0.32329658 -2.1497154 0.28317973 0.9020233 -1.0299578 -0.42259988 0.40217933 2.6058607 0.4333726 -0.09526328 3.8108108 2.742172 5.9949245 2.7254488 1.4435959 -2.1270142 -2.2854981 0.8642366 -0.85003895
110 3.3201945 -1.4384055 0.31154358 -2.8540673 2.3806753 0.6433859 5.3426433 -0.6104492 -1.6376883 -1.6284899 5.337182 0.9139987 3.6230164 -2.2320044 0.22674334 1.4676082 -1.7415239 -2.2893412 0.35425985 -2.7362127 1.4322802 4.516204 -0.38924736 2.5466146 2.316019 0.57352346 0.8844848 2.7405713 -1.1839174 1.7913634 1.8184067 -4.489185 0.03263136 -0.11790988 0.14866656 -0.57777053 0.7579425 -0.22737579 -2.282164 2.260364 1.1343846 -0.53592795 -4.844546 -0.71204364 -3.093251 2.771848 -1.0776849 3.295666 -1.3745655 0.44013643 -1.0246116 -0.32315838 -0.4961353 -1.3296702 0.18269655 1.2621351 -2.3216043 2.5703273 4.947125 0.00085550605 -2.3856943 -2.1173952 1.3387578 -1.8960295 3.8724744 3.9751363 2.4233186 3.31138 -2.4399908 0.746492 -4.6255555 -3.9147105 1.3723388 2.1077876 -3.2772756 1.7671075 0.10659229 -1.9949657 -0.27082634 -4.509017 0.56941426 -2.4788764 -0.5955455 0.492421 -0.5803515 2.1795418 0.28870505 1.1751418 -1.8867549 -0.06345895 -6.126496 -1.3233515 -6.1413665 0.087104 4.679779 1.0638595 -0.0033091982 -2.1958985 -0.24378982 -0.12193186
850 0.45007578 1.206358 -1.7895348 -0.75489026 0.78904146 -1.2919488 0.21512784 0.80935025 -3.217549 3.3705118 -0.34917322 -0.9067111 -3.3121033 -5.1035495 -0.95414406 1.8590616 1.8265932 0.12674049 -6.934688 1.502565 2.0880673 -2.4129114 1.9252712 -4.8063684 1.7137161 -1.9066896 -0.91007406 2.4151936 6.528922 -0.59862787 2.3935964 -0.73184043 1.5721273 0.8105774 -0.54738903 3.9524188 3.734217 -1.2340991 1.6934494 -1.1968439 1.152817 -2.507848 -3.192701 1.4598584 -6.222723 4.177144 1.4404854 0.3000735 0.02448794 2.6642015 -1.2220026 2.6554878 -0.5379286 0.9586016 -1.8506569 0.57318366 1.5863317 -3.2325451 -0.13303643 2.0960987 -4.9196863 1.661969 -0.35332724 0.7210998 0.16712564 0.12026966 -2.2388148 0.4561963 3.5807636 0.01484052 5.252249 -0.33482376 -1.790661 0.6936263 2.2933335 2.0442288 0.6847282 -0.8446919 -0.6672682 0.90811515 3.7773864 3.6147783 3.8398821 -0.75230324 -0.91932213 -1.9195514 -2.4316747 -1.4761726 -3.0953622 -0.60860085 1.6160294 4.0376844 3.1416733 -0.38565734 2.7421362 1.6008531 -0.5563115 3.4688673 -0.4935768 3.8305063
489 -1.7129014 -0.53356874 3.12355 -0.6628417 -0.29343483 0.031784743 -2.6623912 1.7761902 3.817143 -4.91278 1.0134196 2.0270894 -2.4947603 0.46658686 1.8025341 1.4982362 -2.4378242 2.214367 -1.5034797 2.7941444 -1.2833072 4.9669623 2.119746 1.5593094 -2.842301 5.5281878 1.0349205 0.77301323 -1.3329605 2.8247 0.7321011 -2.76832 3.0302234 -2.4096758 -1.566364 -0.07163267 -2.3463283 0.37790343 -3.7662675 3.1371 -0.40689215 2.1779966 -5.5482206 -1.7661642 -3.5457244 4.1364985 3.5694876 1.0952382 -2.6268165 2.4896228 -2.104968 -1.1683372 0.7721595 -2.7526836 1.9229165 -3.573293 -5.526531 0.61534953 1.5388819 0.1697296 -1.3220484 1.7357475 -0.42674342 0.15414001 3.890002 -1.4918972 -1.2120754 0.30593333 -2.9004424 2.6937957 -3.7147229 3.1905448 0.17295356 0.16576363 -1.4953719 -0.96564114 -1.3511105 -0.3136936 2.6003168 0.6874995 -6.2172985 3.147678 1.570532 -0.31326592 -4.541837 0.61958236 -1.3985128 0.63425153 -0.105834305 -1.7631052 -2.1639707 2.0994043 -2.316071 3.359393 -0.5458891 -1.671166 1.1382916 2.2173922 -4.0853753 -2.209268
728 -0.85342187 5.7243266 -2.329041 3.803187 -1.3811829 -0.561906 -0.16513325 -2.0044136 1.6653734 3.1459122 0.7907986 2.9624503 -2.0763543 0.847356 -0.59504056 1.7172678 1.4258769 -0.8859787 1.8707378 -1.9396386 -1.1222789 -4.88547 2.1389785 -3.6430912 1.5290406 -0.3315104 -6.456221 0.022121206 2.3760428 -2.470467 -0.7681183 -4.0806513 3.647129 0.9778114 0.7957635 3.9062805 3.0557559 1.4400965 2.1171057 -3.6855562 -7.971607 1.448758 1.0537914 2.8414674 1.4599864 0.55461717 3.0994673 -0.93220216 1.7921622 2.2335267 3.3391788 -1.2131587 0.5513821 -2.3217494 -4.933022 -3.5987728 3.9882252 -3.207426 -2.8145113 -0.06651063 2.1991627 4.551292 3.7571018 -0.93203926 -0.40755403 2.0164502 -2.2950258 1.9950932 0.27728444 -2.7726173 4.690545 0.19029565 1.0979407 1.6415466 2.3402903 -0.9741072 0.02715969 -1.0445495 2.6622686 -2.177023 0.10083533 3.9209845 3.800144 -0.5402989 2.1509788 0.8383801 0.44083056 -0.5880689 2.9275045 4.6812067 1.8189473 -0.552409 4.5119705 3.0150938 -2.4076781 -2.5774448 -3.2617636 2.353697 -0.99956393 -1.855472
310 -0.8913942 0.27746984 -1.0012214 1.8836219 -3.3805947 -1.8750379 -4.8427005 3.5730283 2.9117205 0.49894136 -2.6889448 -0.33832464 -2.9177694 2.0111067 -3.3898728 -1.5359342 -0.033076257 0.46709397 4.48371 -1.912997 -1.1824311 -2.4402542 0.19982293 0.071155764 -0.143126 1.5207051 -2.0126657 -1.7348648 -2.0487285 -0.00085515744 -0.6526694 0.4441547 0.9070366 -0.44899234 0.7647913 1.2597288 -4.673153 -4.120616 -0.43163428 3.1839652 0.48243567 0.3865211 3.145924 -0.58939826 1.2270238 -4.3981056 4.2258663 1.3208356 -0.78646725 0.27652365 0.2859035 -0.9150461 -1.7734721 3.2931292 2.0948095 -3.490762 -0.96725047 -1.6931665 5.984865 -0.3291046 -0.9499318 1.9855903 3.762465 -0.55991954 -4.7931542 1.146348 0.012752218 -2.160511 -4.794099 -0.26272726 0.95659673 2.404054 3.6647408 3.041214 2.288378 0.17147586 0.82840914 -0.30124578 -0.47782782 -3.708115 -3.263711 -1.7558953 -1.7737807 5.9044137 -1.448189 -1.8720834 6.663488 -2.1065278 1.5889279 0.927009 -1.3009385 -0.23985979 2.256757 0.2741403 -2.0977633 1.3196057 1.7137296 4.820048 0.06454776 -0.1290386
607 -1.3166585 3.1131315 -2.3194802 -0.4336873 -4.8878636 -4.239838 -0.11632944 -1.2642866 3.4140582 0.9338639 -3.9688318 3.673096 -1.5255185 2.6498816 1.1384493 2.1165268 0.53223765 -3.1115713 3.7040713 1.6563057 0.93866247 -2.5792565 4.2678285 -1.8593582 0.0638328 0.77793485 -3.0773675 -3.3474083 -0.54237473 -0.10142783 0.3602045 0.016046336 0.50325733 1.4052423 -1.1876678 2.8666408 -0.9080199 0.37537566 2.3472345 1.2857224 -4.1879053 -0.79840547 0.06646062 2.1757019 2.827074 1.177064 2.942031 -1.4917679 2.7093172 -4.8301725 3.9428608 -1.1967518 -0.525748 -1.4658126 -2.1364915 -3.0017486 4.945812 -3.9372082 -1.0564696 2.016735 2.514712 1.6620557 5.5350037 -0.06374151 -0.93708587 -2.1350977 -2.8275983 1.8392978 -1.2530718 -2.9092011 -1.8904868 1.5889497 3.0613935 2.7071652 3.8246973 -1.083467 -0.023675043 -0.5097245 2.1104567 -1.4821501 -2.5279498 -2.5331283 3.5985732 -2.4387054 1.1625191 0.785497 1.9905995 -0.101844184 -2.4320803 -0.41908178 0.8291535 0.20649737 2.7961254 0.16534328 -3.8026917 -2.2284307 -3.9630806 -0.2542828 2.9504168 -0.79135245
92 -3.4532132 2.043843 -0.7343296 -4.8492727 3.84423 0.006784109 4.2463503 -2.699495 -0.13487276 0.26710865 0.45391187 -4.400895 -1.3428115 -0.8073307 0.72049254 -0.18722007 0.25256976 -2.0984895 -0.7944395 -4.4236264 0.39269403 -3.5122888 -0.024302345 -2.9009793 -1.1565872 0.6443168 -4.169566 -1.2044979 2.4917607 -3.226106 -1.5661783 1.0551347 1.5111912 3.9062428 1.3165033 0.8667625 3.740515 3.5310323 4.994219 0.7506943 0.80342954 -3.4983516 1.4043087 2.8546293 1.7690496 3.863406 0.7963066 -0.21503516 0.83449817 -0.17593414 3.3403118 5.175274 3.04656 2.5395103 -1.9586667 -1.8291551 6.0580106 -4.1880684 -3.403642 -2.507943 -1.6550552 2.053299 2.159567 -2.8618634 -3.7792597 1.8409156 1.815732 -1.5063633 -0.110840134 -1.5698552 2.6512067 1.0319211 1.2963389 0.76615286 3.3943155 -0.4775296 2.35822 -0.9295063 2.2123616 2.263638 1.381796 0.19008084 3.4161484 -3.7059739 1.4252642 -3.3813536 2.2668111 -0.26364043 -2.2595356 2.8693156 4.057419 0.56717014 0.99550945 -2.531017 0.6183719 -3.1065428 -1.8278841 2.4675362 -2.6262016 4.4694104
646 1.5230292 0.05200029 1.4336476 -1.8090445 2.2181876 -2.7749493 0.47201607 -1.3153049 -3.2926035 0.7185899 4.742081 1.228303 0.53378737 -0.5022919 -0.6575097 1.8403562 0.93958974 0.95754653 0.20119251 0.7068315 -0.52829295 3.7577658 -4.630418 0.7684864 -0.0016006312 -0.8482124 0.380801 3.5517538 1.2928092 0.27534613 1.5375073 -1.8669055 1.7825093 1.6863123 -4.1196065 1.8142822 1.7277528 2.1744766 -3.3237069 2.179355 3.0233116 -2.6520157 -5.6298103 0.07648678 -2.4526494 1.1378239 -0.9007023 1.5050225 0.6868183 -1.7566236 -4.805963 0.14198454 4.7451315 -6.037159 2.7514708 0.2718336 -1.4048579 3.110585 1.9173627 3.306143 -1.2800279 -5.61246 -3.7631953 -2.208477 6.8843603 3.1818419 1.2826998 0.33764103 0.7996283 0.7421839 -3.4425917 -2.4804003 -2.4449568 2.0728772 0.32807988 0.2447468 1.1507189 -2.5265965 0.8833587 -3.8445914 -3.4824042 2.4607565 -3.2136908 -0.6464622 -2.339996 0.05344195 -0.8934293 -2.5400245 0.84695673 -1.6173278 -0.58954066 -1.2087766 -0.53472406 -1.2163112 4.542547 1.0096068 -0.66707194 -0.48244154 1.0046023 -0.46560606
806 -2.152553 -2.015673 2.7769835 -8.175006 -1.8436971 -3.237437 0.1336715 -0.9389043 0.8594212 -0.34067702 -2.649359 -1.6043984 -0.18576683 0.96746355 -1.2949528 -0.5887532 0.44904017 -4.2240725 0.023524627 -2.6469986 6.4157257 3.3166313 0.57546633 -2.5467997 -2.594743 1.1132214 -0.91176 -2.5407841 -2.5864425 2.2573764 1.5282383 -1.8841443 2.1347387 -1.7106028 -2.4833634 4.160848 0.91412723 5.780905 1.5273883 -1.1002262 0.9887639 -2.5734606 -4.691262 -0.79093903 0.97168887 -0.9859803 -0.84282947 -0.48968312 0.18921027 0.9850917 3.061141 0.48460084 -0.15265597 0.6842012 -0.08260136 -1.6183217 -1.6235716 -1.6662244 -2.4568336 2.34436 -2.5748384 -0.46206224 -1.2480913 -0.1856549 3.830884 2.5101392 0.69786555 -1.9713713 4.8291974 -1.0230324 2.94627 3.2634802 -1.1206259 1.0377264 1.5251646 -0.44329128 0.960496 -1.3368015 -2.9826417 -2.0250185 -2.986733 1.2753477 -0.1590444 -5.45261 1.1043813 -1.1422423 2.072659 -0.487454 -2.7614853 -2.48703 0.92723405 -0.25806922 0.5406781 4.874826 -1.5252988 -3.22863 -4.3062363 5.4033813 2.434596 2.8883371
950 2.851494 0.3001993 -0.17090595 0.896538 4.110695 -2.2717986 -0.11531153 0.7620145 -6.743994 -1.7768373 4.242687 -1.1629167 1.8626611 0.40922824 2.539851 -5.999152 1.5087141 -1.00844 1.9991865 2.6578217 -0.9882819 -4.7892656 -0.5274737 -3.733593 0.09317309 -0.86569417 3.537657 3.2253633 -0.109616116 0.76194143 -0.49078777 0.7941855 0.17377624 0.6637975 -0.87155706 0.09807957 -2.362937 -0.42112568 5.8065476 0.7922326 6.9477367 -1.5800804 3.1206307 2.2267396 -1.3651336 -4.020777 0.49542487 -0.5544797 1.2964082 0.13927644 0.68699527 -0.025605984 1.9141502 3.4500701 4.982162 0.7249143 5.301079 -0.7950661 4.856816 3.3065708 -3.9760797 -2.1358197 -0.24318169 -2.6570792 -0.46585426 -0.87352514 0.5496069 3.2968588 3.0982468 0.753838 0.9745006 -1.8786702 -1.2668557 4.27334 -0.20863238 5.2895365 4.9290986 -0.30921915 1.0690202 3.3896568 1.8215991 0.059305254 2.8825097 -1.5758786 0.86542696 2.4888742 -0.46523762 -2.937799 -2.0576632 -0.13427614 3.939654 1.9789206 0.18519442 2.908588 3.0758252 5.3170543 2.4732094 -0.4976203 -3.9797893 -2.129591
889 0.22006662 1.6733648 -4.65069 1.273368 -2.206289 0.7335848 -1.8855231 2.062922 1.5319116 -2.4912224 -3.1906743 2.9197395 -0.9452321 5.8336806 2.6163285 0.78074914 -1.1014721 1.6429247 7.4044003 0.8649981 0.75345165 -4.431886 1.1738114 0.56968015 -2.2457798 2.9721568 -0.27578273 -1.2277344 2.2044911 -0.04392254 1.1655517 1.6576066 -2.2276218 0.64725816 0.35644296 1.6661385 -7.1451564 -0.52544755 0.15288085 1.5531329 1.9207624 2.8521245 -0.096961334 2.2075078 -2.2725725 1.3831357 -0.294778 -0.47670704 -1.8820513 1.6203245 -1.8193746 2.6594555 0.55761737 -2.1710744 4.768529 0.047848564 -0.9713151 -1.1694901 2.3381727 -1.1917164 1.1964453 6.5692754 2.3372445 3.1905081 -3.0788672 3.9437094 0.315898 1.7568113 -5.661807 0.29169124 2.8710537 5.181941 1.4805703 2.4768233 3.0967655 -1.1134714 -4.4004817 2.4581041 -3.8576238 -0.7043285 -1.5899334 -0.5618256 2.7480462 4.3214693 -1.2581788 1.2845634 3.5159736 -1.4430748 0.79805046 -2.9537926 -0.63735217 -1.2902493 1.5739528 2.49037 -2.4005494 2.9315915 2.2142334 1.4926034 -6.4133296 1.8223848
27 0.6489443 1.2973064 -2.9618673 4.845167 -3.2468913 2.7421932 2.560639 -1.4428864 4.5173573 1.0046757 1.2215782 4.687399 1.6341242 1.2712682 -2.3958936 0.15010555 -0.8069006 0.48394975 -4.4466906 5.0037336 0.01894778 -0.61783457 2.179307 -1.5532057 -3.9038496 6.6024103 0.8806798 0.6196545 3.4347184 1.8762633 0.2909523 -1.2380061 -1.4493511 -1.6359631 -2.74512 2.4402726 -0.9852567 -1.5184311 5.587292 -1.6614004 -5.2249446 1.705603 -0.011540411 4.382002 -1.8863873 3.599955 2.6492946 -1.6039807 0.7452533 -0.4875604 -0.35705963 -4.6511135 1.879613 -1.4197739 -3.4101129 -2.3739948 1.0629412 -1.960441 -4.696399 -2.1678548 2.0077193 -1.2186034 2.8719122 -2.146857 1.1310662 3.2445562 -6.549347 0.051725287 -1.9079167 -1.3525074 2.568909 -1.7776166 0.12153992 1.2416184 0.6918649 3.811568 1.3487834 -3.916274 2.018975 0.30929625 -2.1217167 1.2492771 5.820073 -1.7781937 2.9187565 0.26617387 -4.3815465 -0.97748643 -0.55853 -2.84431 -4.5998683 -0.7381715 -0.17820576 0.033312168 -2.618219 -3.4252348 -3.6779172 0.828967 3.6775112 -0.93377125
976 3.9721923 -0.65936023 1.50919 -2.2564275 -1.390184 2.4187233 -3.2268407 -1.3787644 1.3890673 -0.37247777 2.195098 -1.4250664 4.8155255 -0.9344957 -0.632734 -0.7894328 -5.0035696 -2.1295657 -2.065497 -2.3329155 0.919207 4.0889044 -2.1929662 2.5888128 -2.5140507 -0.39895728 -2.0641162 1.0397837 -3.3191602 3.4665637 -0.17669843 -4.0714803 -0.03202473 -4.6618624 -2.7122447 2.8531966 -3.9570847 4.8793483 -1.5543772 2.4698002 -0.10543879 -0.92477274 -3.0536537 0.72376794 4.611337 0.8417834 -3.289587 2.8059034 0.6811704 4.051305 2.7927375 -4.544291 0.98923 -1.6291467 -0.89471734 -4.153026 -4.536959 -0.13796002 -2.744425 -2.11629 -2.8731465 -3.7060795 3.8471274 -7.445063 1.5416174 2.5822659 1.8063217 1.1221374 1.4616171 2.1311731 -1.6291881 -1.5306711 -3.2059429 -0.64129937 -2.2261927 0.16379242 -1.3417352 -2.1211765 2.831135 -2.569329 -4.421554 -3.2009044 1.2408605 -1.6816661 -0.478816 -0.37992772 0.4635175 0.05228813 -5.250811 -0.78665435 -2.737463 -4.9793596 -0.2801248 1.7009181 -0.19669372 -1.8584875 1.3385532 1.6390331 -1.3302295 -3.6049557
571 3.076182 1.9177195 0.09436144 -0.3410361 2.739183 -0.382076 2.138838 -1.2771522 -2.4543314 0.20286496 0.11293171 3.8087249 -3.4239194 -4.6888533 0.6136304 0.68348336 -0.73844904 0.3146207 -6.4279423 -2.685639 -2.327943 2.3414335 -3.9263525 -1.2701747 0.44477376 1.543047 2.8420017 -0.10740461 1.2077405 -4.944615 0.66032946 -3.3505552 3.9528863 3.0281494 1.6895404 -1.0139714 -0.003937748 5.035969 -1.7218101 1.5899454 -2.1119947 0.05991598 0.88458455 0.8006152 -2.4323714 -0.901079 -0.31909692 4.601711 -1.9010022 0.87455016 1.3399205 2.963638 0.14986758 -0.9651846 1.1460991 2.0500066 2.5698268 0.11817397 -0.6682406 3.7466578 -6.276071 -3.730769 -2.0153787 1.51332 1.8441277 -2.2639682 5.1709785 1.9442332 2.0128162 2.3801613 3.6715894 -2.3416278 -1.6652372 1.2072655 -0.46212986 -2.424764 2.8036811 1.1407145 -0.7482928 4.3980565 1.4327018 -0.6730205 -0.3793699 0.043338984 -5.9939117 -2.8768253 0.76522315 -0.4839291 3.6117632 1.3943247 4.2818813 4.9580045 1.8789208 -3.5704963 4.2613883 -0.09695593 2.7444696 4.155187 -0.65921587 0.49877137
979 2.533578 1.6811706 2.3979766 -2.098445 -1.5034997 0.28979152 -0.5793617 0.8882134 1.5294067 -0.8521734 1.1495787 1.0529583 4.4294147 -2.0688791 -0.08103192 1.8671216 2.8255017 -0.7449582 -5.1080785 1.9902527 -0.06777083 5.931793 -3.3270874 5.2099624 2.4807389 3.2259042 -1.13809 0.84781253 0.7504754 2.301461 -1.1955875 -4.4433994 0.24081622 -1.9777452 -1.3009468 0.4885812 0.14339845 -0.029417133 -3.9914489 0.7677067 -1.1896176 -5.269695 -5.6083393 -1.8610175 -2.3125362 3.2788115 2.9296312 0.48168224 -2.6798017 -1.5349784 -3.4546645 -3.7559617 -3.4143867 -1.8180976 2.8914633 3.6368167 -5.083776 -1.1412591 -2.0015934 1.6966672 -2.0789073 0.590456 2.1429346 2.0021446 3.6658669 3.1080441 -0.4495704 -0.41326517 -2.0095894 -0.9173344 -5.01297 -0.80975735 0.2791602 1.906559 -2.6672502 1.4476271 0.8642276 -1.9989897 1.253387 0.7736983 -0.0037205617 2.7314377 -0.90317434 -3.4032955 -1.8531203 3.7825696 1.0699121 3.914258 -0.930129 -0.78413385 -3.2399647 0.57224107 -1.1611406 4.1718974 1.5656116 -3.534946 -0.17941178 -1.4158181 -0.44126898 -1.3895125
978 -2.8881214 0.91874915 -0.9001241 -2.9714985 -1.2571508 -0.42410442 -3.3885179 1.882259 -2.0673096 -3.4154243 1.1970392 -0.6991096 -0.669045 3.079885 4.5993037 1.4161116 1.7574188 -5.663273 2.2383106 -5.701161 -1.1050681 -3.2271733 3.8157136 -0.76998526 -0.9834394 3.2527328 0.600638 0.29425687 1.220706 0.35467103 -1.2884667 -0.57858753 -2.0149343 2.8602912 -0.5196248 -1.636649 4.039741 -1.4347153 5.1159377 3.1883976 4.630455 -0.34955746 1.9560518 -2.0611575 1.7439778 -3.6026018 2.0102732 -1.232936 0.89977634 0.42338306 4.3210425 -0.00892507 -0.11419119 0.039502755 4.7172265 4.042787 6.7774653 0.8961308 -1.5722806 -1.1426077 2.7103646 -1.5222923 2.396282 -3.633507 -3.7334955 4.112668 3.0490391 -9.004779 -0.10718631 1.372082 1.9557259 1.083356 2.492603 2.5153253 1.7559401 -2.103825 2.0636954 2.7003539 -3.0284798 1.2629398 0.4335909 -1.2888159 2.1353185 1.5954083 1.4532995 3.268626 2.5250332 -1.5918186 2.526613 2.7450585 -0.06526268 -1.8256558 1.8825842 -2.146629 -4.4530845 0.55110735 4.5281568 1.5902979 -3.006335 2.8573442
349 -3.634188 -1.5353173 0.2060881 0.0058181915 -1.8170305 0.22680226 0.5973364 2.4629686 -4.2786098 -4.6069937 0.17017186 2.5673268 -2.0756848 0.57779604 3.2151089 -0.85500646 -1.2821686 2.3914917 -2.2240853 -2.508317 -3.1721122 -4.9157243 0.699084 0.75456774 2.72304 -2.4144974 3.4782484 -1.9215181 -0.12703022 -3.495018 0.69880646 5.6159363 -2.992944 3.3009775 1.3839892 -0.14886963 4.042981 -0.39308807 1.1585544 -1.850275 0.56211627 -2.8251877 2.826695 -2.3819828 1.981868 -1.9455141 -1.6213992 2.9240022 1.0918002 -0.13126129 2.52056 0.06445266 -1.7638911 -0.72411466 3.2628784 2.1085565 5.945886 -2.4093094 -0.25691807 2.1098444 2.685639 0.42100298 1.6285214 -0.5900835 -0.55684197 0.9458988 -3.4561515 -0.732971 0.680487 4.3647947 2.9364755 -2.5827043 1.4253641 0.9272943 2.411019 1.5338733 3.127116 2.1306453 2.328915 4.9877863 4.9708023 -4.952416 2.4235408 -3.7210834 -1.2583594 -0.20715193 0.021956086 -6.732209 3.4844978 0.84530014 1.8777063 0.8897172 1.0599604 1.1222992 -3.2057443 -2.0034337 3.5341685 -0.80855197 -1.7357346 -0.23224561
815 4.9618244 0.5987504 1.7522435 -1.891991 -0.25885242 0.084880225 -2.944943 1.0160562 1.5704465 0.91783845 3.415958 1.9818293 4.549831 0.57504195 -2.7688494 1.958081 1.6706597 1.1060042 -4.086904 0.14168826 0.09189049 2.2350988 -3.1763425 1.9220682 -0.21788463 0.36247957 -2.2922907 4.706851 -0.16755274 5.096661 -4.5463023 -3.0231905 0.5209019 -2.3917425 -2.7077637 1.1643107 2.4057088 0.44172493 -4.7069063 -0.65760636 -1.6521438 -4.7659893 -5.986366 -3.729093 -2.2653365 1.8498765 2.7492716 1.8619626 -0.59762794 -0.68987435 -3.051554 -3.7038906 -1.691622 -1.3814915 1.3313034 -1.9625732 -4.0667377 2.0457335 -4.933742 -0.866502 1.6577511 -3.295367 -0.28065482 -0.9681868 5.639532 3.7377453 1.4796616 2.9523528 -2.6456332 -2.777411 -2.4394748 -4.062999 -0.5181709 0.25376877 -1.6865158 0.9586611 0.2870711 -1.497447 1.1038425 -0.64274 2.415386 -0.33306992 0.43151417 -2.1407123 -0.64327574 3.1318781 -0.1145382 4.0043545 -1.6315212 1.8277738 -3.559974 -2.656727 1.0428983 2.2127872 0.8675021 -2.036226 -1.4423798 1.8593274 -2.5542407 1.2699884
592 -5.5633893 3.639927 -3.798429 1.345375 -2.2249563 -1.696123 2.1397512 -0.27273527 -0.9867741 -1.6702567 -4.2203374 2.5572028 2.4409578 2.5845177 -1.0160398 -0.49637634 1.2799952 -1.870714 0.7269263 1.2558624 1.0586679 -1.5892427 6.91835 -2.3542724 0.7528112 -0.4962485 -1.0391495 -0.055995774 -3.462728 1.3648155 -0.4910553 0.71956944 -0.013217219 3.0793645 -0.25698262 1.93109 0.65562236 -1.9928116 4.1023088 0.8751734 -2.3688464 -3.7649293 1.6997802 -1.6384165 6.7305045 -2.5628111 2.1218448 0.50164115 2.7296658 -4.5400558 4.46651 1.6275984 3.0395756 -0.87404996 -3.3329222 1.6181015 2.5537555 -0.4754081 1.7360071 -3.0177302 2.3482451 2.2741377 2.3303812 -3.4820628 -0.2586381 4.645552 -1.5083178 -4.54798 -2.2745981 2.51854 0.95826113 2.0267622 2.258002 0.54866046 4.1697283 -2.534423 1.8876508 1.9033818 3.60804 1.2478708 -0.70916677 -0.7127823 0.64292806 -3.6435268 3.3877335 -2.5502923 2.0581503 -2.045307 -0.015465474 0.004677672 3.1160753 -2.7421095 1.1493208 -1.2507951 -4.833197 -6.98231 -5.458474 0.66002846 2.5096931 0.59397507
294 3.0259948 -0.5638986 0.25043765 0.7504834 2.8430736 -0.6495268 4.1469584 -3.1195228 -2.5741313 1.0466325 0.26821023 -1.455483 -1.835999 -4.2044945 -0.265447 0.7399054 2.2085364 1.1616262 -4.754566 1.4142385 -2.9590883 -4.6876097 -0.10651832 -1.4250083 2.5009387 1.2990245 -0.2514684 3.5017862 2.8962033 -4.3044395 2.219549 3.6064012 2.1032596 1.9150656 1.2236804 -1.878211 0.63966376 2.5998847 3.967135 -0.16188844 -2.9219813 -2.124736 -2.7155325 1.5615718 -3.0741289 0.34239554 -2.3267365 -0.4594819 2.576266 1.5020028 2.5553303 1.5828861 2.4798868 0.20173252 -1.4675206 1.3454741 4.4930406 2.6370986 -1.3544354 4.8127575 -7.481463 -2.4451005 -0.7394266 0.4795852 -0.70578647 1.5289223 -1.0329591 -1.2252232 -1.0404054 2.4216902 4.794173 -1.9003693 0.29827812 1.5642836 1.3236585 3.091866 0.052295037 3.5741873 0.2702789 2.116429 3.4098163 -3.500524 2.4746516 0.5779845 -1.1684762 -3.5600064 -0.017875452 -3.5677953 0.4191575 2.5826938 5.3834724 4.821267 3.0355277 -2.3759234 3.712825 2.7042212 3.0249515 0.38609293 -0.734008 2.6897523
95 -0.9134041 -0.3738608 -0.7899914 1.9876856 -2.4590113 -0.8301201 -7.1244955 1.3388882 3.7900708 -0.9060638 -3.0141912 2.7653456 0.16403848 5.0404673 -2.6664677 0.66965204 4.3808417 -0.43780765 5.5051184 0.38858 0.5892431 -2.719316 -0.68962437 2.0413394 -1.6030091 3.1101472 -0.39488006 -2.2584383 -1.1778876 0.62713325 -1.6868579 -0.07520706 0.4794937 -1.3234615 -0.031483974 2.6046355 -3.9599195 -2.3599148 -2.5000417 2.2447407 -2.5835993 2.165661 3.8121088 0.20436183 -0.18811175 0.61874753 3.6215997 -0.3679905 -0.22128446 0.7145002 0.26978916 -0.5404396 1.0461075 -1.4834248 2.5279782 -3.8239107 0.40504637 -0.04944032 1.1177342 0.6999705 2.5503275 1.606357 3.411214 2.171875 -2.464171 -1.9587367 -0.012877021 1.1500574 -2.8834524 1.3796489 2.2526858 1.6725142 4.648059 3.6589372 2.5069098 -0.40870395 -4.2530894 -0.046284758 -4.331115 -1.4659595 -1.1982616 -2.718886 -0.440503 4.2046685 -3.225124 -0.8433175 4.8026094 -1.2849761 1.3617102 0.5371468 1.1588907 1.8217973 -0.46765226 1.1822774 -2.8106596 2.2602813 -2.2387338 3.3984673 0.09137008 -1.190161
507 3.920033 -1.390131 0.08108122 -3.82983 1.5440307 -0.7140284 0.6602426 0.24913873 1.8486338 -6.2505555 3.6686537 1.0734938 1.7388805 -2.986794 -3.0163894 0.81762516 2.7592661 -4.523432 -2.634292 -3.273317 -0.39689955 4.818547 -0.7477204 4.099975 1.9818488 2.316979 1.0882497 0.26542887 0.013759657 0.9593797 -2.7234783 -0.5670062 -0.5481312 -1.8328466 -6.91678e-05 -1.9502969 2.2560036 2.1528814 -4.797431 3.1760437 -0.74827707 -2.059467 -1.1765385 0.5638877 0.72504735 2.999586 -2.667627 3.5069048 -2.9074707 -0.4254206 -1.3154911 -2.9461224 -0.25584033 -2.109207 0.8135762 -2.253637 -3.4092839 0.35417908 2.8550556 -0.44751206 -2.4860368 -2.681993 2.6484077 0.14436266 0.9462695 0.89628994 1.9966391 6.9504023 -3.0717 1.1812781 -5.144998 -2.2364516 -1.2073336 3.4686487 -3.169384 -0.37265506 -3.6217213 -0.677358 -1.3643947 -2.4341843 0.18334073 2.724016 -4.8652644 -0.044459675 -0.065373614 1.5908973 -0.038869303 2.600952 -1.787052 -1.9352245 -1.656815 -0.748527 -7.167283 1.2241623 4.1783576 -0.025792658 -0.9725038 -1.6061814 0.14400125 -1.7410215
734 4.7823653 1.9677569 -1.3040115 -1.5357552 2.4267178 1.0268083 4.0289316 1.4795662 1.7154658 -0.32068118 4.8452735 -0.819929 0.8702256 -3.7405925 -0.76177233 3.029156 0.7516732 -4.809895 1.6831483 -3.1384935 -0.95496917 5.0600886 -1.9849328 0.0019257073 0.79637957 0.56636715 2.3662086 3.6557019 0.89234304 -3.311148 -1.2222956 -2.6225064 1.5518976 1.9919544 -4.3615036 -1.8191122 0.4249236 3.3828979 -4.265562 0.685226 1.7951976 -0.76216555 -6.721869 -1.8842812 -1.617082 -3.2051852 0.6598081 4.3148212 -1.8580397 -0.15621749 -1.6371933 0.5401038 -2.6501613 -2.4594345 0.8714189 -0.3332762 -4.410566 3.237987 1.5572839 1.922478 0.8773899 -1.6552155 -0.4494286 -3.087596 3.7302115 -0.12247976 1.6212972 4.873305 -1.6220286 -0.64596564 -2.0203934 -6.556519 0.33430105 2.691509 -2.6438522 2.17646 1.3989784 -0.5122604 -0.27968022 -2.449628 6.1694164 -0.15362167 -2.631143 0.14340667 0.3318504 -1.2900698 0.15322754 2.2085738 0.58307886 -2.3311934 -3.9918616 -3.6003988 -3.3982108 -1.2717997 2.8628135 0.43311614 -2.4326777 -3.002517 -1.9766991 0.6397137
30 -0.012296615 -3.427175 -0.8387408 3.2315419 -2.8860579 2.692219 3.2270324 -3.5487778 1.1582588 -2.682616 -0.20435247 -0.34768653 2.9585621 3.2487826 -1.0683793 0.43053687 2.3592281 -0.3796992 -0.60973346 1.3656173 6.2312527 -0.584361 1.1514857 -2.099168 1.7581234 -0.10898575 0.23507541 -1.1155025 -4.610682 3.4741564 -0.11500679 3.9919498 0.17373443 0.8279861 1.6138042 5.9461937 0.64622414 0.53221047 -1.09272 -3.323732 1.8466591 -4.4276786 0.97107154 -1.0076398 5.0502787 -2.935499 -1.8221242 0.7612307 -3.2016363 -5.4519386 5.6993623 0.76557815 -0.4627154 0.23737463 -2.84998 2.14932 -3.6196144 3.4677856 2.334267 1.6421243 3.3452568 0.4622626 2.1736524 2.5104082 3.4349372 0.9170426 -1.9742413 -0.5619351 3.549839 3.5381625 2.2542748 -0.13310973 -1.5047241 3.1015444 4.619149 -0.821572 -1.5590999 0.094864786 0.71014816 -0.38172725 -3.032838 -1.8434747 -1.1954975 -6.7398334 -1.9117184 -3.4414432 0.5262199 -0.8101772 1.420779 -4.81053 1.6045024 2.1989622 0.48623416 4.682628 2.7678573 -8.289819 -2.8017585 -0.3249617 1.6939921 -4.0213466
649 -2.2521682 1.7049512 -3.399635 -3.289891 -2.8078299 -2.8663585 -1.2771938 1.8819985 2.0697343 -4.475846 -3.9026287 4.081399 -2.2108064 2.2148542 2.8608787 3.4038107 -1.6991332 -1.9250629 4.5028543 -4.337561 -0.44554392 -3.2358081 5.029724 -1.892116 -0.4787621 3.7188563 0.08235084 -1.0587549 1.3095933 1.3551729 0.9276008 -4.058817 0.92474157 4.375927 -0.33752507 -0.093597114 -0.41872936 -2.5877247 2.814789 -0.45126754 -2.0101159 -1.7895348 0.18637758 -0.4418137 0.058669165 -2.3490014 4.3111267 -1.8566322 3.0771139 -0.050862625 1.9204798 -1.3495891 0.9378255 0.30331558 4.219686 -3.3117971 0.5733934 -1.3355174 2.6114707 -0.26179296 2.183185 3.8833625 4.1950564 0.5587041 -5.148634 0.8455476 1.1649474 -2.4366686 -4.0778794 1.0593308 0.15028445 5.60698 3.2223108 -0.457375 5.4156227 -4.1629825 0.13969629 -2.055 -1.2556404 -0.3331537 -0.5090238 -0.28574115 1.8336495 -1.1022102 1.2550657 0.6900719 1.053426 -2.8436174 0.09097266 -0.13594265 -2.2465549 -1.2412164 2.6068945 -0.8520021 -3.6195018 -1.5331706 2.1517065 3.170264 1.2595471 3.250187
754 -3.76072 1.5630755 -3.8573663 1.2186625 -0.16101788 0.06913878 -1.7177743 2.8952878 -4.2550325 -6.3075933 -0.8957542 2.5674348 -3.8858898 2.139339 5.370939 -0.51730734 0.13938317 -3.9529834 1.4425789 -3.7546551 -2.428292 -2.5090816 2.5050778 1.1947039 2.610294 -0.14336994 0.62015635 -0.63764393 0.52448094 1.1009548 -0.5517677 -0.4412194 -3.034361 1.2780381 -0.65917414 0.91382265 0.94112074 -0.7002162 2.0633795 0.58680063 2.2874854 -0.7246197 1.8549031 -1.398164 1.7254571 -2.9530227 2.860209 2.0994215 -0.90468854 -1.4293548 0.11499637 0.26560947 -1.6468554 -1.3256043 0.77655685 4.0646706 4.8478193 -2.2649777 -0.81651825 -3.2547414 4.6008773 0.41783443 3.7930138 -0.95874095 -3.6883662 3.0908134 -3.171477 -3.2914956 -1.1919665 2.1525614 2.4416943 1.6006805 0.17557979 -0.508452 3.6755452 -1.8989803 -1.6286652 3.450843 0.43435937 2.2784288 0.9940205 -2.6485069 1.902175 2.8542395 -2.459394 0.24131922 2.9855576 -4.918783 4.333507 2.865763 0.41203758 -3.8153112 2.6861506 -1.4097137 -5.280713 -1.7883737 2.0494406 -1.8049917 -1.3188885 1.5663828
457 -0.18956552 3.7482073 0.77135617 3.0388303 -3.4993136 1.7881718 -2.8227277 2.46564 3.3247597 -0.9187831 1.6989572 -3.8609474 0.6138965 3.1566164 0.96210164 -1.5309503 -2.024389 -0.39934766 5.6264772 -1.0064019 -1.3271581 -3.071759 -0.24428728 4.202393 -1.4807063 -0.14337018 1.6546636 -0.6898406 -0.054779325 -2.0288403 -1.3929989 0.28628778 0.10918266 -3.2753549 0.1880747 2.249372 0.5542209 -1.018316 -2.3914447 1.7082236 0.23883401 -1.3532317 4.6402044 -2.0913172 1.4989122 -1.2701273 -0.16490065 0.025247833 3.1885946 1.2718195 0.5864776 -0.5212221 1.3818327 0.6043296 2.5815227 -1.6302867 1.0436003 0.7031482 2.4950016 -1.0602036 2.00632 0.93341637 0.6460168 0.74537575 -3.9675822 -2.053443 -1.0894072 -0.7893728 -4.74329 1.5817484 0.4477866 3.4697087 -2.3482726 1.6954793 3.5213406 0.0023718476 -3.1504061 -1.6026 -2.5407145 -0.18192102 -1.4704596 1.5645839 1.9191989 3.056517 -3.969082 -1.2382971 5.4007688 0.62108105 2.014188 3.6812503 -2.3829622 0.73246646 1.0786288 -3.5938296 -2.9584005 0.53640753 -3.1526012 1.8637354 -0.53222877 2.1935878
140 3.851706 -1.5318621 0.055456925 -2.7462826 -0.24548586 2.0867167 3.0284252 -2.9954524 1.1697075 -2.8622346 4.047397 -2.1889915 4.671057 -2.5815609 -2.7061307 1.3117269 -0.73286945 -3.5856864 -3.8444796 0.41257727 3.2863393 4.7041645 -4.0232315 -0.4910913 -1.6047094 1.1216933 5.1901684 0.6674772 -1.0070668 2.296591 -0.22833093 -2.379715 0.5753922 -0.42223617 -0.8415734 1.6535536 1.9652697 4.333616 -0.81560117 -3.025215 -2.2624056 -2.4172533 -3.8604484 -2.015145 -0.24623188 1.7563177 -2.382293 0.744313 -2.7801924 -0.68586165 -2.8723493 -4.157357 -3.0140727 -3.1750326 0.020732 5.181454 -4.4810014 -3.125318 -0.954494 0.0011031281 -4.478361 1.6056621 -2.7403367 0.077138565 0.7353503 7.496998 -0.20343336 -1.3226684 1.6488996 -2.2298088 -5.3429575 1.1671435 1.9339839 0.92802596 -1.5075758 2.3144207 0.277201 -0.47762844 -4.1101613 -2.894779 -0.3627977 -0.41797554 -2.654356 0.042687833 -3.5831501 0.8845091 -1.3422526 1.3751988 -1.7998574 -1.9177345 -2.8568952 -2.858239 -3.8549979 2.243395 2.1198118 -2.053618 -1.8617942 0.064894654 3.2655082 0.68840295
157 -2.337674 0.7722838 -4.260193 -1.5733328 3.577675 0.31692407 3.374892 -2.6756625 0.119184226 3.960662 -2.529367 -3.9198902 0.65517014 -3.892786 -1.5858763 3.8535774 -1.2551684 1.2878835 -5.8283606 -0.3199177 1.4474483 -1.6710702 -2.7130275 0.61211276 -0.4848709 -3.9419212 -2.0658116 -1.4089842 0.45689854 0.9044976 2.412582 1.7114434 4.6820536 0.26034644 -1.2946987 4.2499223 1.6589656 2.7687583 2.5544977 -2.6278477 -3.1075337 0.66277677 -0.6367611 -1.5244405 -2.4166615 0.51938665 -0.016120333 -0.08828462 -0.5126974 -0.0657748 1.1914812 4.886186 -0.7118221 3.3361506 -1.4784849 2.2167947 -2.3975856 0.13019663 -2.786551 1.2825875 -3.5693574 -0.53464496 -7.7070208 2.7260346 -2.2468357 1.4113684 3.4850388 1.1831923 1.8626096 -0.17932883 5.4447303 0.925652 -1.1904501 -1.3801515 -0.33495 3.0104754 0.3167667 4.008155 -0.8628626 -0.35533905 2.4389994 1.186135 -0.5729778 -0.5886114 0.5877562 -1.3923284 -1.7264838 -1.4964465 2.0177054 0.6262599 1.9698792 3.8027585 0.43828237 -2.5892758 -0.18315701 -2.773148 0.39249015 1.4389368 1.186037 2.7217822
846 -2.9862165 0.14847659 0.39490113 2.8735664 -3.264257 -1.8088018 -1.4333028 1.4174412 0.36578095 -2.8191984 0.5902921 1.7901402 -1.8594853 4.4130974 -0.62983686 -0.5616423 0.3098248 1.7230895 3.0106936 1.5790337 -7.3041673 0.050714023 0.5229847 -0.5819152 -3.6769187 5.057379 1.5715135 3.2757242 -4.3490047 3.9597933 1.2324549 -0.5244138 -0.21979846 -4.179939 -2.8371754 -0.5399337 -2.3541243 -1.9866914 0.43749255 6.3831306 1.3321923 3.185563 0.3982099 0.6068054 -1.9166719 -1.167122 1.0824908 -4.8232293 -2.2563975 4.9346514 -0.46528447 1.1284559 3.4921074 1.8524119 1.4984748 -2.6164129 -2.5130959 0.821945 2.918283 -2.033534 0.20762771 1.6381525 1.7206191 0.6863339 -1.9754553 -1.3092989 1.2003139 -1.7583475 -0.6534862 3.6793394 -2.169707 2.6406584 0.20735717 -2.9277985 -2.4347315 -1.6846615 -7.2305326 -2.0109336 -0.83372384 -0.33266696 -2.1497145 -3.0146525 -0.16955243 0.7541325 -5.162538 -0.9346222 -0.09528303 -1.1806104 -0.9444923 -1.7892927 -1.1810297 -1.7409805 -2.330437 -2.8452597 -2.200935 1.2075288 2.0429642 -0.23284931 -5.0700445 -2.0404587
830 0.5354208 -3.811445 3.0319147 2.486349 -3.1925483 -1.0322288 1.1725737 2.5103917 -2.8927238 -1.1148936 0.40733668 -1.2722117 -2.91827 -2.4006126 0.10397968 -0.901744 0.04449352 5.6383767 -5.4660625 -0.16252857 0.6731156 -5.0557 -0.16341601 0.82312655 2.8887742 -0.4007637 4.815742 -0.82451844 2.1633193 -2.7948608 0.6217976 3.017127 0.307968 1.9087983 3.853779 3.048173 5.6160154 0.5285535 2.7024422 -4.802182 2.3939128 3.8829627 0.70888245 -0.87932223 3.2915094 -0.58897877 0.4833536 -2.3335767 2.3014643 -0.6334029 4.4211655 -2.6742816 0.77721524 -1.0776671 -1.2799761 4.5411806 -2.3739994 1.3832425 -0.46213597 3.8914993 -2.1077223 -0.92941463 -0.44007894 2.5867925 1.2108573 1.6856427 3.0846717 3.457209 0.8219887 4.9487386 2.458886 -1.6911975 0.41063553 0.62948555 0.627209 1.3023965 0.30094635 3.3322208 3.4296381 -1.083365 -0.72581005 -4.302809 0.22882895 -0.644858 -0.0027307551 -0.49210832 -3.6782131 -6.2600017 -1.2145946 -1.2690877 0.16637693 3.4780645 2.5659537 -1.384453 1.0752527 -0.3936714 2.4229033 -3.6714478 2.6913998 2.629599
112 -3.7462397 2.9885628 2.4887516 -2.2950935 -1.7481983 -0.93554294 -2.960851 0.7361805 -1.1313144 -4.7007694 2.5957398 0.24221146 -2.4731317 -2.2384653 4.2190914 -0.8558609 -2.9552965 -0.40603906 -1.4254955 -1.5363196 2.4875362 4.287097 3.9190655 -0.66903937 -3.709053 2.8771498 -0.097210824 -1.1464435 -1.6239007 1.9839605 -0.53129464 -6.4690604 1.6433645 -0.8780711 -4.2066746 4.3026175 1.8307465 1.4464751 -2.6231227 0.98831755 -6.7469087 -3.7170765 3.3497124 -0.1355326 -0.7343268 -1.113792 2.0232782 3.2189605 0.70199823 1.5097345 -0.17219841 3.619573 0.5563806 0.5466689 2.7413397 -0.30443105 -2.214471 -1.2377985 -0.1206873 -0.92937905 -1.44196 4.75793 -1.1839991 0.83573705 0.071154416 -1.7341743 -2.0076053 -1.2953506 -0.20668255 -0.19517836 4.4595327 3.1053536 3.952589 0.48048964 -2.8159127 -0.12663282 0.10843854 -2.7390332 -1.4886577 -1.8346779 -1.7521764 4.4885817 0.37125966 -5.3224325 1.4442286 1.9355007 0.025091317 -2.1173217 3.6314344 2.519675 -5.266864 1.6321555 4.771584 2.5549738 -3.6054318 0.32520497 -1.1032819 4.561195 0.01024808 2.085364
962 3.1811862 -1.5244923 1.68814 -1.1436368 1.8477082 -1.2207885 -1.751931 -0.57654643 1.9797992 0.8637057 -3.0375156 4.9321756 -2.5534277 -7.3790083 3.977144 1.2055771 -2.1261163 2.1494045 -1.5047833 -2.278886 0.69974107 3.3167472 -3.9712083 -0.42898336 2.773154 1.0053924 1.5629495 3.0408683 1.7351533 2.0254521 4.5950246 1.9358509 0.2874607 -1.1337385 1.5605528 -1.2980973 1.3243706 4.8801 -1.5855103 1.3201241 0.33543348 0.99120164 -0.2723327 -2.8416064 -1.3200067 -0.31749353 -2.8852456 -0.10496745 2.4567297 -2.364393 -2.8675044 -2.2953408 0.2612198 1.9836855 -1.0042758 -1.4228767 -4.508878 0.8786568 -0.97816634 -1.2160057 -3.5125487 0.59555775 -2.7041862 -4.2738795 2.94728 3.883026 2.465597 0.5709785 4.7388463 1.7351265 -2.454464 1.8340416 0.3537845 -1.4521567 0.36968744 -2.9152398 2.3913424 2.6023567 0.74895006 -0.16819774 -0.5758969 7.5559044 -1.2809161 -0.081867844 -0.55695903 -0.785847 1.8686857 1.7214516 -0.85021806 -1.3750091 1.5521399 5.338955 3.8797894 -3.7266998 2.619948 -2.9537835 -0.019988474 -4.1684995 -0.5319841 -0.67225754
997 -1.6306356 2.1659698 -1.9855292 2.0000753 -1.0638096 -3.6414838 -1.4147956 2.7745833 -0.0938076 -2.4631789 -3.5539155 -0.7886908 2.715011 3.3717716 -0.9292831 -0.9613214 -1.6916097 -3.4336708 1.6309422 -4.550013 2.0615327 1.2678348 -0.87342525 -2.0321355 1.3078763 0.6754431 -1.5235873 -3.6575751 -0.002897872 -3.4109337 -1.2155124 -0.7743126 -0.38062185 -1.927358 1.482902 -4.075995 2.9563549 0.5386749 0.80130875 0.60385674 0.5699 2.0506406 4.610968 -0.8018588 -0.02288348 -2.1964262 1.3851292 0.028620763 1.6719874 -0.21546145 3.0417953 4.839246 -1.1560538 -3.412795 1.0316011 -0.91387165 5.0360003 -1.4655514 -0.8215562 -2.1096706 -1.540904 1.0757096 1.5091069 -1.5110773 -2.0739396 -3.6805747 -1.3880006 -5.951564 -4.838663 3.7086399 -1.7076617 3.6803572 0.6800774 3.305654 3.4539573 0.3750247 0.523965 -0.64828825 1.7855083 -2.1583598 0.46934658 -1.0539879 -1.1690416 1.2478951 0.9420381 2.3169096 -2.2146392 -1.5813262 -0.16423233 0.21590053 -0.22701776 1.77953 4.6177764 -0.90107137 -6.462279 -0.32205048 -1.6986772 1.4848216 1.6564875 1.4521971
388 2.618789 -0.13822547 0.21420673 -1.4541951 1.6289983 -0.83986956 2.812553 -3.6191857 2.8117926 1.487236 -1.1182241 -0.3318988 -5.0482616 0.57338595 -1.5606744 -3.392245 -2.6573775 -2.5605967 1.1931163 0.032532204 -0.626279 1.7417465 2.9571545 0.80682796 -1.2499826 0.9148967 2.3797977 -0.30727148 -5.532541 3.915634 0.3262621 -1.1497675 -2.9107068 -6.056973 3.553351 -2.0567527 -5.972098 -5.1684623 1.921778 -2.0382154 2.7348623 -1.2782482 3.267417 -0.42143098 1.4513828 1.7004831 -2.2540464 0.09126148 -4.236149 0.9181123 -2.1904268 2.837085 1.7494738 3.8377912 0.33581394 0.39580694 -0.7635518 -1.1832503 5.6588283 -1.5233328 -2.516011 0.13528752 2.622929 -0.5167053 3.924154 2.436286 -4.959195 0.6583774 -3.685128 2.5443802 -2.5951397 0.8150653 -4.1830025 0.26764613 2.412945 -1.2017555 -1.606977 3.1051817 -0.22161733 -1.5221575 -2.2461543 0.063930035 0.5338756 -1.0128793 -1.9359368 1.4917154 -2.6293707 -3.0987372 -0.16314773 -1.762889 -3.4927163 -1.5431293 -0.0054529877 -0.88826555 -1.2618483 -4.4701023 -1.7898469 1.1278405 -3.0212574 -8.221926
591 0.77277744 1.1957316 -6.6888585 0.21129581 -0.95182186 0.15862502 -1.4690552 0.6734206 3.2663367 0.21552004 -4.505829 4.2708817 -2.0567126 3.7412593 0.0079644555 0.6925899 0.042588145 -0.7106145 4.3861384 2.6482694 0.38154525 -2.436925 5.3020067 -0.2398076 -3.380024 1.7912501 -3.6417828 -2.291101 -0.06863933 -2.78306 1.0807185 -1.2584648 1.1981418 -0.38091305 -1.2379928 2.8267434 -0.53411704 -1.4262217 1.7858872 -0.011496088 -1.7290187 2.8585744 0.039113432 2.949147 1.5702343 -0.22365452 1.477808 -0.2796216 3.151303 -2.0063822 1.6855865 -4.868775 1.3724298 -0.5025933 -3.5322196 -1.1277137 2.039129 -4.4279723 -0.30496806 0.85253596 3.483163 0.05155267 5.690329 0.6203076 -2.1901019 -2.9342637 -1.6068058 1.7804717 0.044327885 -3.4445753 2.470255 1.1442955 4.4208937 1.3426259 2.835993 -1.4181204 -0.6728381 -2.6056545 -1.0434972 -2.9106307 1.1949093 2.4442768 6.166532 -2.5198727 0.7724424 1.9735423 2.7224715 0.7079004 -0.021551162 1.1770097 -0.12536648 -0.4961561 2.0072155 0.6922949 -0.5924422 2.4818642 -4.89443 -2.145 2.6421366 -0.47312135
712 0.13648511 1.2018492 0.36997694 7.5811286 -0.32772958 -1.5703905 -2.2195623 2.3692412 1.0190638 -4.1268992 0.15844788 -2.340657 1.2204477 2.452633 -1.4916949 -0.988163 -2.822782 -3.5690613 5.223847 -3.4054952 -0.29488048 -0.48673186 -1.8907667 -2.7844195 0.8922243 0.02227202 -2.0515032 -1.3117472 -1.6747286 -4.531122 -2.8033395 0.81954515 1.2827576 0.6408076 3.7623003 1.4087126 1.8927811 -0.85273194 -1.2670771 -0.7747888 1.7610048 0.04012072 0.24578562 0.715483 3.076987 -0.7542714 1.0877666 0.61800975 3.5801532 -3.5695527 1.2631167 2.8973072 -0.2470214 -2.0275443 2.1625562 0.28891906 0.23438533 -2.192331 0.18727225 -0.12381812 0.82768196 2.1501422 0.77776015 -2.4869876 -5.08215 -3.1957345 -1.1248747 -4.549662 -2.7131925 -1.7737323 1.8855903 2.0141337 -2.0528421 -0.120519064 0.8976265 -0.029081652 -2.507818 -1.3238518 0.45727488 -0.71381843 -2.7665136 0.49187818 2.1647694 3.501678 -2.3761148 0.57902026 0.3139142 -1.8474044 2.6109805 0.021564875 -0.82375646 3.3387697 2.4402797 0.75564945 -1.8299395 1.5045639 -2.050777 1.392385 3.956272 -0.7194456
521 2.8870096 0.95045155 -0.07484003 -1.5576999 1.6401138 3.917014 0.5209635 1.5020058 0.0246752 3.245931 3.9478123 1.6996329 1.808321 -0.954612 -1.4938358 1.9294978 1.96311 1.7743027 -1.3814551 2.780497 -1.013595 6.88178 -4.748216 1.1367556 -1.504055 -1.6353022 -0.36969426 2.3645205 -1.3496948 0.9177162 -0.56092244 -1.700388 3.2017806 0.69723284 -5.7602873 1.2628711 -1.1031004 3.2809532 -2.7715702 -1.5295084 -0.20003194 -3.3657606 -4.289166 -2.667117 -2.121542 2.2176402 -0.3515683 2.3303483 -0.1357175 -2.0782933 -4.49318 -0.9946938 -2.954727 -2.139956 -0.41181785 1.5247781 0.04773204 1.4842741 -1.7851185 -2.432007 -0.1878649 -4.690187 -1.6527028 -3.1618931 2.2308056 2.5393147 0.0018228571 -0.41736603 0.14345792 0.3518657 -0.24423501 -5.4605856 -0.53710246 1.6010028 0.2721799 -1.2970272 3.1856415 -0.00273513 0.5733217 -3.5239992 -1.8030796 -0.5351772 -2.378142 -1.1887823 2.2741466 -1.208125 1.0857513 1.5682151 -3.041642 -3.4733715 -2.0113122 -4.2141953 -0.41976365 -0.2277433 0.98276293 0.14400613 -0.052424222 -0.02050339 -0.08740797 1.55466
961 -1.6269515 0.3715848 -1.2517263 0.9356811 2.9763706 0.5256725 -0.15104021 1.0511985 -2.4835877 0.7708383 0.107499465 -0.17932355 1.0627003 1.4777992 -0.4582177 -3.8581202 0.3869387 -0.7615409 1.5804822 1.3745707 -3.4431267 4.0555224 -0.3691732 0.26813334 -1.811716 2.161469 -2.9834375 0.36446047 -4.924545 3.6361392 3.0026596 -2.9127243 -5.2944446 -6.9264145 0.7419411 0.04500285 -4.629628 -2.0190115 -1.8368138 0.80160606 -0.6068699 1.5422065 2.8882442 0.84383065 2.0660295 0.9098471 -3.0803177 -3.215621 -2.1180012 4.3255453 -2.6904504 -0.24806221 4.81834 1.449065 0.47769558 -1.9745611 -5.2805443 2.2658093 2.2208934 1.6147797 -0.83807194 -5.537274 0.45734066 -3.052829 0.49639723 -1.0095484 -0.7791003 1.6561534 2.3471634 2.4542696 -2.840414 0.31598744 -1.3719705 -2.387653 -2.132536 -1.0892097 -2.7981246 0.08130663 2.7174246 -2.172106 -2.6074834 -2.9122589 -0.74106294 -0.5913295 -1.2530055 -0.42468262 -0.588649 0.24051225 -1.4738998 -0.4553763 -2.1829302 -2.6136725 -2.4613986 -0.59327596 0.3839736 0.5512294 0.9943872 5.4646387 -2.8436363 -4.074902
284 -2.5040333 -4.6643276 -1.2726804 1.0742359 -0.677035 3.873411 6.7178035 -2.0488439 1.0036987 -3.3717492 -0.3743136 -5.128985 3.4866934 -1.7731259 -0.9571889 -0.73915386 0.46894795 -2.3840518 -6.988814 3.9945788 2.4665232 -1.8850962 -5.648792 -6.109144 1.147425 -2.4510438 0.22852919 0.58644944 3.8604717 -1.174494 0.93898076 3.4592247 -0.2659517 0.7932419 -3.1088421 1.2855803 3.4305406 1.1435043 1.2221975 -3.1377718 -1.2332642 1.5186542 -0.80070806 4.211633 -2.9920206 -1.2544693 1.3464512 -3.848283 -3.276217 -0.34841803 0.65025806 -2.1423283 -1.0587606 1.5238677 -1.6575816 -0.60041136 0.8452034 0.9799676 -0.13931519 0.07870168 -2.812929 2.0042596 -0.5342473 1.9709946 2.3791327 1.1695527 0.387994 -2.0534103 3.4648697 -0.20359077 2.713753 -1.0458703 0.045106947 -4.321037 2.2013855 -2.1843743 -0.42962024 1.7035141 -2.5028176 4.7753224 -2.1812344 -0.12873235 -0.97716373 -2.023453 -2.4561803 -0.8394386 -0.92416126 2.8179648 -0.8394741 -1.7623007 0.12554964 2.6314375 4.861994 2.2184827 1.6222308 0.3434684 -2.471546 1.131725 3.813237 1.6825238
103 1.0956428 2.157332 2.9434288 -2.2463276 0.19211812 -0.15311605 -0.52274895 -1.618384 -2.9962053 -0.5964673 0.23369206 1.814012 -2.402706 -0.6270965 1.4157131 0.33670393 -1.8255163 2.0468524 0.96979666 -2.5447156 -0.96521807 -4.525942 2.7580898 1.3295127 3.2163231 -1.7384214 -0.27445236 -0.71290547 1.96212 -5.9824843 -0.18643367 0.3920561 0.71251094 1.8866336 -0.045170162 0.59183604 1.9920423 -1.5241419 -1.5290848 -2.7587686 -3.4735823 1.6826802 1.6507754 2.6857474 4.9975967 -3.8811495 0.94020545 0.6861399 0.9744913 1.9036736 2.9300642 0.017253779 -5.0323944 -2.6718264 0.92910105 0.14127444 1.0445222 -0.60148364 3.002256 -0.06794417 5.3176055 0.025211612 2.6035595 0.3477641 -3.9075596 -0.4458209 -0.6389893 -1.1654694 -1.584312 4.2850013 2.0241592 1.782315 -0.06335619 -0.43800446 3.2109585 1.5673188 1.7758471 -3.2622852 -1.3416661 1.384811 3.7885354 3.403685 4.419272 0.9066801 -3.8379192 -0.3672563 -0.16397431 -1.3431427 3.2177503 4.545254 0.5852075 3.6358712 2.977714 6.144175 -5.710198 4.0856004 0.89346224 3.9651263 -0.074732155 0.90200216
186 0.016422 -1.1154262 -1.6053288 5.9402018 -4.2542686 1.3775495 -2.273636 1.8642032 6.150024e-05 1.0489651 -1.2341622 -3.322837 0.9944927 -0.6125933 -4.7494416 0.89462346 -4.528177 0.35723707 2.8223217 -2.3029656 -1.7679627 -2.5212035 -0.43522456 3.190001 -1.8908032 1.5002742 -4.1520276 -1.7449206 -0.8227041 0.91365623 0.79072714 -1.6374449 -2.746386 -2.7919455 -0.037529346 0.551095 -7.0163035 -2.4798765 -2.0321057 3.5174184 1.0730257 1.2864642 2.882946 2.855475 1.6588243 3.3739681 -0.35852522 0.14734335 -0.62835366 2.590665 1.5043846 -2.545229 5.151553 1.4672282 -1.1213707 -1.2739154 -3.8139157 0.74742883 2.0768743 -1.086765 3.1160383 1.7164533 4.175738 -3.2858348 1.9331739 -2.33423 1.3969375 0.42386702 -0.47138503 -0.40108192 -0.74816734 3.1870916 -1.2460423 -0.5057753 -0.66972363 1.6426946 -3.3159277 -0.33145753 3.0425866 -0.04724365 -4.9938703 -0.47550246 -1.4040797 -0.15025 -1.1786599 -0.52009463 2.824616 -0.3810785 2.5820856 1.894197 -1.1824769 -4.2385945 -1.4996302 -2.2791798 -2.3950675 2.0830522 1.1741086 4.751711 -4.3842683 -3.801333
924 2.2064092 -1.6781173 0.54152936 -2.2160544 -0.21745767 2.0272667 1.4947065 0.9122217 0.28645983 0.21711782 2.5881534 0.792632 2.897577 0.05792014 -5.3154125 3.8354125 3.494992 0.12725174 -0.8993668 -3.3997235 4.3991013 1.1321507 -3.966071 1.8149893 -2.2590747 -3.1158917 0.8346323 0.8338404 -1.0955799 3.2243965 1.3630735 -0.16200748 4.1797056 0.36573884 -2.0633836 0.37430716 2.033197 3.7596805 -2.6150737 0.27938133 -0.38377294 -2.756753 -3.932919 -1.0233954 -5.162465 1.3250453 0.8682135 4.927742 -3.498216 -1.816477 -4.9209824 -4.5448465 -2.0428452 -3.5704136 0.6592575 -0.48542985 -2.35722 4.4856143 2.382733 1.4653451 -1.6957997 -4.6980743 -1.6489667 -0.73182505 0.7823946 0.5670579 4.2491894 2.7279642 -1.6605153 0.16631515 -0.27514955 -1.424094 -0.84600765 0.54007185 -2.456038 -0.8998152 0.0039445846 2.3143005 3.4564981 2.0117126 5.569785 5.172791 -4.0446978 -1.986237 1.1306607 -1.5617859 1.367445 -0.3169601 -1.1971118 -1.372894 0.775466 -0.1487085 -3.2470434 1.031334 2.541165 -1.3620092 -1.7104853 -2.2448015 5.0129747 0.333672
36 1.7888508 -0.13368848 2.2239332 2.4220965 5.2143455 -1.4321351 -2.6040561 0.61264515 1.1687295 -1.4198594 -0.37276134 -0.7609584 -1.8755147 4.7744026 -1.3713006 1.2489469 0.9352809 0.55647624 -3.1944427 -0.17797911 -3.020866 1.8554443 2.3526452 2.9922035 -1.2405741 2.861423 -0.8718679 0.7417585 -0.49347362 -0.2791574 -1.8719947 1.9362652 -0.47869527 -4.5964026 -0.81036115 -1.6644768 -3.8330088 3.9689019 -1.24763 4.576833 1.6086951 -0.77225775 -1.495659 -2.2048137 -1.2283262 1.6527904 -1.0803306 4.135452 -1.5619326 5.461986 -3.7660074 -1.0320984 0.042252626 1.7569658 0.8200624 -2.3901482 -2.6637654 1.9273487 6.4759984 -0.58588505 1.3099439 -1.6993681 -0.07630431 0.7817131 0.99257416 1.3111945 4.642532 6.277529 -2.7313669 1.4121243 -4.366011 -2.027604 -0.062483184 1.8672253 -3.671533 -4.0635705 -5.246682 0.4347268 0.48088634 -0.39815933 -3.23272 -1.6895055 -5.6811805 3.946561 0.56758523 -2.5429988 0.86810946 2.9106412 0.48472455 2.0064397 0.4501718 -0.52575284 -2.407332 1.2663711 2.0434694 -1.4737386 -3.0316916 1.5796424 -4.7902155 -5.864829
224 4.454448 -2.2173598 1.9667463 1.7388096 -1.3249009 1.4828306 -0.24230044 -1.2285112 0.517551 -1.5605072 -2.5768995 -1.306604 -1.6321428 -2.5440242 -0.057782818 -0.07354224 2.0374007 5.561947 -3.1711135 -2.2856162 2.2444165 4.6512985 1.2533724 1.5906106 2.0288346 -0.624429 2.9218848 2.7369883 0.06408787 0.7019479 -0.84837437 -0.6746836 0.9963477 0.18884715 -0.015091374 0.599356 2.5604844 3.0636055 1.4503621 -1.2695682 -1.169252 1.7118263 -1.9009858 0.6512445 -0.5251778 -1.0614581 -2.0999725 -0.27176827 -2.2947278 -2.4348683 0.15709752 -1.5421646 -2.2104456 -4.078763 -0.7827487 0.99051905 -6.1283956 -1.9544472 2.3713255 -3.2721698 0.39575496 -3.9159343 -2.13241 2.214818 -0.39468658 2.496384 2.988188 -1.1283827 5.199701 3.5821707 -1.3282795 -0.7545205 0.98311156 0.2739236 -2.2033224 -5.1084504 0.40361762 3.8000367 3.1790402 0.7582563 -0.54074126 5.3868475 0.34442413 3.2351744 3.299307 -2.6411328 3.121779 -0.8053002 1.3511916 -1.9524244 0.8739579 4.3395133 2.4700122 1.7077897 5.560082 0.4617965 1.4248191 -1.1386408 -1.0703223 1.4295478
453 2.1485138 0.86712825 1.295912 5.964785 -0.13898389 -2.6137261 -2.2696147 2.1281853 0.7600343 -4.045581 -0.26552206 -0.6495442 1.5670376 2.6909168 0.55801165 -1.1799958 0.10064248 -4.0536246 5.7128 -2.22833 0.01663837 -0.83814454 -1.7370785 -1.5840787 1.2078699 -0.1175371 -2.3095443 -3.5770993 -2.5011156 -4.7898526 -0.99896777 1.6352509 1.2439394 -0.65462786 4.4563813 1.701763 2.5831559 -1.4250515 -2.1754584 -1.2716931 2.1127245 0.058785688 0.57382286 0.11113514 2.254703 -0.57253414 0.14415173 1.3897624 3.4212754 -3.4110687 -0.29279786 1.5251092 -0.2103963 -1.3783202 1.4532895 0.7004547 -0.44230917 -2.7766342 1.0864831 -0.13146353 0.66525924 3.5159006 -0.35771164 -2.0312295 -5.663701 -3.1881812 -1.7189125 -3.61283 -3.4723978 -0.99956113 2.395276 2.0297265 -0.2178842 -0.3289421 1.7299294 -0.8615761 -0.63438565 0.4534332 0.11100769 0.43023226 -1.0010346 -1.09551 2.3212612 2.9441104 -1.1652656 0.37613335 1.7788975 -2.5900402 1.8106062 -0.6723211 -1.258034 3.759385 2.5374823 0.9560328 -1.3978599 2.2775033 -3.5187573 3.2016225 3.5729065 -1.1070999
333 -1.9575864 1.5299789 2.2662535 1.1899015 0.34251076 0.6529692 -0.88596606 1.7191725 3.250445 4.168147 1.8238535 4.3791337 -2.3698194 5.147526 -2.1352813 0.400022 0.9844413 0.7693733 0.7523936 2.45736 -1.4553175 2.2516859 0.7274672 -1.9420393 -2.3558555 0.5246374 3.9436355 -0.3630758 -2.130699 0.35006464 1.2277691 -3.8448806 -6.8205147 -1.6432238 -1.7879996 -1.6252412 -7.9209538 -1.6108367 1.4132044 0.3233755 1.6998657 4.0240126 -1.933055 0.772763 -1.3869779 5.070938 0.43776417 -1.326148 -2.792633 -0.25126117 0.58116484 -2.2266493 4.1251283 0.43584523 -1.133445 -4.245854 -2.2603188 1.1696837 -3.3441699 1.4024055 -0.79104084 2.2736425 -1.1301097 1.2480087 -0.3655219 -4.6747074 -2.9824347 1.5427977 -3.3137364 1.1328994 -0.37926602 3.5421197 2.7301774 -0.0052739917 -1.6540487 -2.1400268 1.6802338 0.68692374 1.6475581 -0.9219585 -1.5803809 0.20615713 0.7489477 -1.1413565 -0.86258906 -0.7261098 -3.05645 -2.6181316 0.27958268 1.3805535 -3.2501929 -4.177852 -3.0257442 1.6801047 -3.072371 0.5034341 -2.3106668 -0.33928 -6.3633075 -0.52773577
996 1.9548765 0.10698331 0.23876266 -1.866021 -2.3349345 -3.6255112 -0.597959 -1.1053648 -1.0128227 -0.41973108 -3.189143 -1.9440563 4.256149 3.912219 0.5708037 -0.834676 -0.7407532 -2.6931317 4.224928 1.1768022 0.054926276 -2.6472518 2.928766 -0.9732336 0.36585736 -0.22581947 -3.5991907 -1.0054929 -2.8003688 -2.867615 -1.0241582 3.357342 3.6908898 0.5544288 2.6988173 -0.73850816 -0.32685825 -2.1000595 1.7316744 -0.15096933 -0.036511634 -0.10791516 -0.23755561 1.6317956 3.7352912 1.2659634 3.1637492 -1.1429077 1.6542475 -3.0801647 4.605042 1.0975806 -0.0989105 -0.79386073 0.40309277 -2.0357575 1.7265139 -2.1274014 -0.27776742 1.9178458 3.7162793 0.52984613 2.6086996 0.43184352 -1.3281908 1.1219599 0.32193157 -3.7018108 -2.6390786 -3.0856194 2.3545775 2.4417152 0.9488443 -0.9078273 7.0699697 -1.3727931 -0.4491787 1.9422371 -0.3339194 -1.7559378 -1.6812869 1.3605084 0.6549011 -0.6158064 -2.7957606 -0.42593178 5.1929994 -0.7831641 -2.9929254 2.0115376 -1.1666942 2.7988667 -0.11936159 -2.6813467 0.39289334 1.4362282 -3.839237 1.7288444 4.3680325 -0.4710181
260 3.2356322 -2.9161782 0.16338886 -2.5373898 2.6748052 0.30887306 0.69774705 -1.2849798 -2.0558217 -2.5261517 2.2672014 2.3136036 -3.4154105 -1.6372424 1.4247565 1.0769516 -0.5757599 0.8795313 -0.076822296 0.3766895 -0.72775584 4.1241374 -2.0134487 2.5601215 1.0661517 1.6471918 -0.3369748 1.6833473 -2.3322055 4.5553236 0.8865086 -0.538249 1.8496536 -0.011867878 -0.5929047 -2.4906585 -0.14549182 2.2344744 -3.913817 -0.50709456 -0.8272459 0.63089067 -3.0187275 -2.287907 -1.1074198 0.26410905 -2.9388726 1.5772296 3.1877952 2.6250236 -2.9000134 -0.66637737 0.7651044 -3.9548705 0.33602408 -0.45246154 -4.2262163 -0.094189696 -0.5149235 0.15816528 -1.3476254 0.67105794 -2.7794487 -2.038676 5.1441684 3.8170702 1.4414345 0.08799645 2.1772854 1.0140945 -5.762648 -1.2475653 -1.5275209 2.3385665 2.6437912 -3.624091 3.6921997 3.0124397 -0.95915323 -1.476883 -2.183988 3.6083865 0.3481726 1.1051714 1.9435682 0.66734844 0.41915146 1.5808363 0.2513288 -3.0307126 -0.7922872 1.4248575 -1.8186084 -0.7126705 3.1228569 -0.88627243 -2.2109141 -1.4341376 -1.4114106 -1.5866709
670 -0.52227104 0.9757616 -0.4641552 -0.60229665 0.9149594 -5.064438 -0.1152559 -1.6435097 -4.7328453 -3.2199378 0.12471649 -1.206465 -3.1555233 1.9482583 -0.672726 -1.9692073 0.34397835 0.6413777 -0.7521152 2.0401504 -0.3520814 -4.5919414 -2.7130423 1.206786 -0.39931276 -2.5544224 6.077186 3.8241596 0.98429394 -0.32705244 -5.266676 2.0675294 -1.0886419 1.2248181 2.2661428 0.45097512 2.3143258 -1.766605 1.6953179 1.8720742 3.5277877 -0.041711368 1.376891 0.25491574 -2.5840232 -3.1590257 -1.179138 3.5944474 -3.9972868 -2.9783099 -0.3803521 -2.186895 6.3087845 -0.17463045 2.796562 3.3071187 1.4172415 3.2945929 2.7339969 1.6436144 0.24100865 0.91263163 -0.89355195 2.4469793 2.8142676 0.40341818 1.4266636 -0.9143309 0.6325288 4.541878 2.7915485 -3.626836 0.33648804 -0.31781328 3.7572505 -2.200614 7.25492 -1.4935749 1.0450243 2.6496344 -0.95058924 0.21165176 3.0797465 -3.0996764 -2.043087 -3.1160855 -0.3349032 -4.512001 -3.1783109 -1.2134866 0.76165813 5.546965 -3.3803747 2.9627292 0.63842845 2.748393 3.387135 2.1235528 0.21520254 -2.471857
469 -0.3070587 1.4361461 3.1292677 -0.23858036 3.3831937 -3.4071217 0.45317465 0.96217334 -2.6553755 -3.9129114 0.079847515 1.043305 -0.4295835 2.329088 -3.538033 -3.2013395 1.4273589 2.481157 -0.24515058 -1.2802609 -4.0232 -2.3840847 2.3298342 2.2380724 -1.4016185 1.6637698 2.564327 4.2811775 1.290818 -2.9209538 -1.8384643 -2.889388 2.0893767 0.77359074 4.5851407 -2.2125275 3.6949978 -2.6912477 0.70570046 -1.870503 3.0394256 1.7084143 4.039389 0.79383963 1.5361291 -4.94731 -0.60430324 0.35277426 -0.8987989 -1.2880158 6.886862 0.1685585 2.130232 0.21108323 4.5731883 6.060514 1.3046659 5.0023413 0.587291 0.5383244 -0.4103266 -1.9485897 0.0119184265 -0.8458125 1.871971 -0.9483927 2.8695085 -1.362369 0.28746817 2.8500948 3.8391159 0.94634074 -0.8142845 0.42025802 -0.56898886 -3.4703624 0.5461458 0.2354022 -1.233847 -4.5206146 -2.3998013 0.72045016 2.2455997 1.3421892 -1.3779819 -2.1074831 2.6572628 -1.1070311 2.2036994 3.402297 1.2311941 5.2047877 -3.2864225 -1.1936653 -3.1371887 1.3443452 3.9695513 0.67824763 -0.07179192 1.6531847
77 -2.1724958 0.5903467 3.8617563 1.9453588 0.14376906 1.2100762 -0.568332 -1.4134822 1.4570938 -1.8923146 -1.2636402 -3.4128847 0.32640058 0.10409523 -1.1207962 -1.1586275 -3.0552304 -1.5362129 2.8805969 -1.0047995 -2.6422937 -1.1117643 0.20689507 4.4115863 -5.5890923 1.3605347 -2.355883 3.327377 -1.0553783 0.20216452 3.1784701 -5.607448 -0.57055765 -6.1714625 0.2539167 -0.30991146 -1.4248153 -0.83783704 -2.8973188 2.2026103 2.534409 -0.94160104 1.6880432 -1.6021768 2.9995434 -0.052639883 -1.8821161 2.7128458 -2.5405314 3.6452818 -0.8239828 3.7050815 4.0734825 -0.6431863 1.582088 -2.3839538 -3.5932233 0.62571526 4.6690817 4.149277 -1.3148129 -1.1477399 0.4588753 0.6995818 0.8735847 0.03581192 -0.7381617 -1.137997 1.7801497 4.48941 1.2005129 2.4102674 1.9772693 -0.46091437 2.3609757 -1.0424814 -5.013118 -1.3135504 1.6273593 -1.6968129 -3.5218604 -1.9718107 -1.2950238 4.5209665 -0.84033734 1.6343696 1.2298057 -0.71582085 0.22124217 -1.7618548 -1.0296422 -0.7429245 -2.092168 -0.13478467 -6.028575 -1.7082282 2.8604746 1.4568292 -1.4899515 -5.0659075
575 3.3497593 -0.006102647 2.7190843 3.0454998 3.0718825 4.2826896 -0.30472422 1.241232 -2.2855003 4.712109 3.9236705 -0.3292675 -0.90755045 2.9295313 4.043692 -0.59789765 -4.071682 0.40652487 -0.27081454 0.32672548 -0.4277848 4.5090814 0.59243786 -1.6768595 -2.8046494 1.6072489 -0.71667325 4.617306 -1.7580117 0.21219987 3.4288633 -4.8239074 0.3959234 -2.2401006 1.3865571 -0.91498184 -8.049462 0.21567416 1.6345513 -0.08568248 3.7113929 1.7598157 -2.7681255 3.9273696 -5.494581 5.358766 -4.333127 4.0068126 -1.0926847 -1.174445 -1.9607909 4.243427 3.3363535 1.4414455 1.8956624 1.4206318 1.4161572 -0.5900838 2.0841107 1.2482771 -1.8470619 -2.1440516 1.2816924 -2.5288715 3.567974 2.2396936 -0.87539923 5.815222 -0.018625217 4.116242 -5.032715 -0.54790133 -2.6290157 -1.9867384 3.362894 -0.66723996 1.07484 -1.4521981 3.0060432 -1.8464947 3.2082732 -4.086802 -1.6496944 -2.2424374 -1.856254 -0.13779052 0.2844486 0.31145352 -1.743429 1.0167414 -0.5910692 -1.0790408 -3.5788999 0.28405753 -0.9850377 2.776643 -2.171043 3.5078316 -1.507181 0.3845053
474 -0.18181445 -5.582351 -0.12045859 -0.9797025 3.236288 1.7161908 2.922471 0.21051994 0.98981696 1.9552734 0.00035567046 -2.4581578 -2.635755 -4.146759 1.2293351 -1.4882128 4.385625 -0.34342122 -5.860662 -1.063604 0.463274 0.78283006 -3.190595 -1.015253 2.2869022 -1.1455048 -1.0932449 -1.200457 5.1014605 -0.23224898 -0.8358675 2.9097764 1.209555 0.82750684 -1.9422613 0.18309535 3.2100651 -1.6991427 3.6214952 -2.9787912 -1.9074584 -0.5249141 -3.6194577 5.0707927 -3.2230198 -1.2359854 -0.59682584 2.5515275 0.6855971 3.3091981 2.3573673 3.714391 -0.5397005 5.5205894 -3.1887214 -0.4423853 2.8959835 -0.5429333 -1.2783993 -0.45684794 -1.888502 1.66409 -2.207497 0.7942387 -0.40492436 -2.5543432 2.317731 2.5769572 3.2245867 -0.7134758 4.5181837 3.2518618 -1.4980013 -2.7639136 3.3044426 3.8428447 0.5884695 1.3618939 -2.5646844 0.24116547 0.906687 0.3978118 -0.016118942 -3.0665102 -0.58697987 0.67997324 2.2480435 2.0279963 -5.1577325 -2.5286222 2.3001618 3.5802772 4.0960393 -0.40701932 0.6507056 -2.69035 1.591858 0.7909423 -0.23676006 -0.048314333
819 -1.6501857 0.93209344 -2.0295255 -3.5213046 -2.327445 -2.9290247 3.3981206 -1.1912512 0.88930225 1.2212421 -1.448334 -1.6911409 0.7210761 -2.1812775 1.5235596 1.6678325 1.9630123 -3.942011 -2.4430346 -0.91334945 3.7336488 0.64707154 2.5528224 -0.6221717 -0.5115289 2.4094257 -1.2800357 -1.3316969 1.6655513 0.0035372435 -0.37929225 1.7493848 -0.05875599 1.4252715 1.0975432 -0.31162328 2.7890742 -0.4057737 1.8179718 -0.70277154 0.5289392 -3.6033847 -0.94476634 3.4761403 -0.33356303 2.0404928 2.7459328 -1.7409834 -1.0005046 -1.748447 1.3665506 7.5104938 0.09192487 2.5340188 -4.263915 0.7955807 3.7680361 -3.1590812 -1.3520715 -4.8233905 0.80612844 -0.18836032 -5.1046124 0.5049193 -2.1385972 -1.3177915 3.959133 -1.9671359 4.0790524 -3.4379253 3.8408842 -1.193974 1.3520235 -0.84588253 0.7801734 1.9324304 -0.016739279 0.724445 -0.9416478 0.18415335 -3.0656316 1.3784186 -1.44835 -5.897092 -1.2706141 -3.4936295 0.5315451 -0.69784784 -5.9956365 -1.9487671 1.2379332 1.9973092 3.3058705 -3.1965785 -0.36393532 -0.6896214 1.492119 4.0750384 2.149068 5.160754
676 1.4561192 1.1513468 1.4025271 -1.6971602 1.8816155 -0.2731929 -3.1545463 -2.0498128 -2.455111 -0.76664686 -2.133564 -0.97794944 0.4584825 0.14523552 2.8746562 -2.4507835 -0.1497166 -0.6687819 6.606565 -2.882935 -2.5658371 -1.8635958 -1.058798 1.109171 -0.080691926 -1.6153266 2.325646 -4.0178914 -1.9073391 -3.4721758 -4.9205837 0.15500243 -1.4940938 0.132461 3.550659 0.019876635 1.494059 -2.977713 4.2580285 -0.79298073 2.854023 0.13109283 3.181391 -0.00403783 -1.6227281 1.2545226 3.6556425 0.046051405 1.3496886 -0.7806031 2.1953948 0.3814739 -2.4919176 -2.6799667 -1.0414813 3.1506684 3.9317446 -2.6135204 0.3974262 -2.9830234 1.795939 0.08337412 1.9229633 -4.0235777 -2.6572175 -2.7028356 -0.7612106 -1.8873602 -2.653603 1.5436862 0.17555894 2.239949 1.8003502 1.2222489 1.1017187 1.1332898 -3.4013805 -1.3919457 -2.1586404 2.51838 3.707829 1.5478337 1.7017653 2.4501758 -2.6783416 -2.1045375 3.4316077 -0.31348157 2.2174811 4.1251884 -2.5887926 2.3388708 1.4638453 1.5656261 -3.6742384 -0.8872811 0.2587592 1.7088368 1.7149643 -1.1209764
143 3.799076 -1.5951097 -0.047688216 -3.646299 2.8701112 -0.36849967 1.4418132 -0.2780891 -0.8728376 -3.077937 2.6806784 2.8546917 -2.4568722 -0.7202137 1.1458255 1.2947533 0.33989584 -0.30635932 -0.5558912 0.33392888 -0.813647 4.3871217 -2.9307995 3.1670852 0.37183583 1.0957136 -0.70539725 2.2601097 -1.3062558 3.5653827 0.05117215 -0.17169407 1.4820448 -0.5810535 -0.28255942 -1.161889 -1.4462258 1.7022599 -5.1742306 0.31180644 -0.50708854 1.2087243 -2.783898 -1.9845649 -0.55468637 0.7651522 -2.9660733 0.6604257 2.8910165 2.0323997 -3.4015353 -0.4816722 0.7382474 -2.953279 -0.96226346 -0.6806113 -3.2789967 0.26105827 0.19847308 0.74840796 -0.40725213 1.3307714 -2.380208 -1.7036014 5.561977 4.3870387 1.5579163 1.0681839 2.354866 1.4213178 -5.67375 -2.0569136 -2.2866313 2.8356264 2.1601655 -3.6160085 3.0651388 4.016264 -0.72588736 -1.508362 -2.4237878 4.047814 0.80613464 0.38148034 1.5115086 2.1781638 0.59708965 1.628675 0.67502654 -2.9887276 -0.7464325 1.0871365 -1.9030025 -0.72758454 2.4290314 0.1307624 -2.1416585 -0.65108335 -0.7290959 -2.673364
93 -1.7321253 1.3446783 1.2033244 -1.9649949 -2.6247792 -0.88451475 -2.6673255 -1.2400342 -1.5410376 -2.4143791 2.094731 1.8929621 -3.226729 0.086440265 3.3978045 3.3551924 -1.4264127 -1.2094033 3.9279993 -0.7505838 -2.814163 -4.8964195 0.9084287 0.6824552 -2.4568107 3.0418868 -1.6188848 -1.5671904 1.2137246 -3.0080423 -1.0548222 -0.6479825 -1.9359027 1.7629936 1.1120627 2.0624137 1.1656169 -2.5042946 3.826773 -3.8347518 -0.6367157 0.8504505 5.1575446 -0.3787026 -3.6940608 -1.9111503 -0.47228318 -0.12589724 1.4436805 -0.79789764 -3.1333635 -1.8767651 -1.0174218 -2.7523177 2.571476 -2.162778 8.399755 -3.0559952 0.3178347 -2.3701549 2.4866686 2.037923 3.4795904 -4.1644993 -4.792698 -1.1658223 -0.07771438 -0.49958354 -0.6552633 0.72519886 0.22432755 -1.0982513 1.8916315 2.9926016 0.2799406 -1.7814386 1.2588779 -0.81196797 -3.4518504 -0.601109 3.4327397 1.2057573 3.786079 -2.3830383 -1.8950813 0.03642788 0.020604912 -0.9122483 3.768178 0.91071266 1.5352007 1.8360679 -0.8072962 2.1045222 -4.8275213 0.96073717 0.9035166 0.78122395 -3.0320406 -0.5840269
440 -0.68313456 0.6350869 0.12194026 5.041892 -0.54848325 -1.8968127 -2.0027733 2.8397899 0.052512597 -5.243198 0.38054314 -1.9995093 0.6617039 3.1002502 -0.44562295 -0.5949285 -1.2636316 -2.9424586 5.3586173 -3.7986217 0.5633751 -0.94132674 -0.9197735 -1.3301184 1.0471785 -0.009423638 -1.9851878 -0.22115174 -3.478092 -3.8166363 -1.4506702 1.5085361 2.038641 0.38809806 5.1132665 0.380137 2.7987924 -0.6970609 -0.9854623 -1.2924495 2.7747808 -0.4389272 -0.57601166 1.0385879 2.0549734 0.44230357 -0.3238555 0.07924181 1.2883242 -4.518701 0.41786912 1.9758296 -0.26013005 -2.4612024 0.45685175 1.4398775 0.09664668 -2.6079528 0.5324905 1.1532797 2.4700444 1.9626735 0.051039953 -1.1863263 -5.4867225 -3.2834933 -1.960919 -4.312651 -4.120549 -0.83988506 1.0326047 2.5914924 -1.3136512 -1.9188604 1.580141 -0.20483431 -0.6874786 -1.1974933 0.04889088 -0.4915921 -1.5242149 0.6869461 1.8626072 1.9811184 -0.22792095 0.51903415 1.9618429 -1.6476524 1.292748 0.399461 -2.8302822 4.164086 2.8332355 -1.2622523 -2.8462558 1.7052073 -2.9109457 2.6926072 3.1388953 -1.1766233
31 3.4755757 -3.0618587 0.37739325 -2.7015393 2.3052685 -0.19418377 0.714672 -0.3198086 -0.21087058 -3.1254716 3.461481 2.7856326 -2.3973632 -1.9984832 0.0037945646 1.9434557 0.29556862 0.36952335 -1.036484 -1.364518 -0.8817258 4.8469496 -1.3950242 2.948173 0.24204548 1.1493701 1.0535383 1.5841668 -0.9050905 3.0075948 -0.54884845 -0.37455347 1.0213109 0.9096281 -0.44076285 -2.8152173 0.016789177 1.1153349 -5.1864057 -0.052020915 -0.5636702 1.4307224 -1.2685599 -3.2198775 -1.4079847 0.2720476 -2.002886 0.5692239 1.9358099 1.8569453 -4.143259 0.017634252 2.1385484 -3.4077888 -0.9858143 -1.5059884 -2.415757 -0.7129926 -0.38091725 1.0130553 0.28289384 -0.003494981 -1.8533134 -1.337933 4.7347655 4.178033 2.4073544 1.2253025 3.5903437 1.7942171 -5.036825 -0.91499615 -1.7693905 2.037202 1.2500693 -3.45713 1.4077463 2.7842257 1.3362185 -1.8829237 -3.3738964 3.5794659 0.20635298 1.0286115 1.3346946 1.1655793 1.587525 1.8960178 1.9752777 -3.0248742 1.2200525 1.0587058 -3.2324111 -0.8095858 2.978828 0.4711945 -1.4202267 -0.4314819 -0.4796839 -1.8102224
793 -4.383514 0.26119304 1.9168624 0.9388169 -5.3892813 0.44910216 -1.1420203 -1.5595349 1.1624675 0.3809461 -1.8238649 -1.7667971 0.5720489 -0.22581334 -0.38664228 -0.27442044 -6.029535 -1.3786182 5.0913186 -1.1622425 0.041363038 -0.49094868 -0.37547496 -0.39608923 -3.19065 -0.49664873 -3.0464323 -0.8229262 -1.2769674 0.8800491 2.0909786 -4.3108816 -1.7312608 -2.1290073 -2.7427466 -1.1208318 -1.5158622 -1.8701144 -0.72701627 1.3141642 -1.5408856 1.6947169 2.7919004 -0.09140886 0.7611954 -1.8037196 2.3681571 1.783015 4.3699036 2.7812722 2.595172 0.20428878 4.372359 -1.076473 3.0049434 -3.0119424 2.806372 -1.5123518 0.29956636 -1.5280477 1.2863212 2.1668005 5.5379963 -1.3594055 -2.4601948 -1.3441137 -1.46851 -0.09626602 -0.4347869 -1.1836717 -2.5307422 -0.6854107 0.99978936 0.64636284 2.2944667 1.3078686 -3.171637 1.3745557 3.0164754 -1.4218228 -0.3314807 1.9087769 1.2230142 -1.6997905 3.160171 1.913316 0.70440704 -1.6151731 1.9119301 0.715763 -1.7904478 2.6218302 2.051237 -0.9575261 -7.4867673 1.2655556 -1.7481363 0.67289466 0.73212713 -4.5289793
202 -0.577322 2.4528685 0.47772348 -0.1295996 -3.1400476 -0.5806459 -3.172751 -0.5635437 1.0868703 -0.9157527 1.5407997 0.15403225 0.5377288 4.6219897 1.4513861 1.5702604 0.91482264 -2.674752 2.7898192 0.53615135 -0.76237917 -2.0496008 1.96798 3.6004078 -1.4811634 2.3723404 -0.9404805 -0.059014924 -1.8035151 -0.990496 0.5891192 -1.2746599 -1.9608731 -0.7802567 1.6537406 -1.0818326 4.0743194 -5.7705293 2.3896165 2.816957 5.901643 -0.60470027 2.4708376 -0.9325225 1.4489354 -1.7631834 1.1357316 -0.10658058 -3.5661695 0.29305527 2.4816394 0.1349226 -0.788456 -0.41526306 3.5963836 3.121433 4.7597075 4.013337 2.2617242 -0.46566314 -1.7223582 -1.8496355 -0.37858725 -3.6879478 0.26108548 -2.7161453 0.34860966 -3.2696028 -1.5634083 3.7082086 2.384671 3.505284 -0.70134187 0.5504055 5.388265 -2.8385322 -3.7690678 2.1868105 -0.0354498 -2.2794304 0.06516602 -1.0009313 2.563088 3.4207406 -3.1211147 4.641039 2.732395 1.5122547 0.63435143 0.5759001 -2.657544 2.2879555 -2.7576065 -1.9436921 -4.7444634 1.1080133 2.7690406 0.49529105 -2.7518492 1.2772154
43 -4.1397514 2.7626057 3.0202613 3.5806937 1.8939383 -1.6005756 -0.5988107 0.61444473 0.5142373 2.01919 0.29728124 0.39237276 -1.4483373 3.1070728 3.0821137 0.56257755 -0.06870345 0.86357313 0.9508403 2.6525872 -4.0552025 1.5697577 0.29862553 0.14991118 -1.612684 3.3078923 2.8414395 2.2524638 -1.7338432 1.9195672 3.4021707 -1.5021663 -4.0959797 -3.0544448 -1.4900454 -0.13086115 -4.895916 -2.1075156 2.5140266 2.689531 -0.53432345 3.6048036 -1.7891785 1.7153857 -2.327797 6.711387 0.14794627 -4.1362824 -1.2674458 1.8595804 -1.5874417 4.4677334 2.0556521 3.0330875 1.6505829 -2.1408308 -5.9704037 0.02851221 -1.6045004 1.3878328 2.3841214 -0.43562353 -0.48082083 -2.1809595 3.383835 -3.4797988 -2.493133 2.0514436 -3.1812027 -0.11405427 -0.4942694 3.2879317 -0.3230541 -1.6326407 -2.0204942 1.1949064 -0.5747623 2.7166872 3.9425974 0.8712697 -0.049404364 -0.77598375 -1.8205914 -1.9872367 -3.3886096 -2.022249 -3.4277127 1.0385547 1.8244483 1.9311448 -5.686193 -2.7829237 -6.2469797 2.25083 -1.3722076 0.7045114 -0.024913074 2.0598912 -5.114978 -5.1582127
879 0.5887981 4.7997637 1.1529638 0.5262026 1.6806238 0.40653205 -0.658763 -0.07334166 0.71304274 -2.9604666 0.59648985 3.629364 -1.0067886 1.7626101 0.9489038 -0.45367852 -1.4675764 0.48874307 1.4107695 1.809728 -0.118245736 0.3981435 -1.5986755 4.0658717 0.59731495 0.21633749 5.6530995 3.7533453 -4.4569035 -0.5180187 -0.5552032 -4.4093447 -1.4747968 -1.2462969 1.8791393 -2.623181 -0.1805304 0.9137361 1.0354198 6.73601 1.4135787 0.33715713 -1.2449447 3.1500282 -2.171196 -1.4102862 -5.897154 -1.2993581 -0.9297909 0.20955592 -4.277383 4.3513093 -0.13478707 4.1876564 -1.3259914 -1.2708174 4.2247996 1.710587 1.5469886 4.8854704 0.24259 -0.93629813 -0.96915925 -1.0814602 1.9829631 -0.8284466 2.682456 4.0546007 3.971149 4.4209523 -4.9814463 -1.0163896 -4.850896 -1.8726403 -1.1323884 -2.939389 -1.5594532 -0.053198837 -0.3396679 -0.6468031 -3.6890142 -1.3467919 0.5871238 4.248286 0.9784831 -0.1703459 1.0803204 -0.58886415 -0.5790499 1.6404755 0.38479397 -1.6775911 -1.9343683 -0.59033847 3.6558006 1.8213298 0.20475449 -1.2726299 -2.2732096 -4.49666
62 -2.0496306 0.2535178 -1.1614704 1.3104838 -0.23747328 -0.34448263 -1.6019734 2.1588078 3.0310092 0.92663705 0.11528992 -1.0290006 -1.1595621 1.7713778 0.55124724 -0.867282 -0.09317647 1.2933635 5.5852394 -3.2103646 1.1406556 -2.3048646 -1.0341212 -0.09225211 0.35332474 -1.2198479 2.238155 -1.3880136 -1.3193034 -1.4251724 2.8091369 0.2326304 0.095389836 0.9170954 -1.5669686 0.12187752 1.3317136 -0.47125885 -4.5963397 -1.4686503 -1.9590149 1.8813212 3.694332 0.97484326 2.48036 -1.3267591 3.067603 2.8826568 4.7018476 -1.0601327 2.8588414 -0.16528161 -0.5006716 -1.2262645 -0.1841513 0.087806 3.4022236 -4.355998 1.671028 -1.2845181 3.732375 0.46297902 5.0692463 -1.0114908 -3.8044205 -2.9303565 -0.3393925 0.73658365 -3.326696 -0.9954133 -1.8591284 1.3938177 0.567827 0.46790895 3.8557777 1.9509454 -0.54819995 1.7516602 -1.9082674 -1.8928369 -2.3815818 0.78510743 0.91794074 1.9773834 -2.365408 1.9339772 2.5607517 -1.2360698 3.324032 4.0424304 -0.2565976 0.9190123 0.97978085 -0.673439 -5.421344 2.1229832 -1.8273923 3.08078 0.22994427 1.1800288
503 -1.4504061 -1.1756833 -2.2799041 -2.7874146 0.021499015 -0.92526877 -1.2239456 0.83948845 -2.2170064 -1.9734579 -0.82351017 -0.032506134 -4.501636 -0.19482242 6.1579204 -1.225008 1.1099411 -2.2504559 2.9827871 -1.8451912 -0.8136515 -4.497918 3.1718926 0.26265264 -0.26190552 -1.0602392 1.5258002 -3.1997743 3.29761 0.77332014 -2.5866573 2.0384905 -2.8793225 2.3674667 -0.2649428 0.5255246 0.6266074 -2.953894 1.2305897 -0.07039109 4.688839 -3.973613 2.2967336 -2.430067 2.6669638 -4.0748115 0.5322171 -2.0595698 -4.4513597 -2.1118903 -0.7006905 2.1963048 -3.0528142 -1.9602413 -0.33364153 0.19662683 5.2833967 -0.6872675 1.4405097 0.619207 2.9958975 -1.4614371 1.4684035 -6.154159 -1.3845282 3.0635488 -0.534767 -3.661768 -0.7780296 0.60405177 0.32331026 1.3618032 3.659917 2.6279964 1.9583032 2.170769 2.9631867 1.2753772 -1.1721793 2.2136507 1.7395253 -3.541781 2.478837 -1.4828622 0.05418361 2.8104439 1.862878 -6.4638968 1.1418115 1.3591617 3.7190006 -1.891709 1.7545118 1.5419494 -1.8711058 -2.9502964 3.8851206 1.1412585 -2.8272445 -0.6631937
749 1.6334331 1.5095013 -0.27314484 -2.424063 2.5309777 -0.6904389 0.8791735 1.0714169 1.9292125 -0.110283166 -0.5077024 4.027356 -1.5714647 -4.390892 -0.61325926 2.2790155 -3.2602398 0.6792219 -2.3650932 -2.562094 -2.248649 6.5912037 -2.0431268 3.705586 2.1199696 3.6655867 3.2387025 -1.1002927 0.10136448 3.1403644 -0.2876099 -0.5483206 1.6329283 -2.023987 -1.9598742 -0.8170245 -0.5024205 3.7257464 -2.4645278 3.2566957 2.2481585 -1.0665128 -0.7812828 -3.8441775 -1.9262563 -0.76922286 -0.9716836 1.4510188 1.5975953 1.9518368 -3.2093334 2.4332814 -1.1780956 -3.860901 -1.4696184 0.7585068 -3.7221694 0.43576986 1.456046 1.9280276 -1.868179 -1.0798029 2.1490018 0.60888034 2.4456468 2.6192305 2.5014703 0.34699726 2.863749 0.086961195 -1.1567948 -2.5568087 -0.9878481 0.4810758 -2.0077643 -2.3875158 0.3893148 1.3524685 1.950829 -3.4431818 -0.5826428 4.2180347 -0.62716925 1.0860538 2.3229492 0.2394657 1.369007 3.1718073 2.537335 -1.3760555 0.77956086 2.5655208 -2.8286822 -0.6476049 2.5733113 -0.20756076 -2.0556602 -2.0834394 1.1901742 -1.5286433
853 -2.6170995 4.878653 -2.6162884 -2.1309128 -0.12388241 -2.3135092 -2.313069 1.8473605 -1.3564414 -3.504551 -0.32768497 0.874657 -0.5106664 1.5956991 2.892801 1.3274628 0.54989994 -3.8427997 1.8320037 -3.9922552 -2.594652 -2.3086395 2.1637702 -1.6696862 0.8064834 3.2220154 -0.78153306 1.1377261 1.5647708 -0.36022243 1.0139402 -2.1013625 -0.54694664 5.023416 0.05156938 -1.865024 2.3560615 0.41753608 3.9850624 -0.12945677 1.4851292 -0.85255307 2.9622197 -0.65180427 2.2458756 -5.0530343 2.601078 -0.74992 -2.2986584 0.17856675 2.3465464 0.15565409 0.5561343 0.76436466 2.2762663 -0.05049974 5.430928 -0.0052485215 0.49132752 -3.1250455 2.649031 -0.19293347 4.3973255 -3.3511784 -5.6189923 2.171434 2.0783513 -5.796804 -2.636687 0.82056075 1.2971598 1.8367026 1.2032168 2.9731297 3.6819794 -2.3818347 0.46895728 3.2226763 -2.4474769 1.479724 -0.757323 -1.0374098 0.15406586 0.55157983 -0.2704307 2.6101022 1.3640732 -2.238039 3.8777142 0.40747643 -0.99905246 -3.7195036 3.5601938 1.0307157 -3.4393647 -0.22512431 4.5671782 0.9818504 -2.9881506 3.4718206
461 -1.8571699 1.3532813 4.0562406 -5.3337936 -1.4981898 -0.31249326 0.05043632 1.4129761 3.98316 -2.0962787 1.4698163 -0.08171776 -2.7709491 1.6035932 -0.84528923 0.81396514 -1.9195423 0.37452585 2.202245 1.5717138 -0.8864059 4.7025976 -0.27089104 2.5497355 -1.4434887 -0.4238932 -0.38103223 1.6336335 -1.9000276 3.4228723 0.233523 1.294025 1.3023314 -4.958272 1.0508227 -3.1372433 0.2786424 3.6896243 -1.5278944 -0.10010308 1.7487371 1.8324761 -3.6166904 -3.6354902 0.10361745 -0.29199213 -3.0746129 1.9513081 -1.8808547 3.0200665 -3.2672806 -0.009919613 -1.0248975 -4.6041045 1.0329877 0.58637667 -1.5432158 0.50463784 2.6336408 0.8246872 -1.1894437 -1.5048169 0.036731634 -1.5761076 1.9461006 -0.5967241 0.7558713 3.8478837 4.5777836 1.5368336 0.59096587 -1.8620741 -3.4803102 0.200663 0.09555842 -2.9641042 0.21430388 1.3924773 -0.98585445 -0.6276684 -7.0958033 0.58381027 -0.022699596 -0.087129034 -2.9505923 0.03938595 -0.4911789 2.8547614 -1.6386147 -3.4633381 -1.4892987 -1.5268106 -1.6251814 -0.071864836 3.1062055 -1.8218722 1.1086285 4.0204806 0.74371386 -1.7764455
332 -0.32348546 -1.5631332 -1.425589 -1.7338736 -1.823152 1.2284015 2.7500396 0.23209713 2.203784 3.092801 1.4779999 -3.0155234 4.424872 -1.7677677 0.77836627 1.0283446 2.7553015 -0.15787551 -6.6439376 0.9743875 0.46205312 -2.7973506 -4.601459 -2.7075179 1.3985478 0.9911898 -2.4910588 -1.6025745 1.6597708 -0.63294894 -2.390036 1.0679191 1.7307175 0.19416925 -5.3291397 3.397706 3.8477433 0.56732976 -1.3043904 -1.9837805 -0.8602329 -1.4909198 0.697686 2.412691 -2.272852 2.3782701 -2.7014823 -4.9264746 0.18541493 -2.4281626 1.3839828 1.9118366 -0.27119446 5.0601254 -1.6508133 0.35548165 3.7914016 -0.82734555 -5.216948 1.1432072 -0.256045 1.8695496 -0.7116903 3.6134183 2.7237108 2.3490868 2.142904 -1.1498214 3.584887 -2.7743943 4.2928743 -0.802245 -2.2183769 -4.6427984 -1.6291995 -0.58365405 -2.3692482 0.81132966 -4.6987114 0.7472973 -0.962492 0.30841684 -2.3754246 -0.8065704 -1.7165967 1.9177692 0.30308554 0.4168815 -2.7381427 -2.1068292 3.43509 -0.21385513 3.1374574 2.6043818 0.84002966 -2.18026 -4.13814 2.5340648 2.8046181 1.3153003
566 -0.78016055 2.2164495 5.2034783 -1.3426774 0.34948674 1.798093 -1.5115738 -0.9514477 2.123928 1.6673338 2.3289044 0.020083057 -1.9499094 -3.1497235 0.34038702 -0.07378293 -7.4273133 -1.9421092 -0.81654066 1.7477766 -0.008237965 6.5777564 -2.336198 2.6467087 -2.3159187 4.4133205 0.8859482 -2.011504 0.24325266 1.0824739 1.9979616 -3.7389362 2.6426575 -7.0730224 0.8029631 -0.6290521 -3.8726473 0.6425958 0.49784765 2.321908 2.0108697 -0.7037938 -1.3411869 -0.9339096 2.053754 -1.9878415 -2.0572863 3.3566906 0.28075707 0.7493744 -0.58387285 1.2972691 -0.11564513 -2.094875 -0.9733102 -1.2168556 -2.2321208 0.21952333 3.4698837 -0.29594016 -1.3258616 -4.3075833 1.8402604 1.9189329 3.2198396 0.013807016 2.7363474 -0.57515067 2.815085 3.8436906 -1.8820249 -0.66612864 -5.557593 -0.5043056 1.0309352 -1.2121841 0.96436423 -1.253196 2.9321177 -3.256059 -5.594102 -1.431471 2.179907 0.50890833 -1.5902127 1.7303779 1.0678799 2.0463097 -1.6695014 -1.9795847 0.29270795 -2.6458733 -0.086870536 0.93748397 0.5041996 1.6857388 0.05257013 1.473419 0.8536294 -2.2504888
867 -2.8812466 2.608904 3.3989015 1.9096005 -1.6783104 0.006133135 -2.6010838 -3.982752 -1.4070705 0.5659946 -3.5421643 -0.628347 -2.6244266 2.071432 -0.8634384 -3.2221935 -3.0921955 -1.8843416 4.341235 -0.83869356 -4.4207215 0.29589027 -1.4445918 0.96373034 -3.0796974 0.27531415 3.09348 2.141264 0.197614 0.9100613 1.3954178 -2.8344073 0.462399 -3.21166 1.0446129 -1.2449747 0.5588776 1.7278843 0.68213844 3.768239 2.4206371 -1.0148662 2.9180415 -2.7672331 -1.5905281 0.9669209 -4.6091948 0.23995619 -3.3458538 4.3280325 -2.1333776 1.6042434 -1.0076168 2.5741653 -0.05739671 0.719957 0.09846312 0.20444816 3.6508925 1.4771385 1.782337 -0.3614783 -0.8746393 -0.43269363 0.65352535 -4.9407744 -0.37800032 0.0034616066 -0.9550921 2.0913496 -1.5243609 1.9482975 -1.441105 0.02489687 0.9897008 -4.514654 -5.2172303 -0.31310546 1.625304 0.6745327 -4.7993994 -4.7998643 -0.55810475 0.64655393 -0.6857585 0.09224008 1.3632345 1.3678514 -0.44127858 -2.153236 -1.1325067 -2.0859506 -0.78138256 -1.1566699 -0.8108784 0.17356715 -1.2664281 3.5808892 -3.588237 -3.0534542
148 2.780129 1.4185972 1.2815787 -3.2445695 2.7682314 -2.2291918 -3.4076557 1.8194746 -4.4168983 1.217092 -1.6863364 0.738048 -3.7789857 1.2384886 -2.5945542 -0.13287394 -0.9475454 2.016648 -2.578908 1.5774769 1.8917843 1.6118346 -0.7975295 -1.7431751 2.1690392 -0.6511742 5.8644147 3.6534193 3.3605864 -2.9374745 1.2121096 -0.71057606 -0.25390127 1.9310236 -2.374391 2.3796391 -0.1398168 1.1955562 0.83631974 3.2384229 0.25077066 -1.3723043 -6.587313 -1.0476142 -1.8866161 1.5257165 -0.33976868 2.7495556 1.8903686 0.77997637 0.65059465 0.57214534 4.589777 -1.5369693 2.7705913 4.0163383 2.6392283 2.3564982 1.4321715 2.0937016 -6.3936257 -2.5964463 -0.8414535 -0.90563357 1.8907092 -2.008019 0.1109753 3.388732 2.9296155 1.7113281 0.8506648 -5.5283155 -4.388746 2.5345695 -0.41474962 1.4065347 4.8586445 3.3455975 -0.9930723 0.87420845 0.24082182 1.5287899 -2.0985458 -0.80924195 -2.8862758 -1.2917038 -1.5855877 -5.7389154 -1.3673817 0.375008 2.429856 2.9516923 2.9847486 -1.2330486 4.939325 0.8135662 1.6196346 -0.36670083 -0.23392129 -0.036192168
184 -2.3872528 0.66700405 -0.265968 1.023421 1.0398085 0.6263279 -0.9309049 -2.507893 -2.3008242 0.78643125 0.98571837 -2.7972677 -1.6004286 0.49904042 1.3192327 -0.14213955 -0.30102134 1.8938814 7.2537427 -4.5521955 -2.1451535 -3.5957468 0.007969235 2.4218469 -0.77452123 0.14778401 -0.8174799 -3.9645414 0.7062846 -4.0285244 -2.860533 1.5243798 -2.9161472 3.138556 2.967145 0.75073993 1.358853 -0.6532281 2.4615855 -0.12865779 2.3509183 -2.2230148 2.2986135 -1.9846741 -0.5063784 0.2676321 2.5025742 1.1651253 -0.9968798 1.4680068 0.9440669 1.1747696 -1.3024192 -2.2786345 0.47399977 1.1869307 4.2360344 -3.058486 -0.079964906 -2.0441725 1.6261257 -1.3457009 2.8683865 -5.107192 -1.8765062 4.46133 -0.70956385 -2.6729295 -5.370259 0.24519077 -1.5464196 3.7192194 1.9641604 -1.0882263 3.3477893 -0.58845145 0.8538463 2.673643 -2.5024824 4.6351395 0.07593668 0.51897264 3.346945 -0.45871153 -2.5380769 -1.2751913 4.6157174 -1.1250283 2.5085306 5.208588 -0.2880719 1.0112039 1.2289671 1.2572962 -3.5334 1.8015759 1.4269782 0.8577145 -0.70187724 0.45972082
654 0.22287765 -0.21362539 -0.10725446 -2.8669512 1.9231877 0.19165201 -0.2518335 0.20598269 -4.1729813 -0.31861123 -2.5614874 0.79102564 0.57742256 -0.6868437 1.2463528 -0.9519747 -1.3915384 1.8012949 0.11542606 -1.3952255 0.30315593 -4.957179 -1.6248943 0.116468176 -2.3477387 -3.085678 3.3870347 0.43907768 -0.23363099 -4.099125 -5.0767198 3.5627685 -3.8038237 2.343283 4.172594 -0.29220656 2.4745903 -1.6978068 4.701303 1.1385947 2.477805 -0.7528196 3.655814 2.5644677 -0.069518365 1.0202637 -1.1723353 -0.17742063 1.7399453 1.1004024 -0.61434686 1.2611742 -1.1259364 -5.257409 0.6604249 1.5861638 1.1536813 -1.5031899 -0.6825385 -2.1302907 -3.138523 0.05916526 -0.89698553 -2.2195225 -0.036369987 -2.1996775 -3.1918373 -3.2609446 -0.5948655 2.8209245 2.4297035 0.58846873 -1.0785214 1.7181472 -1.5179101 3.1005197 1.457996 -1.2112951 -1.2502763 3.0817358 5.554808 -1.3594433 2.2993417 1.0060415 -2.5452487 0.68024874 1.6515079 -0.068433926 1.4255084 0.86938083 3.8073044 3.6367137 0.35759455 1.8615619 -1.2620016 3.0618978 1.0212315 -0.5781377 -3.005258 1.4404211
783 -2.1405678 -2.5499222 -1.1129022 -3.6400502 2.775694 -1.8491179 1.3167078 -4.1432567 0.9347409 3.7926257 1.5077944 -4.0082808 1.1124101 1.9723563 -2.1412096 -2.1120996 -0.3143794 -0.89331865 -3.271191 0.31484115 3.651292 0.12417255 -4.0021772 -2.4953969 -2.7001445 -1.9627951 -4.0072165 -2.2422156 2.3438032 0.8716852 0.24844907 1.0026833 -0.0953235 1.9067099 -1.4808009 2.1444702 2.2230773 -1.9265298 2.667248 -0.29313216 -0.68095726 1.1576185 -2.3077679 -0.52101016 -3.1341937 -1.2786433 -0.58747685 -2.6474106 3.4147043 -1.4611043 4.706995 0.15444584 -3.595315 4.2681427 -4.1343837 1.5308055 -2.6732786 0.5794965 -2.1387196 -4.2075567 -3.6339982 3.2295072 -2.8193636 3.557709 0.32245564 3.0256207 1.1876513 0.44818076 4.0348186 -2.6518962 2.5497203 -0.49200997 -3.457528 -5.184654 -0.31932548 1.5567033 -0.8338199 -0.14056373 -1.6615655 -1.1385739 -0.20002723 -1.0551823 -1.8865527 -1.3786716 1.9888394 -1.8797983 -0.45829555 1.134835 2.1944227 -2.643102 1.8408563 0.7318909 -1.0926524 2.7487814 -2.0419185 -5.4112015 -0.3490922 -0.1654566 0.19883665 2.097192
715 -2.4571908 3.4766827 1.9065961 6.4962378 1.4631882 -2.3945396 -0.015465013 -0.863641 -0.35457662 2.1222682 -0.5047193 1.692599 0.97693866 0.4639477 -0.18096222 -1.7540324 0.6076867 -0.71073 2.886216 3.3371265 -3.5369465 -1.6500763 -0.5467444 2.6643016 -3.1390183 1.0055113 1.9225504 1.5757601 -2.2494218 3.6907785 3.5899827 -1.0176958 -3.8111837 -3.0510466 1.2894313 -1.6901822 -1.1852764 -0.07126206 1.1199934 2.599492 0.26310244 0.4682957 1.581973 1.555728 -0.9072704 0.43416965 -3.2480528 -1.9440193 -1.3196172 4.3114223 -1.4047014 0.40056497 -1.7555604 3.8778982 1.3677826 -2.2942162 -0.8057725 -2.5059083 5.0441203 6.1332965 0.29260188 -1.578995 -1.2758514 -1.1075183 0.67480695 -3.1032233 2.9556959 0.30329856 0.61184096 4.2535324 -0.18050328 -0.6680753 1.2549572 -4.1727433 -1.2940027 -1.3621422 -1.6269776 0.36006057 -0.3087769 -0.18842809 -3.8201463 -3.3735907 -0.93189657 1.0303109 0.768299 1.9214057 0.7489538 1.8080769 -2.25148 1.5779626 -0.9341015 -5.980699 -2.932418 -0.56687266 1.4664627 0.7250415 -0.7088094 2.6327884 -3.250728 -1.6861532
142 3.6396554 -1.698748 2.5640116 -0.675474 2.5371447 -1.2986475 -0.703105 0.93216467 2.6480806 1.4175735 -2.7594826 5.403811 -3.4058661 -5.053103 2.068979 0.32064033 0.05021792 2.8087006 -1.4603511 -1.4727587 -0.92640185 2.2083604 -2.446649 -0.9829378 2.438754 -0.07398484 0.09550912 1.8567016 1.5835874 1.9555892 2.9994736 1.2646259 0.44245377 -0.8575237 1.878249 -2.2684247 1.2063144 5.741987 -2.1032386 0.3076835 -1.0019702 0.50640106 1.0363908 -3.1511014 -2.5604596 -2.0073686 -2.0497282 1.0722082 1.7053903 -3.6761172 -3.471694 -0.7621483 0.8100012 0.48846447 -1.4205794 -1.8743515 -5.001749 0.7303816 -0.43582925 -1.9939842 -2.8925529 0.17488597 -3.3299077 -2.2468228 3.315561 3.7669227 2.4323664 -1.0968926 4.2850494 2.6533833 -2.8221939 -0.24485089 1.3932679 -2.3022697 0.2509217 -2.1977944 3.1288655 1.9954294 0.83230674 -0.34317398 -1.1511447 6.44819 -1.5588073 0.53222716 0.357414 -1.7351519 1.1841638 0.72287583 0.43632832 -1.7932117 0.97630113 5.961354 3.1355267 -2.8937595 1.6920278 -0.65509933 0.32299736 -3.2539325 -0.59805304 -0.2088929
552 3.9435139 1.9200158 -0.084843636 -1.2708058 4.531884 0.41738427 -0.290987 -0.6630327 0.10462321 -1.0896649 3.5780191 1.4291936 0.92016834 -1.5045912 -0.35195327 2.0380282 0.98507667 -0.40286428 1.7234014 -2.5724587 1.2907085 5.8777547 -1.1643765 -1.9429297 0.01656262 0.16260889 1.0801327 2.1865284 2.2105901 -2.4833245 0.30404076 -0.6387017 -1.3235825 1.8105787 -3.962626 -0.6842612 0.56139135 1.373131 -4.6437917 -0.74662256 0.5651056 -4.740248 -2.877027 1.1589676 -2.3867738 -0.556691 1.4680471 2.853326 -1.2988057 -0.8557082 -3.5121877 0.22877383 -1.1479038 -1.2974858 1.5200872 -0.90456367 -4.291825 5.1450114 2.678891 1.723653 1.3207324 -2.4155753 2.4536302 -0.8334718 2.802116 0.7325594 3.6612282 5.1190133 -2.6539054 0.05944065 -4.7044506 -2.6199446 -0.8231953 1.4506062 -4.0512433 -0.021070944 0.05875565 0.078863025 -0.40537062 -2.1548355 4.2054176 -0.45183384 -1.4546586 -0.78266054 0.52311367 -0.6525871 4.1641226 -0.16703379 -0.6667618 -2.489504 -2.817848 -1.7969468 -4.5482 -2.0015538 3.1676707 -0.20325693 -2.2246175 -4.579923 2.5923703 0.9590388
705 -3.1603343 -0.82074285 3.8355005 1.7987411 2.8111653 -1.3607503 1.2705148 0.3703286 3.4145737 2.0320957 3.9216905 -1.2776464 -0.720148 -0.16348952 0.9748507 1.8489348 -1.3749563 1.3875873 -1.1391487 1.9012051 -1.1500156 3.2091873 2.1267169 -2.5467489 -2.9235601 2.6750062 0.64906126 1.011039 -3.3419402 2.206347 4.789309 -1.2170832 -2.9830365 -6.043889 0.33364955 -2.4878416 -5.8585563 -0.52364856 0.9657614 2.2330172 -1.8905128 3.1911066 2.1383643 -0.9990085 -0.1450869 5.366607 -0.6225594 -2.9921427 -0.5743418 0.9611076 1.312972 0.4315598 4.456668 0.32794392 1.6158185 -2.4046316 -3.1412084 -0.9181215 -4.0716414 -1.3772315 1.8269316 0.5725122 0.2518607 -1.647886 2.4056945 -4.555091 -1.7397608 -0.7127012 -1.7206506 -0.39820623 -1.179663 1.1728405 -1.4564946 -3.2692528 -2.533696 -0.6222343 0.9535173 -1.5556734 3.7879128 2.376204 -1.4398533 -2.6348693 -2.8888154 -2.9469225 -1.5567015 -0.8892521 -1.867492 -1.2315722 0.08724973 0.4061096 -4.3975086 -4.279091 -5.6260457 0.5125598 -2.0042374 3.6969192 3.5497758 2.9393532 -1.137627 -6.060063
434 2.2378252 -1.2111957 2.04073 -0.49801877 0.07371682 -0.4647385 -1.7756492 -0.80861586 2.5754874 0.5805688 -1.4915774 5.9839787 -2.9794436 -6.1693215 3.5399191 1.9056239 -2.003719 2.1763902 -1.7526405 -1.0727191 1.9852529 2.547225 -4.2637706 -0.8196084 3.1068091 1.9674861 0.8845213 3.090705 2.8133986 2.1479342 5.685273 4.286521 1.7722169 -0.57800734 1.0700768 -0.77240264 1.3103595 4.3641706 -0.2929097 0.61732286 -0.40064728 1.592278 -0.872497 -1.5005755 -2.4202573 -1.6226053 -3.5362158 0.87265104 0.7425392 -3.0513182 -2.473615 -3.0701978 -0.18947606 0.9087346 -0.84040636 -2.2492185 -4.574501 2.3893223 0.38474405 -2.1013136 -1.1229231 -0.048782207 -2.740125 -3.9228396 2.5886412 3.4426787 3.3762465 0.18087675 4.4894733 1.5950779 -3.4547393 3.2173913 -0.2432564 0.118054815 1.1846191 -1.3780664 3.0592628 1.20536 1.5610696 -1.5504292 -0.35092402 6.8092356 -1.6629729 -0.8599665 -0.8098457 -0.57689553 2.581707 2.254182 -1.8966569 -1.1528823 2.167894 5.2991295 2.3783207 -2.6816308 2.9327476 -1.3790591 -0.21909037 -2.765642 0.29939505 0.10908825
880 5.0572624 0.39243793 2.7147245 2.4515731 -2.985636 -1.1975665 1.6115953 -0.08992989 3.3211305 1.1203434 2.8091452 -1.4574378 0.50003856 -0.6222571 -0.54053295 -2.4901063 -2.4142358 2.5845263 1.4685984 1.3514972 -1.6042346 3.1768696 2.2437112 2.4147575 1.3043835 -3.877713 6.1523123 -0.4839349 -2.1185308 -2.654233 -1.6143198 -2.7962012 0.19490258 -1.787554 5.163945 -3.5174434 4.347195 -1.7446005 -3.2935622 0.49802798 0.4279977 -1.1398517 1.1323676 0.8567242 0.34934935 0.32476914 1.6463312 -1.7916116 -0.774998 -2.051209 0.9517344 1.33022 0.5618031 1.4921275 3.0917268 -0.14156352 -1.5522617 -0.35321194 0.47280478 -1.9293119 1.7586653 0.10764455 1.2130225 -4.1851673 -1.2694734 -0.8959368 -1.3278369 -3.0683804 3.2392242 1.2891436 2.002355 4.412001 -1.336207 -0.6877545 1.9003996 -3.003117 -4.560532 0.3179519 -0.5419252 0.90866846 -4.397703 -0.7163974 0.5712598 6.4149537 0.5717619 -1.985181 4.517862 -0.6841155 6.4678082 1.4456238 1.6260731 4.8398843 2.8868272 -1.9211787 2.106508 1.6726605 -1.5502203 2.2806654 0.50716627 -0.53425133
176 2.352803 2.5402315 1.0993509 -0.7596738 1.9219278 0.57980317 -0.25614774 0.6601602 -1.1642318 1.0592934 1.1511638 1.0012493 -0.19087563 -0.90637076 -2.3907259 4.501521 1.3503911 -2.7353475 1.544635 1.5826492 1.5032676 6.0339923 -2.75564 4.7404375 -0.7538499 -1.3399094 -0.6127772 -0.5235743 0.86080575 1.9448934 -0.89303327 0.73008287 4.6821847 -0.35068303 -2.9389327 2.5643022 1.9142138 2.7250938 -2.599824 -1.7578617 -0.4086565 -1.7833917 -5.231467 -2.1852448 -3.879251 -1.5203612 0.103267714 -0.18455724 -0.22074473 0.04824248 -2.7133584 -1.5103478 0.017007854 -4.5836654 1.1960889 3.2778668 -6.2810016 -0.6579568 0.7825926 0.79318994 -1.7144638 -0.49181935 -3.7834084 -3.6832428 3.503709 1.117574 2.6615438 1.8413292 0.76562935 -1.478199 -0.8346025 -4.042894 -1.0114001 1.2922817 -0.5039591 1.0873773 3.3481042 -0.986392 0.43421292 -0.62906843 2.9224148 1.6877319 -4.038265 -3.8941016 -0.049355756 1.9337897 1.0686988 -0.9479005 1.1061234 -2.9777782 -2.407215 -1.9250549 -2.4933882 0.43975228 1.0405432 -2.387423 0.5352546 -2.313164 2.155153 0.970758
374 0.44333324 3.8022482 -1.6537682 6.085365 -5.5548005 -0.5797164 -0.51866686 0.8363818 0.7558073 2.0213637 1.3269684 -3.070771 -1.3065025 2.9702036 -0.3530901 -2.068663 -0.4037874 -0.95702857 2.3953373 2.147478 -1.3262231 -2.5743654 2.0140975 -0.6657603 1.1805422 -2.186564 -1.7266335 -0.75245 -1.4184059 2.6450524 -0.34413368 -0.5837523 -0.75586444 -1.3350261 0.69466025 0.15613435 -3.153464 0.59584695 3.020335 5.362123 -1.0983012 1.4560616 0.34778637 1.9202222 1.0264578 1.4895804 1.0440595 2.3703074 0.39804536 0.3739298 1.1600708 -2.0360384 4.2792125 0.31005332 -4.6233892 -1.7265338 0.35156143 -2.7211657 -1.7485338 -1.1578734 1.2811958 4.5673575 3.4388065 -2.6830077 0.16249454 0.6162317 2.2905061 3.334781 0.7927043 -2.7792063 0.95353866 3.589804 1.5727755 1.8574393 -0.39752337 1.3544445 -2.104286 1.3057835 -0.3334357 -4.063511 -1.2691851 -0.885126 -0.2401788 5.082522 -2.029013 0.3655032 4.822573 -1.9502445 8.075572 4.0376573 0.2122583 -3.692234 0.40591252 2.813541 -6.9927287 6.208079 -2.36986 -0.9044776 -0.80524653 -1.7488744
433 2.6159077 -4.4912205 0.61230963 -0.86101645 0.24424636 0.119716115 1.5883979 -1.5556161 -4.5294857 1.886852 -2.1274467 -3.5733902 -2.8115234 -1.8033283 -0.50124997 -2.6749463 1.1682503 0.76461375 -1.4885252 0.13051619 0.33124724 -2.694775 0.3786433 -1.8999535 2.850571 -2.4999406 1.4780449 3.951738 2.9451165 0.7115898 1.521449 -0.48962983 -0.8781518 3.894991 0.50760996 0.2926386 1.8300902 -3.6627183 3.1719174 1.8486229 0.30543688 -1.3127546 -2.811343 2.608355 -0.8442611 0.15188856 -1.5139688 -0.13167307 3.6363387 -0.72173387 -0.8362353 -1.7111062 3.0457742 -3.085553 1.4893177 1.1462088 -0.951972 -0.5801739 3.28354 -1.642101 -2.0890098 -1.8315855 -1.244776 4.2643914 -0.7742597 -2.1276157 -5.111191 0.19615932 1.7328604 1.3350364 3.9098034 0.4784335 -0.6745202 -1.2498544 -1.2344722 1.256633 2.0240414 1.7387956 -0.00041158704 3.9486694 3.528717 2.9407885 -2.864892 2.3687322 -0.6539592 -0.8920528 -1.9534671 0.034274455 -3.6026506 0.0448715 5.026169 0.4449749 5.116332 3.0631688 2.0173776 3.791414 0.40089402 -1.6219212 -1.1400903 0.17045559
192 -0.35909268 1.013235 3.3358886 -0.19350927 -0.57036614 -0.06523409 5.6764326 -0.8475164 2.1507387 -0.010409207 -2.1871285 -2.6253488 -2.071828 -2.7330122 2.0716362 -3.3304641 3.1668031 1.2364491 -6.910309 -0.8836723 -0.14863044 0.27195975 -1.9964275 -1.0681654 3.2805512 -4.875734 -0.30155337 -3.4258542 1.1246645 -2.7268002 -0.80885303 -0.58528864 1.6334579 4.209072 -2.1740458 3.9851305 1.8543226 3.8405645 0.82455784 -4.0846963 -2.9697545 1.0162866 0.9707777 1.5871853 0.57098734 0.65383625 -0.0015935367 -2.1343288 -1.8266438 0.36197382 0.38944373 -0.7495858 -2.527206 2.219568 1.588011 1.8049085 -2.764607 -0.21543658 0.30783635 1.5707544 -3.4863677 -2.1739738 0.23858397 3.0233276 2.528132 0.07604663 4.726891 -0.64896667 0.46238625 -2.6518764 3.2553592 0.2506706 0.0034159527 -2.9830933 -2.749984 -1.3655776 -0.543186 1.399602 -2.28545 3.0139127 -1.5989218 1.9904858 1.6567538 -1.6526026 -4.243217 -0.11770715 1.7118902 -2.1947951 1.7817137 -0.2660532 0.30070677 4.957026 6.4231606 -1.4617432 2.3980174 0.8713132 4.034488 3.4165783 2.8449867 4.0307484
