1000 100
237 0.79512733 1.4322126 0.3134858 -1.6285545 1.1001494 -0.5987104 4.0277143 2.2277286 1.3674624 2.2219346 3.123849 1.8453625 0.81322837 -0.79892635 -1.1692384 -0.4648185 1.2523738 0.6845455 -1.5909724 -1.9713585 -2.677691 -2.5288634 -0.007550959 -0.42070863 -2.1464806 -2.0631213 -0.082558446 -1.3282187 0.85011375 -0.6111334 -2.5866747 -2.8499494 0.5441499 -3.055547 0.41486433 1.9172643 1.8928173 -0.3977608 -3.5501056 -0.7498009 -1.9734256 4.6854134 -5.8242636 -0.33708116 1.0942285 2.485393 -3.0173342 3.1047387 -1.4591981 -1.9591957 0.7781785 2.7246463 2.50378 0.99568594 1.6926018 1.6620836 0.9222539 -2.2066612 -0.066198885 -2.3609712 -1.4164417 -2.665958 0.2984782 1.6593575 -0.06883234 3.358661 -0.21547855 -0.6710593 -1.6614207 -0.15201318 -3.5164425 0.062917076 -1.5892814 -0.93488455 1.8508946 0.07575473 0.3297713 0.053168844 -1.0328951 1.7190934 -4.8312154 4.4132338 0.0076539083 3.896668 1.506362 1.6582723 3.3707948 1.6429187 -3.8649986 -2.5898573 0.42638236 2.654105 2.265689 0.31785804 -0.28889582 -0.75345725 1.9692849 -0.068617456 0.37653306 3.4180498
449 -0.66874295 -2.1912458 3.1438036 -1.6335248 1.4799689 -2.6771798 -0.087997295 1.1218916 2.63366 -0.08064644 0.7159751 0.33933285 0.35516676 -0.29208285 1.9501426 1.4853803 -0.18754722 -0.10018332 -5.1191053 -0.8216077 1.3129568 0.757086 -0.2112044 -0.88516635 0.7052975 -3.7204125 1.2852588 1.3615355 -2.8380558 1.7569249 -1.2674139 -7.2578874 1.2615327 -3.7362974 -2.4871223 -0.98084724 1.3202095 -0.13865481 0.85631675 -1.3316308 -1.6092722 -1.4211301 -2.0716114 2.2564826 0.6416154 0.93760246 0.88011795 1.2699797 -0.302493 -0.33710086 -0.392677 -0.40475726 0.71382874 2.4612198 -0.3836064 1.937909 -4.371926 2.2905884 0.9758884 2.5409338 -2.378127 1.2948261 0.4043958 -1.1034312 -0.12607874 3.8031723 3.235748 -0.94774395 0.19493313 -0.087499216 -0.55020154 0.48747602 1.2730335 1.4141363 2.241361 -3.3887403 1.2823253 0.26143566 1.5641794 1.7261369 -0.876101 4.2437987 0.14501548 0.9588441 -3.1502988 -1.4101952 3.6816823 -1.2228875 -0.4993147 -2.8376918 -2.3822918 -1.4128588 1.227873 -1.0281305 0.33270818 2.8882372 2.8915558 1.7154363 -2.4512808 0.74385303
876 0.9409303 -0.34612045 5.114909 -0.038512014 0.1767646 -0.8223246 -1.3384995 2.6530542 -4.5163465 -0.8071379 0.3903747 -0.8276422 2.6270854 1.5654075 -1.8039075 2.9555674 1.0604223 -1.1009086 0.63883144 -0.39575526 1.355556 3.1239905 -3.7309449 0.8135603 2.4851055 -2.872698 4.8640985 -0.9747995 -2.354796 -2.9776235 -1.1457764 3.7522805 -1.8682677 -5.4322376 -2.222769 0.90531844 0.56110436 0.7069412 5.7531657 -0.17541294 0.47421736 1.0778474 1.4814936 -2.5722396 -3.5412397 -1.7374456 0.28337932 1.2436662 1.3894196 1.4537623 3.1482797 0.9577044 -3.252219 0.020398712 -3.177385 -1.4358863 -2.7856152 -0.46292904 -0.22111459 -2.51852 0.463822 -4.100609 3.4139047 1.8820523 -1.4126716 3.4821227 -1.535432 0.6362136 -1.583565 2.0713985 4.491576 3.2531698 0.046420656 3.1137493 1.167477 -1.329456 4.98882 1.3368771 1.2644324 -1.2240654 5.1967916 0.19160755 -1.8530107 -0.6695622 -0.39385334 -0.64303225 -0.7795504 -1.1653475 1.302416 4.0513163 1.937222 1.6124998 -1.8121235 -0.7135242 -1.7988472 -0.4795833 0.7931104 -0.64324546 -1.6497439 0.74530935
556 -1.2942381 2.93732 1.5967728 -0.9148802 -1.0864999 -1.0672792 5.21908 -1.0913241 -0.6418933 -2.1918259 3.284844 0.9354773 -0.6410968 -4.989818 2.2527757 -0.5072394 0.5655532 1.1260887 -1.6286991 3.0188024 -0.6166028 -2.9362397 3.496595 2.8685498 -1.7547857 -1.4162459 0.5155519 1.0687177 -2.2107992 0.5635643 -1.8229046 -6.052613 3.1345413 -5.1130285 -2.2288322 3.0671937 2.2496302 -1.0218213 2.3383672 0.31892633 -1.8273605 -2.9814224 0.1268549 1.1447151 2.250271 2.6680167 -3.6487768 0.80866003 -0.06646119 -0.056617044 -2.947829 -3.7265174 -2.6347895 -0.21779977 0.5371884 1.2246166 -3.6000597 -0.9193425 -0.04150626 -2.0501895 -2.442961 1.1554538 1.1961658 -2.174035 -2.411433 2.1338406 1.8239158 0.81216013 -0.72528636 0.5059197 2.1273232 6.471428 -0.20865023 3.5782855 -4.3353167 1.2883759 0.66593146 3.4818149 0.7230213 0.88926435 -1.3068838 1.9524701 1.9956769 0.441106 -1.1384443 0.29648998 2.961791 -2.207199 1.4790102 -2.2280593 0.14230289 3.5163076 1.8548065 -2.815195 1.9595475 -0.53229165 0.7041428 -1.2105083 -0.012042966 -3.0372622
565 -2.2611182 2.4417422 -5.05943 -2.3743129 2.98716 3.3315048 3.510789 3.3356225 -0.80063695 -0.71352434 5.7146163 2.195823 -0.1667433 -2.5381653 -0.3768139 -3.1932247 1.1034291 0.78622526 -1.9393922 -2.8564074 -1.4537871 -2.1014602 1.7416744 0.1233037 -0.23530534 2.2386699 2.0658069 1.8853424 0.45646837 3.9046264 0.25283894 -1.612418 4.89705 -1.0969181 2.4268906 -3.3429585 -0.63651514 0.3691212 -0.27064756 1.4999497 -3.9393868 -0.9864868 -1.8277092 -1.1327318 3.8153062 2.418922 2.5391495 3.9017005 -0.70983356 -2.388455 -2.101317 1.2004557 -1.6876502 -0.9556657 3.169981 -0.26883137 -0.1582441 -4.484131 1.2202681 -1.4020299 -0.4609588 1.2094973 1.8120846 -2.1058097 -0.7524065 2.9483128 1.3460206 1.7109361 -1.3477732 -0.7393682 -2.4511743 0.36771598 0.51803595 3.619435 1.7763263 -0.8558442 1.2325045 1.2183702 0.76707643 -2.0701864 -5.2497683 -1.0737005 1.5868993 0.98257 1.4269053 2.7598217 2.908638 1.1687647 -1.9911283 -4.4393387 -2.7963526 3.047335 7.38421 1.3928746 -1.0771254 0.3235728 -2.2782934 3.893362 -0.21543437 4.3989873
806 0.22455701 1.2866156 4.3226194 -2.6998193 -1.2049994 -2.078316 0.82092434 -2.487741 0.1280294 0.40465465 2.4545665 5.6956573 0.6110666 -1.9209503 -0.99162275 -4.2785225 -1.8268242 2.75798 0.05555628 -0.027373977 -0.8824521 -1.6758012 1.4966056 0.26608518 -2.0565355 -2.1806436 1.6536063 -2.1045704 -4.0704894 -2.399915 -2.3318195 -3.640566 -2.5940256 -3.8090158 1.3546596 2.5281396 0.46070507 3.7853138 3.8264978 -3.97755 1.296389 -0.067508996 -1.1419266 0.94812 -0.81678015 2.556346 -1.9827465 0.46506283 1.2389115 1.3736486 -2.8822803 -3.3420138 1.039838 4.4246845 0.49068335 -0.24021024 3.934581 -1.126922 2.3687875 -3.2502267 -1.8477244 -3.619318 4.6061635 -0.915989 -1.8605918 1.4703879 3.9070277 -0.41577524 -5.744198 0.68483496 0.37929115 6.2752776 4.52623 0.430666 -3.1037645 3.4134352 1.6430182 1.9282637 -3.6289563 1.4093337 1.6168371 0.76631224 1.0165936 -2.1588175 -1.5445026 -1.1568595 3.113602 -2.3732257 1.0983964 -1.3278195 0.54129636 5.110833 -0.05903872 -6.4344378 -0.33299005 0.76703596 2.9971485 -0.44260705 1.7204475 0.032626934
645 -0.56718075 -0.5838615 1.6856841 -0.78255165 0.9593873 -0.8367859 -2.1007566 2.2833118 0.12866022 -0.85575294 -0.07122339 1.3623773 -2.616454 1.774461 -3.726219 3.7021253 2.9137995 -2.6918705 -1.1876389 0.116934925 2.0399177 -0.2949059 3.4701717 1.0508583 3.4725542 0.3213158 2.164806 -1.6138499 1.6681026 -2.4956598 1.2088844 2.5997121 1.6177539 -5.852366 -1.7220947 0.72266555 -0.9099367 -2.018486 -0.105461024 0.25001207 0.4833435 0.50370246 -0.35610154 -4.3719773 0.5372151 -0.7469442 -0.79915833 -0.01854841 1.864463 -1.6808779 6.015226 0.037244007 -0.9691902 0.97068673 -1.5280861 -1.9828113 -2.6818073 -0.92521065 -3.4297142 0.16115625 -0.16632408 -1.885377 4.3081694 -0.2732254 -1.3877807 4.316088 -2.144115 -1.0650142 0.24550518 -3.5681272 2.3172948 3.3993964 -6.3085737 2.1239038 2.261724 -3.9805856 2.9631913 1.8524429 -1.7391001 -1.6657573 4.376159 -0.08281055 -4.1483293 -2.0690343 -1.8791584 0.8066776 -1.5418394 -2.9405258 0.7864449 1.540082 6.2557173 1.7839196 -1.9630759 1.831968 -2.1852322 -0.70311314 2.6978273 -0.4235285 -1.6540325 0.34930527
489 4.3146214 1.6470208 -1.6893153 1.6673768 -3.5864437 3.0201743 -4.5494204 -2.0430999 -3.1411977 -1.8633361 1.7315922 -0.1029487 1.7441919 -2.3375547 0.7597434 -5.2103686 1.1711112 3.4189868 -2.6783628 1.7049043 2.1612263 6.4487123 0.72241366 -1.2957568 -2.8472638 2.3989558 7.357742 1.3493212 -1.7394593 0.0066833636 2.7023582 0.6103011 -1.5854416 -2.7956004 1.2411817 -0.54679525 1.053008 0.9216226 0.53803486 0.63668126 2.2048087 1.2476504 3.6388862 -1.9033879 -2.9524183 -1.8746752 4.617136 -2.9347181 0.4374207 0.4940896 -2.1094851 0.24060823 1.489419 -2.8984773 -1.4334165 0.5252117 1.8527465 2.540203 -0.29142833 5.6217513 0.65986407 -1.6318164 -1.3358387 -0.27704462 1.7087264 -1.8536967 0.525783 3.6061556 -2.797743 -2.688442 4.4800987 1.9963424 5.3598733 -0.03032943 -0.5231655 3.7286448 0.6128348 -0.920429 2.143674 0.8841133 -2.0400298 -2.0127902 -0.39031622 -1.3880639 -2.6811986 -0.30376866 1.0815938 -0.7905164 1.9551871 1.4708724 1.8247874 3.195001 -2.5397432 0.95557654 -3.572944 1.3461493 -3.5306342 3.9244552 -1.7955424 -2.9261317
110 -1.0230514 -2.7692971 -2.454961 2.749382 -0.119530365 0.81884915 1.3856956 -1.0161813 -0.61371493 0.9106805 1.9138649 0.35589117 0.46169305 -0.35755256 2.1378217 -0.17633447 -5.664024 1.3257078 -2.8027744 -2.2676737 0.623139 2.5169137 0.17211504 -2.072033 -2.4963307 2.1476824 -3.1301324 1.9444823 0.5257558 0.8590067 1.7121004 -0.9932557 3.3779383 3.2510402 3.998965 -2.1931503 1.7526759 2.3339403 -2.3062408 2.0350578 6.608139 -1.2487887 2.2563198 1.7898049 -0.348699 -0.35461217 3.2121491 -4.9032674 3.2334542 1.3569077 -1.902878 -2.8265698 2.5934858 -0.4077392 1.7566048 0.3176042 0.9839528 3.6007488 5.351188 0.107130215 -1.3511823 1.7373312 -2.726891 -3.920742 -0.418517 -2.442757 1.7831666 3.4904516 0.30149722 0.08240649 -1.1650548 -0.67409545 2.4149976 3.129073 -2.989291 -0.23093632 0.7748178 -4.7563114 4.5880804 -0.6125287 -0.63515985 -6.0078936 5.40801 -0.120480366 -0.8332435 -0.41564003 -1.532603 -1.7650476 -3.0189612 -3.4703243 1.8400966 2.2583294 2.239523 1.1544266 -1.344204 -0.61283326 -1.1867235 3.1547263 2.0788362 -4.859496
95 -3.5249665 -0.31122026 0.7445431 -0.8918731 -2.4422941 2.0725508 -3.1145484 1.0507874 -2.475333 -2.9606047 0.30270955 1.0212839 -2.4257114 1.3335004 -3.3320758 0.41416386 4.422091 -0.7977437 -1.6431818 -0.9102738 1.6267632 3.5352678 1.7942919 4.1885705 1.1576632 -2.542126 4.284515 -2.206762 0.7454959 -0.79180473 2.2316384 6.9385476 -1.7161843 -1.9109318 -3.0356224 1.5649058 0.7237775 0.6214052 0.8718644 0.18757673 -0.34030333 2.1929734 -0.8478375 -2.8325183 -5.4332466 1.222699 1.1356984 0.63240916 2.6191926 4.397684 0.4682909 -1.3979452 -5.2620597 -1.0097393 1.0713578 -1.1617196 -3.020709 1.2275113 0.32069102 -0.18753766 -0.09780126 2.3703785 4.0636253 2.0907207 0.279631 0.6118298 -2.2033467 -2.4444125 -1.8705766 -0.10105874 5.066805 3.795737 -2.0615933 0.5494443 3.4351044 -2.061542 0.059968013 -1.4035656 0.6728162 -1.135847 7.018382 -2.2963717 -3.8986874 0.105520755 -1.4896492 1.9637896 -2.5708427 0.21231785 -0.58301777 -0.16099913 4.085199 -0.9546145 -2.2772272 1.9488574 0.57753867 1.0161577 0.3805297 0.8733342 -3.506345 -2.19274
607 -0.9427879 1.1078558 3.2866716 -3.491085 2.8176744 0.8810265 -1.1320887 -0.06519982 -2.051734 -0.7720747 -0.19509563 0.9949804 -0.3363271 -1.7294294 -4.5150642 2.0569358 1.0916256 -1.5018258 -1.0238601 1.2277632 1.0524503 0.50105256 4.668458 0.6435212 3.5848968 -0.2254491 -3.8866353 -3.8410218 1.6774515 -0.5765308 -0.6035986 -0.6774078 0.03421897 -2.5964038 -2.9932013 2.4627564 0.7147161 0.02930248 2.0427706 -2.2443295 -1.0801288 4.916015 1.9886248 -0.09038113 -1.9341197 0.1501456 0.031223454 0.9213346 1.335648 -0.7194092 3.3617153 2.1268966 -4.5501328 0.95643646 -1.1003164 -0.41254926 -6.262477 0.6287029 -1.7111868 0.3900416 -0.077307604 0.019989701 3.3054187 0.9571303 -3.0238714 3.9265587 -0.5117307 -3.4387574 0.17810623 -2.6501887 2.300426 3.7927139 -1.1535549 6.9352674 -0.24513854 -0.0136003615 3.3847923 0.5427702 -5.770162 2.9435704 4.198042 4.69815 1.061799 0.41696283 1.3480973 1.9578938 2.8458507 -1.0624114 -1.4657209 3.485199 3.1206827 3.3234746 -1.734599 -2.800745 1.3944893 -1.5494653 -1.3887655 -0.8450934 -2.407925 0.08892535
592 2.6163316 0.3299972 6.547687 1.6631283 2.8894098 1.0714706 -0.73773205 1.9677699 1.2601956 -2.1385891 0.32951912 2.0571225 6.097003 -1.9123689 -2.4492908 6.8589106 1.3824419 -2.1136117 1.4602722 1.0401893 -1.8184218 0.07882599 1.9224671 -2.7801855 -0.8197887 -6.3594666 -0.8244019 -1.6520303 0.8439988 1.9670566 -1.686755 -4.57864 -0.45612404 0.4759993 -2.3128543 0.12365987 2.324798 -2.4073985 -1.25055 -2.5888183 0.5038944 3.044691 2.453355 3.511408 1.9196812 0.13708305 0.32805252 4.2505 -3.2545516 -0.16885255 4.197455 -0.077083506 -1.1704595 2.6043956 -0.9529568 -1.4103963 -3.144286 2.12239 -0.7425663 -1.6541275 -2.751371 -1.7756028 3.0557373 1.1562347 -3.8019643 4.1286426 3.7102358 -2.7357292 -2.63872 1.0474215 2.4966676 2.5255933 0.750034 5.924638 1.2042278 -2.4869905 2.7860613 4.7328873 -2.850745 0.54504126 5.7036223 4.5655475 1.1884857 2.3588789 1.5882378 3.7722485 2.4591515 2.621918 0.45812193 6.008832 -0.8257913 -1.0568573 -0.846231 -3.8111682 0.13607202 -3.5548444 -0.28761125 -1.2029513 -1.2929492 1.7905428
571 2.1227171 2.1365206 -0.9062793 -1.130851 -0.50449 -2.1357474 5.5502286 -0.05224128 -1.0140744 3.3610058 3.4099565 -4.358571 -1.6110559 -0.4157437 4.1122575 1.7131261 -1.0490227 3.200843 1.156254 1.592936 1.922505 -3.4025986 -4.848033 1.4750686 -3.76221 2.2208478 -0.49317065 2.8298705 -6.279406 1.4436834 -1.8276533 -3.1843219 -0.20477542 0.98577744 3.886331 0.05355495 3.1843603 -2.5840003 -0.2572255 0.26879334 0.8301147 -0.024137955 -0.5548661 -1.7224684 -4.301057 -0.3267461 3.9247794 -2.0950363 0.34601417 -1.6947107 1.6138235 6.27048 2.8990185 2.238557 2.3751924 -1.3592985 2.3304477 0.7027727 4.079946 2.71027 -4.1348605 -1.0903478 -1.6683978 -0.5374276 -0.71422863 -2.086486 0.38442194 -0.09843258 2.344181 -2.485449 -0.19768213 -1.9693202 0.59101355 -5.7869287 3.0540228 0.052688744 -2.4440894 0.4081989 -4.3585415 1.0779392 -1.0578009 -0.26349297 1.3834716 3.3025033 0.80898106 -1.5404947 0.1747317 -5.351508 1.4663305 -1.4592412 3.2905316 -1.7437893 0.6722014 3.119451 3.328559 4.1094713 3.8317509 3.0471144 -0.42478442 2.6339602
646 0.16313207 1.6033243 -0.79711413 1.9796163 0.6846438 -0.563801 1.7251246 -1.6166097 -0.5220969 1.0949627 4.684475 -0.48288926 -2.1038287 -6.514911 3.321404 -2.4815524 0.87639266 4.2412014 -1.5209442 -2.5483968 -0.9941082 0.208655 -0.56830776 0.8489004 2.8341882 -0.044601936 0.19616877 2.0104396 -2.7601838 3.1133702 2.0063932 -1.8377886 2.2557204 2.8645113 5.9264817 -3.7678187 0.8433511 0.52901864 -1.5736023 3.7928207 2.7689712 -3.1973457 3.9726996 6.818217 -1.1564795 -1.3300585 4.1072736 -0.15744486 3.1453745 -2.5752363 -0.02784679 -2.1111014 -0.31958324 -0.04189569 2.521489 2.8096073 2.8448956 2.6141946 3.2264209 3.4026275 -1.7347324 1.6692336 -1.1257021 -4.6414776 3.144924 -2.5570333 3.6549172 2.3625011 2.1079576 -1.1827998 -0.66165835 0.96461 1.9383004 -1.2973305 0.38951772 0.33157453 -2.711685 5.8094673 2.3516967 0.075010054 -1.6246725 -3.8399117 2.1188197 -0.51752186 -0.26359698 -1.1390743 1.3887323 -0.5909894 1.2832055 -5.668614 2.530872 4.1115174 -0.9258748 -2.1005294 -1.8277128 -1.4562637 2.1425722 3.4379528 1.2975806 0.44341075
850 3.3370488 1.7147676 0.12559848 -0.23334728 0.4188401 -4.681492 4.656196 -1.5127633 2.2180274 1.7634351 3.4310825 -1.5455939 -0.55991745 -4.728519 -0.51872766 0.024816858 4.2333117 2.486838 -0.16278036 2.549577 -2.197816 -0.4854056 -1.8083252 0.4919448 -2.0098984 5.2816296 1.612528 -0.019499304 -2.415077 -0.8356958 -0.24984379 -1.8623545 4.608773 -2.6083999 0.7414397 2.921257 1.1225208 0.50301224 -1.0521493 2.6606698 -3.4416544 0.10537909 -6.342286 -1.8247842 3.6740801 1.8193239 -4.620636 2.347342 2.600296 0.56711775 -0.21099904 -0.7118927 4.153625 -1.1151298 -1.6846827 -1.7797673 0.012785388 -2.209431 -0.05897706 -2.0981498 -2.0566044 -1.0612016 0.46456814 0.0019707244 2.68638 3.0394175 -1.3270226 -0.8403884 -1.4592395 -3.1976154 -3.6881437 -2.0955904 -0.22978154 -4.561747 -0.036383744 -2.9569092 3.226639 3.3735037 -0.04209145 3.8832989 -5.899965 0.9092648 -0.44716245 1.9373075 -0.3827037 0.6513142 1.692013 0.45011944 0.0057510776 -4.437674 1.657824 3.0079973 0.7922745 -0.48023465 1.6472218 -0.7134225 2.0162396 0.74740374 0.5453198 4.301075
260 0.4450673 0.74903023 -0.8369774 2.6615849 -0.713882 -1.7800009 -2.485672 -0.8794788 -2.577655 -0.28718314 0.7210243 0.8481737 1.0590451 -0.12864293 0.7367071 -6.0543213 -2.1951764 -0.8450729 -0.287826 1.7199134 0.83143246 -1.1992981 -3.3217094 -2.098059 2.291069 2.506074 0.7375165 3.5389075 -0.48605812 -1.9626296 -2.2260222 -1.1983631 -0.075832635 3.3111572 1.9056655 -0.69458836 2.491127 0.88975435 -4.8633947 0.5236687 4.017436 -1.4074719 3.7068725 3.3217182 -3.2635853 -0.6760269 2.0212252 -1.4185681 0.67376363 -1.7197516 -1.3375533 -2.560627 0.70873916 1.0421507 2.658106 -1.6544439 4.509831 2.2317724 4.6014147 2.5226643 1.0328786 0.45232168 -0.6331002 -5.2027874 -0.56371224 -5.9207916 0.5623517 3.8551378 0.049811497 -2.9752924 -2.035765 2.3148327 4.354233 -1.0688263 1.2612439 3.436769 -2.0523965 3.0975268 1.4742409 1.5043616 0.25562233 0.35258004 2.2940927 1.1896187 -3.3894305 -2.9119751 2.6095426 -2.7165632 -1.8876835 -0.9659633 -0.41206133 2.6899078 1.7454531 -1.9207298 -2.1187344 1.0143217 -0.6731773 2.1163545 -1.8499823 -2.0048354
223 -2.7412236 -1.7558836 5.7379136 -2.5043936 0.47702494 -0.9034551 -0.74929094 0.38211945 2.377509 -1.6117954 -1.7908218 -3.383245 -1.7556653 4.7423325 -5.1731133 6.0851865 0.3001295 -2.6260133 0.2313214 -1.4941214 3.2901738 -1.7583055 1.9505856 1.4800961 3.5459569 -0.52815974 0.98688716 -0.32135704 0.5140411 -0.80616814 -0.16471478 3.5814006 -0.8947934 -4.8911686 1.1911352 1.6570697 -2.0407078 -2.5045457 -1.0295488 -0.9032165 -0.21638112 -1.6403579 -0.2516076 -1.7769266 1.6589869 1.0550297 1.1742128 -1.5180244 -1.0314562 -1.9855226 3.544992 2.0142922 3.0304718 1.5330963 -1.8304385 1.485042 0.2902652 -2.9104881 -2.0226762 -0.3125978 2.7425423 0.5216919 3.7034047 0.81820387 1.0504488 0.23383602 -1.441472 2.599308 1.7311958 0.86825484 1.148705 2.6668315 -6.2452607 1.4069993 1.6973884 -4.932439 3.148505 2.7602437 2.5885766 0.5548234 5.189923 0.21917868 -3.1587782 1.6286244 -4.5253243 -2.1309254 -1.9055946 -2.4262383 0.017352983 -0.019080833 4.5965385 -3.2633798 -1.8670255 1.1748776 -0.7669185 1.2822195 3.4736552 1.872731 -2.8143928 -0.44563073
92 3.6130035 -1.1734427 4.2883835 -1.5108672 -0.56864524 -3.8041835 5.089831 -2.0320754 4.434683 -3.2141578 -0.62801975 0.009282177 -0.5700039 -0.787558 0.5315717 3.6713605 0.24464771 1.0933102 4.415966 1.1392403 -1.667558 -2.9620461 -1.5613337 -2.3043206 -1.9636 -0.7619345 -0.9847115 -1.7797827 3.507198 -0.5266445 -3.1891105 -1.0055865 2.663645 -2.4103882 -2.453668 5.782956 -2.5361273 -0.038613066 0.1908112 -2.5969322 -2.495567 1.3422441 2.1922755 1.313891 4.2387457 -0.8717192 -5.2467976 -2.7526584 -2.8302815 0.16091251 2.544931 5.735138 4.285606 0.6179482 1.1370642 -1.4099472 -1.2106729 -1.3521695 0.5033642 -2.0572946 0.07713559 -3.8833065 2.780778 0.23652327 -0.8071617 2.2554326 2.1151934 -1.1845919 1.8134869 -0.25322548 0.71202815 -0.8109967 -0.12010381 1.1614943 1.0868788 -3.3219967 3.3896613 4.8214674 -3.872521 2.7193546 2.4290175 5.0020237 2.8242223 1.2121968 2.4051588 1.6052287 2.5441484 0.24077527 -3.1892428 1.9723127 3.3919964 -0.65320605 1.1359043 -3.0703044 2.6849227 -0.5240525 0.558595 0.8050657 1.842418 1.4649525
349 -0.54941475 -2.532888 1.5171431 -3.8141963 4.4095206 -2.4779835 0.4834512 0.72896606 3.1192744 -0.059243534 -0.23953092 -0.634546 4.294471 2.4602509 -4.0410504 1.9198182 1.1167375 3.3437817 0.5639526 0.37907642 1.4977521 -4.522371 -0.3921906 -0.43676955 3.0617867 -6.9699507 -0.5892773 0.32335696 2.0379481 2.6874928 -2.1092932 -0.30467853 -0.23693952 -2.2903616 -3.7644258 1.1813813 -0.6265168 -5.502235 -1.5224285 -1.1003567 -1.3070444 2.0223851 -0.20065919 5.2429814 2.6112924 0.776056 2.4602988 0.5025064 -1.1738452 -4.0816526 1.1103373 -1.4220855 4.5206904 2.2672546 -2.701657 0.57987887 -0.4331944 1.6690184 1.0813764 2.1703382 -2.6702619 0.62898725 3.000992 7.237693 -0.72261715 3.6644342 -0.95600617 2.2320216 0.7763566 -1.3687379 -2.456851 -3.1865814 -3.3097599 2.198519 3.3995028 -5.7191734 -0.6935439 -0.5483957 -0.92029345 -0.5185741 -1.9760191 3.4079812 -0.22939591 1.927258 -0.47721478 -2.5471337 -1.8676628 0.47107565 -2.8962812 -0.06533344 -1.744336 -4.673363 -0.3668752 2.8808215 3.972114 0.18105945 0.5580664 1.6240277 -0.35002342 4.481597
728 -0.37829566 -0.12041259 1.3602396 -5.050724 0.119232014 4.0462923 4.223766 2.485214 0.8482575 -2.1679251 1.926584 3.9446146 0.011015581 -1.6286677 0.6581619 1.2484012 4.6317945 -2.2950346 -1.4550518 -1.1281955 0.16886212 -0.9734637 0.41463768 -1.4769832 3.1218913 2.3674135 -2.1946352 -0.5384645 1.4493147 -1.4100173 -1.2920401 0.97655493 1.233114 -2.1280875 -1.0408169 2.3875337 -3.5348032 -0.16524981 1.7699863 -1.7382153 0.8041582 8.645777 -1.992447 -2.6650593 0.3616684 0.7745701 -4.445532 -0.27871147 0.5539737 -1.9860123 3.3257742 3.8823206 -7.466139 -0.24463163 2.415279 0.0430869 -0.050587423 0.93657815 -0.6499585 -0.060735095 -0.13767785 -1.0897492 2.933177 1.7903236 0.741684 4.6831074 -3.746112 -1.5010027 -0.34693104 -3.3809912 0.3768352 2.412071 2.1100245 2.8515975 0.9288895 -0.37420765 2.5894737 3.158216 -5.3634787 2.4715915 0.5395864 4.6932564 -0.5216099 1.4612454 2.1870313 4.731995 0.60783255 0.82697093 -4.098159 -1.3077666 6.014964 1.6279322 0.022700524 -1.43782 -1.9913092 -4.1040206 -2.0190344 0.69087976 0.85048264 4.1502924
801 0.039199553 -2.8032138 -3.171066 -1.2447735 1.1156455 2.9400568 -2.731391 -2.4054368 4.8100815 -0.2523665 0.7933428 2.3858209 0.2520006 -2.6673856 -3.2746007 3.47008 6.429271 0.62762094 -0.42009065 -1.4556966 2.69098 -0.21436359 0.9633753 -0.44512182 -5.700639 -3.5470002 0.73799044 1.7173065 -2.3384814 -0.7114931 0.37821972 -0.38583437 -1.6339774 -2.256648 -3.3615868 2.284316 -4.066626 -0.3124504 -0.63115853 -0.39202106 -3.4835029 3.3813312 -0.68406016 3.035022 -0.50288457 -3.8795407 -3.485809 -2.7785177 -1.1055936 0.20084773 4.241503 -2.1005955 -1.4079211 -2.4674382 0.02992158 5.2130136 -2.8107963 0.6772312 -2.25481 -2.0678344 5.7767124 0.18406172 4.447086 -2.2985132 -2.4283354 1.3745602 -1.6903471 -0.38423795 3.8788779 -1.7405492 2.6271672 1.798091 -1.137288 1.9377371 -1.7402221 2.4340663 1.8380462 -2.443311 -1.9382432 -4.449063 1.0353436 0.83452326 -3.6905766 0.12735055 0.43691903 4.9140234 -1.9372674 0.10776637 -1.0153196 6.81113 -0.8559293 0.3671428 -2.129564 1.5420368 -2.2867496 -1.7054064 -3.2008908 0.4773454 -0.3753277 0.8794351
27 1.3056538 0.9825697 0.3905525 1.0151024 -2.7831738 3.0982769 1.3600885 -0.7256229 4.830713 0.5477309 2.9277928 3.059771 -0.1634958 -5.4068537 -3.744705 -0.5094308 2.1280792 -2.6395595 0.4127513 3.460572 0.40756148 0.1494315 2.703835 0.8948944 2.1818702 1.0143938 1.8221064 0.69461006 2.227516 0.18907462 -1.5240678 -5.141492 4.1083913 -3.9018548 -0.28531587 -5.0178585 -3.6106782 -5.702113 2.6923146 -4.1029863 -1.2095094 6.9205956 -2.6311214 -1.628319 0.38912132 2.138663 -0.41787732 -0.25797167 -1.4595145 4.6261964 1.085776 -2.3711207 -4.2970877 -4.3885174 -1.8994629 -1.3873919 -5.427676 2.0424716 -1.4839727 -0.25634214 -0.15585649 3.145957 1.8467829 -1.0594451 0.7420369 2.4290702 0.70289916 -1.1271913 1.548595 -1.77686 -1.1081718 3.7873833 0.671321 2.9496145 -2.4015372 1.7325739 -0.32258236 1.7894981 -1.5483215 0.1848944 -6.7689657 -0.6086556 -0.51123756 2.749739 2.6122375 3.1357136 6.2429123 1.1720245 -0.03532932 0.8260842 1.9387927 2.7556734 -1.7918708 -3.3594253 -0.7125121 -0.6849909 -5.939516 -1.1589471 -2.8287764 -0.48038384
889 -0.8439141 0.6199532 1.1285738 0.61886823 -1.645477 -2.5901518 -3.140038 3.203932 -2.5081458 0.6292375 3.9338155 -1.5109044 3.2325006 2.5739205 -2.2150486 6.5473447 1.881923 -3.2049463 3.0365856 -0.60022014 4.107378 5.7083464 0.1994268 5.6937757 0.5236803 -3.4265943 1.7039446 0.6778237 4.068291 -5.3766007 0.5395071 4.930111 -0.69712913 -6.3238316 -2.9849904 0.41775006 0.69235355 0.48926765 0.28463644 4.613282 3.4590569 0.59309787 1.2397941 -4.782712 -2.9399872 -4.3077507 -0.7760556 -1.3873289 0.121860765 1.324636 1.2167119 -3.1254814 -2.1384544 -2.816581 0.5675238 2.5542743 -1.5271342 -2.761791 -2.882246 -1.6162852 1.1697692 0.03520135 4.3396072 3.1720507 1.4790568 0.5165728 -6.163348 2.4220383 -0.49640632 0.39388987 2.3924298 3.4871836 -1.3181937 0.24184717 1.0061358 -2.5883636 2.0656636 1.3757575 -0.58702964 -0.543915 2.0518935 -1.8046474 0.9864967 -1.6823075 -2.839318 1.7942932 -0.76543087 -1.0462888 0.43622684 -1.128197 5.4419417 -0.14041476 -4.0910087 2.8211234 -2.1871386 -1.4789432 -2.0960822 -0.6353933 -2.202429 1.0802691
853 1.7970166 -3.89654 3.8520455 0.8628996 0.747312 -2.1401105 -2.7814918 -0.0898825 2.1783688 2.489359 -1.9788065 0.12559855 -0.45150563 3.266303 -2.278226 2.825826 0.010210719 -1.0851264 3.249136 -5.9256697 2.1523333 -1.8209323 1.896607 -1.8185788 -1.9477215 -3.3446481 -2.3968189 -0.6001319 4.301758 -0.97348654 2.682637 3.0674326 -1.6708392 -2.4653158 -1.348718 1.3041971 -5.228017 -0.3868164 -1.42211 1.2351304 2.8254173 2.3721826 1.0400913 -0.8543381 1.8484449 -3.6238506 1.3095767 -0.91848767 -0.95460194 1.0919564 3.7011292 1.7485781 4.0502043 -1.2353784 -0.49109977 0.6376582 2.2567136 -0.10964933 -2.162552 -2.0300865 -2.5902627 -2.6894822 5.5954823 4.825947 1.4687872 3.9556289 -0.28559792 1.3702747 1.0384256 3.4892962 0.5808712 -0.49966124 -5.230899 2.6109927 6.2752843 -3.1054235 2.599447 2.3703318 -1.8688198 0.59421015 2.1905298 2.4045708 -1.1531464 0.731092 -2.0958884 1.0840389 0.07612691 0.7282544 -3.863711 1.98686 3.5271645 -2.7653813 -4.6261563 -2.5613942 -4.540559 -1.4109683 4.3632827 1.3808202 -2.3759375 1.8226974
310 -1.8331629 -2.5831363 1.9695907 0.0014996164 -3.3707814 -1.4684976 -1.1615455 0.5512199 -3.2656884 -0.63725644 -0.5711103 -0.24208435 2.1131864 3.1801448 -2.089183 1.9205983 4.2105436 -2.14952 -0.9675849 -3.2361937 1.9455271 3.2939944 0.5844949 2.1183825 -0.015112533 -0.99383867 1.0452908 -1.4566536 2.0312479 -5.2264276 5.432583 5.079892 -2.6970108 -3.293467 -0.7160014 -0.21850324 2.2528777 3.3674974 4.1798787 -0.39169642 0.7201236 2.0628324 -1.0767423 -0.6500603 0.3211366 -0.91522825 2.2738707 -0.7898228 1.3213019 2.5522976 2.2035801 1.9111665 -1.3347278 0.98514396 -0.2311096 1.4362215 -1.2846642 2.652086 -2.1315894 -1.4527998 3.9377298 -1.8421096 2.9654508 2.8934453 1.1306343 0.9537351 -0.020890007 -0.44238928 0.3774041 2.3615687 3.726721 4.6098695 -0.30884263 2.4993927 4.287607 -3.2788725 -1.112043 -0.89470863 3.0656598 -1.70337 5.8440027 0.8378157 -5.1459703 1.8126429 2.6094372 1.4825815 -0.8150055 2.7110887 -2.1805458 1.0732201 0.8043198 -1.2262312 -3.9230897 -2.346648 3.1752295 -1.212561 0.6960849 2.3808043 -1.2794151 3.1890912
754 -1.6035018 -2.3830245 4.3797646 -1.3252795 2.75837 -3.6315994 -2.186305 -0.66760397 3.7115707 0.6330575 -0.4340408 0.7672369 2.0107963 3.369544 -2.331286 4.785832 2.7420645 0.42908603 -2.643515 -3.8360095 -0.33559874 -1.1700222 -0.60955715 -2.3663387 -0.45177642 -3.23578 -1.0672793 1.5666455 4.2423854 -0.06293029 1.3206493 0.8429947 -3.6495595 -0.9895843 -0.9623841 1.3494256 -0.5552152 -6.987424 -0.6048256 -0.5466119 0.19204539 1.097812 1.3779184 -2.2035387 1.2953095 -3.8315127 1.435931 0.26571116 -2.3755963 -0.89959425 2.8584893 -2.0508053 3.4921415 0.45339847 -2.620141 2.0900047 -1.1997392 0.9204498 -2.8910484 0.6830826 -2.329695 -1.3792342 3.4838896 6.7253013 -1.2139732 2.4562101 1.989919 1.605132 -0.33900556 0.27970234 -0.34505188 -1.1371679 -5.091256 5.226306 5.905682 -4.800514 2.6471798 2.9384053 -0.83370024 -0.68968815 2.9769492 5.1917906 -1.0448424 2.4415276 -4.360389 1.0884641 0.24065468 0.89553154 -1.869058 -0.6849599 1.5878323 -4.1858773 -0.5248967 1.2149959 -4.8167634 -0.97608054 -0.13340272 -0.756546 -3.7644541 -0.21894626
950 -0.023425 -0.7100724 -3.5526407 -1.0927085 3.5781734 -4.803273 2.5971484 -1.1880499 2.7809455 5.904084 -0.41534415 -0.083984025 1.6494968 -3.5994895 -2.179294 1.7974956 1.9686677 -3.4421427 -1.8022529 -3.8799698 2.0627072 -4.823841 -1.410511 2.4967954 -2.7476137 -6.21617 -2.2617266 5.659271 -2.0913625 2.4371488 1.54065 -1.7488635 6.7116632 -1.1477675 -2.3895946 2.0893111 -3.2331302 3.8304234 -0.14858943 2.749381 -1.4296812 -4.604739 -0.73639166 4.4144998 2.2568395 0.3477597 2.104749 -2.2021542 1.5149974 -0.02241879 -0.41824973 -1.2904319 5.1090446 2.8234532 2.8469915 1.4049283 -2.1927907 -1.9110668 0.4647282 -2.7713947 3.0580902 -0.6679724 0.7225696 -0.13595732 0.81909347 -0.12251892 -3.9136686 0.658048 2.3345594 -0.31419036 1.9677852 -0.78880215 -1.4809225 -3.8172 1.0956541 -5.027567 2.7486367 -0.52145195 1.4078575 -0.7144204 -4.125255 1.4838221 0.2672802 -0.92931664 -1.858933 -3.5197659 -1.7668297 1.6610668 3.899792 1.1144533 0.039705645 -3.9006784 -0.89917016 0.82964325 -1.5767148 0.72241527 0.26443413 3.1783092 -0.41206214 3.6962428
507 2.5540807 -1.0389793 -5.2527657 3.3295825 -0.19869153 0.35978416 -3.894681 2.3722522 -2.8430731 -0.009988608 1.7248894 1.2164366 -0.27401364 -0.81712 1.295344 -2.1715465 -6.6459236 1.0181615 -3.3377962 -0.8497553 -1.6713068 -0.56767833 -1.4342232 -1.4862138 -1.4277549 3.8099146 -0.5004921 0.5556508 -3.1343465 2.3856943 2.0852356 -0.9383896 -1.2915576 4.560015 1.5457014 -2.1775117 0.7639178 1.8915403 0.10721443 -4.043245 5.155672 -1.1301633 1.3735079 2.1226006 -0.96426594 -1.5624634 3.921324 -5.0049863 2.3724184 1.9690275 -2.6087575 -1.1073778 -1.6847742 -1.741133 1.6572667 -0.22944222 2.5092552 -0.50509787 2.1934981 0.92885983 -2.4647305 -1.5102931 -2.8167338 -2.6538198 -1.3467374 -4.3710275 -0.18928988 0.1608856 2.0963538 -2.4223862 1.8112537 0.6480307 -0.1905274 0.093455605 -3.178249 -2.7078035 -1.6048932 -2.0214946 2.791185 0.019485222 4.059322 -5.9374537 4.3354306 -0.017024104 2.028136 -4.734427 -0.63982534 -2.9379535 -3.9020066 -2.4510994 2.4347107 2.5323 2.687223 1.3061944 -1.8601319 1.9392437 -2.9116716 2.8018844 -2.1025603 -4.733206
961 -1.5440905 -3.680522 0.2639694 -3.4944952 -8.457794 4.7849803 1.0082258 -2.6229854 2.3078012 2.4827826 -4.186964 1.6348933 0.8825933 1.0374084 2.9703355 -0.37769908 0.4611697 -0.5766619 -2.2105212 -2.0619762 2.8014407 3.1071591 1.5048934 -2.5305264 0.051679544 -2.0528512 3.5725129 5.2011156 -3.9335198 1.4517325 1.6531124 2.2670364 -0.3650094 0.469841 0.79485697 -1.0462117 -0.12884793 2.360371 0.4898797 1.1797245 -1.0117186 -2.5195475 4.067011 -1.1794626 -0.35986105 0.53445494 -0.14511122 0.12029738 2.2607458 4.393054 -3.0138364 -6.2141895 -3.8223317 0.2558564 0.111765735 1.008711 -3.1814053 -0.38501444 0.5160842 2.992147 -0.2075821 -2.658579 -1.077529 -1.3125061 0.32085893 -3.2283728 1.5660558 0.6156642 2.4928672 2.1816134 5.1752563 -2.1365411 5.3457003 3.197796 -1.4385091 3.348576 -0.55806905 -2.6569645 1.2579252 -1.3650768 -0.88848907 -2.9923944 -0.4461482 0.7338132 -2.0669847 -5.8885 1.1365769 -3.1420777 1.5467554 0.4914041 -3.1433852 0.23361802 -2.1298223 -1.3584846 -1.8986858 1.6157013 -4.4143333 -1.6806126 -0.7458299 0.45969552
496 0.34456182 0.12386009 0.052496 1.1974777 2.1893451 1.5119275 2.1415765 4.3395166 -3.0180752 1.6899383 1.7099844 -4.6482067 -2.0604107 1.0116593 3.1778007 -2.0842896 1.762797 -2.4557436 -1.5480509 -0.03641442 -3.2309294 -2.9051394 2.7288077 -0.17281495 0.73074496 4.4276614 0.534226 0.49959475 -0.73843575 5.0922008 -5.0948977 -2.1504757 -7.180729 -1.2683972 1.0739735 -0.35746253 2.439517 -0.49569723 0.29073226 4.043363 -1.2786727 -3.1210485 -3.9278998 -3.0020664 0.69378346 5.7700005 -2.568024 4.3162446 -0.858744 -1.861507 -1.7841815 2.29529 -3.5510771 -3.6023076 -0.066446856 -2.7355301 3.707165 -2.5220728 -0.12931433 -0.3052897 -2.632569 -4.369994 1.6548489 2.4794488 -0.31821877 -0.5931858 0.87070584 0.34137556 -7.429486 2.6847029 -2.3009183 3.9892917 -4.2383475 -3.8224525 -3.2087717 0.8332534 -4.79115 -4.3738728 -0.7647995 3.5940068 -5.7084317 0.3687824 -0.08990575 5.201004 -2.6198182 4.156112 0.06165921 1.3312016 0.15168211 -2.3592126 -0.78977865 1.7631953 1.9319752 2.4251664 -0.16824046 -0.65473765 4.3088064 -1.345405 4.436916 3.781734
143 0.6467999 1.207104 -1.1171355 2.321936 -1.6269122 -1.0080627 -2.321892 0.21163633 -2.4728665 -0.98082304 0.73158544 1.2636359 0.9826457 -0.50546324 0.6829035 -5.6889014 -1.4411335 -1.2230275 -0.4602967 0.18642917 1.9926664 -0.7685453 -2.3463295 -1.4165632 2.400038 2.7828004 0.2915187 4.380742 -1.4515717 -1.8442732 -2.464815 -1.3223749 0.19217554 3.0504365 0.8813573 -0.26981455 3.1022305 0.46767908 -4.0292797 0.8604507 5.2506166 -1.1120338 3.7070234 4.404411 -3.7663202 -1.0982898 2.749503 -0.8919525 0.81694627 -3.0580838 -1.3920922 -2.8877683 0.8088931 0.566559 2.223639 -2.1995783 3.7486997 1.1737965 3.2531104 0.50192744 0.82740337 0.7584235 -0.45032895 -4.686566 -0.7849248 -6.9635863 1.1779773 3.6820698 0.2177295 -2.8926766 -0.77039456 2.5013433 3.5964196 -1.142312 1.5516764 2.9405358 -2.4792235 2.6052544 0.0016420009 1.0634964 0.9136424 0.458684 2.5823638 0.6610036 -3.0573378 -2.5979815 2.9848742 -2.9674668 -0.355543 -1.0831242 -1.9798911 3.3021457 0.8107311 -0.57696 -2.1673963 -0.7070174 -1.5326862 2.0790963 -0.742429 -1.2269676
503 -1.6946174 -4.3148823 2.2575886 -2.1755338 2.1563618 -6.414755 -3.9337847 0.79406244 3.5068376 1.3983792 1.6637281 1.9608953 2.8294985 -0.05511891 -3.5003276 -0.09186475 5.280008 1.2998554 0.39090168 -1.9076037 1.5734776 -0.2764276 2.8275216 -1.000499 -0.2176437 -4.180855 -3.618997 2.0917323 1.5860491 1.0131179 0.26233435 2.7225232 -3.7458897 -1.7384348 -1.2032285 4.2556624 -1.6372105 -2.986888 0.6281031 -1.0028518 0.5025407 -1.2384611 2.5848844 3.8036072 4.779515 2.7825537 1.1670281 0.13865839 -1.1634403 -2.7580569 4.4059877 1.9806049 9.038491 0.47383928 -5.1932592 0.51036763 -2.325175 1.0382763 -0.68831587 -2.0351825 0.23169708 -1.9304171 4.0607324 6.196052 2.0789957 3.2756515 1.1735847 -2.3122041 2.3904884 1.0101418 0.9154181 1.1964366 -3.049983 1.9501395 2.0431194 -4.583245 4.7852964 -0.43506268 -0.42510536 -0.76999444 -0.44841045 2.3499427 1.5986836 0.029120484 -1.6946443 1.1320891 -1.3260859 0.3678831 -1.9201999 0.46015137 0.64688605 -3.9832888 -2.8433042 0.31899902 -0.6602603 -0.6401874 1.9506916 0.25596836 -3.089897 -1.4821049
469 0.3635417 -7.2915554 1.0644625 0.64947444 1.8725444 3.1061878 1.2497622 -2.415763 3.259118 -1.9180931 1.3443397 1.9804968 -1.4856204 1.8789626 0.39995316 -0.6746161 -1.4113156 -1.4632821 1.4550215 -3.4018073 -1.6261368 -2.6119344 -1.1413305 -0.7527568 0.83397406 -5.7998023 1.3209548 2.563097 -3.7293875 -0.14400363 -0.105918944 0.9794092 3.533171 -3.4816754 0.65222615 0.730017 0.92130756 0.56680095 3.1156616 -2.2239478 0.31663084 -0.49402237 1.2863777 -1.7172946 -2.8459685 -2.3438025 4.212649 0.35087427 -2.9603112 2.1367147 1.4252665 3.1204038 2.900112 7.347898 4.219639 -0.25838852 2.9876137 0.24959658 -2.5750089 1.2231076 -0.44394323 1.8628694 2.1551118 0.7575135 2.012551 1.9274006 -0.7398901 4.0275745 -1.9950773 1.8449715 0.18043354 -6.052228 -2.9215188 -4.077215 6.9819207 -4.341859 4.5685053 -0.42031485 2.435561 -3.677916 2.0895607 -4.346957 0.43395486 1.293274 -2.583765 1.8923153 0.43264785 -1.1777321 3.7245123 1.190217 0.08916497 0.25134096 4.682158 2.557778 -0.5820382 1.356382 3.9462059 4.121033 1.5969933 1.701876
226 0.30131412 -3.095973 -7.650345 3.7968192 1.0886211 -4.0667887 -0.8989266 1.7361754 -3.4216409 -0.6046509 -1.2909864 5.07359 -0.59069943 2.2907221 1.2407413 -0.7730279 -2.0306728 -1.6504765 -2.8880637 2.6156518 -1.1919256 1.113934 -4.354814 -0.2683065 -1.9047905 5.447323 0.7179612 3.1164165 -3.05663 2.5783193 1.566436 1.5249623 1.996072 1.8564891 1.5671165 -1.759562 0.5747227 1.9620752 -0.95265853 -0.3325979 6.821994 -2.501415 1.9539924 2.7721295 -2.0053012 -0.21642885 1.6970971 -0.61109525 2.6632571 -1.3278805 -2.0937958 0.6329143 -2.0994012 -0.8029477 1.6552054 2.4993541 2.2279549 2.2553961 2.8359625 1.2808847 -5.8653984 -0.8007662 -1.3478688 -0.9264508 -5.668721e-05 -2.5195591 2.2210543 2.8836524 3.4143178 0.8820603 1.9760646 0.64565617 -4.2700534 0.64345425 0.014503734 -1.8431822 -1.9765713 -3.0059276 2.762634 -1.0499645 1.1047817 -4.6283383 4.1002665 1.6126789 3.6020105 -0.28348365 0.4734383 -4.6809697 0.47274736 -3.1831841 0.6077299 -1.6584164 4.239686 0.049899377 -2.9593446 5.060612 -2.8283613 1.7454172 -0.34134796 -1.5515925
30 -2.5227802 -0.98024863 -0.16528748 -1.7205837 3.870816 -0.023704654 0.23978546 5.3766336 0.48416314 -2.790197 -0.75094336 -0.9273658 6.7910423 0.8750733 1.6452073 -1.5825486 0.48134208 1.7906699 -3.6988811 0.6948438 0.20180503 -3.432584 1.9181497 1.0245315 1.2009767 -6.0258493 4.2971983 -3.0782516 -6.4646716 -0.07714307 -3.9947896 -5.2979608 -0.50753725 -5.0718784 -0.022664707 -4.341738 2.3681188 0.9869864 1.880828 -0.9091465 2.375369 1.5531745 1.2677372 3.2403214 1.8519479 4.025223 3.0116704 4.345605 -0.56951034 -4.0871015 -3.9586751 -2.4540577 -2.068413 2.920391 -0.5817784 0.1410812 -0.9129177 -0.16843416 5.28621 -2.9649286 -1.7897162 2.3061483 2.0795553 1.1413532 1.4132209 3.031478 2.316846 -0.7637334 -3.5949378 1.7360356 2.0745492 4.2699685 2.2200258 2.4385755 0.46626556 -0.87377393 4.2000847 -2.0906994 -0.3764029 2.8350382 4.305616 1.6261593 -0.45989522 -1.9436665 1.371905 -1.0905414 5.9150505 -1.0651656 -1.129609 0.7390817 -2.4889739 1.2815847 2.5945868 -1.3605196 0.24994811 3.095505 -0.6736192 -4.781906 1.0031371 -1.630839
976 1.795826 0.5646712 2.4665742 -1.9629475 -5.265159 2.8150816 -3.0581784 -4.873422 1.1013224 3.058124 0.28787217 1.8028209 -0.86041796 0.2283028 2.9507 -2.5016742 -2.4158235 1.9067446 1.2355138 -4.1766973 0.9638408 5.3482842 -1.686633 -1.2967422 -1.1219532 -2.8886065 -0.6235723 2.5864365 -4.031956 0.67235416 0.9978523 -2.4157095 -2.976561 -0.9164061 1.9356917 -2.885623 -0.7347904 -1.5817504 1.2189461 -3.81879 0.23651935 1.3088342 -0.021456871 0.64630604 4.3072395 1.5988263 1.9002074 -3.8550441 3.1249218 2.5429432 -4.5151973 -1.8877431 -4.8369164 0.99917173 3.6692677 3.0124662 -0.95540816 0.31823468 4.6040764 -2.7545068 0.50245965 -1.816246 -0.7167404 -6.086241 -0.47808683 -0.3561577 0.55007696 -0.22389892 -1.4833727 -4.293357 0.547761 3.5794468 5.226474 1.570893 -4.677488 5.544263 0.37637806 -0.41851753 0.81820613 0.23300423 1.1618102 1.1198328 2.9412968 3.4596047 -0.66017294 -4.6159587 1.3921735 -3.571023 -0.458671 -1.7798529 -2.5220485 0.53363025 -1.6756516 -2.881678 -3.0611002 -0.05468229 -1.3528025 -0.5663449 -1.6074516 -4.6047387
294 -1.734804 0.11202277 -0.028282471 -0.08755635 -1.0269489 -0.8852408 8.047374 0.52544713 2.8622808 2.8146036 0.71236974 -6.3163304 3.1403484 -1.8518763 -2.127841 1.7049575 1.4266717 1.2129924 2.8475807 -1.3219951 -1.7529738 -2.7530468 -2.7737103 1.6008765 -2.2964199 -0.38382423 -1.6897721 -2.0853753 -3.148609 1.4874842 -1.2281059 -4.532154 5.860496 -0.29083768 -1.4411225 4.6502953 3.2636027 0.57902217 -4.477706 1.8189251 -2.4105036 0.2849051 -3.8152053 -1.5931426 2.3428516 0.85708445 0.22937036 -0.67402613 1.1401261 -1.4096978 0.97431797 3.1986952 4.1052985 -1.8539339 4.227 -2.764222 1.1291486 1.4726329 4.428775 -1.78888 -1.2785871 -1.4182959 -0.7275377 0.53890723 1.1619625 1.3822551 -2.557981 0.2895218 1.9962249 -1.5367779 -2.1365943 -3.5794253 -1.5563688 0.22709604 4.3041635 -1.9529122 0.41014344 2.3017948 0.92282337 3.3476822 -3.2077072 -0.34653026 -0.008317686 1.1172743 0.40263647 -1.8164663 -0.28895998 -1.1218686 -0.10548273 -2.7198725 0.86255044 -2.003833 2.5314329 3.1233883 5.8877125 4.413145 2.5009568 4.9953804 0.49827456 1.5593648
474 2.325425 1.1219778 -1.8851125 -2.8017929 -0.32647997 -4.981617 4.7805405 -0.051002175 1.7059243 1.7293139 0.93918985 -0.8927488 -0.073037565 0.27875283 0.95113176 1.1159645 -1.881081 2.0412116 -2.8557963 0.84820664 -5.0133586 -2.460575 0.02030121 -0.98595464 -0.082421824 2.6447194 -2.3705118 1.6106321 -1.9276184 -0.2578321 -1.2426727 -2.9070964 2.0852368 -2.402721 -6.6493373 4.0446434 -0.20323688 2.579541 -1.2802458 -0.18839894 -2.8911407 0.5025865 -3.6192756 1.8242114 -1.2221683 0.65551865 -1.8235506 0.10468 1.1778026 2.343553 -4.1145554 2.6740222 2.6985626 -3.000481 -1.5304055 1.4534689 -3.8526757 -0.20291856 -0.18207622 -3.8549683 -2.0282438 -3.0791774 -0.57475096 0.82881564 0.3088507 -1.940292 -2.8540506 -0.122710004 -3.395068 1.9098704 -4.2405424 0.032801334 0.48319533 -3.3287873 1.356354 1.151061 -2.785222 3.2527337 -6.2402844 5.7313075 -3.1936922 2.2744815 -2.212088 -1.2471302 0.9559023 1.1514962 0.2556316 0.27218136 -2.9129696 -4.1136756 -3.5957575 2.3572683 3.5707207 0.6507231 2.7450726 0.33835968 5.9496264 -0.84923387 0.16714796 0.05923474
924 1.3278325 -1.4012212 -5.9788036 3.8392715 2.993752 -0.17025158 1.1313846 3.034699 0.24555697 -0.09872296 4.9218607 -0.6333237 -0.12164933 -4.04708 0.19430192 -1.8368937 -2.4976044 6.4091973 2.0080764 -1.7556659 -1.8704385 -0.8627859 -2.7126493 3.299316 -0.24089979 2.9438248 2.031673 -3.2667725 -2.696945 0.1954071 -0.7589886 0.5223204 -2.7451065 7.636401 3.3181932 -3.9056637 3.190345 1.316297 1.7680801 0.62655634 4.4741025 -3.247528 -1.5409232 2.022371 -1.1857107 -1.4488755 3.9407465 -1.1938215 2.8766665 1.1512353 0.057345353 -1.380101 1.2634038 -1.6482471 3.1708088 1.6655849 2.8987765 -0.63330334 -0.0395238 1.7687839 -4.2028756 3.5989826 0.9519416 -4.486449 -3.4310064 -4.349965 2.0447304 -1.8302777 -1.7571703 0.5480396 0.26912412 1.7469869 -0.38050023 -2.860103 -4.4311085 1.2489 1.995584 1.9443479 2.9053836 3.2858844 1.5550367 0.12592314 3.0688803 1.3049029 1.1509867 -0.5241439 -2.1081557 -1.3449565 0.3970932 -5.322311 -2.1773844 -0.2015941 -0.23024473 -0.171419 -1.8596827 0.86149526 -2.0732713 -1.8548396 0.7371551 -3.070991
157 1.5164899 3.0233424 2.7653024 0.9899516 0.12256253 -0.016473673 3.9210737 3.6232824 0.60897136 2.9624836 2.1874027 -1.5029383 1.7374533 0.104690656 2.119389 -0.11637894 2.6673095 2.3168552 4.250846 2.7973468 -3.378481 -0.75752825 -0.19167946 1.7847828 -3.3469853 3.178896 -0.2967618 -3.227599 -0.5966025 0.8105049 -3.2558823 -0.47057483 1.7061692 0.18443078 0.37383628 3.3028367 -0.93009835 1.1229178 -1.6216993 2.3225026 -3.3796499 -2.192631 -7.9808207 -0.63919646 -2.4809413 4.4256516 -2.440375 1.3332984 -3.976072 0.0905156 -0.34675252 3.8894663 2.3598526 1.3986181 3.2123027 -1.0133184 1.5833377 0.16845441 -0.28670508 2.1409976 -0.931466 0.837749 -1.6256987 -0.49904317 -2.3906417 0.5791228 1.4309928 -0.48648113 -3.6256473 3.1667857 -4.634174 -3.435181 2.6611445 -5.0762196 -0.602515 1.5559219 -2.4660034 1.0124649 -3.0803413 5.1453004 -1.417935 0.5677527 -2.8531747 1.1916697 1.0893388 -0.55051 2.2172942 -0.6075588 -1.669513 -3.7501974 0.93679374 0.55150115 1.9085495 0.10123317 0.5910905 -0.7873996 1.287768 -2.3116035 4.671037 -1.5107462
591 0.47697562 0.63719386 1.8505416 -2.8117754 3.3822317 -0.30694538 -1.7626833 0.5932832 1.8881214 1.2374108 0.45385197 5.077804 -1.0337038 -3.715156 -3.0228481 2.4647138 3.237418 -4.4996266 1.0490438 -0.27429715 3.5908082 -0.33811566 0.2178308 3.2161076 4.342103 2.271037 -0.7187387 -2.668934 -0.5247606 -1.5158551 -0.667132 2.4688768 -1.8921804 -5.7997055 -1.6482017 1.2549262 0.87932575 0.33551502 0.47999015 0.956425 -0.5224083 6.029434 0.49596643 -2.5160034 -2.5757585 -0.9227359 -3.8831728 1.4496491 -0.66096956 2.809158 6.7107015 -2.0532172 -3.1309507 0.7460779 1.424221 0.84332085 -4.0505395 1.5748178 -4.596568 -0.36089423 1.496059 -0.049378656 1.5992696 -1.4547124 -3.2173996 2.1772335 -1.9948853 -4.085447 1.0345156 -2.501861 1.1996734 2.886111 -1.8258351 5.9391937 -1.4498587 -0.24734953 2.1749012 0.3364154 -3.8708525 -0.94514334 0.68546295 0.97176695 -2.4210286 -1.5019743 0.12845887 1.5799516 1.7489673 -0.6117404 -1.1005923 2.0044155 5.729586 2.2735686 1.1480076 -1.5744811 0.2381693 -0.38101172 -1.6961342 0.5974959 -3.3021066 0.80431443
332 0.062527075 4.5797853 -1.1755829 -2.4284353 1.7724153 -1.4178641 6.018263 3.409121 0.052359603 -0.9815553 0.94073385 -1.4767482 -3.2602246 0.6056654 0.91050595 -2.7594264 -0.59549576 -0.7502316 -1.1800435 0.6002569 -8.152029 -1.3345591 0.6222441 -0.46060053 -0.27226064 0.18366605 -3.7531962 -0.71538216 -1.1314793 1.2081939 -0.63739544 -1.8810747 0.8684143 -3.6492913 -1.6473541 5.4503136 -0.1276726 0.40041733 1.9232767 -0.028214362 -6.22442 -0.48448345 -5.877075 -0.051395997 2.7483976 2.6247747 -3.4088202 1.1424766 -2.0786698 -1.3260279 -1.494631 0.5150983 -0.08072328 -3.1486607 -2.5677826 -2.4272075 0.7886041 -2.4701886 4.4333243 -1.3434557 -4.0188584 -0.41403207 -0.11522791 -2.5563593 1.0352167 -3.588388 2.0795221 -2.3560765 -5.000914 2.7180948 1.8675544 2.8132906 -3.8493342 0.70834756 -1.303775 1.137607 -4.190221 2.9635353 -2.6212459 -0.0742689 -1.3686278 1.3332736 0.39681405 -0.6358154 1.9794335 -1.3547988 3.3205345 1.1839373 -3.175767 -4.823623 2.0854633 0.45558572 1.9388316 -0.99651283 -1.2501882 1.5850831 1.939834 -4.477382 4.1478586 -1.6622401
112 2.7984247 -0.03569187 -0.51553607 -2.2065816 -0.90451646 0.6263881 -2.1732383 -0.38061285 1.1190735 0.74057543 1.3109881 2.0102177 -6.699552 -1.8971671 0.37349072 -0.29724512 1.2857686 3.571035 -1.1952732 3.1404665 4.4621854 3.3596773 0.2059951 -1.5190299 -3.0297487 -0.99604934 2.3598118 2.9746742 4.0546865 -1.3819354 1.9062859 -0.8704234 -1.6274971 -3.3375988 4.4077377 1.2585269 -0.31680137 5.0698323 -2.5787206 -1.7908838 3.7302573 4.7633286 0.19668086 1.2200559 -1.7948537 1.91976 -0.13273652 -0.42372534 0.9931261 1.6656456 -1.2909319 0.9431871 0.20140421 2.8862073 -1.4233449 4.35441 5.5413756 1.7900072 -1.6877419 3.1337087 -3.3932152 -5.3436112 2.6883454 1.0976375 -2.9931583 4.451134 -0.83914703 -1.3094269 -6.0659375 2.0008008 0.100127906 4.0367823 0.61545384 -2.3343246 4.4358273 0.5620035 -0.27539596 -1.2628812 -6.8729553 -2.0570204 -1.6060932 5.0308666 -1.8338028 -1.1261185 1.6147095 3.2893956 -0.08433106 -1.1597669 -0.21709108 -0.58084476 1.25743 0.43417463 -0.6674457 -0.50818586 -0.23027974 -3.086059 -1.5449431 1.1358439 -1.3675823 1.2264061
93 -0.45722878 -3.7518349 -0.5342982 1.3373144 0.0125282295 -1.556037 -3.4991918 -0.30851305 4.66831 2.3649037 3.0715961 1.0929908 -2.6717443 1.9955847 -2.4605944 -1.0091374 1.7278291 3.030407 -0.22755389 0.85098636 4.106248 -2.743501 1.9981109 -1.0550314 0.9724192 -3.9460366 -2.028132 -1.4078256 1.2746562 -1.4306462 1.9173101 3.6579719 4.066163 -2.2781186 -3.3255024 0.7963801 -3.4226954 -0.868181 2.7738922 0.114803456 1.6205069 3.0240211 -1.7500054 0.22430408 1.2985665 -0.7204107 -2.599495 -3.8170943 -0.2049015 1.3167382 6.329361 0.60521495 2.4575408 -0.4139821 0.5734135 -1.0248587 -1.2081761 -0.29352763 -0.81054395 3.4889166 0.85670435 -1.4507288 5.5513754 1.6029769 -2.926193 2.7232804 -2.1460702 -0.82749134 2.317685 -4.145827 2.9895275 -1.8252667 -7.5923944 2.4735227 1.379951 -4.239119 1.6104778 0.16497555 -4.820558 -1.803309 0.04778101 4.610178 -2.4265792 1.6438066 -0.962485 1.1790814 -2.2023478 -1.0284791 -1.4025474 3.1926138 5.1251235 -0.03908863 -3.5231543 1.3762858 0.3557603 -0.42026144 0.27028057 -0.37020946 -0.87608707 -0.9532038
457 -1.8916577 0.942518 2.2251294 0.5119197 -0.34438148 2.755691 -1.7414297 -0.8208372 -0.54535824 0.8640559 -4.4829392 -1.0064671 -3.156331 0.36036468 -1.3660778 1.0759705 1.9254348 -0.8647036 0.18301643 -2.6295161 -0.9435561 7.020842 -4.4545965 1.0743119 0.6815498 -1.8173574 1.4680728 0.28671524 2.6891284 -1.3454577 0.8941635 4.1750755 -1.7924767 -4.266744 -2.5809243 -1.7697626 0.23389196 -0.6729197 2.942095 -1.4213606 -0.6234451 0.40556723 -0.49823123 -2.8497798 -1.7469962 -1.9687531 0.566868 -0.6080966 -0.7234438 2.9589403 -1.8468146 -0.5704134 -1.7796806 3.1046288 -1.3566388 0.24404325 -0.51765144 -0.44137156 1.5311198 0.0102667725 5.0387487 -1.547831 0.73499346 0.51337445 -1.6735135 2.9327605 0.49537423 2.7097845 -2.029091 0.024188567 2.4271088 -1.2437959 -4.7888784 -0.5354374 4.159057 -4.050643 0.1656524 -0.91492885 0.10629387 -3.2289786 4.7050714 0.44106057 -0.59913903 0.75814885 0.70593864 2.2486775 -2.9881465 -0.7940897 -0.66432345 1.2206961 1.9601427 -0.34112802 -3.5117917 1.6862109 2.217449 -0.82091117 -0.592209 -0.07930471 -3.5777595 1.1238216
649 2.3572922 -2.7991583 1.7919365 -0.12503348 -0.3710496 -4.5248046 -4.09837 0.35998747 0.9775039 -2.8400452 -0.24780597 1.0407827 -0.13865279 3.3266556 -4.812489 3.3334727 4.382633 -0.661938 3.505032 -0.8468555 3.9098592 2.293329 0.26889166 0.18589531 1.5133197 -1.1320589 0.40034837 -3.829015 2.0506659 -4.319073 3.5768392 1.5488433 -0.86649567 -1.2115201 0.45723826 1.6148297 -0.21319537 2.7803636 3.0518973 -0.22667433 1.8872209 6.0120287 0.5367237 -1.0207216 -1.1963519 -0.33549464 1.0679854 0.82930195 -0.71219385 4.1142454 1.8565909 0.84480584 2.200904 1.9786894 -2.0850804 1.8472221 -0.33328328 -1.137472 -4.403112 -0.5481768 -3.199974 -1.8852111 3.3299267 2.1407747 -2.0195258 2.3762074 1.8222541 0.6509311 -2.0260882 1.5862626 -0.12028477 2.3652496 -3.5757086 4.7119994 2.804602 -2.8534427 1.925711 2.4587271 -3.1444447 0.28754413 1.7903342 1.5396222 1.5042443 -1.9882686 0.2784416 3.2017784 1.2875003 1.1282376 -1.778278 3.1156127 4.1084876 1.2649527 -3.8680444 -0.49950454 -4.032571 -2.5611303 2.07009 2.2182596 -1.0485507 1.1746172
670 1.3828243 -5.8591967 -1.7993643 1.1156548 3.1488154 -3.479177 0.9832022 0.27161887 0.6659397 -0.716839 -0.8009224 -1.8342626 1.6250714 -4.0054674 -3.0614407 -0.30973712 1.6867812 1.9342209 0.19094504 0.63237286 1.5998849 -3.4435053 -0.38560584 3.4910152 -1.5525813 -6.2749624 -0.023620445 2.0659688 -4.551027 1.4866408 -1.8270346 -4.2062187 0.45450297 -2.2070796 1.8628935 -1.8088547 -1.1724201 2.5066953 -0.07822136 0.2342442 -1.1407634 -1.4658478 0.73653966 5.3751807 0.20423359 1.400763 4.5421634 -0.37590048 -1.5794187 -2.3735132 -0.6556321 -0.18679537 4.8770957 4.3149014 2.4129732 -1.2351965 -3.4387767 0.4532581 -1.1136792 1.7164744 -4.159505 0.5292439 0.91650367 0.039338488 5.009238 1.225317 -0.12084795 2.4959273 0.5635449 0.07517681 3.8167787 -3.184305 2.041099 -2.5957544 3.321255 -5.8599195 3.0275226 3.9742863 2.8543766 -0.3660293 -0.9085488 -1.6072057 -0.9279865 0.9459767 -3.2409205 1.4661865 -4.0434713 0.20543861 6.2877836 -2.9669478 0.8081664 -0.17272988 -0.20387293 7.1954093 -1.7684978 1.2177422 3.0323994 1.8948491 2.0484822 4.2093115
830 -1.5976586 -2.0089078 1.3044192 -1.5482593 4.748027 0.22047098 1.1425554 0.5429167 0.476416 0.56891584 1.5643129 0.9342125 5.0620484 -0.2074829 -0.90369225 -2.7083728 -3.1328542 1.9768224 2.5506606 -1.4102378 -1.0159554 -1.6129334 -1.1540302 2.8075728 1.1857398 -2.5207915 0.12212369 -3.0345223 -2.1144736 0.0054377066 -2.3437095 -2.2437868 2.8597527 -2.9893217 0.45519364 -1.2386147 0.7043456 -0.9073645 -2.0959663 -2.28031 -4.1047707 0.39145043 -4.7638893 1.1073813 0.8118983 -0.34592888 0.65074325 2.9811683 -2.4347417 -2.8408232 1.6565496 1.7051716 -0.92533785 1.9968327 -2.5959728 -0.7845745 0.9101712 0.28850293 -2.8459446 0.15231474 -6.2894096 4.0319104 -1.4387122 -1.1846702 2.3248932 2.9473715 -0.86034846 0.58919656 0.92549884 -3.152072 -4.512378 -1.4820684 -1.9694903 -2.559684 4.428156 -2.8915057 -1.116927 -6.352214 3.6357858 1.5670999 -3.4490042 -1.790066 1.1596372 -0.7111229 -2.4044857 -1.954572 1.4719245 3.1524687 -2.5050933 0.6197229 -4.760431 0.2079159 4.5955105 5.1028714 0.046777524 1.7934648 3.7742329 4.898392 1.7940859 4.2515235
255 2.7284522 -0.22634979 -1.9503381 4.338273 -0.0874689 0.111002095 -1.4184353 2.982297 -1.8038393 1.2487614 3.7613413 2.498548 -1.3288432 -2.5286427 0.7087668 -1.0592616 -4.500278 2.6161165 -1.8999882 -4.7705274 -3.996654 -2.5045927 -3.72685 -2.158339 -1.5527422 5.4678664 -0.12765507 -1.308386 -2.3440874 1.8326328 -0.3723797 2.4209318 -0.0618019 5.6082587 0.2872074 -1.2473363 0.27235925 1.8110882 -0.80016726 0.74299043 5.2143703 -0.15686196 1.8353492 3.0866923 1.7805451 0.5004184 5.2483535 0.41957805 4.091289 0.033528194 1.1526972 -4.1666274 -2.2173138 -1.618565 -0.75165015 -0.50868136 2.930451 1.1750295 1.7863833 2.0757751 -2.8070977 -1.381479 0.19819169 -1.5102612 -1.1556222 -4.117304 3.4462655 -1.4561394 2.923296 0.7444405 0.74840343 1.7535731 -0.98239946 -0.44806486 -2.4365747 2.1150458 -2.7083154 -1.8059168 -0.7707291 -2.1204453 4.843154 -5.9953947 3.5213315 -2.993318 0.051984955 0.44185495 -1.7707237 -0.2949851 -1.2342336 -7.220474 0.4174708 -0.55343115 -0.03894869 1.9927967 -2.157241 -0.15583198 -1.789324 2.836339 -4.2365446 -4.9531283
996 -2.0205154 -0.107310236 3.1730242 -0.4453007 3.0129466 -0.025597315 5.5358677 -0.7263864 -2.0886028 -1.6494099 -0.7011977 -0.05326246 -2.004929 0.85743034 -4.0136023 1.3126004 1.9447482 -3.580959 0.2449082 1.7539551 0.46274725 2.1250997 0.8878175 -0.5340914 1.5773565 -1.0682232 -0.031703744 -3.580613 -0.43938032 -3.2939339 -1.5619265 -0.008897252 1.2117456 -3.2007804 -1.3517748 0.1008001 -0.07359762 0.8378576 1.8738179 -1.0214645 -1.5365264 3.2235754 3.3730226 -2.3022351 0.08260885 0.03516585 -0.93678415 2.4459953 -0.8402812 -0.73482925 1.6056955 1.6314715 -1.2051636 3.3164513 -4.951619 -0.29158732 -1.1667601 -0.9215589 0.69172484 -2.6178074 1.0301197 -0.18480285 -1.4074202 -1.5136294 -0.7280544 3.3687189 -2.450958 -0.7368056 -2.250651 1.3160361 3.4923835 1.3879433 -2.6227982 3.0497293 -2.380069 -2.1798205 3.5672157 1.1480814 1.9854988 0.85115486 10.807018 0.47190472 -1.1640397 -0.24643277 0.5351445 3.1738298 -0.3451371 -1.5330229 0.06503407 3.0542307 3.4593108 -1.1499071 -0.72484255 -3.191515 1.2083814 1.4364214 3.758927 2.0790749 0.8093509 -1.1918844
31 0.0022814726 -0.5949308 -0.5010572 2.7703109 -1.981895 -1.5619129 -3.1438959 1.3039886 -3.5516624 0.20172912 -0.04002045 1.4541227 -0.19140007 -0.47670528 1.3450539 -5.3332834 -2.1237297 -0.037640292 -1.7321142 0.5994195 1.146709 -0.7971785 -3.2976818 -2.1101131 1.9911644 2.5648782 0.1458319 3.993047 -1.530552 -1.8203744 -2.594878 -0.46233937 1.0752199 3.0570064 0.41282701 -1.011915 2.919472 -0.2867804 -2.5965047 -0.6690065 4.2705007 -0.4843915 4.4720693 2.187207 -4.3238425 -2.1231115 2.8380392 0.83005625 0.77710575 -2.5037968 0.7479336 -0.7748772 0.46530765 -1.7893295 2.8542538 -1.3910594 3.070652 0.4880056 3.9078858 0.73142576 0.48661733 0.09220369 -1.3499926 -4.2713947 -0.5134131 -7.354523 1.584451 3.4369411 0.5020512 -3.4964952 -0.42746067 1.6369244 2.7483835 -1.5764021 1.8847613 2.0080576 -3.0012078 2.2539766 1.1932122 1.1433107 -0.102345444 0.0867211 2.1665285 0.05248244 -3.1309988 -2.662484 2.516511 -3.6745224 0.26744443 -1.0513084 -2.5424526 2.5330431 2.3099835 -0.36996937 -1.0228302 -1.7011974 -0.6967789 2.30022 -1.3686733 -1.6411977
140 1.0466739 -0.04229386 0.08991283 2.1120145 -0.4742919 -2.1888566 0.5677502 0.50385183 1.3916863 -0.90428513 1.912229 2.877319 -2.3732576 -1.7897111 1.746502 -5.356529 -5.859766 1.6462975 -2.4499989 -2.227998 -3.1822348 -1.0445458 2.075118 1.6450003 -2.6406 1.8948609 -1.1675785 -0.5983686 1.2102978 0.57645214 -1.7952104 -4.5165873 -2.0257454 -2.048703 1.1818098 -6.2735662 -2.2541387 4.9462705 -0.90646154 -0.07933496 6.6699176 -0.74133945 -0.7532612 0.18484889 2.492454 0.7242075 -0.24144655 -2.3221774 -0.9455085 -1.8139069 -2.5868278 -3.918862 -0.6468161 -0.754464 -0.49166396 -3.1690378 3.1283636 0.9671639 4.100558 0.7359499 -3.692911 2.3588898 -1.309855 -3.0474184 -4.7437754 -2.452103 3.1780827 2.7500448 -1.3235677 -2.1611772 -0.63004935 0.7560037 1.308925 -3.5028026 -5.521746 1.3292664 -3.5407045 -1.087982 3.4073293 -0.75769967 0.16489276 -0.31260163 3.4043303 -0.7952427 2.5497875 -0.27482492 0.54517 -1.9363154 -2.4152994 -5.5474224 1.5682635 2.0878582 -0.82524604 -2.587512 1.7490494 2.236229 -0.0071925777 -1.1507012 -0.11617867 -3.4973788
907 1.2142667 -0.9903845 -2.0938325 2.7306006 0.47584167 -2.7675562 -0.76991165 1.1192809 -2.3687103 -0.85914785 1.0780394 0.7008878 -1.1586931 -1.5327345 2.1023178 -4.2777686 -3.7430406 0.9192624 -2.5439572 -3.3192964 0.80565935 -0.0042715548 -2.0207808 -1.653196 2.2861087 3.6103687 0.70910954 2.768222 -0.94509315 1.1833786 1.1882712 -4.22751 1.8058547 4.6299515 -0.7021336 -2.2078676 -1.973824 -1.4147006 -2.135483 2.0532935 3.5173647 -0.81864035 3.6251287 2.5153966 0.23908691 1.1066039 0.71976197 -3.4062037 -0.6153202 -0.56786 1.4908239 -4.0784006 -2.0899212 -0.4648733 1.895338 -2.623127 3.9254584 -0.6794487 0.3939595 -0.13510536 -1.3378528 2.239882 -2.614554 -0.8985656 -1.1458703 -4.4808645 0.740227 0.70365304 -2.0398965 1.5163316 -1.2999413 3.176055 -3.077385 1.5880712 -2.2284288 4.6665053 -2.260518 0.39596182 0.078899935 -1.389547 1.2638044 2.5946567 2.43325 -3.6638203 0.669485 -2.7197912 2.2108276 -5.535103 0.68136334 -4.0298066 -3.4495828 0.46664706 -1.2892886 0.34816563 -0.6285202 -2.7500696 -1.0783825 1.686201 1.2192878 -2.2849188
388 -4.379934 -5.571392 0.36604682 0.84354 -5.9461474 -3.5755906 -2.3400183 0.40869242 -1.9852188 1.1056283 -2.1667902 -0.38470772 4.849195 -0.17236337 -0.9649245 1.5967512 -1.4058903 -2.1438692 -2.8709457 3.0550098 3.1704724 2.7524557 0.052261103 1.2863479 -3.8263621 -0.39503837 0.87718564 7.317849 -3.2907543 -2.3869703 -1.8557462 -3.5787807 -0.7987373 -0.5749887 -2.4381533 -1.510416 0.45141944 1.55935 3.250893 0.052896995 3.8015127 0.6297358 2.5600653 -1.0879741 2.7318194 0.54411215 -1.9430848 3.9854505 1.3970025 0.89433384 -4.803396 -2.6495085 -1.2457095 2.3551419 -1.4865032 0.8653029 -5.530011 1.981744 2.6738951 3.7788527 2.9969172 -0.0346976 -2.6040292 2.0541606 2.4808428 0.23752692 1.2338471 0.89217544 0.55463505 0.8295647 2.52676 -0.7867172 2.8772335 3.0220025 2.1362734 2.1055565 -1.3821058 -0.9567572 4.2426205 -1.8713427 -0.76654536 -0.8832434 0.77050847 1.2963822 -1.335566 -1.6359198 2.7682445 -1.8995488 0.9946526 2.546066 1.1444051 -2.0472467 -2.7511263 -1.3688045 -2.3608866 2.5698905 -5.9405327 0.13041279 -0.9635789 -1.8095491
863 1.933941 -3.14354 1.3488957 -0.093984134 2.5035949 -2.4181864 3.7772958 -0.519188 -1.455762 1.3894644 -3.2460272 -4.656921 5.794232 0.61093795 -3.2425194 -2.443976 0.9157624 1.5992194 -0.025316019 -1.0076036 -1.8299541 -3.3075771 -1.8715469 3.1399379 -1.050281 -3.4879608 3.528893 -3.3253882 -0.06312138 1.1596123 -4.0846305 -3.0494971 2.9621577 -1.1410167 1.7441775 -0.22176948 1.5630885 -2.2870686 -0.45226604 -1.2962931 -3.668168 0.42821237 -5.359668 3.033458 1.7309004 -1.3072785 0.6846018 1.7952014 0.85918516 -5.6906304 0.8361321 0.60653037 1.9288557 -0.66192764 -1.1381433 -2.7264907 -3.7215836 -2.1040301 -1.3641634 -1.1865693 -6.741193 0.05878733 -0.5298601 -0.23635618 1.5701703 0.19264704 -2.1452227 -1.9456503 -0.21084057 -3.570393 -0.79041505 0.6634643 -2.9842553 -5.0382986 -1.0829073 -2.7389114 2.0296013 -3.0126832 -0.48718062 2.038776 -4.7519464 2.2307706 -1.901185 -0.12139223 -1.2324644 -2.089017 -0.8194672 3.2716515 0.67448807 -5.092957 -0.8213601 -1.0440552 3.3948207 4.9305997 2.147896 3.7957816 4.101854 2.7199278 2.956826 2.351195
224 -0.7574407 0.5731587 -2.260864 1.3724921 2.4197462 -1.5877705 0.27548125 2.202245 -1.606848 1.8745162 0.68810093 -2.2550068 1.966412 3.3822775 6.013961 -4.5895367 -3.3837647 5.221075 0.98336023 2.6647565 -0.41843942 -0.34650442 -1.1705557 1.2888769 0.96169883 2.0114367 1.9406811 -2.579406 -2.416841 1.0378231 -0.8015781 -2.1368446 -3.1947224 1.8474033 2.3852952 -4.612416 -1.2717608 1.4380103 3.3449802 0.6737481 0.0685624 -1.2617302 1.5390605 -2.403707 0.1540814 3.2146533 1.3803208 1.7902693 1.6308566 -1.9219587 3.870271 2.6039944 1.6845263 -1.6543397 1.0912573 -2.9274025 2.9789286 -1.9412926 0.23712373 -0.41977033 -2.7855754 0.9122303 1.0807275 -4.792318 -0.9492432 -1.1268271 -4.303581 2.3264368 0.47963864 -0.94187963 -2.0818832 3.7111316 2.4091134 -6.0203795 4.1311874 -0.3453459 0.24466679 0.06808378 2.604849 2.1275666 0.98310435 1.7325915 0.12878947 0.9334775 -3.5430098 -0.17084368 2.2536197 -0.20063218 2.1646602 1.1344053 -4.4644165 1.0700635 3.2128298 2.5706954 1.0928556 -3.152599 -0.6758904 1.0929065 -2.5960948 0.424246
257 3.819189 2.6426098 -0.47697103 -1.1668886 0.84699243 -1.342174 2.6563838 2.4752543 -0.020517508 -0.29127285 1.2781055 0.38977548 -2.0381684 -1.7343577 3.4663167 -1.460662 1.801541 1.3169091 3.0455952 4.2182255 -3.7487845 -1.3617828 1.0884364 -0.30876112 -3.4010952 6.20644 -1.7746142 0.6706924 -2.9123905 0.9423964 -0.6191383 -3.7706103 -0.8886232 -2.4537942 0.072342195 1.4143316 -0.19188266 1.9073644 1.6698965 2.116405 -4.8678308 -3.3674161 -6.8648076 -3.0934799 -0.30214792 4.007629 -2.2013311 1.6771842 -2.1984901 0.23164693 -0.5470749 3.647339 0.16372228 -1.2290177 -3.0463672 0.16479804 1.1748196 -1.185304 0.006007236 2.5815604 -2.7223046 -0.38781178 -1.1067865 0.2394173 -1.1458317 -2.9495246 2.1230104 1.1541433 -2.036464 2.0267456 -3.0306923 -2.3510826 1.3571337 -3.2107637 -1.1972244 -0.055990204 -0.33036712 0.045856424 -2.8801086 4.0971932 -2.011901 -0.43130675 -4.033054 2.3479419 -0.44617784 1.3013428 0.78630793 1.2349635 -2.6558187 -4.8928127 -0.5479955 1.0327585 -1.5759282 -0.37198564 0.914098 -5.2914815 0.9360024 -4.698606 5.855468 1.3065172
575 -2.7433126 -0.0990728 -0.39186087 0.56907225 -3.7509606 -0.5044916 6.6813936 -4.7702184 -1.625518 2.6962006 1.3978134 -3.7815008 -1.6095561 -2.4628818 3.053688 4.1429467 2.6850984 -1.5973349 -0.28561923 1.1193073 1.5183064 0.6281914 -2.2425442 0.9958452 -3.2596264 -0.42009348 3.9292865 5.1702127 -1.222712 1.6826507 -3.0860348 1.769342 1.8744247 4.472619 0.135388 -2.1728282 2.1773632 1.0259836 2.4275265 4.303934 0.36292726 -0.2932204 0.78593624 4.1953845 -1.7559624 -1.7841448 -3.619967 -1.7445047 3.5354474 1.513996 -3.5211399 -3.2892299 3.753008 -2.0416927 3.5078902 4.4939976 -2.6568258 1.0193528 2.125905 4.1445656 2.7257447 -0.21038954 -3.0864196 -3.5878263 -0.75580704 2.723519 0.16280733 5.832224 3.3314543 -1.9278194 0.2066028 3.6628914 2.2462296 4.814641 -0.102157734 4.4932194 2.342295 0.56655234 2.9203606 -4.369565 -3.143652 -2.3163967 4.3614664 2.7298584 1.3533597 -5.0499525 -0.12415566 -3.0269787 1.6108081 2.6842582 0.7372485 2.1023364 -2.8146152 2.2333493 -1.9856625 1.3760287 0.34689286 0.37440282 2.9418437 -0.7134503
333 -1.8840095 -1.4004985 -4.16587 -1.9356682 -3.4671395 5.278859 -0.09690941 -1.2582228 -0.010688234 -3.1623368 -4.562361 2.3781824 -0.64410996 0.2587543 0.9468567 3.3945258 3.6265557 0.77320695 -1.5487463 2.1715357 1.6477249 1.6068611 3.0342038 1.6819677 -6.0457835 -0.5084831 3.5571527 0.05198 -1.799947 -0.78179485 0.22239055 3.6348808 -0.2577455 -0.24308592 -1.2930883 -1.5556152 0.15630153 -2.2666569 1.4747466 2.2020035 -3.3258493 1.4040512 2.8571255 0.32968298 -1.4171065 -3.3170753 -1.7315109 -1.7977751 -0.24176152 3.503229 -0.3944914 -4.792164 -0.9578624 -2.6808043 -0.97243285 -0.9657689 -2.8824112 1.3897191 -5.691722 4.754845 0.23354566 -0.69107693 0.92501193 1.001819 2.9013855 1.3709016 -2.7902598 1.7867806 2.5265927 -1.8232445 0.9459437 0.4286243 3.9034047 2.0175352 -1.4366716 7.115933 0.091525495 0.28786612 0.124323614 -4.2080717 -3.355274 -0.25886095 0.3039706 -1.8487706 -1.9221396 1.1517669 3.369372 1.1706645 3.279054 2.4039402 0.5125154 2.4195416 -4.2306256 -0.4450254 -1.9172776 -0.120248176 -4.233046 2.3029923 1.0443743 -1.6961471
29 -3.527038 -4.0707197 3.7199492 -2.8822918 -2.2310994 1.138339 -2.3932385 -4.5817575 1.265218 1.247564 -1.3225906 -0.6842733 -0.27724463 2.6953971 -1.5917845 4.469978 1.252576 -3.8559477 -0.38367447 -3.4628732 0.2641132 -1.2927228 1.6279235 -1.0408771 1.6010451 -2.7398484 1.6844556 0.5052806 0.89696026 -0.0047787656 -0.2001257 1.6430795 1.0846307 -3.522679 -2.0102649 -2.158941 1.0792614 -1.3987818 2.1574438 -0.62495744 1.4095067 -1.0198659 1.0732574 -4.998317 -0.34249064 -3.7723293 -0.90538996 -1.2682112 0.7782306 2.288605 0.021964943 -0.3712953 0.9399118 2.4560447 2.65989 -0.7744849 2.318028 2.595629 -0.16109672 0.98901355 2.6428099 0.34769374 1.0398624 3.7847953 0.04073405 -1.8914086 -2.5143635 0.93552995 0.8371045 -1.0180212 2.444298 -0.9423001 -3.8814924 -2.1179311 5.710822 -2.663835 2.816887 -1.0770355 5.1563616 -2.6751235 4.6123567 1.6043862 -4.225711 2.4789507 -3.3062134 4.9310656 -2.9789786 1.2491359 0.56087995 -0.86970687 2.4482617 -0.6004694 -0.45535612 3.4245312 -0.8858658 2.0772374 4.8956866 -0.44362482 -0.0707182 -3.8180866
36 1.1647992 0.8034946 -2.6463606 0.99102384 -2.9836464 3.72315 -3.8145163 0.62988687 -6.1164513 3.4154053 0.45417443 -0.17293866 2.0820148 3.2655568 1.4450219 -1.1556786 -0.46876872 0.33479375 -3.2631474 -0.0063762176 2.530886 3.642129 -3.3069746 -0.8826986 -4.969503 2.5016837 5.8472543 0.491575 -3.5752647 0.79714566 3.141781 1.5065305 -1.9255791 3.5711863 -3.5409086 1.3367949 0.66977394 -0.34932327 3.2086115 2.0989563 2.8578117 -1.5425228 2.464173 3.6648188 -0.93619496 0.3260761 0.22244263 -1.1830052 2.0314093 1.1964144 -1.6757165 0.16318436 -1.1855245 -0.8381768 5.954239 -2.5793965 -0.06282454 1.9984038 2.7787251 3.1463602 -0.23738286 -2.5580602 -4.228189 0.88167715 1.8390026 -3.5430663 -0.256561 2.9439037 4.786986 1.5230294 2.7707167 1.1165017 1.9103076 0.7012985 1.6277508 -0.4565901 -0.3964372 -0.90580744 0.16820708 -1.746468 3.8402562 -4.4283056 -0.0018158726 2.1008122 0.19184877 -2.623768 -2.380186 1.4357431 -0.6771251 -0.2213081 0.09315342 2.7585163 -3.1040306 -0.01764723 -1.1598344 4.9261236 -5.6407123 2.50267 -0.7839714 -1.2522773
793 0.045098167 -0.22707896 1.0399661 -3.1069582 -1.9142987 1.6797223 -1.8977587 -4.6060324 -0.71957976 1.5354413 -2.8259475 -2.2723672 -1.3653327 -0.9234049 0.035124198 -1.8600485 3.7238064 -0.591651 2.2019036 1.3092312 0.99665135 1.5879585 -2.983854 -1.380722 2.9532516 -3.9509063 -2.210806 1.0349067 3.3953738 -1.7659633 3.0025458 1.937264 -0.24158993 0.24935082 -1.3909336 1.4606307 0.21589695 1.3355784 1.172683 -4.477285 -0.43960097 1.0648271 1.5855682 -0.7313257 0.92075855 -1.6264489 0.9097236 0.29703498 -0.10244462 5.0505567 -0.80189806 -2.082388 -5.393591 -0.65929693 0.8433066 1.820569 -3.349867 3.623878 -0.81007266 4.4552255 -0.296044 0.34274706 5.470236 1.6155267 -1.0070685 4.5190697 0.7061847 -0.6823692 -1.516523 0.65583086 2.9816644 -0.31208983 0.38663834 2.9461071 -1.884442 0.56167066 -2.0361269 -2.7249012 -0.6040235 -0.55154276 1.6371354 3.5232763 -2.327468 1.693712 -0.7729737 -0.09181328 -0.45936942 -2.874333 -3.7771559 4.575542 5.7679725 -0.34339574 -1.1204643 -3.5211608 1.3209083 -3.3703668 -2.2663846 0.22625552 0.5911435 0.7358697
561 2.3578923 -3.1951525 4.604647 2.1140583 0.40895274 -0.22743218 -2.2276523 0.7201678 1.1380018 -0.2427464 -2.6650937 -0.36349303 0.9310142 0.9374017 -1.1775596 1.7193431 1.08815 -0.93427086 2.7200608 -2.8252583 0.7827508 3.6680741 0.70567876 -1.8686873 -0.87578046 -2.057895 0.45790735 -2.3475146 4.0622654 -5.7399473 3.3689082 2.5350528 1.0390475 -1.7964559 -0.53320354 0.37569177 -1.5736799 3.1436949 2.0466034 0.13563713 4.0042624 5.997651 2.1384082 1.009714 1.3882514 -0.83647335 1.5387033 1.8412244 -1.0743648 3.222852 5.4013987 2.8809366 0.13649818 -1.4712536 -0.41202086 -0.3075841 0.76308733 1.033077 -3.5369265 -2.8865461 -3.005202 -1.5883694 3.9080799 1.4705027 -1.6549581 4.3900895 0.98412615 -0.21417859 -0.71699256 0.3150301 1.0125629 0.79769224 -3.260704 3.056133 2.9729877 0.013323476 1.763686 1.9072297 -4.699192 -2.716232 2.9790585 1.0041692 -0.076415636 -0.73147213 1.423284 2.771023 1.4755981 2.037501 -2.8974185 2.3352876 4.579223 1.6055461 -3.2308872 -2.3596785 -3.5609708 -4.124673 2.8875685 -2.3825788 -1.3495188 4.535531
846 -0.020771753 -0.861943 -0.8508 -4.551176 -5.5671215 1.9705656 -2.3245652 -1.1559218 -0.30868122 -1.2383659 0.31896588 -0.6874235 -0.17180811 1.7110968 -3.7825022 1.9790559 1.1676259 0.49954423 -0.4499395 -0.47849277 0.77194685 6.823225 1.1553303 0.016866049 -1.4775819 -2.5489302 6.5745163 -0.3092333 0.9305201 -1.2865422 3.7001314 1.7878867 -0.5489586 -4.7453074 -5.7753973 -1.9446458 -1.5662657 -0.15508242 0.74655515 1.6112512 0.43642765 -2.179193 5.173458 -1.9757204 -2.9286788 -3.6597152 -0.27713776 -2.2001047 4.371417 4.3667483 -0.7521614 -0.72322553 -2.953918 -1.3583084 1.4800706 0.95235467 -2.081081 -0.1538211 0.57872045 3.6693063 0.9751645 -0.6632862 -2.0999572 2.2629976 2.3396955 -0.24935234 4.4257092 -0.45654732 2.6417806 1.4904621 1.6501101 -1.5637083 2.8076959 -1.4253297 0.50535846 -0.5167746 -2.4223187 -0.4284549 3.9131281 -0.19555646 -2.761053 1.0510035 -2.7977955 -2.0896366 -2.1035428 -3.2744532 0.5635916 0.116074376 1.8448534 2.9364228 -0.8787625 0.60406715 -2.7442088 -0.36202326 -7.0183415 1.4637151 -0.3208485 2.2127073 -0.8617611 -0.20276468
852 -2.630037 -2.4697433 1.8083954 -0.41037533 -1.0106094 -3.106828 -3.9290302 -0.45251846 2.585866 0.16046745 -1.6276913 -1.1455866 -2.446318 -0.4340886 -5.1290765 0.14447157 1.1906428 -1.8424357 1.0857593 -0.2150745 0.8715521 -0.9771866 0.24747635 1.097985 0.40542248 0.25598013 -0.4323765 -1.7087547 1.9779229 -2.5279546 -1.8962066 3.7390096 -0.30479255 -3.9190984 0.11677254 0.9739462 -2.6682897 -0.69422406 -2.0254738 1.5283892 -4.7447357 0.91121 1.7071044 0.22043708 1.8339876 -2.8950508 2.7274587 0.24279754 -2.1561277 0.20499104 2.9044757 1.2796013 2.4057913 3.2601564 0.20103556 0.6841503 -1.129363 -1.7515098 -0.7017682 -1.0075821 5.1651254 0.9803349 3.6839051 0.45708346 0.23052445 2.7024636 -2.1888578 2.9233315 -0.50464207 -0.54635334 0.3063079 -2.3349648 -5.709602 -0.100886345 -0.2816742 -6.467812 1.8146703 2.8288815 -0.11867989 -5.7805233 1.5703381 -1.3121846 -3.5382652 3.1165311 -4.0605407 -2.4712398 -2.0887377 -0.7116456 -0.059622586 0.9937762 1.7928197 -1.4494892 -2.6329868 1.6420028 -0.9440329 1.9666836 2.2158334 -0.7980697 -1.9372633 -2.3702178
939 2.3958101 -0.17654294 0.16740741 -0.58107036 -5.0887303 0.84399205 -1.6722842 -0.3126523 -1.439902 0.33380112 -0.04886599 -1.5304507 2.1892395 2.71979 -2.895234 4.5011263 -2.0601745 -4.1578417 -2.295886 -0.72849816 1.759559 3.835271 -1.8396903 3.3622055 -1.0597652 -0.6146659 -0.21841241 1.9459296 -0.93233603 -1.5818728 3.220887 -0.44571862 0.36591536 -1.2073146 -2.09818 -0.97377425 -0.6430151 -0.6873542 3.8181713 1.6068965 -2.928952 -3.7175782 3.134719 1.0926121 -3.0329103 -1.8947612 -1.6432401 -2.414151 1.6464597 3.712738 -0.28140977 0.11710179 0.5001252 3.4981337 3.4553158 -0.5789461 -0.8364209 -1.6985799 3.5036995 3.8557887 2.4735434 1.3010721 -0.42302564 4.895977 1.806822 -3.5417297 -0.49241945 3.0288417 2.7038155 2.194435 3.445121 0.9799116 0.26370135 -1.7102665 2.766752 -2.5251505 0.004088995 -2.0355842 1.9070394 -2.855399 0.3771999 -0.093806624 2.2833164 -2.1917393 -2.8322525 -3.389735 -4.4845896 3.851533 0.40465173 1.1776949 2.8577418 -1.8235207 -2.8533394 1.6652857 -1.9208454 2.8340015 -1.8635926 -2.7894042 -0.1032035 0.567515
664 0.47692552 -1.9811646 0.6149693 -0.37633374 -8.204274 2.9553282 -0.64875853 -6.530114 0.38989142 1.178829 -0.9468951 -0.21933962 1.6283776 -0.38290286 -2.4668193 1.4055552 -1.441277 -0.4519682 -1.2025468 -2.7369363 1.7753234 3.6579742 -1.8801061 0.047730062 -0.49696547 -1.8162102 -1.7959384 1.3748447 -2.0200315 -1.7168067 0.7368669 -0.6245909 -2.1166995 -1.7954466 2.3493745 -1.3889508 -2.1547573 -0.2734333 2.5265703 -4.3749995 -0.89257455 0.22843692 2.2820535 0.21979225 2.5627952 -0.38088378 -1.9707794 -0.68933016 1.0431035 4.5130453 -3.8310657 -2.0467749 -3.8348505 3.138574 3.271602 0.028986134 -4.693337 1.0335 1.2474933 2.0422497 2.8435245 -0.8489871 3.523447 0.57179075 -3.6869965 3.4567337 1.097926 -2.9502041 1.5943527 -0.42199734 2.0886772 2.8430257 5.589647 2.0831234 -1.7244458 5.611546 -2.058589 -5.7165055 1.0058208 -2.2070515 -1.4385291 0.8412459 1.9150705 1.3921059 -0.56863034 -4.604725 2.459277 -2.1222432 1.9407586 0.7352367 -5.7603793 -2.0770066 -3.8716586 -2.9586914 -0.36029172 -0.676919 -0.005193008 -3.3449786 1.2583979 -0.04743192
222 5.108602 -2.551988 0.6031526 1.0631676 1.772685 -0.25994065 2.1210961 -1.2603086 -0.657283 2.396034 2.538334 -1.5062729 -0.39318293 -1.0566245 4.280986 4.3051596 -1.8893074 1.735437 -0.15190387 3.6676857 -3.3572497 -1.5776604 -1.1859578 2.1341963 -1.2881827 4.538364 -0.025325805 -0.38851285 -0.9652905 2.2256062 0.046423767 -3.401527 3.6601334 -2.0448966 2.3248746 3.7031837 4.3855414 1.3156656 -3.7624824 -0.52940935 -1.7024077 0.7660768 -4.604866 -2.4575253 -0.18713157 -0.59156847 -2.1772254 -0.13735099 -1.5266578 -2.7564712 1.7886295 2.6718023 2.1338758 0.602262 -3.4407713 1.2545377 3.250887 -3.4769166 -2.619956 -2.4652257 -5.1985474 1.1271534 -0.24967293 2.0074317 1.5648663 1.5801922 -1.6193751 -0.20795172 0.3028969 0.9003211 -2.6799924 -2.311173 1.641216 -4.240402 3.9941034 2.3055887 0.82315934 1.1270173 1.6562372 6.9578786 -2.3470724 -0.51780164 -4.658918 2.4731398 -1.6669233 -3.8866215 0.094531454 -1.7472944 -1.0418483 -1.1142588 -2.4832265 0.99950755 -0.5505684 0.719041 0.66019946 2.935234 1.4954412 -2.0380273 1.3690454 0.54648656
186 -0.40898818 -2.0633707 2.2636735 -2.4831216 -4.214723 5.6566133 -3.270243 -1.3725277 -1.5839475 1.9545926 -0.37508643 -0.9308366 1.5813694 2.8060262 1.2551057 -0.88082606 2.302258 -0.58110404 -1.3286271 0.38472867 3.7950866 4.509838 -3.598473 0.4627169 -0.46491286 -2.7959235 0.38713977 1.5800099 -0.06823559 0.9000581 2.5643651 -0.041982792 -1.7679977 -0.64861006 -5.69841 0.43670186 0.17506897 0.66869694 1.6841673 1.9680657 -1.5987927 -0.7399843 0.34832385 -0.52489096 0.26763225 -5.765987 -0.1499424 -3.874032 0.7965791 4.163912 0.025347695 -0.13385764 -6.130303 -3.3806632 1.3358014 3.6124494 -4.818195 0.69965297 -2.691567 0.4488945 3.6225486 -1.350383 3.283668 0.110831246 0.9265855 1.7259692 0.21123633 2.175446 0.06969047 0.7542685 4.5710535 0.7983787 5.249468 0.847049 1.6023613 3.064401 -1.5199022 -2.8903131 4.333261 -2.8393455 3.8049965 -2.2236958 -1.2288425 -0.7614032 2.3355753 1.1383432 0.69019705 -0.66793615 -2.4420464 0.34732983 -1.6419442 -0.3395508 -0.41068912 0.7660167 2.4225786 -3.5070686 -3.626785 -1.5017544 -1.3926052 1.6921667
298 -0.08453176 -0.25222337 1.7683347 0.66558266 -0.30366567 -0.34330195 -0.84156895 -0.7734781 -6.3165264 2.2757945 -2.2544692 -0.8561213 -1.0838441 1.5171664 -0.7585535 0.98434526 0.8960106 -2.873599 -1.3617171 -2.885325 0.9068978 3.5948558 0.29648134 3.2573185 3.2730513 -1.3276759 1.408009 -3.6672692 -0.70040697 -4.376831 1.2189676 1.7964466 -2.816481 -2.7747612 0.08768852 -2.8307266 -0.53727984 -0.9686885 4.4684587 -2.355542 -2.3838995 0.30074263 1.0782458 -1.009047 -0.562479 0.9093633 -0.33726692 2.0971828 1.8958837 3.063875 -0.7754104 -1.223327 -0.59901166 3.3375306 -1.7294532 0.7904334 -0.08101229 2.9897149 1.63617 -1.9594713 4.67913 -0.044477995 -1.2445273 -0.10735728 -0.6526096 -0.16237473 -1.8783228 0.8807358 1.6740099 4.1862664 3.4341588 -1.3800246 -0.053097382 -0.16570447 3.001563 -4.1591015 -0.9225478 -0.88767594 3.0957782 -1.2541363 4.501669 0.22436625 -1.6154304 -4.7824016 0.03372174 2.9081151 -0.124936 -0.7170146 0.3766609 0.26381737 -0.27875078 -1.8438307 -3.9800267 0.27457085 -0.072332926 -1.0240248 -1.0003284 -0.48279244 -4.095301 0.18734512
667 -1.4150325 -3.88223 -2.331294 2.4686198 -0.04943896 -0.6525157 0.5654238 -0.82654727 -0.835092 0.4251477 1.6402341 1.0981288 -2.2641284 -5.1248455 2.3152306 0.17345811 -1.7073934 2.3975651 1.1650724 -4.0744395 0.46356836 -1.8929209 -3.2960436 -1.3192232 0.597421 2.2374105 1.3328526 -3.3429205 -3.0335345 1.5104278 -0.4389146 0.22894673 0.21247637 4.619056 1.5438056 -2.6457791 0.95568585 -2.3128612 -0.9034405 4.700163 5.737527 -2.1030767 1.4767109 1.8084313 1.8721349 0.81158227 3.5941212 -2.155396 3.4007382 -0.5925535 1.076008 1.157596 -0.59933877 -0.92673534 1.524561 -1.8410763 4.5506253 0.9260455 2.2400882 -0.7315001 -0.8863751 1.4819633 -1.4978119 -4.9589047 -2.5903516 -2.7472408 3.9378548 -1.1288501 0.15511645 -1.2992822 -1.3904955 3.5143209 0.074812725 0.6355201 -2.0212836 2.618658 -0.58152086 -0.12953724 2.6233199 -0.910983 0.9412956 -1.2638415 2.301364 -2.745615 0.19172788 -1.0873561 -0.5696766 3.4086187 -2.731753 -5.24234 -0.6008769 2.897334 -0.08843698 0.033724803 0.97343624 -2.1960802 -2.24909 0.19720516 -1.3059093 -6.3149333
192 3.1293705 2.0543447 0.18581057 -5.264283 -0.83163124 -0.53676766 4.311992 3.7513163 2.268795 -0.671251 -1.6533545 -5.00501 -2.2644534 -1.626955 4.660552 1.023259 -2.4238048 2.9896739 0.23718314 1.481631 0.8753327 0.418266 1.31621 2.7748258 -0.9073964 2.3855698 -0.17158768 3.2190201 -2.1917284 -0.9875314 -3.0885267 -4.7584844 -4.973005 -3.1429005 0.4884 -0.63718617 1.4492275 -0.40088513 2.8740494 -2.2467043 -2.2924666 -0.690586 -2.8164945 -2.61195 1.0130271 3.834785 0.76990294 -0.12682326 0.10880012 -3.0185454 1.5221014 7.1538363 -0.16634351 1.2620496 -4.112595 0.05725311 3.9328516 -1.8266648 0.055054393 -0.6656594 -4.726174 -1.869294 -0.96856 -1.1758276 -0.73229086 -0.58738333 -1.922135 0.5129618 -3.1917348 1.1835762 -1.5949349 1.4670494 -4.1899896 -4.173289 1.3866581 1.5290377 -2.7349157 -2.4252217 -3.3438716 4.247327 -1.2099328 0.21067156 0.015222795 2.4609218 -1.9080231 -0.9021048 -0.8680886 2.6502812 -1.4572208 -2.6009722 -1.0788349 -0.28835326 2.3995528 1.0776533 1.5015187 0.036221772 4.6733108 3.002849 3.9394968 -1.1876215
70 1.658473 -0.9875593 -2.798699 1.5246525 -0.15610096 -2.5653143 0.008637978 -1.4655559 -2.6812716 0.26435032 -0.41966534 3.936472 -2.992318 -2.730543 2.341309 -1.3637217 -3.3388305 -1.1446565 -0.67506313 -0.7140469 2.4545474 0.647618 -3.9735699 -0.42356598 -0.24294773 1.4777142 0.49511468 3.2545643 -3.4570978 -0.06953795 -0.5211569 3.5779023 -2.0374424 6.104234 2.707138 -1.3314363 1.937141 -4.4433727 -1.4497977 3.5604355 4.892583 -3.4591064 1.3642522 2.798073 2.861823 1.7521839 3.1486945 -3.0974085 3.015798 -0.9886808 0.013265595 -0.22824691 -1.758914 -0.5281225 1.7193683 -3.7956839 3.1501217 -0.41681144 0.90368825 -2.1382759 -2.603838 4.9392323 -1.1474011 -3.1396933 -0.98944086 -3.0708427 3.3984673 0.220568 -1.0194395 -4.444784 -1.6825821 0.7732745 0.42869097 0.24220686 -2.0074515 1.168254 -0.02648147 1.2259699 1.7222708 0.69087404 0.88537955 -0.035181258 1.0523641 -3.855333 1.1497804 -1.8405114 1.8980808 0.2281913 -2.284201 -1.5984086 -0.4983153 2.7888389 -0.9388043 -1.3353548 -1.6348597 1.1850148 -3.5978816 1.1608942 1.820705 -3.1369107
43 -0.32390723 0.035606384 -3.5726619 -3.1816123 -7.5235324 5.478614 -0.20057403 -2.320225 -1.1053908 -0.50781167 -0.982104 -0.50734305 2.428392 -2.8498251 -2.3532288 2.904283 0.8025633 1.3657814 -1.5644301 0.49931422 0.9575411 4.914082 2.7883384 -0.4705976 -4.760071 0.42188218 6.243785 4.0074487 1.9942971 1.5126151 2.5714374 -0.31860197 -1.360843 0.20051159 -4.3903184 -1.2327008 -4.5990515 -1.3469023 0.56272423 3.2632387 -0.3432969 -0.37193346 2.0373235 -0.7371017 -3.610249 -2.531748 -0.62655044 -2.242347 0.24858685 1.1514161 -2.3549657 -3.1885054 1.3154266 -2.5525212 -1.2279907 -1.1489521 -2.2954755 0.37372002 -2.101938 7.437909 -1.0768381 -1.6304469 -2.73192 0.8143682 1.0166879 1.88375 -1.5560882 2.8308535 1.1901245 0.6396152 2.7157154 -0.98812616 3.5634708 1.6662024 -0.812729 4.5838866 1.7719114 -1.6624 0.73020375 -3.4139397 -3.0874584 -4.107006 -1.9225069 -1.7721583 -1.159572 -2.0263224 -0.2474368 2.0092113 2.8846848 5.330874 -0.82915753 -0.8383128 -2.873443 -0.51865506 -1.1432705 -0.66723156 -2.8118448 0.68883514 0.51585555 -0.22209121
309 1.4792392 -1.1660407 0.36804006 -0.92125934 2.0798316 -2.2075145 -3.6209733 1.6920661 -0.36062938 1.4547457 -0.81177205 5.330447 -1.3845199 -1.5464766 -3.9750867 2.2290757 3.2493145 -2.9343889 3.0064542 2.5025601 3.4671342 0.9441439 2.2155037 2.0370162 1.425774 -2.9157953 0.4213394 -2.7240694 1.9732802 -2.5929337 0.79583573 -0.48441082 1.4783484 0.4530811 -0.24788623 0.32462463 1.8797618 2.4076598 3.5549643 -1.6123843 0.7727145 6.017602 1.3769792 -0.7205203 -0.25522816 1.9097663 -0.036921185 1.5757672 0.75149506 4.0840135 2.8280895 -0.45218942 -1.2647226 0.7206339 -0.77465105 -0.08136436 -0.20547043 -0.30733067 -1.6331462 -0.30688426 -4.8062215 -1.1043146 3.0180504 1.226265 -1.122678 3.0122197 0.54655164 -1.1342198 -3.7340074 0.86166555 -0.666234 -0.8522912 -1.8289672 4.151109 -1.7671256 1.8338041 0.51056206 -0.2924209 -7.623004 -1.1525147 -0.93098533 -0.8099289 1.3862243 -0.9778696 -0.42380536 4.8653045 1.013806 -0.34942085 -0.7241216 2.909831 3.3625867 4.877927 0.55245894 -3.18044 1.3727165 -4.208684 1.603165 -0.44121933 -4.9639006 1.632271
175 1.9771652 3.3506804 -1.555095 1.0662446 4.384531 -2.735316 1.0251528 6.2954626 -1.2778618 1.447653 1.9137218 -0.7612502 -0.3341895 -0.8443613 0.08057269 -0.1105361 1.4603106 2.0921795 4.6206408 -0.8163551 -5.1476207 -1.6300148 1.0864526 -1.2303816 -1.0730643 1.9746689 -3.3875804 -0.32082322 -1.273409 -0.044857673 -2.5798743 0.16447972 0.70288247 1.5757034 0.89702946 0.9386766 -0.36063135 0.55206794 2.4210494 2.1698506 -5.4946427 -3.9933667 -5.4535575 -4.269045 1.8916683 0.42530465 -1.1375971 1.5592846 -2.064257 0.6984829 -3.569643 3.1048453 -0.23926722 -2.7809036 2.5671463 -2.1451027 0.35890794 -0.01521597 2.1873326 0.3440384 0.44005737 -0.92888504 -1.6239837 -2.902688 1.6543672 1.1138799 -1.9236591 -0.75170636 -1.6194353 1.9816047 -1.7155616 -1.5910137 1.2522333 -1.7391504 -1.3145776 1.234751 -2.4442744 4.4004955 -0.053500645 6.255241 -1.8916754 -1.7163595 -4.3286977 2.3202915 0.03372598 -0.9079062 2.015294 1.4861943 -1.097502 -4.6913276 0.12002044 0.026529754 3.1368268 -2.4293678 -1.2372961 -4.1492863 2.8150554 -1.208351 4.0389695 1.0940454
552 -2.3849504 -0.36758682 -5.5198784 2.485634 -1.7458867 -1.4404596 0.7059794 0.7066433 -0.2706978 1.0679082 1.7888354 1.3199029 0.22860368 -3.3605952 1.2340515 1.5457464 -3.357929 1.2970427 -0.31501853 0.33334774 -0.62083507 -1.2717289 -4.4458637 -2.3578084 1.5622909 3.6931484 0.16078146 -2.065354 -1.1430073 3.715303 2.7784076 2.5728433 1.5367441 5.2077293 1.9272614 -5.9350586 1.3866909 0.26273707 -0.074558064 1.1434739 6.543179 -0.7642206 1.2352746 3.9156797 -3.392496 1.9602668 1.6721517 -2.9996574 4.0041604 -1.6221024 -0.6806079 -0.69119495 1.6094309 -1.8867518 2.4616132 1.797404 1.2212384 2.5114574 2.6779907 0.3082307 -2.862651 0.74629647 1.4081789 -6.1880097 -0.8552505 -2.9477072 1.9060218 3.0215557 1.5255624 0.5182859 -0.76296806 -0.0915848 -2.9858623 0.8150975 -2.6797004 0.36982405 0.69336236 -0.86726576 1.9595468 0.2276932 2.829391 -3.1939473 4.073416 -2.9769046 2.1654093 -1.0602361 -1.9954756 0.051770903 1.538037 -4.488383 0.15311193 0.863395 0.5854506 1.9710436 0.77150565 -1.0873057 -1.7308372 2.0999813 2.2139187 -1.16755
559 -0.14521624 1.7557429 0.7304652 5.969289 3.0618167 -0.42482495 0.60351795 -1.4913911 -1.1004978 -0.22516358 4.324571 -0.26384324 -0.6117388 0.9512393 3.2650042 -2.9975884 -0.60686594 3.2728837 -4.033794 -4.137778 -2.221786 -1.3097081 2.3990598 0.7321126 -1.2329906 0.5358236 -3.49863 1.2230037 -0.59628874 1.7081299 1.9865723 -1.7651998 1.9058534 3.8386517 3.1010282 -2.1917658 0.033227544 4.409139 -2.147658 2.0048764 4.690774 2.8646843 1.5030165 4.5064416 -3.4990234 -1.4222727 2.1412616 -5.1259513 4.992894 -1.1661013 -1.2270834 -2.0495598 1.3018391 2.7483394 2.2148838 -0.14810492 -1.5338405 1.0904629 1.2063692 -1.0510625 -0.66887313 1.6333027 -0.83735955 -1.1501132 2.8737073 -1.5129254 2.8027525 3.8095512 1.6588397 1.055283 -0.35069698 -0.8869688 4.875048 -6.388137 -3.8567827 2.5736964 1.0664728 -0.8435218 -1.1898582 -0.30547526 1.1878445 -3.0988715 4.1522355 -3.483507 -6.790514 -4.7259073 0.3744222 2.3440173 2.7571073 -3.9667232 3.2882726 0.42901808 -0.8305398 0.8623926 -1.3434325 3.6418967 -0.5435629 1.2757506 -1.161851 1.8606015
688 -2.330837 -6.004832 5.620462 2.2555048 2.6429715 -1.0748686 -1.0579197 -0.040731274 -0.8203351 -1.2171173 -1.292556 -1.3346906 3.8137982 2.1187565 -0.51546353 4.468121 -0.34808448 -0.24963081 -3.4760642 2.5421445 -0.83481055 3.2469094 -0.05381617 -0.46848235 0.614423 -5.5916734 0.92776996 1.8703808 -1.7679852 -2.107616 -1.1097516 2.3861187 -2.0488513 -1.4204899 -0.8212911 -4.1897697 2.0943582 -3.7002158 3.3287196 -2.6470234 0.85573107 0.95181173 1.7356924 -2.0352786 0.32380503 -0.90006757 4.7771873 -1.0609893 -0.5713652 0.57938296 -2.5951636 1.3529636 0.2143866 3.2489471 -1.9251075 2.2067823 -2.3944197 -1.9152484 1.1813582 2.153429 1.8630793 3.0450625 0.60811025 3.5419188 -2.9203172 3.7865853 2.5185127 -0.10810985 -1.8681644 3.0429804 4.842795 -3.1543667 -0.40976423 -1.9357592 3.246883 -3.0152073 3.295767 3.8659506 0.25138304 -2.9916604 7.7364063 2.5278215 -0.5579039 0.2605067 -0.6056895 1.3518012 0.64216065 0.93857837 -0.37095043 3.3342936 1.5820713 0.016216353 -0.52020293 2.5501072 -0.5821045 -0.55129087 1.3423024 -0.41060796 -0.32796565 1.4766034
72 -0.25882402 0.74460065 2.893144 -2.6298 -0.8793062 -1.9720305 -4.502767 -0.8537538 3.0507042 1.1011051 -1.2118319 -1.731586 1.5675162 1.4147013 -3.8281186 2.926441 -1.1400898 0.5194201 0.8572988 -1.1732198 3.47491 0.567213 -2.311323 2.102417 -1.3741435 -5.870211 0.07911081 1.2661303 2.9290109 -1.6258595 0.3780372 3.8779266 -1.2841482 -3.3287008 -1.6900214 1.5865375 -2.0410519 -1.9434116 1.6623026 4.723744 -0.060336053 -0.23323667 1.7696344 -1.6595036 -0.0015759246 -5.2848387 0.2913336 -4.9300056 -2.2570503 1.6640768 1.8314558 -0.75753933 1.6134163 -0.858892 0.42845514 2.9145856 1.889661 -1.0849286 0.25524864 -2.2156067 4.563578 -0.30008683 2.1260529 4.1742144 2.7286382 1.1125591 -0.36440328 1.654101 3.997975 -1.8975713 1.2493898 2.1107695 -4.259578 -0.6729467 1.4801947 -2.751987 0.82397264 -1.1513122 1.1326189 -2.1163046 2.024446 -0.22232586 -3.6248875 -0.06713853 -3.4890444 -0.02733185 -4.7939043 2.4061759 1.0460588 -0.04305995 3.0257154 -2.5250793 0.93314236 3.8421547 -1.6680286 2.567973 0.715041 -3.4832535 0.94148856 -1.229875
380 -3.0038583 0.06351765 1.170278 -0.11768056 1.9105723 2.4808736 2.7042773 0.2573606 -2.3773758 -2.0019948 -1.1812814 -0.17184775 -1.7350757 2.1325307 -0.034229957 0.959596 1.9551326 -0.23782925 -1.0969386 0.08071127 1.2602279 1.4696637 -0.68557924 3.7420592 2.7292967 -2.5646803 1.8010559 -0.042984698 1.107799 0.18286741 1.5443687 2.3529847 -0.09759565 0.3691682 0.4149007 -1.274121 -0.1886171 1.5041385 0.6584696 -3.369266 -0.24704984 2.0057483 0.053310584 -1.4755918 0.72146714 -5.273853 1.8668557 3.8552098 -2.4149342 1.6545866 -0.8187323 0.10220768 0.883177 0.86297864 -4.178019 1.8085204 2.670715 4.3938613 -3.078265 -0.30101156 4.1909575 -0.33738464 -1.0412035 -0.7741527 -2.1188307 4.0277357 -0.26607066 0.8856511 0.20105167 -0.63913643 3.378102 -0.15094465 -1.6067938 0.49010262 1.7459536 -6.6378183 1.2781895 -0.4616865 -3.2647948 0.35858288 5.8055973 3.5335686 -2.519801 -3.0141869 -0.053090785 2.0284436 -1.3903394 -0.5299872 -1.2089072 -0.32939595 1.4465187 -1.9502714 -1.0828494 -0.2802897 -0.032767855 -1.5257577 3.3163404 -2.6764224 -2.1479013 3.236369
750 -2.9022381 -2.098431 -6.9376335 2.2894013 2.7403553 0.22413744 1.2116865 1.7626201 -0.6225552 1.7086865 5.8695054 2.4158688 1.152927 -3.107773 -1.1187863 -0.7822898 -0.5822956 2.8407433 4.5381613 0.8179511 -0.30364096 1.4147377 -1.9789149 -0.4079116 1.1897279 2.525844 -1.608063 -0.8835339 2.4663794 3.1888022 -1.1095494 1.929478 1.1894361 4.3321204 5.5094485 -4.4478602 0.39809257 -1.3132547 -0.26495165 4.730493 2.3004255 -4.7063265 -2.249376 2.162998 -1.0039368 0.8807061 2.9384365 -3.093631 0.24349739 1.1057171 -2.7625945 2.0044694 1.3503331 0.36039692 1.3568306 -0.19471954 4.416661 -1.1901736 0.38679206 1.161373 -1.041965 2.1808183 -1.899804 -6.89243 -2.5230985 0.9402082 4.2913566 0.85618067 0.33588022 -0.55138505 -2.3796272 -0.17829743 2.7064664 0.10888306 -0.20245434 1.3790195 0.4397238 4.4961843 2.4356945 0.7535432 0.5556277 -0.9488874 3.4557853 0.79061896 4.931947 -2.9607944 -1.3286659 -3.2072067 -2.19895 -3.6891556 -1.1355897 1.7953368 2.6819572 -3.0948312 -1.1976256 5.034658 2.0662386 -2.534371 1.9337482 -2.2715209
674 2.198629 0.41533622 6.311711 -1.2858051 4.198256 1.3249247 2.7121277 2.3883493 2.0204778 -0.78530145 -0.9321425 3.3524728 3.063126 -0.16878699 -0.24121797 -3.8450487 0.78147686 1.7597564 -0.0004061389 0.8396782 -2.131057 -6.015942 -1.2051797 0.048808083 0.5449444 -4.546757 1.0611237 -4.425408 4.027622 0.17541295 -5.49153 -3.4600978 -0.04572279 -2.400096 -0.3976974 3.4674935 -1.035632 1.8697909 -4.4793158 -2.2012174 -0.9583715 -1.7990909 -4.5064983 3.138378 0.464506 4.73884 -1.4431456 4.7166033 0.7837178 -2.428353 -0.6472084 0.6747991 1.0809127 -0.8370942 0.65497506 -2.9433115 -0.6329679 -0.92024463 -1.4950548 2.2400813 -5.357096 1.3148326 -0.034708895 -4.0779276 2.2748795 1.6545985 3.4158158 2.6108186 -2.312699 5.705287 0.23421161 0.12580702 -0.05874251 -5.7392597 0.77934325 0.006278099 -2.1501918 -3.5008168 0.56146926 6.71065 -1.4998128 -2.4784908 -1.5860381 -1.4183301 2.7403781 -1.3655689 3.1258163 1.9603475 -1.377665 0.25622523 -0.671983 2.015513 -3.3283947 2.4491475 0.832969 -1.443065 3.4146016 0.38362497 2.977342 -0.085714966
148 -0.08550618 2.7285514 0.4017995 -0.34558728 3.533912 -1.2187082 1.2243482 -4.145283 -0.55859643 3.4174984 2.1616826 -3.6444097 -1.0542088 -4.334069 0.89495593 -2.1214824 1.7980787 4.9524465 0.3713099 -0.61298645 0.45382366 -2.95273 -4.606369 2.6635296 -3.1741323 -0.25572127 -2.1661365 1.2875315 -5.488474 1.6832813 1.6189812 -2.8624227 4.0074244 -1.1902597 1.8161539 0.74608845 3.145597 2.1754053 0.14505903 3.878161 -0.21723054 -0.07596586 1.6625726 3.1649535 -0.6312114 1.2608573 2.3529036 0.305333 4.678018 -0.288229 0.49434623 -0.37593767 4.0858164 1.911702 -0.3379176 -1.8508689 0.6052909 -1.3945538 -1.1481686 -0.33259907 -3.362046 2.1710765 0.5603312 -2.051283 1.7444706 2.035366 -1.6174592 0.7205053 0.3879109 -4.5944266 -1.4007846 -4.595818 0.117441595 -6.0476727 1.9464679 0.025507139 -0.9345997 4.6923785 0.87150097 -1.0659053 -3.7785969 -3.2756386 1.7305425 2.1953924 -0.30000237 -4.2522326 2.0511518 -0.79616463 2.680668 -3.905885 1.525294 0.33429068 -2.8431087 0.22274505 1.7512399 1.0296849 -0.043314833 5.933675 1.2532076 5.153661
566 -1.556088 -2.5553956 3.4857519 1.3987418 -3.4919584 -1.675574 -4.5597963 -5.6662726 -3.752038 5.101503 -2.2131808 -0.902253 1.0777582 -0.980912 6.701299 -3.3438013 -1.1956843 2.347913 -1.0180762 -2.191565 2.9027867 1.326305 -1.8749679 -2.9232085 0.8324952 -2.3673596 0.8369873 5.1949472 -3.7317438 0.58265704 2.682005 -0.25244898 -1.6511278 0.37294763 1.9320245 -2.8742278 3.207409 -1.1713556 0.054896627 -0.4471569 -0.31684092 0.98298997 -0.10175234 -3.4666386 -1.576202 -0.24436316 -0.37356737 -1.7299277 1.1153865 0.5904775 -4.6805315 0.7379425 1.726094 -0.5845406 1.5311317 -0.7410492 0.16696772 -2.4868665 3.7233055 2.6061766 1.4481516 0.36018357 0.09782715 -4.673179 -0.26064873 -0.18413259 2.575309 0.072026506 1.2946242 0.45028213 0.5287539 2.3186522 4.511657 1.5909871 -1.5292326 4.8742027 0.2523687 -1.7451558 0.9585444 -3.14396 1.1394835 -1.3943764 0.87211776 -0.97842616 2.034058 0.24900058 0.45328805 -3.296953 2.1695874 0.71154976 0.45182264 2.313642 -1.5311091 -1.6468922 -5.730458 2.0717192 -1.8590921 1.5935138 0.20061119 1.6542565
204 1.0932125 1.1124307 0.62690634 2.5433784 2.0973022 0.85711133 4.0250874 2.3294647 1.7382063 2.2578995 -0.0005869139 -2.4109776 2.6392572 1.5658879 0.26055127 1.5128858 2.6439111 -0.38410196 0.7900648 -2.9234798 0.8853245 -3.8401048 -3.3489609 2.0066574 -3.7723129 4.1109347 -1.9861244 -0.32562426 -0.25234917 -1.4277072 0.16228376 -1.9373085 4.4531326 2.9141116 3.0738137 5.266523 -2.7724156 0.24500954 -1.2409983 1.2277846 -1.5717076 1.3158133 -5.836502 -0.6059843 -0.36969912 1.7813207 0.49428257 0.40522873 -0.37082732 -0.7581159 3.0484982 2.6218 3.6955824 1.9333094 -1.2200913 -1.4715794 -3.754465 1.3444729 4.673217 -0.7815191 0.8256839 0.013468093 -1.1485592 3.7032096 0.94119585 2.175654 3.234672 -0.3158346 -3.1961036 -1.8017132 -3.5797212 -6.245768 2.5373425 -7.4989843 1.8506718 -1.1683602 -4.02432 -1.0142037 1.584972 4.8660355 -3.5406468 2.4541316 -0.85298467 0.17524661 2.8261101 -2.4270976 1.3050117 -0.49590886 0.44251513 -3.833506 -0.94402 0.30774435 2.928445 2.4915009 1.6649365 1.0471812 2.9107568 8.004885 2.9379375 0.9263173
845 2.4244587 -1.5134004 -0.5342452 3.268129 -1.3203568 1.3181438 -2.438961 -0.8481892 -1.519327 2.222985 -0.6691677 0.6810469 3.757888 0.98508483 3.551833 -3.5240984 -1.2815825 1.2752154 0.92091984 -1.8435087 2.299307 5.9795947 -1.7861891 -1.1667969 -0.606079 2.2749434 4.050296 3.9276905 -0.7307277 0.9875644 1.0898979 -1.6833041 -1.211584 1.9239159 1.1049998 -0.18315826 -0.40816152 0.2319183 4.733206 -2.511177 -0.2184371 -0.84462863 3.2497761 1.6889096 -0.92615837 0.8261721 -0.19526233 -0.39144766 3.547934 -0.33255512 -3.581204 -4.0952477 -1.260617 3.112067 3.5110886 0.038682 1.467794 -0.2897931 1.4131181 -1.4256455 1.4854828 2.1020918 -2.582965 -0.06390555 1.3860215 -1.9729962 -2.4105048 2.8453372 0.86363274 3.5651903 3.2181225 0.12526622 0.012099868 0.49237323 1.0158129 -2.7923982 -2.0227072 -3.64528 3.9760299 -2.0001135 2.5696893 3.2419364 -1.6146086 -1.1151849 4.70429 -0.32455567 0.46412852 -3.1151867 -0.33525506 0.49265954 4.2654943 -1.2413739 1.9653041 0.121134914 0.03714764 -0.31347468 -3.036201 -1.2294238 -2.6709177 -0.695483
536 2.8861067 0.8354779 0.97959656 -5.9268837 5.3847475 -0.90460515 3.9139516 3.3824618 -0.2036217 -5.8390236 -0.054859165 0.051466085 0.97643566 3.684304 -1.7779537 2.9341185 0.93265456 -0.90637 -2.7086637 -2.1804745 -2.5129943 -2.365736 -1.8083942 -6.0441413 2.0438802 2.9401093 -0.04793143 -2.3763704 -2.802012 0.34047288 -1.5505567 -2.3507726 -0.37647015 -1.3592973 -4.008894 1.8773532 -3.4876523 1.2500173 4.264738 0.53886205 -5.99781 1.147763 -3.2202487 -1.6702461 1.065963 -0.8102274 -1.8976237 -0.44304708 0.5001075 2.339306 -0.10915013 2.6836975 -4.1750393 4.16293 -1.0780599 0.5763251 -4.623005 1.6371573 4.452721 -3.005063 5.14595 -0.76627886 -0.1352357 -4.374457 1.0690652 2.0141406 -2.5505955 -1.067778 -0.6022727 -1.9986066 4.7250257 1.8348385 0.47248 0.15670203 -1.1481453 -2.3484058 2.280086 3.8667037 -1.9754663 5.403123 4.9711323 0.9017818 -1.2924271 3.372722 2.4015114 3.2335463 4.5428886 -1.3192182 0.9288301 -1.7628042 -3.5944912 -0.64008546 -2.468469 -5.112041 -0.2576267 -4.0957456 2.6117876 3.1151435 2.901716 0.039573494
395 0.7198367 -0.13325697 -4.7963896 -2.4811444 -2.831845 5.081042 -4.116178 -1.3768451 -1.9980425 0.4363006 0.335854 -0.098231025 -2.0299208 0.22029196 1.2242769 -1.7118635 0.5277032 0.738277 -5.4155354 -1.0254712 1.9997264 4.1063046 -0.070679456 -1.7926335 -3.9091558 0.74796796 2.9167404 2.0773163 2.5102687 4.4249177 3.7855895 2.6498406 -0.8632178 1.4998841 -3.2946594 1.1382658 0.27572954 2.502759 2.2014182 -2.535757 1.2039926 -1.0581518 3.3085537 0.5996662 -4.134031 3.9727838 1.6281462 -0.044069678 -1.5501919 2.180971 -0.6626933 -4.4553666 -4.1442227 -4.330084 2.5535305 -1.5471939 1.2537438 1.6743107 -1.0290785 -0.35342696 0.14495207 3.0086925 0.19076876 1.0083088 0.9251068 0.65239686 -0.14050616 1.0800433 0.22535619 4.642335 2.7827044 3.2531981 -0.808445 0.37088317 5.1939335 -2.6148 -2.7104957 -0.1866861 0.45281953 -3.7229726 4.6779203 -3.1074038 -2.6402347 -0.65276015 2.1141336 -1.148954 0.89044917 -2.4994926 -1.108541 -2.2007895 0.45596978 -1.1141518 5.7820005 4.7141085 -0.9485411 -0.68673825 -6.025101 4.6953497 -0.550331 -0.4865021
821 2.8078282 1.4201536 1.5844678 -0.6856341 0.16776659 -2.0959573 1.4265654 4.9090805 1.0175065 2.0758576 4.4145823 0.61368 -3.2773347 -0.3165821 2.5247164 -1.3450716 -1.3824867 2.8075712 1.2002352 -3.0913055 -5.7388268 -1.7784663 3.7219965 -0.8528697 -2.2642772 7.4365053 -2.2949088 2.1996047 -4.435521 0.28904262 -0.04998497 -2.4052246 -2.9023426 -1.5320593 2.1715932 -3.0667713 -0.86982965 1.9321508 2.504493 2.0186791 -2.8341446 -0.48787177 -0.97920334 0.16157055 -1.8294156 1.823627 5.116689 -1.4556618 -1.865522 -1.6598535 -2.4428036 0.10251165 -0.062335543 0.81126076 -0.60045326 1.6702857 4.4852633 -3.4756985 -1.2141802 -1.1457905 -1.0765288 -0.653096 1.3867826 -0.5725233 -3.7725077 -5.0278707 3.549264 -2.068296 -4.535571 -0.8833645 -6.2107463 2.6955166 -2.436392 -2.1304073 -3.7563882 5.3866982 -2.7629125 3.0300093 2.2312355 0.55263895 1.1178229 -1.5498581 3.7087994 0.9737451 1.9770534 2.1531 -0.72910255 1.3248496 -2.9425192 -6.2768173 -0.9328146 1.6952175 -1.9155301 -0.8065337 2.0809896 3.9960623 -1.1462679 -2.1007016 4.9504356 -1.063799
190 0.5134425 -3.2042258 -3.4326456 -1.5519955 -0.8109142 -2.1913962 3.0042944 0.32854897 -3.1199298 0.6144324 0.049493097 -3.267203 3.2525237 -0.07739353 0.8803471 4.288534 -0.13995743 -0.49725646 -2.6051726 -0.27530524 -0.5639872 2.6803238 1.8223222 2.6209981 -1.6175036 -2.2201486 2.8062313 3.1045763 -0.09220574 0.37915576 -1.4691492 -2.2938728 2.1261704 -0.9354063 -1.2190334 -2.2871492 -1.7343165 3.7720451 -0.4835378 -1.6130109 3.3471463 -6.3180795 2.039873 1.8214469 -2.5671818 0.9993274 2.6872766 0.8562657 0.49211654 -1.2817584 0.05557209 -3.007905 0.083644785 5.995797 4.4280586 2.9837918 -3.467583 2.0764036 3.204158 4.0643067 -1.122099 1.9272679 0.42549473 0.28187907 2.3944888 -5.9001875 -1.5406252 3.6387274 1.5294918 -2.3040037 0.89789057 -1.5309643 -0.43736517 0.576286 1.049178 -5.2633824 3.0873 -1.7981299 4.5759645 -2.4825363 -1.196333 -1.2044134 2.9561534 2.2207994 -3.0892372 -2.2439015 -0.4347671 2.61813 4.870777 -1.3268462 1.9113617 0.4845452 1.8525631 4.634389 -4.7078624 1.110206 -2.7138371 -2.4608006 0.5894181 -0.28804705
284 1.3878853 3.628881 -2.862476 0.727388 -0.0019255057 -2.7799518 5.2029634 0.16112405 0.8098201 0.83505815 -0.1920409 -6.2623787 -0.24810515 -1.5494568 0.71347564 -3.7867675 -0.12904908 -0.55390537 -0.75067717 -0.70784885 -3.828918 -2.1803393 1.0449793 1.190216 0.41354084 -0.64477926 2.5732782 -0.8744902 -0.459962 0.36337855 -4.3905916 -7.90152 0.8878028 -2.3524375 -3.2753592 -1.7679608 1.5188366 -1.0967051 1.7208674 1.5178813 -2.746936 -0.7415356 -3.7036846 -3.152981 1.6801394 1.3194479 -1.0839119 2.6080127 -0.26979083 -1.0758153 -2.7403207 0.14504239 0.34770626 -3.6669133 -1.5975657 -2.0135348 -1.5007173 -1.7703029 -1.2054474 -3.7313495 -5.0541887 -0.548671 1.4372755 -2.8140912 1.1037343 -2.2085342 -1.2720608 -1.2889329 -3.925678 3.9386404 3.6804771 0.84754294 -2.3535595 -1.2717675 -4.6749635 -1.7625753 -0.8005264 -1.2487519 -4.6628385 1.8888972 -3.2887173 2.7024674 -2.6215024 -0.37228262 -1.2593877 1.2125286 0.49007422 2.5122714 -1.7205106 -4.11377 1.07925 1.1423116 4.3261366 -0.007588751 1.914578 3.8423 2.4811966 -2.7603657 2.5048614 0.690924
891 -1.2420541 0.80701417 1.2563633 -3.4329114 0.9247193 -2.5311182 -3.6731572 -0.3870657 2.610061 -0.13259421 0.24313389 0.8843584 -2.1044698 -1.3556733 -0.79042476 -0.2899207 -0.38640723 -3.0618153 -1.399616 2.0342941 2.817239 0.34923384 -1.1880668 1.9106784 0.9245139 -3.794239 -1.0205722 -1.3048196 1.5230638 1.7590555 -3.5424454 2.5823545 2.2014978 -0.69263333 -0.32569054 1.7491665 -2.2830164 -1.2621166 2.6373975 0.47564292 -2.6252646 3.228812 -0.15327889 1.2392274 3.347314 -5.3680506 0.6407893 1.2965317 -2.7139866 0.439267 1.2594398 2.1524038 3.0666509 1.1185952 -1.8530862 0.15132217 -0.11771291 2.0847287 -0.109858625 -0.9387339 5.272255 -0.8221255 1.785158 2.0029943 -1.8665435 0.11876606 -2.160062 2.0568302 3.6452138 -0.23423333 -2.1418214 -0.45847702 -3.7108066 -2.1954303 -1.8841772 -5.902631 2.0374422 -0.33998537 2.92138 -2.9417212 0.9334477 1.4657425 -1.1691126 0.90545404 -2.168287 -2.2690098 -4.086495 -1.6824584 3.269002 0.8863488 1.5782876 -3.4998996 -1.572195 4.138516 0.37434173 -0.33082545 -0.2901933 -3.1714168 0.19359146 0.26175177
612 -2.5711298 3.1041546 1.0222071 -1.4568082 3.1040335 1.8181665 0.73344016 2.233728 -0.39934626 -0.7389324 1.5546513 0.24625972 -0.73957527 -0.2016399 0.8719521 -1.378676 -0.17001784 1.0358465 2.724865 0.6256034 -6.191936 -2.6694903 0.7875417 -1.2498654 0.5736256 1.2794294 -2.0451076 -4.3237944 -2.2213893 0.6948957 -3.379895 -1.7583709 4.937309 -3.4037542 -0.31523544 0.46259725 1.2926725 0.6658397 0.69682866 1.2878845 -1.7810317 -0.41179204 -6.831827 0.46068975 2.4862778 1.6622363 -5.026943 0.57022035 -2.7893186 0.6196559 -3.470426 0.10091841 0.13613099 -2.8130364 0.14128707 -1.5858985 -0.45692703 -4.117181 0.82091326 -2.1011226 -3.796174 0.8129157 -0.522757 -2.995766 1.0079327 -3.1278632 2.9040833 -0.4899891 -0.49401763 0.6700906 -2.1522272 0.39660543 1.6759893 0.18899812 1.0957392 -2.08125 -0.53285295 2.4004343 -0.4207452 0.1379684 1.0284032 0.80524534 -2.3237674 -0.24319462 1.4676025 -0.21113251 6.408148 2.966768 -4.0130835 -1.7998533 -1.3217889 1.4452083 -0.5071033 -1.08807 3.4380152 1.3388547 0.9236762 -5.2131944 3.412109 0.8341462
