1000 100
237 -0.72857255 -2.2616975 -5.1655784 2.1748347 -1.0210407 -1.7314757 -3.3240395 -1.0734382 1.5114658 -0.97059506 -0.9239459 -1.3700435 -1.6159406 -2.196165 -1.4822454 -0.6568606 -3.6093788 -1.3964782 -2.3384938 -2.717368 1.9999713 1.948129 2.8845968 -0.5774 -1.197016 -1.1787044 1.0480734 3.1236036 -0.032137834 -2.8853478 0.040326204 0.79063034 4.2514935 -3.190267 2.2334046 -0.48376527 -1.9037037 -0.6709517 -1.0077977 0.012556966 3.4060555 -1.2107835 -1.4430342 -0.40265068 1.5546722 3.2952561 2.5574226 2.2967453 4.1068716 0.38202688 1.3028839 0.18613961 1.4120746 -0.3689225 1.982519 -2.6113782 -2.0543444 3.748208 -0.3810362 3.8050368 3.4312425 -3.3661497 1.2157955 0.9926116 3.7406864 -0.68543845 -1.8950301 1.56516 0.03149525 0.4244151 2.4195995 -0.70467305 0.12023283 -0.62784445 2.831681 3.5969946 1.0056471 1.2421281 1.4051406 -0.9420928 1.5223937 -0.22787091 0.58175474 -1.3754512 -1.0274351 -1.0778725 2.5829177 -0.25765982 -1.2290834 1.0276916 0.98017436 -2.6767929 3.252906 -0.47936386 2.061561 2.124739 1.5057044 0.16313529 -2.6111035 2.0198743
449 2.0167189 -1.9019761 -1.5539157 3.4403107 0.07106505 -1.1965911 1.9134744 -0.7984603 -0.3409947 -3.2467382 0.49898124 -3.726264 -1.1976366 0.72828466 -0.36973622 2.0684185 0.97076017 1.0502642 -2.6229618 -1.9075508 -1.4976934 -3.5128825 -0.2174176 1.955581 1.6438173 -4.613983 -0.6838867 3.9677052 -0.17512591 -3.227435 1.1706554 -3.0334852 3.0164266 -1.736916 1.6099589 1.0254991 -2.8724957 4.527872 -0.90894765 1.320633 2.2864285 -1.6514137 -1.4451934 -0.3916061 -0.14138278 3.2712247 4.75153 -1.0238053 -0.29956797 -0.5971079 0.6570215 -2.423008 -0.40075037 -3.416287 -1.1712049 -3.2823546 0.35715947 -0.118742436 0.13763836 0.6819637 -0.9292944 -2.8194375 2.397225 2.4128604 0.6107368 1.317011 3.0042827 2.9749289 -0.7018922 1.907582 1.041243 0.57192457 -1.6147968 1.9820503 0.95667166 -3.415696 1.3462169 -2.5850558 1.5971739 -0.59982204 0.4334356 3.1691604 -0.41515052 -2.52411 -1.400285 -3.0448735 1.2573789 -0.2970797 -1.4383328 0.29012084 -0.51383305 2.0966809 -0.68155384 -3.0850577 4.7174797 2.6255007 -0.09478466 0.5844889 -0.56801665 -0.082134366
556 -1.0285187 0.07277464 -1.0227311 -0.37072763 -0.721828 -1.3690296 2.4530585 -3.8534627 -4.075289 -0.61891747 2.165401 -1.0090659 4.409497 1.4651989 -0.22709152 4.045433 -0.17838086 1.7741119 -2.150561 -2.2164428 -2.858684 -1.9283521 0.71664524 -2.5979846 -1.5799971 1.235152 -0.26769152 3.058975 0.727729 -1.9144179 -1.8178546 -3.548474 -1.82382 -4.0262437 -1.7102506 3.1049814 -1.6367137 -0.51186424 1.928033 1.4364845 -1.3307436 -0.7439867 -0.9195459 -0.18164729 0.2386149 3.4487014 -0.9600367 -1.2287221 1.6052641 -4.8319836 -2.2250896 -2.32978 -0.6309956 -3.6878712 1.785071 -1.2195431 -3.8054268 -2.3025577 -1.4010231 2.180803 1.0245934 -3.1550431 4.1948442 1.9885653 2.8191588 3.7058814 3.7096047 2.8228593 -1.3503389 3.9186296 3.5176656 0.4115486 0.3410231 3.1997101 -0.1521148 0.69771683 0.90940344 0.8946486 -0.6360955 3.037843 1.8268652 3.4360607 -1.855617 -1.4585313 -2.101434 -4.859346 1.8160731 -2.0422873 3.2410805 -0.54224855 -2.9154038 1.0245384 3.5704103 0.32262132 0.9336136 1.1892935 -0.60979456 -0.69682086 2.143405 -1.723653
565 -3.2050517 -0.5117862 -5.9822717 -0.17470224 -2.0885203 -4.1581182 0.28854984 0.3658381 3.2194333 -2.2835917 2.1206806 3.3342094 1.5680058 -3.5561576 2.3988452 -2.5665617 -0.5047314 -1.4306096 -5.024424 1.0601168 4.4913545 1.0096697 2.8686142 -1.0865946 -3.634342 0.69760484 1.9182665 2.497688 -3.1588314 -0.67043734 0.7348289 -4.7560973 -0.50735927 -4.6155367 1.1259587 2.3138127 4.714909 3.1624258 0.34577397 3.446952 4.0372324 -1.0349522 0.18071046 -2.3763354 1.5965469 0.42895252 -0.37333563 1.1852152 -0.30726132 -1.808537 0.95654035 1.6256267 0.23111056 -3.0594943 2.0212765 0.1135602 0.97920734 3.6737473 0.20326996 0.028064925 5.1475844 -4.179422 1.2390417 1.3678488 3.7468 2.498065 -0.5040741 -0.7368175 1.3207034 -1.9046574 4.181637 -1.9448495 1.9953051 3.3076148 -0.12411857 0.31758276 -3.8770866 3.6932135 -1.0086492 -0.9095135 0.57474667 1.8651713 -0.13246174 1.1698368 1.9537836 -3.7679577 4.223702 -0.40301034 -1.1634283 1.8197494 -1.8928337 -0.3160969 1.2104896 -3.0814302 -0.5270566 3.3159645 0.9364155 -4.186618 -0.17049569 -0.25717124
876 -1.1796062 -2.4489002 0.07010362 -0.8038309 4.2442575 -0.031165168 3.2951818 2.8091846 -0.47780013 1.7055086 3.496474 -3.603517 -1.9264421 0.7367132 -0.8894135 2.7500496 -2.0897725 0.43565425 1.9098924 -1.3774354 -3.114599 -1.3853943 -1.4340189 -0.028095044 1.4952935 1.7452097 2.1173937 -0.5162399 3.2769496 -0.6056304 1.6554295 1.4622256 -3.1264086 -2.7576368 2.3478296 0.3220637 -0.43070298 -1.2233728 -2.0648615 1.1346073 1.3579911 -4.4206595 -2.5344765 3.120992 1.2288034 -3.3538024 0.8346814 -0.8070201 -0.917908 -0.42347106 -1.5659918 1.1262268 2.9695084 3.2377841 -1.7279488 -2.7031386 -1.9569856 -3.9267244 -1.3552673 -1.2224475 -1.95265 4.0195932 4.3399653 1.268108 -0.22712687 1.8196902 -1.7132671 0.7863658 -4.2415185 -0.29957303 -2.9082425 0.25352862 1.2805614 2.719861 -2.2018886 2.5853508 1.119471 -1.400625 0.89343876 -0.8037824 -3.9166853 1.2646947 -1.9700389 -3.5743098 -0.7602526 -1.2047465 2.217886 1.0733339 -0.40137956 -1.9648477 1.04625 0.9486441 -2.7574604 4.6729918 -0.1150095 -1.2611902 -2.5672596 3.2547276 -3.1242323 -3.2732608
110 -0.5142134 4.2820807 5.9637537 -0.7301898 -4.533166 0.95523256 3.919475 0.026944559 1.4740635 -4.5399003 3.164005 -0.014026372 -0.3798902 0.6960245 0.69202787 -0.41721174 1.6358308 0.80564225 -2.9054487 1.7371422 -0.2680162 3.761072 -1.6458255 1.9213927 0.1770672 4.151194 -2.2140646 0.9020054 -1.6498371 4.8109426 0.7458356 0.16789904 1.4341182 1.0316623 -2.3014886 1.8432505 3.1547093 4.952275 4.0038414 -0.9556945 -0.60978997 -0.99408346 1.7177167 -3.6345081 -3.3316076 0.7503338 -0.88834804 3.7841287 -1.0302093 -1.3642672 3.096555 0.41072857 0.8510354 -4.531885 -0.45785272 1.30823 1.1476583 -0.72915787 -0.36369592 -3.01908 -0.61403114 -3.534557 0.60086423 1.3621393 -3.2156947 -1.7112042 -1.4497316 1.1094849 2.958376 -2.913613 1.1577656 2.7204294 2.255333 -2.1561637 0.82106364 -0.14687847 1.1747727 1.9731297 0.6697218 -0.34418705 3.2957206 -4.693657 3.8032413 2.734099 -0.502447 -3.200921 0.42756447 -1.205711 1.1546856 4.1674075 0.40014237 4.3187957 -4.7391887 -0.6407315 -2.9308434 1.0329762 -0.7669321 0.97187257 4.188228 -0.6129295
645 1.3446612 -2.6140668 -0.82244027 -4.8244057 3.4820485 -2.7777212 0.3709649 1.7294563 0.16756126 1.4460568 0.31675795 -1.9629911 -0.6045199 4.08662 -3.0749335 2.0708644 3.638164 0.85612786 1.2185544 -5.1817603 -0.50088626 -1.2795002 1.661985 1.2393532 -1.3773332 0.26533544 1.3516026 -3.0926068 1.220168 -1.3529644 0.9578109 -1.5087986 0.061180152 -3.7037804 0.16767788 -1.3691565 0.4839104 -3.6549566 1.1481127 3.6868773 0.31104964 -0.6668886 0.37705407 -0.66786695 5.98515 -0.018005304 1.8883718 -3.8686244 1.1359634 -0.6241827 -0.8928794 0.3731108 -3.301903 3.0398927 -2.7089226 -3.470372 -1.1725816 -0.41021177 -0.2298089 1.2053972 -3.6575813 1.7558872 4.0213284 -1.0676517 0.20248933 4.24469 -5.8985424 -4.081482 -2.7714663 0.14462511 -1.4100336 2.314614 2.463143 2.458731 -1.5025476 -0.6454341 1.7724456 -2.4682455 -0.14333749 -4.1369967 0.604501 1.1624479 -2.6965322 -4.32792 3.6580012 0.6292647 1.2590718 3.8856606 -2.4430575 -2.367278 -1.5399905 -0.9641678 0.18537308 3.7827601 -2.127325 -1.6689019 0.15419042 -0.27488387 -5.6048126 -4.4026527
806 -1.0151248 -0.10499396 -2.3623772 3.4971948 2.211027 2.30742 -0.20142287 -2.4878094 -4.777815 -4.06697 3.0458488 0.49377516 -0.9489855 0.23723567 -2.073287 3.6526916 -0.4641555 3.3984985 1.611442 -1.6118985 -3.9903364 -0.51387066 1.0305327 -2.7775943 1.8484262 5.4775534 -3.0280113 0.43415543 3.1400347 -1.3710352 -2.4957302 -1.8408941 4.6328135 0.4520526 -2.2207153 1.0557373 1.4696342 0.008723515 2.589826 -3.0482411 2.0550342 -1.6715668 1.1481538 -0.98763734 0.74733204 -1.4635338 -1.1116062 -0.14913613 2.7150803 -4.2733226 0.03935569 -1.8488609 5.6177197 0.4269159 3.226445 0.31448644 -2.3984685 -0.67998266 -1.8222239 1.7330774 2.131711 -1.1601657 3.583613 4.526973 2.673034 2.7734199 3.3790872 5.932658 -0.48701653 1.7206581 2.8715038 -0.5978476 -1.1241815 3.7115724 -1.9270577 3.4591928 2.5409484 -0.97284615 2.9214928 -1.2959355 0.6644189 0.20682794 -4.2641983 0.117020465 -4.3206515 -4.201711 0.62444776 -0.22749883 3.1618707 -1.3366157 0.35858175 -3.698974 2.6857934 1.0915672 0.9227294 2.5450242 0.21704897 -2.9860454 0.43777886 0.79004425
850 -0.19605064 1.018149 -3.0630014 1.2864678 -1.0087558 0.30628234 -3.2600055 -3.9622526 1.0655506 0.6467764 0.6564049 -0.67886645 3.1390958 -3.022549 1.3742253 -0.9072194 -5.4188323 0.60613674 -5.1737785 -5.517896 0.45404235 -0.109911785 -0.59776366 -4.1223164 -2.827801 0.2557976 1.8094164 1.1452589 -3.0424447 -2.6997015 -2.1649408 1.0516032 4.9363813 -1.048693 -1.4019121 3.4413393 -2.1908617 -0.6716004 2.0535522 -1.8361559 3.7181509 0.16094531 -1.1195359 -0.9745588 2.4356043 2.2203305 2.926576 0.09739158 3.4431958 -0.2934944 3.1942105 0.6633531 1.4625901 -0.6306953 3.7236664 -2.4690278 -2.08346 3.2880802 -0.10018036 0.842579 1.2491515 -5.3413043 3.2283216 -5.3644304 2.0203605 2.4866025 0.84399307 0.30136812 0.75312537 5.378034 2.3027291 4.7356987 -0.22803505 0.63593554 1.8624331 3.622852 -2.3228254 0.48029202 -1.2107568 0.5653492 1.4112915 -0.124196045 0.8602082 -2.9686148 3.125296 -0.4159787 0.7586959 -0.6659005 -2.7983525 0.5530497 -0.8320486 2.0498366 5.8024125 0.60867393 1.6877846 0.21144292 1.2482183 0.66532654 1.167585 -0.85631126
92 -2.8234468 -5.201973 -2.0208576 3.334831 0.12004888 -0.830032 -5.249236 -4.048161 -3.173249 4.0269036 0.31106052 2.2207592 -3.289905 -1.1215445 -1.3224337 2.5143528 -1.7607149 -1.0893953 2.3908982 -3.318648 1.8510184 2.0568 1.7872907 -5.2561483 2.6100845 -3.325004 1.873949 4.924061 -2.369588 -2.8651912 0.55203843 -0.5950285 4.227303 3.3667393 -0.40551764 4.710033 -1.0419165 -1.9031031 0.02385143 0.2868333 0.55525994 -2.0154622 -3.9045918 -0.1473106 -0.5801683 1.7378343 -0.26702645 0.52553433 2.8232112 -0.47490633 -2.3156946 1.169143 -2.399683 -0.8193916 2.157905 -1.3838078 -1.0089933 3.3072188 0.8991812 -0.3608524 -2.0849354 1.176307 4.76355 2.4925735 1.9906996 2.6509202 -1.9489477 -0.71370375 0.44948992 5.218753 1.3136095 0.8078414 -1.7994221 2.8350377 0.15752082 4.040402 5.291467 -5.062532 -0.6843391 -1.9481788 -0.14205936 -1.9410651 0.7409125 0.44320703 -0.03572685 -2.4976642 0.67424977 -2.2095602 2.9413977 0.8825584 0.39870963 3.0321333 4.4428205 2.1475964 1.6098785 -2.6699445 -0.13649026 3.2398272 -2.89773 2.8637657
607 0.74486965 -1.4894698 -1.3057977 -0.2876008 4.0541253 -7.400069 -2.2261817 1.0984465 -4.7918773 1.2599813 2.0611646 -3.6447277 -2.8927443 1.7767148 -3.583983 4.5092998 -1.7512162 1.1233423 1.9314476 -2.0426326 -1.0933356 -3.1385934 0.9611223 -1.4409157 -2.6505022 -2.9635847 -0.19087277 0.042680603 1.2705302 -0.8766184 2.0057876 -4.093686 1.0555078 -2.8771963 4.059254 -0.49453244 1.0849055 -0.18932773 -0.75690013 2.1037025 -2.6587367 -2.0537186 -0.7211138 -0.13729107 0.3214618 0.6331021 -2.037751 -1.6530483 1.4684861 -1.5536404 -2.4432368 -4.650228 -2.7973132 4.6150594 0.02171026 -0.42769793 -3.3392975 -2.9872777 1.1385633 1.7613215 -4.1336527 1.6727232 3.9899585 0.08685279 3.662151 1.6701319 -2.8400187 1.1698335 -0.3056279 -1.5929747 -2.3427222 -0.6406917 3.8515399 4.783828 0.310423 2.5721552 2.7620587 -4.567627 -1.3979867 -3.432561 1.4465742 0.33735147 0.11562678 -1.0676275 0.014218424 -1.0612129 2.2159421 0.2942755 1.6089985 -2.4301643 -1.6999866 0.45939052 1.41528 4.3365703 0.7873525 -3.1142883 3.2779012 -1.1923552 -0.57344806 -2.330221
489 0.90481144 2.8348587 1.4023625 -2.3617346 0.55388445 0.7145476 -0.005561243 -0.106151365 4.0408545 -5.45006 4.660452 0.39727718 3.3694701 -0.806502 -0.040591564 -0.5415238 0.28651735 2.0878966 1.0127437 2.0729883 -1.4996156 -1.521111 -3.1070056 -1.7458081 -1.0555781 2.2767954 -5.7340827 -1.4537368 3.8111258 4.5068064 -1.4102868 -0.55375373 -0.3051944 1.8856758 -3.8865185 -2.621734 3.783154 1.6747264 0.56599665 -1.2893702 -0.5105787 -1.9146229 -1.4398913 -3.0755353 -0.8683109 -2.0886984 -0.9615582 -2.5216491 -3.1362033 1.7267246 1.2580584 0.3014002 2.855115 1.1494521 -3.2132595 -1.3128572 -1.3400193 -1.9657633 -2.6458678 -0.20575343 -5.912794 -0.72026855 0.8886646 -0.7083898 -1.5339749 5.0901513 4.2769985 5.225062 -2.9585557 -1.0108415 -1.1543292 -0.0041001383 -0.69558334 0.705361 -3.8520072 1.9128442 2.7340238 5.5586205 1.5057832 1.6430546 -2.9029124 2.2101297 4.4662437 1.536103 1.072311 1.7182568 0.12155217 1.3361822 -0.35927397 -2.1130316 -1.4126724 -2.6843812 -6.185421 -1.740436 -1.4041973 -1.200717 -3.8460743 1.231834 2.043718 0.34400138
140 1.6593568 1.7156188 0.52884656 2.2793686 -4.390445 2.1594145 2.8528512 1.4672452 0.7041974 -3.100627 0.87076056 0.2686816 -0.8381871 -1.7103556 -0.6530634 -0.11222337 1.0045499 1.1198213 -3.188688 -1.456621 -6.9934673 1.3988857 -0.25517485 3.4019077 -0.4863448 9.130449 -7.521374 1.5067762 -2.226254 2.0187125 1.0603776 -0.7391877 1.7834108 3.8332465 -2.74151 -2.4993668 0.8934027 1.1063089 3.5430458 -0.56208205 -1.7414947 1.1027373 1.6247668 -5.209541 -1.9883628 -0.047012106 0.21852607 3.360335 -3.9981554 -0.057053808 1.9172841 -4.164335 3.3497293 -4.8478994 1.4898391 2.0560646 -1.6606946 3.0628984 2.8800993 2.2425585 0.1179622 -2.9099686 1.348487 1.8925011 -2.10612 0.77536494 3.3027225 0.6210742 -0.6771069 -3.3376906 2.73347 1.8428326 1.3831338 -2.2778356 -0.5539187 -0.87825084 0.07593427 1.949001 -0.55537057 0.1669251 3.1334136 -2.271235 0.03779408 -0.2602228 -3.2849255 -1.0860437 2.9166868 -0.6592687 1.9952329 2.8119938 2.0699563 -0.3046594 3.2796068 -4.668533 -4.427701 5.132198 1.8452698 -0.57722884 1.7678695 -0.76568866
728 -7.1355553 -1.3848901 -2.985492 -2.5594087 1.2573185 -7.766499 -2.5993648 -1.150099 -0.5021479 3.7759755 -0.45002887 0.3163548 -3.9796205 0.080587156 -0.18193226 1.2589545 -1.1491857 0.40300423 0.97741276 -1.8937364 1.5736377 -0.55516994 6.918831 -1.7658087 -1.415747 2.5688968 4.1109605 -4.401212 -1.7688837 0.56737 1.6144822 -0.29585052 1.3723679 -0.9199211 5.3558226 -2.0610673 -1.5333776 -0.641706 -0.69655097 -0.05641978 0.871913 -2.906621 -2.623515 -2.3108978 2.4648023 2.0494099 -0.9506765 -1.5462444 2.1750224 -0.6937855 -2.0578282 -0.81876725 -1.5217407 1.4322114 3.0943656 0.55978954 -3.6504595 1.4301946 -0.013317764 1.6923822 -0.14625065 -0.1308825 4.631125 -1.30623 4.0194883 1.5002342 -2.2100492 -0.12020138 1.9866693 -0.31106916 -1.5575268 -1.0271777 0.9913521 4.8805914 1.7171307 2.3167493 3.011393 -0.78366166 1.3785871 -3.690876 -2.0771854 -0.073259 2.42271 -3.7239165 -2.7135472 2.610213 5.094345 3.5950246 -0.2997988 1.5979581 1.1233425 -1.8142153 1.6063583 4.217444 -1.8921127 -4.166394 1.0270748 -0.85265356 -2.3729353 2.0658953
979 1.5506058 8.311672 -0.8275545 2.7945433 -1.9463421 -0.0058520646 1.6993144 -1.6104633 5.84869 -3.2579408 2.0693395 5.2218165 -0.14194879 -5.5323067 1.7142023 3.9824657 -0.929912 0.4674447 -2.748672 -0.17720672 0.23128663 -0.8022518 -2.777348 -0.40602002 -1.5800056 4.3358464 -7.3556437 -2.142323 -2.767129 1.6123397 1.3584297 -2.3254669 0.16461532 1.0427321 -3.9343739 -4.336923 4.28646 0.5609999 2.1126938 0.03602052 -0.6365593 0.69208217 1.8944663 -1.7450805 -1.5164772 1.7496375 -2.1139123 2.1371033 -3.616147 -0.47787893 2.981069 1.2183851 3.3701835 -3.847997 -0.8774665 1.0988146 -0.5894457 0.087384015 -1.3111964 2.0283842 -2.5207112 -1.567214 0.2332676 1.3136303 -1.5804034 3.1880138 1.2978656 0.09287648 -0.80191123 -2.64527 1.5569886 -1.0809376 3.354391 -0.5067278 -1.5294291 1.2200499 1.3867115 4.9045544 -3.0828378 0.6334197 2.2557878 -1.7529124 1.8522931 1.4120628 -0.8705491 -3.5919514 0.8867621 -2.3170738 0.2757147 -1.4066985 3.3142712 1.258986 -1.749628 -1.5549212 -1.6310556 -1.106049 0.76400965 -1.0414968 2.333508 -1.4101471
801 -5.2926 -1.8620349 4.7791185 0.67182165 1.5669256 -1.6783533 -1.4990706 2.5265772 1.4663246 4.0218573 -0.865171 -0.41082215 -2.0254471 5.402227 -5.73152 -6.052456 -1.2379848 -1.8358274 6.872379 0.34112093 2.625268 -1.2863561 -0.0044920095 3.4382038 -1.4284075 -0.61865324 3.2938356 1.4451857 0.09346451 0.20481719 -1.4438906 -1.6541414 0.28036916 0.8619592 -0.46273175 -3.0428195 0.90867466 -3.1583536 -2.223328 6.1480093 1.5006181 -2.8845074 0.33035463 0.9579432 0.048137628 0.20185253 -2.5422192 -1.2601708 0.28761148 -4.0012603 -1.5544752 2.6766717 -2.3814986 -0.7122869 1.7653793 -2.7798312 -3.6432822 -1.6706849 -1.5422373 1.219942 -4.2516503 -2.3956285 0.9937886 -0.18512352 3.173545 0.6418499 -3.654586 -0.4395145 -1.0986731 2.0851302 -4.7552032 -0.752233 -0.81124043 0.25063598 -1.0214597 2.0680563 3.0950437 -2.1183095 -0.43629012 -3.6343913 -2.615905 3.68983 3.853171 -3.5330126 2.4373543 1.4584401 -1.0373967 0.829736 4.04485 -3.205508 -3.9423337 -3.2084172 0.052926514 2.7904253 -0.3731953 2.1709685 1.2394869 0.7252066 2.237718 1.7572266
95 -2.513538 -0.73778206 2.959004 -6.2718782 0.9471269 -0.6735281 0.29396415 4.11399 2.046862 -0.20625265 2.6589305 -3.0498676 -2.0188918 0.93915206 -4.8949065 1.574762 -0.43237877 -2.196208 0.30401745 -5.1467066 -0.13860711 -2.6239614 1.8645045 1.7442547 -3.0983493 0.17283222 2.8079963 -3.2468517 3.5638692 3.1732252e-06 -0.47135478 -0.58668983 -2.1256945 -2.0433583 3.902689 -1.3380802 -0.87319756 -0.79506075 2.115812 0.4129443 -0.4002937 0.013476096 2.728768 0.7385031 1.3047452 -0.3233746 -3.4138258 -4.9459963 -0.8070388 -0.7507203 -1.3684428 -2.3333366 1.3243943 3.2218733 1.6801964 -2.775075 1.4747403 -3.497735 -0.84194416 1.2765532 -3.337655 4.6958427 0.9234306 3.1112254 -1.2903619 3.4986706 -1.2709547 0.45880333 -3.8164232 -2.673489 -3.4089842 1.9243921 1.7784866 -0.66225815 -2.913611 -1.2304487 -0.886353 -2.2668524 1.4267919 -1.0342113 -2.6797793 0.93479156 -1.960501 -0.69281006 1.0521119 4.064942 1.3179985 2.2673488 -4.5446215 -2.4068458 -2.933329 -1.9714066 -2.5057936 5.4738293 -2.8445718 -0.19323204 -1.386257 0.9343623 -1.6964895 -3.3666189
950 1.1205758 2.2222455 4.624597 -0.9766154 0.45220765 2.4406555 1.4806396 -3.6542296 2.0926485 -0.9956924 -0.31760827 0.2091559 2.2068686 -0.898759 4.302027 -7.2859693 -1.8928055 -1.2864661 1.2352637 -0.80645716 5.534995 -2.2613873 -0.2224768 6.13863 4.761814 -4.2567077 3.3491304 5.9074044 -2.1157572 -1.7459239 -5.134478 -0.88129175 3.6396675 0.37507698 0.5968035 2.5298998 -1.9206531 1.4374807 0.67454314 0.17655867 -0.5230345 0.7972118 0.4430665 -1.3993293 0.096152335 3.5264168 4.720993 -0.59906787 1.7873952 -1.0066502 2.7302465 4.746399 0.17114143 -3.7303526 1.525276 -5.5280256 0.9961941 1.6929522 1.3183203 -1.5331322 0.13099644 -0.091652036 1.2986985 1.7027586 0.8998809 -3.3027256 -3.432068 1.3736479 1.2678119 2.423423 2.7173064 3.886155 0.5914046 2.989123 1.999119 1.5174164 3.6400263 -3.1822038 -3.4840837 2.7471454 1.8606064 7.588536 -2.4464514 0.15295331 3.70367 1.2238615 1.2363762 2.2609944 0.5703411 0.5991589 0.77855843 2.5692375 3.6502361 -0.20459336 1.9631807 0.4470768 -0.6313733 -0.33895466 1.322063 -0.5959208
507 2.4330833 2.4894278 0.060899116 -3.0095327 -1.7915744 0.27755517 1.5295978 3.8659716 4.4843507 -5.9475675 1.9376979 1.7341528 0.588124 -1.137415 2.8305893 -0.54448724 2.1996546 2.4153433 0.39637136 0.12997116 0.96359646 1.2588351 -4.2709026 2.7521229 3.1343658 4.2384496 -0.57080907 0.024541717 -1.0512716 2.0172749 0.68697196 2.3104596 2.2445397 -0.20237194 -1.3465961 0.19078597 2.8730247 3.4162428 5.1413226 -2.143389 -1.4781806 -0.07136098 3.0200944 -1.6691304 -4.0960217 0.756331 -4.522658 1.9899685 -1.1421278 -1.8325385 -1.0402584 -2.8874073 4.2071004 -1.7038878 -2.184577 1.9696494 2.549648 -1.2775116 1.1910594 -0.47814992 -3.665153 -2.6551242 1.0596433 0.4324636 -2.6834836 -0.14807199 1.9799255 2.2033536 0.751542 -3.9590228 -0.24467844 1.4271996 3.008948 -3.6319284 -0.94374937 -0.9594125 2.5623639 2.9231431 -2.708231 -2.0657675 3.5010686 -5.8830056 0.12880948 3.4792473 -0.35922027 0.6248776 -0.6989907 -0.4463941 0.077826485 3.254474 -0.11175716 6.048694 -3.4502826 -1.0945567 -6.1358275 0.46531567 -0.27842936 -0.40452522 3.3215573 0.9187947
223 1.8234301 -2.874024 3.777377 -1.1087989 1.8011895 -0.2574139 3.1970215 2.081203 -0.22318524 -0.5064774 -3.0535145 -0.739866 1.1053504 3.711168 0.48754093 1.4102783 3.0538146 -0.32406998 1.8555669 -2.71757 -0.6808391 0.8650903 1.1005145 -0.7518554 0.8661613 -3.3857057 0.029484376 0.3593565 -0.64200926 -2.6419542 1.5707346 -3.1079462 1.7972927 -1.6571892 1.5550418 2.0308032 -3.386282 -2.790481 0.9592285 0.713839 -0.20064622 -0.7101689 0.83354634 3.7720163 4.096628 1.66814 1.3679892 0.33333176 1.4704517 1.4896153 -4.0004334 1.3504004 -4.095764 3.7287147 -2.0204945 -1.7166734 4.244498 3.741928 1.9798945 -0.5278009 -1.4536692 1.9316325 4.137762 2.0157135 -3.4237566 1.4652652 -7.0839386 -2.2803223 -2.4965217 -0.8573874 0.8829189 3.3891878 0.90572983 1.081743 -4.0138984 -0.7529605 0.90761286 -4.8953433 -2.1233754 -1.0739161 -1.4345981 0.14170921 -1.2485502 -3.581518 2.1554787 -0.7201089 -0.066755004 4.6359515 -3.950817 -4.663113 0.3460706 -0.8178496 -1.2794752 0.94464415 -1.7489146 1.0931379 -1.7947814 2.7640893 -6.2914753 -2.3298998
571 -0.5385075 1.1613877 -4.704713 2.6906383 -0.33351457 1.6562983 -2.1337924 -0.84040797 4.402794 -3.4736512 2.2315652 2.985921 2.2716062 0.103135005 2.9210565 -4.222009 -1.0955874 1.584384 -0.7867941 -0.42927134 1.1455501 5.5647917 -2.1132288 2.795747 3.5985177 -2.6744974 1.3455094 3.2940044 -3.9279475 -0.8781595 0.84663177 0.6985615 2.213066 1.7177448 -2.9192874 2.2789488 -0.21257442 3.99211 4.319449 -3.9461162 0.8794011 0.52641755 -3.0013075 -1.8531611 3.2151263 -0.6161232 0.8459504 -0.6400268 3.5785923 3.3281286 0.44527364 -4.156955 0.80651265 -0.34506547 1.162048 -1.7593757 0.15515554 1.1126355 1.0736748 4.109014 -0.9076246 3.7275045 2.8787503 -2.5096068 -1.6627293 2.504159 0.5675165 -0.878223 5.066738 2.3640146 3.9728866 -0.12892386 -6.3160777 -3.5462449 5.2233152 1.642838 1.0877296 3.2968965 2.3129544 0.6457498 -2.4821484 -0.47320482 -0.67819595 -2.316196 -6.041098 1.158147 -2.7513592 0.75199705 -5.5528336 1.2503532 2.098727 2.7175703 -0.73181176 1.1554152 0.541249 0.9045365 0.4061346 -0.52451223 1.8964968 1.056672
260 0.044361267 3.5722215 3.2172048 -0.18072996 -1.3475324 -0.3589894 1.3990941 -2.2463582 2.5767338 -2.3846118 0.799195 1.8716369 0.39094123 0.018694632 4.1708035 0.40755394 3.4762223 2.0589056 -1.1390902 2.0218987 -1.49132 5.4276414 -5.263658 2.2806854 1.1553007 3.839281 -3.2085679 -1.3031019 0.7607662 -0.17760602 0.46976322 -3.3233888 4.2657266 2.4183207 -1.3841659 -3.0212848 2.42395 1.6967487 -2.9127307 -3.4621658 0.8353119 2.0952013 -0.69802797 -0.8122603 -0.1380118 1.024203 -4.475954 1.7537513 0.9763869 2.637835 2.2688673 -3.5870655 0.7896598 -1.8913126 -1.891137 2.7722967 -0.6781288 -0.6008086 2.8618073 -1.9736394 -0.4287124 -1.1893704 0.8718301 4.0284376 -0.3640025 -0.97656834 3.1172967 4.095942 0.78914106 -0.14748369 0.63999647 3.0468097 -0.19727117 2.7989678 2.190479 -1.2846884 -0.7716084 5.655936 3.397961 2.0198245 1.0363623 -0.5948584 0.24587058 5.0280643 -1.8795966 0.4249076 -0.9554828 0.70168585 -0.096154764 -1.0045909 2.2301724 0.42365518 -2.6996179 0.93637216 -3.0817993 2.0012443 -1.100055 0.14328109 0.9390684 0.7588239
592 -1.449742 -3.9752204 -1.9367113 2.8971424 2.8839834 -4.122864 -0.44540995 -4.0087414 -4.153744 3.2598107 0.034931507 -2.2163608 -3.3749292 2.7591233 -2.4297743 5.620249 -3.2185824 -0.90747833 3.9544141 -1.354779 -0.97611195 0.04294307 -1.1546202 2.990672 3.840455 -1.875567 -2.7251146 0.9939232 0.7347979 -3.1457431 1.0580177 -2.022562 0.006424291 -4.3046575 5.181024 -0.4781306 4.0743194 0.35493666 -0.8120782 3.3407383 1.0563658 -3.8200223 -4.9616933 1.5000632 -2.249304 -0.9261788 -0.32614702 -1.512961 1.6069773 -0.49727935 -0.5765419 1.2744755 -0.04795976 3.8370874 -0.4350011 -0.023309067 -2.5999837 -0.3055437 -1.7997837 1.8819036 -1.1237177 2.2083404 0.8109905 2.3917027 3.3712044 -1.6947225 -0.54011106 -0.06778777 -1.9079671 5.1756 -2.4351804 -3.593447 4.406107 3.6034598 -1.3047986 2.0883882 4.736934 -5.228907 1.2217067 -3.2549176 -2.4779503 -1.7816713 1.1209428 0.5752527 -2.1925867 -0.80376196 6.0340176 -2.0531626 5.5394306 -1.5430398 0.5419929 -0.3828298 2.1064882 -0.29756078 1.1041389 -0.92711276 0.8609922 3.2417912 -5.6958756 -1.5351348
646 -0.25519997 6.0593586 3.0365098 -1.5819803 -2.4534369 -1.7884159 2.2122235 -2.8190546 0.47062758 -3.8577843 3.7579238 1.3627753 1.6942071 -0.31708944 2.9966166 0.2537585 1.9813594 2.1315696 -2.391172 0.8547722 0.1695964 4.848696 -2.7744942 3.3241663 -1.1793287 4.203068 0.2910378 -1.4380271 -0.9299341 1.3032361 -3.7293098 -5.9057865 0.98123616 0.32056043 -3.164098 0.7743915 3.6364934 5.2345276 -0.4813799 -1.8573754 0.35854545 3.5556428 -1.3751335 -3.84248 -2.287354 -1.539941 -0.4129294 -3.7227232 1.1099143 0.31070182 4.58947 0.48509783 4.2770844 -6.153744 -1.5103477 2.7548823 2.3371003 0.6042602 -0.6019766 -1.1226419 -2.4422567 -0.47019237 0.11135735 0.053011518 -0.034981534 -1.5340359 1.4113342 0.22576886 2.3766055 1.4251755 2.6482563 0.7658714 -0.40801966 -0.8961904 1.0296175 0.24354377 0.70916873 1.2965509 1.1116889 -0.7057725 -1.4348749 -1.6745769 -0.37890655 1.1189193 -1.4588217 -1.0596119 -1.629757 1.3653369 -1.3703579 1.8566612 0.7286442 3.308251 1.4455942 -3.1682737 -1.2850791 2.4425836 2.0608976 -0.38438016 2.1950002 1.0400561
29 -1.6758394 -4.0380383 4.3486586 -1.9407645 -1.2868522 0.23743746 1.5214967 0.101620436 2.1313646 -2.101602 2.669097 -2.1431217 -0.5802953 1.9870995 -3.3359253 0.1548365 2.9525814 0.855211 -0.18450665 -3.1419768 -3.2485104 -1.1788709 -0.32859087 3.6157205 2.5010026 -5.5815296 2.8027635 -3.648415 0.56147975 -0.8218373 5.4380193 2.5031369 -2.8705816 4.2804165 2.8214676 0.011954248 -2.3821077 -2.5279393 2.7857573 -2.1077754 0.65124786 -0.5652314 3.9226544 4.2918086 5.8537903 -0.6725111 -0.3104071 -0.22631404 -0.826367 0.6595016 -3.8337002 4.8880076 -2.0209987 1.9743896 1.9249921 -2.1640213 7.9085975 0.58993995 2.2654905 0.9464983 -2.5166636 2.2151399 1.4802673 3.6446013 -1.1622567 -0.975044 -4.5266457 -1.494429 -1.8905643 0.033677354 -0.30139825 -1.1048999 0.097945526 -2.4493728 0.8504194 -1.216345 2.9807405 0.51048195 2.8502479 -1.5618836 -3.5373344 2.2174573 -2.1254501 -4.119356 4.195702 0.434661 -2.2137623 3.1982937 -0.00048062336 0.23761575 0.3847127 -4.77533 0.0133835655 1.3005244 -0.33363608 -2.598992 -0.9722249 5.0070415 -3.2444904 -2.1942747
27 1.6682078 -0.038353648 -0.16005224 -0.04984851 0.26284432 -6.076079 0.17272109 -2.4100015 -1.1202943 2.4442885 -1.4185678 0.22838293 3.4985719 -0.9680546 -1.3614889 2.4596298 -2.3511343 2.6620245 -0.33692527 1.8533622 0.76969874 -3.172123 -1.4773422 -3.0248399 -3.6753871 2.9114494 -2.91065 2.185126 -3.3391907 2.3782668 1.5075086 -3.2224326 -5.196019 -2.5860474 -1.9021081 -2.014278 0.33718687 -0.06413383 0.9737406 4.0560513 -0.310765 -2.7024567 -0.9662391 -4.001892 0.42909214 -0.3096317 0.14219663 -3.3525574 1.2249935 -1.1806029 -3.4229512 -1.2546586 -1.5213015 -2.4779923 3.6146095 -1.1421729 -8.208706 0.75093675 -4.795396 3.065693 -0.0068611116 -3.2700913 0.4575105 0.13729782 3.7829964 4.3082385 0.8873101 0.9546202 -1.9210471 -3.7116027 -5.1016536 -1.9800214 2.6502974 4.283591 0.13665055 0.2879904 -1.0757368 1.9703909 0.35948616 -0.7812633 0.5446792 5.1949224 3.9623075 -0.9584436 1.7465922 3.1057832 3.0680456 3.5186772 0.81291986 4.5865464 -3.978544 -1.408563 1.531027 -1.6942313 -0.85002506 -2.616992 4.0392694 1.6993585 -1.9976999 1.9318377
43 -0.8926189 2.2372398 2.3227017 -0.37822822 1.322886 3.0168436 -1.9843874 -0.08141311 1.2393758 -0.05605409 0.73260444 -0.79499626 4.1784534 1.2922376 -0.6842984 0.19303578 1.94108 -2.0962913 -0.4684895 2.9058352 3.6816099 -6.8263783 -0.083053164 -1.7441052 -2.1935165 -1.52753 -1.2989846 1.5917444 -3.014684 8.894527 -2.2290332 2.5020661 -0.9395495 3.384416 -4.660718 -1.7638532 3.097586 1.0489446 -2.5681577 2.2602053 -1.1489998 -1.3942355 -0.8470579 -3.15968 0.122451566 -5.4049606 -1.1598485 -1.9964621 -2.1816955 -0.45326796 -0.3991092 3.0357807 -0.48684677 1.5946987 -0.042825334 1.1720926 -2.3359413 -1.75761 -2.735916 -1.554086 -5.8184323 0.5882504 -0.67502815 0.81047577 -0.5348546 0.565443 2.399385 0.5342155 -0.64715755 -0.6340952 -1.7250856 -1.6425163 -3.4713032 -1.5133524 2.1078308 0.70656633 3.1492577 0.5421227 2.5492384 1.8185438 -4.148021 4.2318845 0.3889805 0.12766965 5.1151724 2.9295957 1.0816505 -0.5279457 0.6883051 -2.3425992 -5.7987323 -3.8026292 -8.092547 0.004849697 0.107850395 -1.2838521 -4.038184 1.3200518 3.7465773 2.2061884
754 4.3177657 -2.9033163 -1.564062 -2.199624 3.18434 -3.9543867 1.563179 -1.8062863 0.6192405 2.5747528 -2.5531547 -3.18144 -5.247511 4.8195877 -2.245383 0.78228104 1.6772684 -2.413256 0.11803918 0.76774096 -4.09067 0.1475756 1.91198 4.370352 3.1691813 -3.9034731 0.28593102 0.40894577 -0.7172081 -0.36572307 3.609209 -0.5320838 -0.9765592 -1.8248844 1.5387777 -2.3981318 -1.4016974 -0.55449665 1.8049206 -1.3274353 3.2170665 -6.0026155 -1.1545602 0.78857714 2.782027 1.0567974 -0.13120364 -0.4081797 2.209346 4.3365083 -0.34658232 1.6624541 -0.046787735 2.5650911 -2.163851 -1.4369519 3.728926 0.77083075 1.0977426 2.1092684 -3.6943643 -1.63474 1.9039223 3.027987 -1.1836463 -4.84697 -3.6190388 -1.5317591 -2.3405309 1.4059807 -0.1285381 0.08326956 1.1535865 -2.413039 -0.8309657 -1.0142088 0.5800732 -2.6157868 -2.495997 -2.5255349 -1.9820855 -1.6358904 3.5045235 -3.3653276 2.3348966 -2.086214 1.0351933 3.2918513 1.9818549 -5.616965 -1.7157593 -0.43874624 -0.025870817 1.6443686 2.780652 -1.2216626 -0.70347905 3.39951 -7.6306434 -2.142827
349 4.4787483 -3.840977 -3.0159495 2.0581872 3.7397735 -2.2305977 -3.7338712 -2.3394558 2.7874346 1.9849572 -3.285357 -2.575796 -2.6513066 -0.40912843 2.9691205 -1.1494349 -2.9683065 -0.00592203 0.16153497 0.9584841 1.2115927 0.876301 1.0909286 4.832916 1.712476 -6.266317 3.433854 6.0045004 -4.4225106 -0.09174415 2.0004435 -2.0511823 1.7082124 -1.4872234 5.171601 -2.8988652 -1.9555411 1.6638579 -0.6914289 -2.349431 -1.7401137 -2.9327838 -0.891146 -1.2975017 0.7685621 2.8339715 1.0288134 -1.7857734 -0.80128026 0.4434265 0.18843548 2.0806596 -1.6244944 0.8402434 -1.3562064 -1.9987189 0.8482472 3.3992672 0.8065322 0.73799884 0.5025286 -0.56958413 -1.2336075 0.64067894 -0.49221027 -3.214592 -6.955379 1.5966063 -1.6644952 3.7136009 4.225377 -1.752268 0.8025144 -0.9390459 -0.010746374 -2.2486162 0.6819648 -3.237364 0.042320646 0.88969105 0.1856503 -1.0772167 -0.96592206 -2.9193146 1.5818288 -3.0017443 -2.436189 1.412695 -1.3092709 -3.1235392 0.060895227 -0.69553304 -1.5554159 1.4900417 4.84645 0.57534933 -3.1453102 -0.53357166 -7.2202344 0.81561214
93 1.8519876 -3.594497 0.4020351 -0.8675966 3.2929041 -4.766656 -6.497953 -0.18033141 -1.8812354 3.316533 1.1687785 -0.73701704 -3.6944952 1.573571 -5.0870585 -6.0799828 0.9781223 0.11745341 1.4047095 -1.009666 1.7098678 -0.26242727 -0.97242683 -0.54627585 4.491499 0.86270005 2.7819269 0.352397 -1.527862 0.12119579 -1.3372897 -1.7693073 -2.1825242 0.015265252 2.8026378 -4.4344544 -0.114700526 -2.9335916 3.0350363 2.1242843 -2.0314395 -2.9826949 3.6696794 -1.2260536 3.8893304 2.9074318 -0.54890543 -1.2112074 -1.7328075 -1.3265921 -0.78128695 3.4313695 -3.25071 0.25553417 -1.202939 -6.1183453 -1.4338303 3.3569517 0.8656885 -0.13038132 -1.2230529 0.8969962 1.2580565 1.1965847 0.38209942 2.9654884 -8.111485 -2.0756872 -3.000728 0.7676114 1.7336763 3.6050072 -0.56818587 -0.12511536 -0.41579497 1.2024204 6.1278744 -1.106145 -2.856784 -1.177285 -1.895567 -0.44383398 -0.040755052 -2.9703474 1.3708298 2.4378803 -0.82084244 6.104317 0.5382645 -0.27354088 -1.1448683 1.1830851 1.4605081 3.7856288 -0.4761903 -0.7168287 2.162748 -0.9656248 -3.1085482 -0.5942959
30 1.4890064 -1.0421638 -5.57163 5.269494 0.47149867 -0.65206426 6.2347803 -1.0804114 -0.9976702 -1.9305029 -1.3404716 -2.152706 -2.2369606 -3.15136 -1.4889221 1.9078581 -1.3762941 2.778813 2.031819 0.020771533 0.31029865 -3.2070148 -0.24883074 5.2527366 -1.3056532 2.4160683 -3.2438984 3.281418 -0.9943535 -3.8512626 1.787569 0.45489293 -0.048929065 -6.806977 4.6713066 -0.3228445 0.20960109 2.5917177 -2.163885 3.335047 -1.1965884 -0.783015 -0.03828812 1.6641034 -2.548731 0.23050296 -1.4697607 -1.5330739 -2.7226493 -3.8695357 0.9579516 1.6909139 2.4494593 1.6396052 -1.0030198 1.9155773 -1.9664692 -6.713645 0.062453657 0.58282214 1.2611628 -2.0814977 5.62993 4.0268626 -0.40085837 1.0326973 2.0018704 5.481754 -3.5710359 1.5662326 4.792868 -1.4685323 0.88794315 -0.1135191 -0.37320504 -2.069445 -1.9172953 -4.2651396 3.6920347 -5.1446276 -1.0815315 0.96519196 -4.8183074 0.07843023 -4.6605225 -1.7003949 4.8725853 -1.8063304 -2.6682396 -1.7766557 0.4773062 0.13632034 0.43273324 -1.2782592 2.9122486 4.4027143 -0.063997075 -2.248547 -2.5724099 -1.3253262
961 -0.54514664 1.0245233 5.6276884 1.3878051 -1.7913631 -1.9215605 2.9402444 0.34723696 0.43284306 -0.7811541 4.343158 -2.5486002 3.239626 4.6261425 0.51907593 1.5305575 2.449772 -1.6299992 2.830034 2.9161265 1.6923708 -4.477599 -0.47306737 -3.1407847 4.6546183 -1.6234126 2.2066088 -2.1576815 -0.6941879 4.261715 -2.7716136 1.9059145 -1.1218958 1.4479712 -3.375416 -3.6947026 1.1808686 1.0451139 -1.9990071 -0.36656052 1.7759268 2.036873 1.1059258 -0.58784956 -3.556126 -4.415159 -0.59616345 0.86989576 -2.4786377 -4.02094 -1.3861657 0.50255656 4.185661 -0.75586593 -0.6839802 0.44116566 -3.993807 0.17781875 -1.9137132 0.7329259 -1.0671345 -1.4832692 -0.60339725 1.7192897 -2.471634 -3.2362046 4.619121 1.0717956 -0.38189957 -3.571899 -0.6476142 2.0167537 -3.0656438 0.9905007 0.48131317 -1.4719657 -0.17825639 0.34571084 6.2302685 2.2424607 -2.3261352 3.7201655 -1.2469016 2.3629203 0.2971554 -1.3761749 -2.204552 -1.3405852 0.19713403 2.0345206 -6.3616905 -0.21094072 -4.5818033 -1.521476 1.0484226 -1.9179031 -5.502557 -0.5789283 2.360654 -2.2273035
310 -2.0130384 0.28825513 3.9518456 -1.5041859 3.1314926 1.1185073 -0.5091872 4.6513987 2.3653917 1.5458456 3.711573 -0.49746802 -5.3418617 0.9822457 -0.029297238 2.3214574 -1.2371609 -3.2607872 3.700526 -5.7999296 -2.1945207 -0.9590671 0.5334447 0.28341565 -0.67106146 -2.0305583 4.1144085 -2.62854 6.4012685 2.307087 0.9360758 0.15918946 -1.923597 -2.951954 5.077147 -1.1522931 -1.2393295 0.9301635 -1.6535219 2.3696523 2.847289 -2.693118 0.7670482 2.5146937 -1.6320814 -1.0810487 1.2516197 -0.8774296 -2.3136144 1.0899894 -3.4471428 0.9356054 1.6237242 2.3439493 3.8367093 -3.9059906 1.6398294 1.7889218 -1.4351737 0.2215058 -4.5085 6.050365 1.0128462 1.9809874 -1.7736388 -0.28277904 -0.5128754 0.85871845 -4.577089 -1.6334383 -1.4229105 0.3940459 3.0136404 0.942829 -3.0365856 0.91795313 -0.13378863 -3.8668637 0.49885693 0.52490914 -1.9585226 -1.0114464 -0.77386564 -1.6809314 -1.2764668 2.70512 1.3918716 3.7400236 -1.688988 -0.8373626 0.045341577 -2.0387158 -0.51815885 0.23843524 2.6038988 -0.41865236 1.0660203 2.2270842 0.4091144 -1.306902
976 0.89425266 1.4735256 4.6353903 3.2921758 -4.427407 -3.1883383 2.8477097 2.8643143 -1.9863659 -6.4651117 3.707681 2.3279967 -0.24586107 1.8760666 -0.8867608 3.3088958 0.31122655 0.20844352 3.5205305 -0.31892127 -2.4349477 -0.40404448 2.0049555 2.2001047 2.8770278 5.7820897 0.6850821 -0.94396067 -0.56499803 1.2099288 -1.4941123 -0.54243016 -3.2192588 -0.12041697 -3.5055254 -2.3902535 -0.088666506 2.7181566 2.4925218 -2.832853 1.0947378 -3.346669 -0.24458997 1.392766 -1.8135631 1.8104405 -0.04965804 2.7532008 -1.002908 -5.5243487 -2.0769515 0.21798547 2.6670108 -5.400427 0.44036895 1.1639777 -2.0321808 -2.7522137 2.4973252 1.9096673 0.50097054 -1.187338 -1.1115596 0.50801194 0.2664372 -1.1435314 2.6034453 4.808774 1.3647577 -3.9159236 -1.2881342 3.9951339 -1.9711927 4.9977417 0.18551551 3.0300725 0.21928853 1.2411993 3.2355716 0.9850183 0.6774097 0.12022298 2.0997214 0.88424855 -1.5548972 -2.0097942 0.36767408 -1.9888539 1.4345392 -2.8528235 -5.1566978 -3.307466 -1.7592156 -2.0543346 -2.7763383 -1.4270121 -2.2732012 -0.714494 5.057464 0.91477317
294 -1.8202724 -0.31640986 -1.7093335 -0.348037 -2.8691435 -0.753087 -1.4302561 -0.091229774 3.4121969 0.9123755 1.9506248 -2.404206 2.9924679 1.0057446 2.089281 -0.6971495 -4.214275 0.7584747 -4.078699 -0.9988701 5.2002487 5.353803 0.33129585 -0.78970855 -1.1322671 -5.7333527 2.12775 6.5239697 -2.6354346 -0.42600167 -2.0525825 1.2048304 4.9009137 -0.7223361 0.18021464 4.0638394 -3.7154942 1.2184439 3.2871482 -2.6127894 0.08134337 0.921507 -5.6300993 -0.8491706 4.043929 0.16801444 1.6889203 0.9110124 3.9485948 1.3915839 1.1188602 -1.3345001 0.24708243 -0.8103602 3.1863368 -3.8749597 -0.3921351 2.236067 2.9050431 1.0692835 3.9048266 -0.50427115 2.1698947 -0.8469358 -0.028970554 1.884351 -4.0077143 0.17091037 3.8133261 3.7875159 3.51644 1.8546612 -1.5292033 -1.7739164 3.5818026 2.9761817 0.71800965 -2.7003202 0.51700723 3.234189 -0.41559604 -1.0494394 -1.5099311 -0.49608472 2.6400015 2.1884246 -2.1254427 -3.0392962 -2.320985 1.9454565 1.6384186 1.0696847 2.0821893 -2.930034 0.4034389 -0.29515356 -1.3231584 2.2311387 -1.8380052 3.0228508
893 3.7123187 -3.3145227 4.7359695 -0.3460133 -0.63672894 2.4014146 1.3864653 -0.5471894 -2.3657959 -2.591822 1.3538134 -1.2531587 -0.07937199 0.9141577 -1.7539701 -5.552313 -0.10901213 2.302332 2.8645627 0.4680968 2.1978471 -1.3605136 1.2233464 1.208047 0.99030733 -3.0561092 1.7025723 -1.061544 -0.59117264 -0.38058358 -3.610264 -1.4876891 -1.1070663 1.4599245 4.8619113 -5.66372 -2.773607 -3.1036658 -2.0097601 -2.0673707 -2.4072783 1.7720643 3.7303653 0.07049312 0.6845267 -0.17766395 -3.0114124 0.37634185 -0.20199035 -2.23303 -1.1374968 4.4814606 -2.370051 -0.10239557 1.0769819 -3.120465 4.070553 1.5092996 0.6045759 0.13337374 -3.676862 3.229501 2.354843 2.48189 -1.556853 -2.0812724 -2.97242 -0.78037834 -5.51635 -0.8692474 0.7129089 2.2808268 -0.03470899 -1.5015833 -1.2552805 0.9604716 -0.7764013 -8.227697 -1.8529536 1.3288922 0.98181117 6.4185796 -1.7433226 -3.809793 -0.9246018 -0.73350006 -3.5580695 1.1142825 0.3306245 2.2833695 0.6553168 0.67809117 -1.3995458 0.42812002 -2.7204075 -2.1985157 0.75458145 0.7988264 3.2468019 -3.6956763
846 1.9211315 0.024833692 1.1373926 -2.725055 -2.7312887 1.2988954 0.6969492 1.0538692 6.2199125 -1.5627233 3.0052195 -4.1483192 0.96573114 3.307752 -0.8492724 1.2299036 -0.08906504 -0.65390337 -0.6288894 0.71666914 -0.95333034 -3.875507 2.7233865 -0.32067543 0.043853592 -1.5809668 2.4747179 -0.87334067 3.6846733 0.55705917 -0.032513544 2.3589473 -2.5360458 3.9110858 -3.4313796 -1.2493879 2.4336936 1.9607327 -3.2712 1.6502525 -0.610807 2.5324445 0.58395725 -2.9189668 1.7398748 -6.5824246 0.5811707 -1.0411513 -1.0042981 0.97836715 -0.04085371 3.1127598 0.27668163 1.6506275 -2.051747 -3.6465032 0.31266296 -2.5257926 -1.4599466 -2.7951512 -6.055558 0.019099902 -0.5000588 0.9388077 0.63850355 -2.0852282 3.1084926 0.47419214 -4.9692435 -1.0108551 -4.1494627 2.0363202 -0.8843456 2.184586 -0.7254246 -1.9582618 3.1473153 0.4333046 0.56628835 1.0684677 -6.7167387 1.7208276 0.049531754 -0.7294247 0.73211384 0.4909838 -0.74410206 -1.0219187 0.3912834 -1.4298009 -6.991481 -3.9710739 -6.4988256 0.5542176 1.8197793 -0.19394377 -2.7473304 4.659421 0.5095936 1.4313998
853 0.9015519 -4.3933096 2.976903 -3.500155 2.5711763 0.086048014 -2.8998208 0.44775772 -0.3270087 0.89140743 -1.1775885 -0.67264086 -5.614427 4.1557045 -0.2991583 0.07057099 0.78220665 -2.2866163 2.4868743 0.5555439 -2.4374897 -0.9693686 2.2007911 0.48341787 5.3703613 -1.7599951 0.2091564 -2.123322 -1.2109263 -0.112761185 -0.5571361 0.35552874 0.6154165 -2.8652077 -0.046036523 -0.8248187 -1.3440427 -0.6749469 -0.5881478 0.47109023 2.3469284 -5.954796 -0.7408678 2.3210561 1.8167813 -0.007209565 2.7468796 1.3925796 3.299891 3.3530278 0.3976436 2.6526546 -0.30545714 1.479688 -2.7985718 -1.6916784 2.1416118 4.7632303 -1.4290738 0.5422877 -3.482978 1.0691445 1.8679403 4.8140807 1.9239298 -1.6483588 -3.7866428 -3.433136 -3.1187325 -0.5398359 -0.94797164 1.1797391 3.6235542 -0.58694345 1.7303687 1.566238 4.384722 -2.672898 -2.2823536 -1.0066509 -3.6128092 -3.5994756 0.5348012 -1.5085086 0.19100483 -0.32907057 1.4060661 2.3418827 -0.48074958 -3.1729116 1.5325369 -1.2967292 0.715831 5.5931387 1.4609759 -2.596585 2.306125 3.4143429 -7.7063627 2.2993786
112 0.78656834 -1.5647042 -0.32688132 2.5984123 3.1661582 2.8347101 -4.1752863 -2.0031629 4.1577177 -4.000575 1.9358404 -1.1341014 -4.6579103 0.599024 -4.5685387 -2.5701456 0.25498527 -0.33139005 0.93538195 -0.704327 0.5756755 0.57853884 6.7473907 -1.2840766 0.26351476 2.2172263 2.2870991 -3.2321243 4.5308485 5.034057 0.46265897 -1.7954351 3.2787766 0.25326908 -4.111224 -6.301136 -0.51643467 1.1602833 2.624779 -1.39153 1.1313165 -2.9829223 1.1272292 -2.784796 -0.5807003 -0.28369156 -1.0327085 -2.104393 3.1238108 1.8008091 0.88566226 0.6357368 0.27224433 1.2194296 -1.6494863 -2.3568604 -2.989286 2.8381898 -3.014617 4.548276 -1.0876857 -0.21150643 1.4844577 -0.86865866 2.0330405 3.1667342 0.38628235 1.2684884 1.8059795 2.6984289 -1.6149048 -2.2496498 1.5300106 2.1882641 -5.0869546 1.4429545 1.1185402 2.9239554 3.88404 -0.23514412 -0.81466126 0.058103416 4.9525146 1.2058597 -3.7877023 -1.1782483 3.910539 -1.8435595 -2.4503653 -4.4031787 4.681431 -2.5328257 1.4573938 2.5071774 2.433316 0.7359202 1.0807796 -1.4303381 -1.100479 -0.5000781
469 -0.5332945 -2.0293162 2.07477 -1.0896366 3.22837 2.2387521 2.665028 1.7387149 1.4399512 -4.684531 1.9961331 0.46748456 -0.31216493 1.6636759 -0.5607165 -4.5676255 1.3994821 -0.51063806 2.205563 -0.45719856 2.3537412 0.98898864 -1.1101673 -0.7591877 3.523338 -2.1847684 1.6599175 -1.0438671 -3.233413 -6.8545074 -1.6622555 -0.66575015 0.01972156 0.8011552 1.7048053 -0.5605234 0.3158473 1.4610437 3.2541378 -1.666508 1.058913 -0.5261391 0.3148267 2.6058087 2.1144638 -2.3855467 4.5925736 -0.8179638 -1.1618598 1.3685849 -2.3442972 3.9179943 2.153078 1.0594317 4.4703403 -4.412596 6.2506332 3.568164 -3.6822011 -4.3303795 -0.42189795 -1.0158799 0.18131278 2.6756783 -0.052086547 0.012256904 -1.8895446 -3.800512 2.1812782 2.7908022 -1.0670652 -3.343437 -0.077100344 -1.0681843 0.8576289 -1.2724087 1.128535 0.6168829 2.971928 -3.3692997 -4.9988523 2.4610054 -0.4031265 -0.6225382 -1.1365452 -2.151549 -1.1657419 -0.039099775 -4.2811666 4.1033797 5.176681 -1.819107 -1.9582362 -1.2510357 -1.1005934 4.451415 -4.202266 2.902552 -6.4320006 -0.8723553
649 -0.44394627 -3.5871108 2.5678914 -1.2317234 7.854519 -3.4085944 -3.9561408 0.17211255 1.594639 2.0325515 -1.2006364 -1.0053251 -3.6395693 2.4297776 -3.0893722 1.2345008 -0.39093196 -1.6769966 3.1726637 0.94754404 -3.2634275 -1.4676172 0.69373804 -0.84799695 2.845684 2.2865944 0.18280017 -0.9188092 3.2030716 2.1250403 1.220522 -0.4001306 0.90963334 -1.380071 0.3922722 0.6694336 1.9249493 0.08080887 -0.43767476 1.6581565 -1.1863052 -4.851444 -0.3577742 -1.0134692 2.0999935 -1.5239 3.2236795 0.13153414 2.2295263 3.4084363 0.30579293 -0.77137804 1.090845 3.8351123 -0.44240782 -2.4325325 -0.66408956 1.6446807 -1.3026528 0.049424134 -3.8098657 3.0179052 -0.3667331 1.310919 1.3207822 2.4499698 -0.96152824 -1.2533414 -3.3455327 0.61986834 -3.185436 3.2899313 4.111456 2.3249156 -3.2791512 0.7138609 3.6842628 -3.9363856 -0.42282274 -3.2550397 -1.6639138 -1.925668 1.0604539 -0.7774737 0.019618412 -2.5236382 2.618201 1.0825373 -1.1926633 -2.241234 2.928768 -2.5684547 2.7497165 4.8090544 2.457928 -4.2939177 3.6978498 3.6852193 -4.153364 -2.9782298
521 2.1383224 5.1772614 1.6504306 2.4965675 -2.6242025 -1.2680708 0.5248155 -3.3247955 0.15848193 -1.9400575 3.7579954 3.494437 1.3416827 -0.8214763 2.475035 2.001761 3.0827286 0.34103137 -4.3461967 0.3196574 -2.6282659 3.6576204 -2.117298 -0.81455463 -0.34560016 7.239638 -2.6876009 0.2901069 -0.40460578 3.2416346 0.80345666 -0.8997668 -1.4058049 -1.7690865 -4.618379 1.542948 0.9464818 2.8539941 -3.9689474 1.2249117 -0.46751687 1.4139578 -1.2361588 1.0913924 -2.231908 1.090909 -1.0223733 0.057907805 0.46452942 -0.917973 0.4560771 -0.56164855 2.7215176 -5.53845 -0.52457505 1.9586198 1.9388075 -1.1580449 0.6300663 2.9004886 -3.8433495 1.9918327 -2.3570638 -1.8181528 -0.97632784 -0.008200345 -1.7016374 0.40396821 0.6162978 -0.815211 1.5151472 -3.3431365 -0.78913385 1.6344376 0.10617703 -3.072182 -0.7574704 3.9934947 0.48199087 1.7406044 5.257306 -0.8150063 -1.0031775 0.32320222 0.18600103 -0.83886784 -0.24948643 1.8980556 0.32472858 0.4889764 0.08286413 -0.1092064 2.7658648 -0.5868625 -3.8991578 1.0943575 1.244673 -4.0354395 0.9873992 1.2470366
815 0.8241801 6.692115 1.1641872 0.076430276 -2.9655573 -3.3005354 -0.20928173 0.48483017 2.6884758 -4.5974474 1.9186236 5.362596 -0.028455187 -5.078489 1.652343 4.048106 -1.1729245 -0.7924374 -4.48632 0.8594844 -0.5081938 0.6570833 -1.3340476 0.40531838 0.8465853 6.459251 -2.7446759 -2.972141 -3.545607 1.9758441 0.1742586 -2.7838407 -1.0367907 0.6552334 -3.0100467 -0.37779313 1.06158 1.5776035 0.5043505 -0.78379935 0.11819808 -1.253717 1.5162961 -1.9817019 -2.8030407 -0.99231017 -3.4178684 1.260441 1.6822526 -2.628664 0.73979765 1.1413014 2.4014018 -6.1954484 -0.014079236 3.8923128 1.4876947 0.12431485 -0.49487537 1.3528897 -1.7557161 -2.8056138 -3.3370366 2.0951786 3.0578566 1.150624 -1.7836056 1.1571896 -0.9427135 -1.2847954 -0.35067672 -3.3728862 -0.094962806 1.5842544 -2.6027744 0.6287028 -2.036026 4.282291 -1.2432252 1.2556378 2.4759626 -0.5351014 -0.33686447 2.1831582 -1.2673856 -0.91788125 -0.14151607 -2.188667 -2.5587234 -1.0242062 0.7013882 -2.818192 -1.7242362 -1.3420047 -3.920695 -3.2341814 1.2836872 -1.1632338 0.7298517 -3.6688693
591 -0.93777466 -1.4435834 0.4999903 -1.9482043 6.387674 -5.043052 1.0914986 3.8090885 -2.2620735 6.1350226 1.3452804 -1.6804187 -2.1387107 3.4273152 -3.6370087 3.741468 -0.5592622 1.7389107 2.963258 -4.0288067 1.8176479 -0.5654 0.43495807 0.09362117 -3.431442 1.6423291 0.7375517 -1.2693791 2.3922172 -1.5590677 0.30792585 -1.4590982 -0.06013127 -2.6670527 -0.91453034 -2.4074364 1.597631 -0.63231486 -0.9743371 2.3253202 -2.8890893 1.272123 0.3600153 1.0709152 1.938148 1.7733727 1.3496312 0.1913055 4.224961 -2.4834816 -1.2706825 -2.4068527 -1.8688742 1.0922192 -0.83162063 0.18215972 -2.0114062 -0.8452516 -1.1046388 4.5972815 -4.2579184 -1.0237726 4.553586 -0.36821422 1.4222672 1.5045333 -4.0052767 -0.6245663 0.87372875 -2.2560055 -3.8370488 -0.85709465 2.3725321 3.8148696 -2.9374743 1.3738959 2.609509 -1.9842398 -2.5943875 -5.224402 -1.5056367 3.125721 -1.264245 -4.367996 2.6531115 2.9545515 1.0653125 0.91351056 0.45578972 2.4453294 -1.8705033 -1.0315679 1.1845603 3.6722064 0.6911842 -1.9503167 2.8904803 -0.9676345 -1.6661437 -3.6981068
244 1.5716909 -1.5814062 -4.632516 4.505024 0.7633385 -0.29306534 -3.2919405 -3.889888 -6.3732266 1.5293254 -2.0080929 -1.884148 -0.3595554 -3.6633933 -6.582199 3.5621524 -5.544364 0.86740804 -0.14482284 -1.350502 -3.5514753 0.8663739 -0.7325333 -1.6981293 3.4253936 -3.4305608 -0.97013086 1.780329 -2.012497 -4.8990583 0.6006369 1.1457244 0.13110584 -0.48734325 0.31659114 2.2807522 -0.25802466 -1.4008142 -1.9336885 3.3599958 2.5286057 -1.6896006 -2.396327 -0.4581902 -1.5186608 0.8245902 -0.12205853 -1.6315126 1.4277091 -1.654547 -3.3301003 -3.205033 -0.05257932 4.0926676 1.2991796 2.665033 -2.3525841 -7.5356064 -0.14225458 0.83291477 -2.6770902 -2.4359784 4.4179325 2.3059292 1.3952368 1.7493676 0.32862404 2.815297 1.537781 1.8439218 3.8043938 -0.9280959 4.520492 3.3531144 2.328582 4.485023 -1.4859153 -3.7862294 -0.74343 0.811855 2.3898087 -0.28440943 0.9205093 1.4692854 -1.4646719 -5.7991567 5.4238095 -3.126076 2.34361 -1.6914346 1.7129996 0.15098853 1.2242713 -1.1353071 1.6173937 -3.2112412 2.7036366 3.9678469 -4.5983915 2.9986746
670 2.8116112 0.9327835 -2.4181552 0.9981226 1.6054934 1.0168788 -0.5116297 -0.41390902 2.1905494 -4.1474857 -2.8792944 -1.8113277 6.206827 -0.42133462 0.08892206 -4.3081594 -0.71160096 0.831371 -0.18253627 -0.3536407 -0.42872274 1.1681957 -2.408006 7.8815446 2.67416 -5.427863 0.7726677 5.361837 -3.8082182 -2.4370043 -3.7652402 -0.46389064 1.3143014 -2.2942014 -1.4767491 1.707898 0.94176626 3.31362 -1.303686 -0.797286 -0.48781815 4.757145 3.2567182 3.4186485 -3.5184262 1.509566 2.2651734 -1.9294994 -2.0151937 1.3254168 2.0276155 5.0110707 2.4800072 -3.321494 3.177138 -5.701348 0.6494375 1.7969029 -3.96411 -3.2778475 -0.35810667 2.650641 3.6667423 1.350738 -0.60192937 -0.003254971 -2.423207 -2.9014258 -0.11627537 6.5499296 4.714445 1.2706811 -1.2213793 3.4053724 0.27232012 1.0331172 1.4365269 -0.85508347 1.8963047 -2.5679724 -2.2841666 3.622378 -1.1812271 -1.6734128 0.021955824 0.94482875 -0.95943874 0.72171295 -1.5802869 3.0542412 4.463797 -0.56855756 0.36295104 -0.77118695 0.25344887 -0.2680531 -1.9453651 3.6453636 -3.4646726 -3.7235417
272 -2.7510903 1.7607204 2.7851336 -1.1349138 2.6883295 -1.0117255 -0.73101294 3.9059956 -3.2498982 2.9397054 1.0585239 -2.8084905 -1.7287524 1.8114941 -1.0203823 0.025541618 -0.29471037 -2.7272358 3.7980204 -4.548993 -2.9618316 -1.141774 -0.8103962 1.0275035 1.0683438 -1.1109009 3.9705913 -4.248119 0.974355 -2.5092547 0.7414421 -1.4770709 -3.3588796 -2.034745 4.3552494 -0.31951693 -0.46269313 -2.7415612 -0.00817167 -0.07349668 -1.4319444 -1.404882 0.72694516 -0.026666192 3.3533323 1.0194746 -1.4524682 -1.389026 -1.6057937 1.1407827 0.66629857 0.8298568 0.13374615 5.34784 2.040661 -1.6885905 2.1510367 0.8175208 -0.6163975 -2.8316414 -2.7618885 7.1554523 3.259581 -0.18753693 -1.9513901 3.0588005 -3.2208238 -1.2353915 -1.2468176 -2.3328283 1.4947367 0.86672497 1.2818307 0.59595144 -2.3307154 1.2776765 -0.66202706 -1.7444658 0.6605362 -0.5196544 0.68085855 -1.1467154 -1.6981586 -5.478092 -0.023496589 2.5061195 4.078096 2.3879795 -3.1173353 -2.2511578 4.1688657 -0.6625284 -3.9169693 0.73170024 0.16326225 -3.7561862 3.752755 0.90036106 -2.4848504 -1.9669319
190 0.61192644 -0.8394684 3.2006552 -5.408749 1.255927 0.82873195 3.64913 -6.4347057 1.8102723 -3.6848423 -0.38529873 -5.4823885 5.6740055 -2.3783157 2.3509972 -3.1199 4.024777 -1.9763412 -1.967699 2.7750537 4.360216 -2.1650813 -0.09695602 5.5318427 3.9046226 -0.9157361 -0.80358917 3.0355399 -2.873421 -2.4409122 -0.8959408 -0.45120546 -0.5164388 2.413268 -1.5748825 0.9078773 1.2272712 3.6363633 -2.7643683 2.0851364 -0.0417353 0.5350015 4.8281074 -0.6349796 -2.2666442 2.4909217 -0.84827584 -4.472745 -1.9920928 -0.52678907 0.3535632 1.244735 1.0412413 0.75947165 1.374362 -1.0021949 5.4885044 -0.029305734 2.5899663 -0.20799315 -2.182983 1.3965788 2.2433898 -2.6570477 -1.8063335 -2.0315065 0.64949626 -0.39457476 -1.8763369 1.4218107 -2.5373688 4.203645 -0.7638951 -1.1716521 0.6531693 -2.520008 -0.25151944 -1.0127398 1.2016702 0.878172 0.19938187 2.4943843 -0.92112404 0.28646958 -4.4367604 -0.276264 4.859603 1.6710202 1.4477103 4.8668356 -1.59833 2.8644168 -2.5143778 -1.3153219 0.19447523 3.3165302 -3.1214244 5.193537 3.691153 -5.9462366
863 3.9207227 -2.5177956 -5.9409585 -1.7576308 -1.329058 2.3399389 0.11913646 -1.7438812 -0.27669078 -0.84956837 -1.5876523 -1.7420028 4.939309 -1.7418458 -0.028897796 -2.8708987 -1.5733815 2.4358897 -0.52123094 -5.5406156 2.9978027 2.0502024 0.06129044 4.3800044 -1.8585252 -6.36005 -3.5216167 5.9817786 -4.7545033 -4.245327 0.73825836 3.2007978 0.7780729 -0.943116 -0.54799217 1.309662 -6.6639767 3.9637368 -4.24168 2.196521 1.7487867 3.9409227 -1.1918317 -0.8780229 -2.685211 0.78953236 1.6699611 -0.29839423 -1.9847714 1.1858611 -1.2216794 -1.5990427 2.6705341 -0.55281436 -0.32420775 -1.9659189 -2.8144796 1.2214805 0.5890545 -1.3367623 7.392208 -3.0432096 1.5195484 -2.1072638 -0.51478004 -2.060109 -2.3638465 0.3235821 1.1825689 3.2828338 2.054132 2.7361753 -2.247478 0.5820157 -1.1709304 4.612286 -2.2691736 -1.7763245 -1.1727625 0.6172368 1.7742723 -0.49446988 -1.9045222 -2.4668775 1.2539691 -3.0141597 -0.64080256 -2.7561038 -2.5778837 -1.0904372 3.812601 -2.0901618 -0.79108137 2.1978827 2.397144 1.46024 -0.80955696 1.8057253 -4.548895 1.2456343
889 -0.2843131 -1.6947907 5.563526 -7.97548 2.809306 2.0526567 1.6777744 2.2619758 2.8436003 2.2536259 0.23939271 -1.6111974 -1.6207857 -1.154542 0.21185161 0.4400791 -1.3702871 -0.4673299 0.17435385 -2.2901444 -2.53775 0.42840424 2.4176855 2.018697 0.7635691 2.327448 2.6985414 -0.19650482 3.162882 1.1932628 -0.96272117 3.1914842 -4.9146233 -1.8747021 0.04283124 -0.0454322 -1.0557883 -2.3741224 -2.2393792 2.2523487 0.9103611 -0.041792206 0.552698 -0.3662855 5.0104465 -1.3927628 -0.031060899 -4.745717 1.6422518 2.897389 -0.795172 0.75460327 -1.529216 2.1552894 -0.51466966 -0.56239164 -0.7113795 -1.476028 -0.06212596 1.0416847 -4.573734 3.8078485 3.8339338 -1.3848071 -1.8626051 1.3452865 -3.1950507 2.8281872 -4.2141604 -1.5369257 -2.1401002 4.6460695 2.5871096 -0.97333926 -3.1565351 2.0950167 1.285142 -1.0719799 1.0985873 0.04023498 -2.3162048 2.7358134 1.8913606 -3.0933745 3.2170558 -1.7337147 1.4125357 3.3201876 -0.28113753 -2.8055236 -2.4302657 -1.2572722 -1.5003725 5.3892827 -2.8263135 1.375769 -0.5407288 2.3355942 -3.577471 -2.5469697
388 1.67749 -2.6256807 4.511114 0.5013835 1.0792352 2.0117095 1.2666925 -0.16035299 -3.3827035 0.12829648 3.2889314 -1.119215 2.4229844 2.616203 2.4333928 0.40915695 -0.031845633 -0.43486968 -1.2005665 2.169296 -0.0033092734 -3.387037 -3.826032 0.8314407 1.4266357 -0.8957274 -2.6049826 0.7152006 -0.074739456 2.034842 2.1262984 2.263659 -1.0777227 -0.9387483 1.3522081 -2.0992956 1.6516424 2.6863422 -1.0968809 -1.730266 1.7148496 -2.5700665 3.4149337 2.0094013 -1.273649 -1.7420596 -2.4726512 0.52453065 -2.0736392 1.031146 -0.5929517 1.7400267 -0.32366768 0.21399638 1.5472345 -2.4852743 -4.5883417 0.6633915 -1.1667356 -2.1401815 -2.6488743 -1.3706534 8.773765 -0.74719137 -2.0907423 -4.140268 5.558874 6.081625 -3.7025476 -2.7151544 -1.5007447 2.3483503 -1.3776368 -1.319773 -2.2204351 -3.3302357 0.41263893 -0.9014834 2.9055443 1.6113684 -0.44085073 6.063048 1.4944662 1.351268 -4.0740237 -0.54758155 0.34196374 1.492194 3.2774882 4.0455203 -4.481772 -0.91367155 -4.983182 0.08087631 1.7290381 -2.515032 -1.3879956 2.6219296 3.736539 -0.5540108
202 2.395949 -3.3080864 6.049808 -3.340241 2.1391451 -0.008856022 -0.12451067 -0.38766608 -0.047478493 -1.8382596 0.877281 -1.5904009 -3.2468953 4.0363026 -0.20193632 1.3265752 -0.07466599 0.07534759 0.8852417 0.19532815 -3.0290482 -3.1393285 0.12299084 -0.826772 1.7773572 -4.0829883 -1.8110744 -3.7836826 1.4491034 -4.037689 0.21567634 0.13446929 -0.15334986 0.32871014 0.8765857 2.227022 -1.1883146 0.28072417 3.4138343 -0.49552774 -1.0365309 -5.1163445 2.9977164 3.2820008 2.9045906 -1.4027649 2.354744 -0.6758413 -2.1237013 0.8927667 0.048284583 7.956811 -4.422878 0.19717456 -2.789841 -3.347084 6.944164 2.5290062 -0.8541179 -0.32306263 -4.241815 2.0927658 0.8976781 2.1080835 -1.3294638 -0.507813 -3.0937781 -0.3978103 1.0052044 1.5051866 -0.9759484 -0.025148157 0.15868916 -0.8371664 -1.4771012 -2.97011 2.9949136 -0.17393051 3.463657 1.3223412 -4.965905 0.7253027 -2.70813 -0.028571434 0.74404 -1.5021205 -0.5571095 -0.09530494 -1.7374756 1.6037235 -3.6984007 0.7247729 -0.015598301 -0.49443296 -1.9413683 -0.3627441 -1.0865129 2.1324377 -5.4960823 -0.6840925
793 0.36724797 0.23725693 3.8550994 -1.8097796 1.5323583 -0.82298523 -0.55140185 0.111656755 -2.2615767 5.929027 2.2578747 -3.3591151 0.49048394 -1.3790394 -4.7703323 0.33777857 1.7179631 -0.30202746 3.4179535 0.957329 -0.3424255 -3.4556913 1.7921906 -0.5121813 2.2964473 -1.0285804 4.0783663 -1.7064455 2.1435587 1.2832744 2.7521317 -0.77770454 -4.683937 1.6021247 0.7820299 -4.9669776 1.028824 -1.1864488 2.4515588 -1.1909515 -3.195166 -3.1336408 -1.4122342 1.5483291 -2.8399825 1.8478533 -3.902147 -1.0216721 -2.101893 1.290171 -0.23181231 0.5428539 -0.7271897 -1.2124672 0.39652398 -4.42747 1.0205781 0.8052087 -0.43776459 -0.078185245 -2.219921 -1.2554547 -1.126244 -0.32647344 3.5400963 -0.77219826 0.5094189 2.317718 1.7423455 -0.3939233 -4.354944 0.31427553 0.7894771 5.091771 -3.0312502 2.1826823 3.3002696 -2.5679321 2.5872104 -2.4410949 -2.0293534 -2.0357578 -2.0563843 -3.049365 -1.9368778 0.566531 -1.1687725 1.9171625 -2.5664227 -2.1204429 -1.7975318 0.12867981 -1.4285648 5.782071 4.7705293 -5.0599217 2.2024028 -1.6340823 -0.82973206 3.6765378
31 -0.51530033 0.9335855 2.486144 -1.1685463 -0.33166778 -2.0802326 1.4243509 0.09757875 2.8144069 -1.1476067 2.382238 2.2332666 1.717737 0.13579161 3.9392018 -0.059422802 2.119262 3.4827197 0.7381095 1.2524343 -1.4760941 5.896861 -4.958321 2.024701 2.6971524 4.622374 -3.4847186 -2.2777658 0.7174546 -1.4031067 -0.6839426 -3.5458984 2.741853 1.397316 0.13670331 -1.787666 2.2423377 2.2987845 -0.7494506 -1.6526382 1.0541813 2.2017515 -0.8239937 -0.9098349 -0.9060461 1.16797 -3.847325 0.77313703 0.4153079 2.0980794 0.401203 -2.825103 0.04714915 0.2783199 -0.7656902 0.57172173 0.49923676 -0.7542382 0.696952 -2.4829094 -1.3056209 -1.0331916 0.39754736 1.8004078 -1.523242 -1.6258874 3.5326927 3.4313197 0.47286326 -0.41865858 1.5279216 1.8797872 -0.90580046 0.007981421 1.4889473 -1.989703 -0.3375221 6.3134117 2.7432296 0.70044357 0.64288425 -0.83739847 -0.51320595 6.2676272 -1.9773356 1.2678136 -2.1197999 0.1794748 0.39161628 -1.2281613 1.0770819 2.989812 -3.5733635 -0.9682382 -2.3627353 3.779409 0.050518647 -0.12947975 1.445109 1.8942093
157 -1.5661924 -2.0572271 -4.2624965 1.9345653 -3.8234575 4.79198 -2.2057881 -0.42426637 -2.2274537 3.6147897 -0.95659894 2.0734472 1.018146 -2.5539162 -0.18918836 0.35583153 -2.1907413 -0.79681784 -5.9233584 -2.4171448 0.61225164 2.0217547 0.13924176 -4.4758644 -0.514723 -1.6858789 -0.92113286 2.1334066 2.0996318 -1.1061796 -0.96292174 1.9989098 2.7197738 0.9241567 -1.0957526 3.4563727 -2.0349433 1.8550853 -2.3704758 -4.039987 2.446091 0.4679651 2.588385 -2.4400237 5.4965925 0.74057937 0.2495296 1.0189773 3.3155472 -1.3883355 3.1057963 -5.240514 0.6656947 0.56281525 2.4699335 0.8838353 0.30202913 2.8339 -1.8742617 4.6951423 2.3179557 -0.07491517 -2.8332071 -3.28276 1.7397884 1.7937527 1.9925559 0.17067288 2.2166388 2.4346492 0.16894424 1.27255 -4.3532524 -2.1220171 3.4679284 2.70327 -1.8986326 0.22896315 2.8655767 -1.4438863 -0.5815412 -0.52503735 -0.8904139 -0.5201984 -2.0767677 -1.6046491 0.528934 -1.9485637 -1.8363407 0.9566547 3.258831 -0.57052094 3.9157782 -1.3246217 -1.234502 2.3855782 2.0426645 0.22566098 -2.39305 2.2086473
821 -3.2310708 3.0506072 -6.2362533 0.4175652 -2.0515616 0.18436542 -2.4543223 0.57788914 -1.0271525 -2.1462917 0.9745225 4.5609684 -1.5401781 -2.0443878 4.7694387 -1.4177866 1.5258803 1.5916171 0.9967559 3.0110176 -6.9347434 1.5813575 -0.4200459 -2.3004177 -0.96535194 2.5243902 -2.8473027 -2.4819195 0.6146957 -0.045109477 2.867834 -1.6079409 -0.3770942 1.9332453 -2.675332 -0.3419837 -0.095678255 4.5284944 2.0351157 -2.4750125 3.5628097 4.002629 2.8210924 -2.429043 3.505115 -0.38990918 1.0653673 -0.34544834 0.8384047 -2.7035637 1.8480864 0.67949736 6.059353 -4.7289267 1.3481101 2.61379 -0.7132948 0.49010605 -1.0157993 5.5872474 1.7350028 -2.891437 -1.8715286 0.13519916 -1.7849667 4.0346704 2.1389773 -3.5785 -0.33360216 1.045442 1.6847476 -3.801576 -0.55223936 -2.7107275 0.34552643 5.2904572 -4.181227 -0.4339328 -2.397967 0.21998554 1.0634432 -2.2398248 -4.368624 -2.8942423 -1.5557446 -2.1946814 1.2101991 -2.6389189 1.5438062 0.24870872 -0.716289 2.6744874 1.873623 -5.209368 -4.334547 4.3654118 3.1157982 -1.4666884 3.0197546 3.8265476
749 -1.1802102 0.67445016 0.8035739 -0.84637284 2.4798284 -0.18401213 2.3173811 -0.38160706 3.4557781 -2.6179557 0.72894627 3.160664 -0.38998446 0.28626895 3.6563654 0.580358 0.76051515 3.4232206 -0.18611689 -0.6958766 0.27712205 8.055359 -4.052679 0.48092026 4.722432 3.1383557 -0.26511255 -1.0777298 0.21965124 4.005033 2.5388052 -2.0164807 0.16702092 0.008630862 -2.4368072 -0.08808334 5.3257623 3.1749144 -2.0198922 -2.0742066 0.33557692 1.9166121 -0.0014301663 -1.8317946 0.6750982 0.9884246 -2.3931735 1.922122 0.119991265 -0.24299456 0.44129595 -2.6657903 -2.094715 -0.44032875 1.1516033 -2.6587074 0.10252328 -0.23070061 0.24718094 -0.5280506 -1.14955 -0.30432466 1.022327 -0.41104114 0.4829605 -0.5161929 5.5454535 -0.37168193 1.1868674 -1.2137765 -0.042195037 -0.68436956 -0.8337389 -1.4891701 3.2244413 -0.72793573 -0.877079 5.2312617 0.0018072813 -0.8873781 1.0151898 -1.826256 2.7251496 4.0831404 -3.5754855 -1.2516 -3.9481244 -0.098053806 0.40794855 -2.160034 3.2774906 3.2217267 -2.716143 -2.043526 -0.98849165 1.9966995 -0.75154674 -2.073124 2.0716765 2.519646
186 -3.8647583 1.0349759 5.1812644 -0.71928555 1.8196592 1.5258427 2.5370529 5.8732047 1.0373083 0.79767114 3.5743973 0.47992754 -1.0208311 4.334349 0.30910215 1.0823898 -0.89391124 -0.8021792 2.5533319 -0.2056597 -0.46846458 -5.902505 2.6768007 1.7128847 -1.7760617 0.19890314 7.2329803 -1.0463496 3.178538 2.3962827 -0.69361216 1.2773901 -4.687099 2.3625133 2.9947734 -1.8683032 0.87794346 -1.7731395 0.36271092 2.6520247 1.4836371 -2.4785726 -0.2366539 3.9335976 -2.0709374 0.36968943 -0.81802016 -0.6259848 -2.8064902 -1.103704 -3.4118404 0.174629 1.7014195 -1.6259711 -2.583228 2.7398481 -2.8636122 -3.380931 -0.37566492 -0.25626135 -3.1693096 2.679229 -0.8415615 -0.09869685 -0.96234286 -0.64148945 2.2513344 0.81508553 2.005118 -3.236507 -5.702898 3.2984858 -2.6349099 0.5091411 -0.6026843 3.024219 -0.91977125 -0.8542465 3.0935633 1.8994422 -2.8744917 3.292558 3.3381405 -0.64055425 0.05330121 0.8906581 -2.2234702 -1.428237 1.3350345 -1.2632104 -6.3007693 0.60827535 -4.2402854 0.8249698 2.7494566 1.170932 -2.4825697 -0.20315687 -0.47251427 4.5841107
924 2.5677748 4.54726 -0.66487855 -3.8752756 1.9179063 1.0222509 0.26789021 1.3864487 2.2497566 -2.7542617 1.3776181 3.982219 1.3067969 -4.7789016 0.8876443 -1.4583257 2.4183323 3.0433488 -4.0793233 0.09455994 -3.6077013 0.13234064 -1.5886021 2.6615376 -1.1357478 3.032607 -2.8831832 -2.8117087 -0.48841482 2.7812274 -1.4201002 -0.7617179 -0.75537443 -1.8738238 -5.224091 2.2950788 2.2651043 5.4098487 0.840834 -1.2919297 -0.17268679 1.7121626 -0.33057585 1.3063173 -2.9979007 -0.70262754 -1.9617615 2.5536268 0.04386501 -4.8101983 2.1283271 -3.718553 2.8684206 -3.6191626 0.6272202 2.587076 2.6618152 -3.299797 0.6685633 0.90481496 1.59744 -1.8719136 -0.8920975 -0.45351386 -1.4428865 -1.1869173 -1.8819989 3.0875669 -1.4316298 0.22812693 -0.9584646 -2.5762641 -2.5520957 -3.328783 0.47783342 2.0634906 -1.9012948 0.81689584 -4.0654945 -0.9547509 -0.723466 -6.178557 -4.013321 1.8391616 -4.210077 -0.6242551 -0.683958 -2.1863997 0.08944568 3.3660905 2.2042875 3.3801687 2.618694 -1.4742042 -4.366747 1.2986921 -0.61010075 -1.3141164 0.0019209671 -0.25638944
333 -1.9860824 0.88937706 3.302633 -0.93035936 -0.42811063 0.93475777 -1.1385269 -1.4518329 -0.41283908 0.7587563 -0.49245515 -2.7920666 3.0695183 2.778025 1.904918 -2.947009 -0.4334964 -3.0093315 -0.474155 1.6737334 1.6225698 -3.7688274 -1.4005585 -2.5468621 -3.5596862 0.008473709 -0.16924779 -2.2056737 -0.21415521 6.0089817 -3.2428877 0.3434355 -2.6737561 -0.2851323 -6.108147 -3.6389775 2.365593 0.37147728 -2.3293152 3.1463542 0.6672306 -1.1760501 0.49522892 0.5090643 1.7205061 -3.2389495 -1.8630775 -5.044477 -2.1168785 2.450864 -5.4712257 1.1746533 -4.2456346 1.149822 0.6294319 1.1534605 -4.283649 -2.0696104 -4.658887 0.34287718 -4.8437095 -0.51760465 -3.3890498 0.90598464 1.242139 0.09012097 2.1144817 4.6248803 1.8754197 0.74909955 -0.6201928 -1.3451314 -2.0113032 -1.1753743 -0.6337355 -1.2746229 0.81189173 -0.9364094 -0.47335574 -3.7971025 -1.7488228 5.2438498 3.128871 -0.46295765 2.3753111 2.0258303 2.0733535 -0.21995056 3.0649278 -1.6358404 -4.7789702 -5.418772 -1.5187055 2.8896143 -0.119200535 -1.1818362 -5.18924 1.1636269 2.011792 -0.8651497
224 4.636973 0.2805736 -3.340993 0.8462304 0.7210294 -0.14917444 1.1041229 2.906618 4.3955173 -3.2353559 -0.059841014 -0.70943063 0.91150534 -2.9185948 4.262195 -0.25311866 2.2469923 2.5594997 1.7899448 -3.5526779 0.8766957 3.8092997 -3.6459148 -1.8044741 0.7992338 5.050094 0.04898288 0.2815354 -0.4247966 -0.45146063 1.4127523 -3.5508392 -2.1894913 -1.2809026 1.1839647 2.4930232 -1.018476 2.5154195 -1.5769017 0.4997097 4.429723 1.0203695 -0.905149 3.4463806 -1.7428389 -0.37192258 -0.3586217 -0.5365638 -2.6638489 1.148222 5.564687 -0.78210604 -2.1087732 0.45887545 -0.019139672 0.599068 1.6444894 -1.5866357 3.9939716 1.3980851 3.5336587 -0.34387687 -0.14612603 -0.54687756 -1.2243536 1.8206817 3.5106857 -1.5539081 0.669611 -0.61927974 1.5862304 1.0292959 -2.9718943 0.1626176 1.1013304 -1.4477375 -3.6751957 4.121918 -0.3460733 -1.9275788 -2.4979284 -0.90512305 -0.21857852 2.636307 0.08310472 1.1751827 2.1685517 -1.0583627 -0.022519797 0.19360067 7.5726514 -2.4730844 1.3115929 0.65406066 -1.3701075 5.5330505 -1.1230282 1.9261944 1.9106878 1.6611959
298 2.6589532 0.54628634 3.5276904 -1.403485 1.8648791 1.2535737 2.1909702 4.6108923 -1.1341724 0.07189388 3.364749 -1.8260388 1.5369859 0.108113125 -3.1525772 0.9751986 -0.8276183 -1.4051733 1.773569 1.1999581 -1.2674795 0.957965 0.091710985 2.3152812 2.070136 1.555216 3.4403865 -1.434465 5.5385275 -2.1851513 -0.56071055 -0.5568733 -0.37087324 -1.8972892 2.5645814 1.8653351 -1.851462 -2.1820626 -2.0212467 -0.8655649 -0.5169837 -2.3658252 2.5627685 0.8483147 1.6147143 -1.8743268 1.9929677 -0.21157014 -1.6426249 0.5287736 -4.314036 3.0508816 1.4078904 3.920151 -3.0652556 -2.7287376 0.76742893 -1.4886588 2.266698 -1.7426082 -2.595932 5.631272 3.4956427 0.23448846 -2.4410734 -1.9439075 4.080718 -1.1873553 -0.6701228 -4.629841 -1.7414662 -2.8936043 1.0889 3.1138077 -2.494652 -4.3203573 -2.71519 -3.6296139 0.015595726 1.74362 -1.8205162 -1.0029144 -2.194452 -2.2469125 2.3292239 0.6565166 0.6179277 -0.165644 -2.9819756 1.5377499 0.85641587 -2.6196132 1.0813178 -0.2169484 2.1377082 -1.4173913 -1.1118394 2.3755834 0.46224144 -0.21323276
457 0.04731105 -2.0434613 3.3568327 -2.5018563 4.5354967 2.277595 2.446144 4.4547205 -0.13352121 0.5052031 4.6383276 -1.4238105 -3.722045 -0.84764224 -4.8129144 0.91177386 -1.5239984 -3.1167212 1.2625877 -0.68253934 0.9726952 0.29154608 3.952741 -0.2787521 -0.72237253 0.70739686 1.1511899 -1.5924547 1.4177765 -0.88300014 1.6507295 -0.61561304 -1.4796288 1.2861638 2.095 -0.80634624 -0.4586499 -1.4146032 0.26233062 -1.5103201 -0.19464909 -1.0043356 1.5496321 1.020892 2.3048131 -1.0179148 -1.6851898 -1.5424854 -2.9631312 3.2136695 -5.226499 3.761118 1.0879825 0.7131489 -3.4808264 -5.2360744 4.005423 -0.668041 0.37988818 -1.0851355 -0.015967889 5.0152225 1.4814441 -0.42417192 -0.3324821 -1.2953682 0.6202226 -0.40919447 0.39494723 -2.2446377 -1.5379367 -1.2554705 -1.464542 1.974201 -3.797174 0.27205724 -0.68652755 -0.49909022 1.1114224 -1.114288 -3.0257967 -0.592929 1.2746633 -1.8897619 2.0725954 1.6435978 1.5459336 1.4157561 -3.12173 -1.9212792 -3.500368 1.0769228 0.56134933 -0.4646289 -0.5281931 -1.8699108 -0.7864619 0.8459091 -2.2852993 -1.0812284
332 -3.2656744 1.004796 -5.776677 -1.2807679 -5.8041496 -0.33517578 -1.2494471 -3.4739006 -1.2482194 -1.2007239 2.5570862 2.8619964 0.7173342 -2.0082378 -2.4261007 2.7228773 -5.015829 -1.2823478 -0.68921834 1.4316742 -1.6477561 0.03554972 5.724958 -2.4191298 -2.3937027 -2.1902611 -0.10782696 0.8538075 1.5905062 -0.019698191 0.6757069 -0.9086617 3.8960302 -1.66143 -0.91522557 2.507202 -1.5601599 -4.474566 1.1183727 -0.88490295 -1.8811946 -1.335923 0.95799416 -0.1746081 2.7300754 2.4836864 0.24198256 0.02653146 -1.0515339 -1.646365 -1.5179646 -2.6072888 2.3856502 -0.179024 0.026408833 2.7009912 -2.6117153 -1.0383537 -1.4632702 2.4311411 5.4858894 -3.52194 -0.50742817 -1.3930435 3.3498628 1.5205221 4.048576 -4.4240456 -2.3096955 3.8232925 5.9678597 2.6000488 -2.3887756 -0.49658284 -0.45159733 0.21982764 -1.220239 0.84491277 -2.283676 3.6228654 2.7107065 0.9564049 -4.828208 -0.04739898 -1.3425679 -1.5657274 2.8075786 -1.3277042 0.29806033 2.375054 0.9263649 1.9082408 1.9567591 -1.4074999 -2.8106627 2.0720336 5.6348243 -0.5471786 -1.810749 2.14682
566 0.89441067 -2.9635608 3.384453 5.6868463 -2.3064582 -2.481752 3.0606678 -1.4306469 -0.570371 -5.0792956 4.1958275 0.56941944 1.0101179 3.615774 0.12814638 1.9283724 -3.0510077 0.78948337 1.8239448 3.1265497 0.3024761 1.8190129 -3.3519068 0.005497845 3.3556042 1.4756275 0.20072687 -2.110534 4.808064 2.4260795 -1.0436554 -0.5425934 -2.4129906 1.0620675 -6.361173 -0.18865795 0.4142974 0.27067727 -1.1599011 -4.5064692 2.3915918 -0.09772496 -1.9535105 1.7387832 -0.78420585 0.013288033 -0.41425562 -0.24827188 -7.8195925 0.77477694 0.70428336 -0.5590586 2.9668934 -2.9217515 0.9173365 -2.3672771 -1.5583689 -1.1843109 -0.96494424 2.1445103 -0.6247024 1.1226369 3.7369857 -1.402896 0.6297665 -0.7899883 1.3168904 1.932439 2.7936118 -3.3552759 -1.6717079 -1.317692 0.09560606 -0.38994583 0.9841549 -1.4997662 0.7843373 3.786242 4.867647 0.50905156 0.12014204 1.3973547 0.334754 1.2206765 -2.234972 -2.2700255 -2.1055586 -1.279369 -0.78156585 -2.4446592 -0.7497075 1.6382732 -1.9084382 0.4244146 -1.2630149 0.69780385 -4.2029233 -3.613121 4.316268 1.6171389
575 -2.8333445 -0.43335807 9.671416 2.609075 -1.1086836 -1.8309287 -0.24059467 -4.977663 0.678429 -1.4459598 4.2290993 -2.6497424 3.356042 3.1305692 0.115336604 -1.7400247 -0.37056473 -1.5630324 -4.278964 2.4041495 0.8854449 -2.6565733 -2.4243715 1.0245969 -0.7193333 2.8818169 3.519791 5.8266783 -2.217802 3.8192704 -1.9037771 -4.5844464 -4.256347 1.2065144 -5.8583274 2.6676874 2.709562 -1.5456337 0.78768224 -0.84324116 -0.18436426 0.82875645 -2.1897075 1.6444638 -1.5334516 -1.3245834 -2.0979428 3.2455082 2.3040218 0.7821067 1.0292816 1.9748243 -0.30802748 -2.5454075 -1.6936702 -1.8340013 -1.0733999 -1.3713902 0.17886636 -2.9947047 -1.6057535 1.4194988 0.09394256 -2.0310967 -2.4420207 -1.1336813 -0.46909377 5.4001975 4.1859837 1.9185485 3.5640013 1.350292 -1.6837624 -4.791404 2.8420968 1.671799 -0.847914 2.5399566 4.244681 3.8609614 -1.2861831 3.4648867 -0.20034821 -2.0255964 -1.0567875 -1.5094205 1.8302776 -2.133067 2.1172554 1.6372294 -4.334143 2.0322144 -1.0199724 1.996131 -2.679101 -0.81584334 -3.9161308 0.024485407 5.6382513 -1.7286822
461 0.4330544 0.7745407 1.9081637 0.095042095 2.6534326 -0.6269516 1.6813679 -1.451124 -0.5597274 -5.9211745 3.8976364 0.3199905 2.7653995 -2.700224 3.7328212 -0.44813755 3.160115 1.9389238 -0.18110879 2.9864697 -3.7498052 0.7556651 -0.023802483 -0.32398754 3.5952127 4.6869774 -2.8265831 -1.4387579 3.4086666 0.558747 -4.630661 -0.38664806 -1.6358342 1.3833063 0.637523 2.5556984 -1.2737253 -1.5237588 -4.1205325 -4.3041596 1.7485484 1.9921769 0.6428913 0.19037999 0.61598 0.2863788 -1.6186134 -0.6898953 -3.745409 -1.8107805 2.6336637 -1.8661704 2.2168748 -1.4092925 -2.1352472 -0.11598203 -0.7755315 -2.1211815 0.9457682 0.11927306 -4.2127833 -1.0366658 3.5802116 -1.0697182 -4.130691 1.0503247 3.6435237 1.8234018 0.8785323 0.07384651 1.2680978 0.60023475 -2.1733682 0.8260506 -1.2115085 -2.540812 0.91906744 5.432125 4.88705 -0.28240767 -3.446172 -1.5850599 -1.0011175 2.2510073 -1.0363355 0.96972513 -3.3805692 -0.18353635 0.34284544 -1.8970537 -1.5057888 -1.721859 -2.0021117 -0.77442336 -0.8823941 0.6523961 -2.6001031 -1.1031002 3.8417013 -2.3951888
997 -0.722318 -3.2743876 1.4478859 -2.8542895 4.3856125 -0.1888845 1.4023614 -1.740087 -2.7614856 1.332118 -1.6709435 -2.1008546 0.59113306 -0.074496835 -2.3358836 -0.056855947 -0.3997509 -1.840273 0.06535999 -0.8723919 -5.024362 -3.1082625 0.42436588 -2.5648577 0.044035755 -2.7431023 4.372747 -0.06583106 3.0594406 -6.4186254 2.8602455 -1.8077549 0.9533899 0.42855984 -0.52942634 -0.92402697 -0.9354493 -0.3067576 2.9133022 -1.4648802 3.787697 -5.778957 -0.12716931 -0.5339061 -3.6288245 -1.4030712 -0.96462286 2.6138783 0.21044402 0.7049862 -0.8575196 0.8179921 -1.7057747 2.8121152 -2.8345377 -0.4865473 -0.30692306 3.6003072 -0.45052654 -3.3266454 0.08150771 5.1912503 0.40793604 1.1840627 0.039811343 -0.5131528 -1.0750594 -0.11574078 -1.9025099 0.05752916 -2.4860635 -4.8464155 3.5666056 -0.66006625 -1.4383036 -1.7024479 2.8090441 -3.675653 1.4247078 0.23444918 -1.3835273 -3.4679542 0.22603205 -2.0244288 -0.5271343 0.3464362 0.5355231 2.160723 -1.7002093 -3.7456944 1.9985858 0.49087325 0.16739914 3.4044292 -0.5457766 -1.6447265 0.65020084 -0.64144486 -1.7544072 0.32247034
552 3.00057 5.0841813 3.519412 -0.75682515 0.1600232 -1.3305148 1.0065309 -1.7575365 2.9997985 0.71371645 1.3351398 0.67456967 1.3844159 -0.56546515 2.4315667 -1.3465421 -0.65068614 3.8166785 -1.328097 1.7420655 2.13415 5.0217705 -2.3553872 2.1573741 0.50377536 4.3852243 2.0019743 -1.272744 -2.643971 5.9755473 4.0439262 -1.7607603 0.53323597 0.12954132 -3.0097558 2.6262646 2.1059513 4.982957 3.0939307 1.8343855 -3.2407272 2.7974985 -0.01429543 -1.5848174 -1.3203015 -1.6706699 1.9935077 1.3863312 -0.7112378 -0.41070423 0.41445583 -2.5011098 3.564092 -5.429603 -1.8986272 2.87378 4.352367 -0.93896765 -0.9197918 -4.3743954 -0.18921149 0.86774397 -0.45489806 -0.19372165 0.64086896 -0.77498215 -0.15836544 1.475591 -0.02774435 -0.91327924 0.4029445 -1.5624578 2.7393968 -4.553345 0.8656965 -1.5750318 -0.72712433 -0.41674536 -0.9286304 -1.185904 1.475385 -4.9820447 -1.5110433 1.8375756 -2.6974592 -1.6469481 -1.8404512 -3.6966102 0.2302253 2.2693791 1.5423073 3.1912138 -0.1318788 -0.6596329 -4.7295804 2.0511446 -1.1268221 -2.0768948 2.9785054 0.12768292
845 3.3542392 0.5870728 3.2047906 -0.9411015 3.735065 1.7502723 4.47121 2.6239142 -0.20229127 -4.6492443 3.279441 1.7381394 0.7765109 0.30494455 0.7717584 0.023425283 0.55224365 0.55723286 0.8708198 3.4739594 -0.3374236 1.998491 -0.14961788 1.0444809 5.333463 1.1737204 -1.0053147 -0.10954576 1.2877148 2.6967719 -0.016492894 1.7660754 -1.9203308 -2.0581338 2.7790408 -4.252198 -0.6580875 -4.205291 0.23706618 0.3886906 -0.9372136 -0.5785861 0.7788894 -0.8669441 -2.0966935 0.896759 -1.4047952 0.9577542 -3.9687538 -0.15658899 0.31526574 1.4217379 4.173322 -0.59304327 -1.9862689 -3.2660232 4.59446 -0.35969284 2.7613735 0.67240876 -0.6884287 -1.1772357 1.1010094 -0.8919133 -2.921218 0.8696436 4.7674866 2.5852022 1.1155022 -0.6562551 -5.0256023 1.2554874 1.3974713 0.670114 -1.3543266 -4.055609 -1.5034679 0.1184477 3.7814448 -0.98854953 -1.9456476 3.5916948 0.95924044 2.3530009 0.4231372 0.44231635 -1.1555439 -4.1086755 -1.6319382 2.6408453 0.70257634 2.7469425 -0.14782973 -1.1323596 -3.0938725 -1.1707786 -0.8803003 -1.4846578 4.0413017 2.9704626
503 5.638952 -0.80175906 0.46947578 1.4969596 2.1741557 -2.6749306 -1.3812088 -1.9340461 0.1186811 4.469751 -1.4930431 -0.4402259 -5.3068795 2.953914 2.0116494 -2.0866864 -0.22016503 -0.21866035 1.6715938 -0.5477412 -0.38457078 0.7293217 1.1814377 3.719996 3.499587 -6.332338 -2.9346793 1.9883037 -0.5969064 3.0196297 1.2347323 -1.8474449 0.67751926 -3.2283218 4.221917 -1.9903091 -2.0532274 -2.3520792 0.94926256 -3.4599063 0.97416097 -4.039437 -0.43432698 0.9549256 -2.8104324 3.1204176 1.0225663 1.4614369 0.5353819 -0.526536 -0.20142408 3.8529458 0.8306901 2.172658 0.041890927 0.18572892 0.29877374 2.863475 -0.6123808 0.029357981 -3.9338582 3.0791955 3.6040251 2.9644616 2.0786386 -1.9544779 -4.179732 -1.8626059 -6.432309 2.9951212 4.08617 0.19206162 -0.9636507 0.09454547 -1.594666 -2.1029294 1.7409878 -5.747258 -2.9023678 0.30377632 -0.19076939 1.7528164 -0.9957067 -2.8590722 1.3798428 -2.41766 -3.252644 2.3405612 2.5621886 -2.965956 -1.0083389 0.73096603 -1.2911532 2.973672 2.6348858 2.7073424 1.9914637 2.7452924 -4.884579 -2.5245707
184 -0.40496108 -5.1095757 3.7785048 2.0452702 2.4096758 -1.0439103 -3.4675915 0.87133414 -1.8023725 4.3122325 0.94661427 -0.52266026 -2.0778103 0.87882817 2.0488415 1.0710149 1.9485959 1.6645757 4.080557 -1.6250223 -3.211134 1.3612624 2.9636593 1.853575 0.3127241 -1.1297066 0.6582768 -0.090057775 -1.1170524 1.2073413 1.7562497 -0.9563129 -0.09402714 1.1752254 2.977478 -0.47584015 -3.488274 -4.703814 3.5857677 0.23340692 -0.05285977 -2.8922265 -2.3228545 1.571253 2.5306878 6.6237974 -2.2179992 -0.1475585 -1.0880028 0.36667147 -2.032335 5.9628406 -3.1916347 -0.00733293 -1.5878816 -1.3667983 3.710017 5.335902 0.7799062 0.8646923 0.7931627 4.5566626 1.2659363 3.055905 -5.4181337 -1.0604311 -5.870327 -1.1087642 -3.928076 2.1546583 0.42533663 -0.012506552 -3.4017503 -0.8716313 -3.3640242 2.1005592 0.29452756 -3.363984 -0.42772764 -1.6375208 -2.121509 0.5743095 1.6602979 -2.6304731 1.1677264 -1.0284222 1.8903515 4.122242 -1.0230236 -2.3513677 0.7512722 -0.02664552 -1.3810903 0.7872007 0.22290558 -1.9585185 -2.0909066 3.6940157 -2.3523872 -1.5004631
750 0.87381715 3.1639671 -0.059585527 1.2607765 0.4457861 -1.9665114 1.8715391 -2.4774652 0.6678466 -1.8891532 -0.55433285 5.2576585 -0.4207869 1.4632174 0.26154396 -2.8537037 3.83185 4.2084327 -5.135613 1.5018808 -2.1311278 4.2253556 -1.0131232 1.849667 -5.3805842 4.266441 1.0258842 1.3490796 1.5037578 2.5296936 -0.02313445 2.4480765 -2.5363624 -1.8668445 -4.465899 3.5541823 7.0059958 5.3287306 -1.305706 -3.6360714 2.1904542 2.3901567 0.031067496 -2.0232472 -0.2438355 2.0661163 -1.8398768 4.45857 1.0570786 -2.8756838 2.405106 -2.1651258 -1.0690601 -3.6439688 2.1179748 0.23185274 4.9768233 -0.8832171 -0.03743762 0.56336725 0.23825812 -1.4775615 -2.6421692 1.7991841 -1.0376261 -2.0357828 -1.8015265 -0.6452309 0.84266376 0.35837317 2.5042086 0.7905986 0.0075001204 -2.3236327 -1.8773514 3.038452 -4.513363 0.9358984 1.0705855 -3.0133123 0.16080625 -3.4611304 -2.5426667 2.4523878 -3.6985416 0.70804507 -0.09834278 -1.9824779 -0.42221534 2.2292922 0.37263453 2.4573112 2.6707456 -3.6307344 -3.849346 1.3547319 0.21621962 -3.001902 -0.981346 0.49916065
396 -0.19953048 -1.4485945 1.7852286 -2.0266309 -0.8789381 -5.5661 -0.02367206 -0.028017428 -1.7492468 3.1784954 0.73496395 -1.8810316 0.19498296 -0.06807295 -2.8005617 2.099071 -2.2111387 1.264919 3.7867942 2.212942 -1.2125884 -4.984451 0.43154803 -0.35759646 -1.6390331 -0.47128126 -0.47761822 -1.8072069 4.0614104 -2.4118197 0.967114 0.005159121 -2.8374436 1.6657493 -0.2553002 0.93058944 4.41999 -1.5567532 -3.1441958 -0.48919544 -1.884451 -3.1070647 -3.1855385 -0.84042156 -0.015692916 -2.718464 1.3809378 -1.2226788 0.8549649 -2.5193694 -6.296547 -4.774903 -0.77638096 -2.0829196 -2.3804488 -4.0931125 -2.2811646 -1.3084481 0.10660767 -0.31069484 -4.606696 3.7020633 -1.2092891 -1.5235837 2.4168088 4.013021 3.5838997 0.3730324 1.8006201 -2.0736976 -4.31657 2.9527051 0.38016552 5.365884 -4.0801644 -0.05140229 0.7509885 -0.20602782 2.7953951 -2.7165558 -0.58779484 0.6030863 0.054746363 -2.597381 -0.80035955 2.8946521 2.4225519 -3.4238513 1.0603621 -2.2850847 -0.7967618 -1.4774319 -0.7609941 4.2734137 3.1214213 -3.8434412 -0.31273377 1.2393475 -1.8811754 -3.3903186
36 0.8529387 1.3895303 1.9978704 -1.6056653 1.5895528 1.7466935 -0.8529823 -0.5552611 4.040865 -4.143394 5.845727 3.4782321 -1.1588199 1.2531551 1.6223159 0.39316356 -0.29203945 0.30150425 -2.4848235 1.0828059 2.0524056 2.5848942 -3.9539769 1.5204458 2.9822428 1.2353723 1.5164194 2.2973568 -0.22169292 3.8247352 -1.1760291 3.1989043 -0.749063 -2.0721333 -0.07785628 0.06027632 0.027286535 0.1428228 -1.4186901 -0.23251513 -0.28038302 1.7512614 3.5381093 2.9271915 -3.175337 -4.880144 -4.344064 -0.23233281 -2.245214 1.8180339 -0.53616774 -1.3835541 3.8383646 1.2043225 -1.9532756 0.8681279 2.939539 -2.5231473 1.1807162 -0.7181026 -3.192379 -1.1554822 0.398776 1.7701408 -4.478771 -0.15580387 5.216745 2.1091292 -1.4220549 -1.4514585 -4.709667 -0.6121418 -1.3403219 -2.0092723 0.8866797 2.471191 2.3299603 1.6580012 -2.4185183 -0.25252208 -1.4747257 0.08765058 -1.2371346 2.1648407 -1.0347753 5.3448544 -1.073275 0.5610269 -2.3701506 1.9711145 -5.8007154 -0.86872005 -6.213708 -1.8123631 -0.7661401 -1.5360433 -5.5987215 0.7756078 5.339122 -0.9193067
562 -0.21749358 4.74865 0.78664947 0.8143112 -2.942675 -0.7247485 2.2131488 2.3433347 0.6767497 -1.4111164 0.030542862 3.3976257 -2.25501 -4.9242105 1.7096728 1.8371371 4.566757 -1.0433798 -3.6184988 3.3352718 -5.7776036 0.7294587 0.021652313 -0.2485928 -0.3883792 6.2151456 -4.6432204 -2.1718175 -1.0739236 2.6406364 2.6418388 0.14923684 -1.5451225 0.8508976 -0.6641981 0.23546961 0.22127064 2.8576262 3.1926517 -0.87003446 -2.368656 1.6687996 -0.18426882 -2.145874 1.2439451 -2.291752 -2.6341774 3.3195763 -0.43445355 -3.331362 1.2361631 -3.2571366 2.1993785 -7.050142 3.53676 3.261018 -0.6277177 0.7736709 1.5812106 -3.7977998 1.779836 -2.5356843 -2.3624177 0.081004165 -0.56106895 -0.877707 -3.8227942 0.5748779 2.0424287 -0.004644418 0.1486458 -2.6822367 -0.32478598 0.1271361 1.4347532 1.3480266 -2.4522996 0.1769295 -3.1496584 0.9033732 2.32876 -3.2510371 -1.4297522 -0.95010585 -1.8951172 -3.1191144 2.5899472 -0.9986746 5.571882 -1.047246 -1.2249032 -0.45892605 2.5551646 -4.0517063 -6.7108974 0.7219407 -1.4332037 0.34346002 -0.36818466 1.3764142
741 1.8626118 -0.7679531 4.0567613 2.7735693 4.443362 0.77080494 -4.647528 1.012311 -4.1512947 3.337297 0.17696498 0.29110682 -4.6060123 3.6609414 0.8612628 1.9749457 0.8224928 1.4314572 2.5112045 1.4613262 -0.9385089 -1.8600783 2.2246244 -1.221174 2.069933 -1.1396521 -0.6459769 -1.7081047 -0.99562126 -1.9810385 -1.682457 -0.09472301 0.15541221 -2.584881 2.6363795 2.2356985 1.3960644 -0.54622656 -0.35289833 0.44482842 1.0483034 -4.8747053 -0.9189228 0.011709255 -3.7787867 -0.80089885 0.23942864 -0.41192126 3.1046057 1.8921949 0.4445189 2.513941 0.7191259 4.3878646 -1.087045 -1.6270921 1.3359386 3.3551502 -1.4569074 -1.0533085 -0.30192986 4.888319 1.9822406 4.397671 -0.12233583 -0.07557438 0.7565521 -1.6119827 -1.0485779 1.0547768 -1.1042379 -0.032379314 3.1889033 3.293511 0.08609999 0.40643597 2.5674314 -3.293029 -0.22229879 -1.8017606 -0.98465866 -2.5499036 -1.9382076 -1.4695488 -5.4563594 -0.77114254 4.7391667 0.6769744 1.0357065 -6.0959797 3.209054 1.5799385 -0.0032518373 1.9113511 2.6462703 -1.0325328 3.6997788 2.9380105 -5.491918 0.084120646
142 3.3541322 0.96394813 -0.46708006 0.9580503 -0.93647534 -1.8042945 0.9378889 1.6510752 2.3247457 -1.9252924 3.0092797 0.5703148 -0.24659187 -3.4671018 1.3188949 -0.071443915 2.1181142 3.043102 -0.3707464 1.514145 1.60386 6.618056 -5.8336115 -0.8649806 0.16007502 2.3096192 -2.4676173 -1.7232343 1.1956663 -0.047305856 0.12373531 0.1464043 2.8287547 2.3959885 -1.0545084 -1.8258625 1.6648693 2.89692 -1.3051212 -1.6163653 4.7188377 3.2192316 0.1037586 1.5528668 0.46615848 0.34012887 -1.9904114 -0.6235303 1.2526792 0.9321462 1.6369133 -4.9561653 -4.8808455 2.2575698 0.26182595 0.45481047 -0.16967025 1.2896914 5.3508506 -2.0958698 3.155601 -0.021654578 0.29012954 1.4470891 3.0472925 -2.1229343 5.7815332 0.028726546 1.2012322 3.845008 1.8069353 0.63139015 -1.6772479 -0.15124637 5.9928513 -0.23851314 -2.9410164 3.905706 -3.0227957 3.236076 -2.825539 1.6236982 1.4434304 0.20560744 -4.038906 0.5887696 -3.3101034 1.7098294 -0.9302163 -2.160177 4.0308914 1.9142951 -2.090266 2.45707 -1.693286 3.2032762 1.9679384 -0.32514676 0.058588237 -0.029275898
309 0.89936006 -2.4036076 3.2946396 -1.1848979 7.9565763 -2.7710564 -3.789553 -2.0101824 -1.333691 1.8291864 0.07401535 -1.1471901 -1.1499732 1.9648311 -5.1160827 0.6413086 -3.0156374 3.3071938 -1.2578346 1.2815711 -0.10556253 -2.0741847 0.55784374 -0.021316567 -0.9874755 2.3524845 -0.7565665 -1.0421121 -0.33539435 1.1854845 -1.1558043 -0.5267396 1.8310242 -4.6590767 0.2654001 -3.0262368 1.4701556 -0.47570488 1.199808 2.5118906 0.27599058 -1.0492611 1.1455493 -1.2118154 -0.08480199 -0.015792735 0.44325846 -1.0095662 4.6674514 0.14509629 -1.0472081 -3.3376527 -0.7497361 6.093625 -0.9514577 -0.20739068 -4.1826043 1.6582015 -2.7437987 3.4314723 -0.03280153 3.0337117 -1.8341187 -1.0967515 2.7431383 3.9152923 -0.8022529 -0.70526415 0.5357284 -0.021286175 -3.7132964 -0.91389215 5.1045265 4.497231 -3.2660644 0.4063863 1.8481282 -1.2359927 -0.5561683 -4.5980477 -1.2457632 -0.10326156 -2.919326 -1.1165025 -2.9439404 -1.1418543 0.673691 -1.7631104 1.2839292 -0.046996005 1.5079172 0.07098338 2.1249068 5.6943116 2.961123 -1.7511925 3.0701125 -1.1917257 -1.1922469 -2.559988
721 -0.08196392 -3.5059206 -4.392617 3.0772197 -3.459696 -0.5754788 -1.4681975 -5.359937 2.154711 2.3786726 -3.1518838 1.9958552 -0.55014724 -4.6110616 1.5048035 5.9705048 -3.094522 0.8288828 -2.6283884 0.16687267 0.791049 1.0076259 3.7361302 0.898509 -5.265522 3.7557278 0.8419159 -1.9838649 0.43073592 -1.7504604 1.7202425 0.9729767 1.1700722 -1.1844795 1.4886575 1.5695646 -2.557593 -1.4974965 1.0700679 -1.5243354 1.7517253 -1.4800676 4.7894497 0.34776 1.8457128 -1.1258898 -1.7572743 -1.9193829 -1.4106187 -2.1171367 -1.7619987 -0.62720454 0.8401345 3.953044 1.0864831 4.849604 -3.7532835 4.5857377 -3.5926738 0.31107754 2.098074 -5.1020646 0.028786957 -0.18179499 4.4870853 2.9476202 0.19272426 0.36184666 1.9294611 -3.591812 1.1385399 0.23927782 1.4989197 -0.24538247 3.085622 3.778816 -5.305902 1.2076807 -1.1425594 -0.5938306 -1.9101686 2.108397 -5.1264057 1.2164433 1.5278108 -2.1382356 3.1722412 2.1382644 1.2827023 0.5270424 -1.2190112 -0.72080636 5.4605756 -2.3524969 -0.9868269 2.2876177 3.1813684 -1.3392633 1.4745362 -1.4033706
103 1.8802857 -2.9676304 -1.7265708 -1.858114 2.8753793 1.0412576 -3.3919249 3.6648185 0.09766237 0.7847753 -3.2017245 -1.5405008 -2.8327577 2.4842646 -0.7927196 -1.8748813 -2.5391462 0.34392452 1.5165563 -0.42438805 2.928434 -0.078701235 1.7945956 -0.7102105 -1.3074195 0.8069447 4.4596696 -3.5668623 -3.9216342 -1.4616932 0.34057984 -0.9792491 1.269907 1.333977 5.7005854 -4.181312 1.8032097 -0.23084937 0.94518185 -2.404689 -1.3023797 -0.99101114 -2.1318045 -0.2234536 1.9777087 3.6140895 0.6295622 0.7038359 0.6021801 0.3482482 0.7912007 0.17542379 3.8634908 1.409616 -0.45123643 -2.9965086 1.4309506 3.5492866 1.0472614 -1.503316 0.7679169 3.5796342 2.736453 -0.15333007 0.934822 1.1104832 -8.304547 -2.8126333 -3.4003356 3.5277007 -0.4430178 -3.5886757 -2.802036 0.22198044 -0.9783015 -0.17015305 -1.2926797 2.1627462 0.84356683 -2.5130298 -1.5865653 -0.39280295 0.0025426205 -3.800327 0.28378427 -1.0365176 2.6315465 2.7782695 -4.396583 1.3317313 0.9226195 -2.1518035 -0.23973422 5.3405294 2.8266308 -3.2910318 0.7808501 -0.8593213 -1.495358 -0.84721965
593 -1.5093151 1.920175 0.5525231 -4.268524 -0.6010308 -3.228977 -3.8138223 -0.14423095 1.3100884 4.1459765 1.0967805 1.8628733 2.0886075 2.2064643 -4.731397 0.8538351 -0.9460763 2.037333 3.3477783 2.3567321 0.27450016 -2.8696837 -0.09888993 -1.0126135 -5.8159246 3.1734061 1.0702524 2.0082083 -0.9528124 3.432634 1.8855987 0.1551174 -1.8531139 -1.5684948 -0.48774585 -3.5925756 -0.30710146 -1.2157526 1.7925503 5.1319723 -2.5947788 0.86754465 -2.3771293 -2.1933775 -0.41317934 -0.23373589 -1.7837591 -0.16290992 1.6522121 -1.1549348 -2.1540842 -1.0217113 -3.1978576 0.4112089 -0.49388903 -1.492067 -3.071557 -1.7426459 -5.045628 3.537644 0.29952013 1.6340885 -0.2451965 -1.1674109 -0.14919616 4.8140273 0.028801318 0.39471644 0.083989784 0.05607735 -5.8939447 0.35551798 3.9182673 6.1686463 -3.3537953 -0.6132604 -0.6777499 -0.48840958 2.627188 -2.6721163 -0.9855515 3.7604563 0.84432673 -1.2927417 0.62867945 2.6231494 -0.16326411 -2.5170288 3.7109191 -0.74715364 -0.40321955 -3.200397 0.24235624 3.674145 0.9781286 -0.85776174 1.6525496 2.079911 1.0363898 -2.0074222
852 0.5617224 -3.817176 4.4773517 -1.9171084 3.927652 4.4202633 0.088351615 2.1173863 -3.1200922 0.4994378 -3.044845 -2.6931622 -1.1039546 0.2038798 -2.9077451 -1.960741 -1.3653153 -0.8299705 3.3184218 -0.72877043 1.6912476 -1.951519 -1.7058554 2.2175663 -0.8197728 -2.7376263 0.04755425 -1.0277809 -3.4062662 -2.2969213 -1.960959 -2.7901454 -2.7759032 0.123625256 -0.67409104 -0.77269024 -0.75796 -2.1654255 -0.43109912 -0.92533255 0.4486525 -1.1984744 3.417589 1.6514617 4.355935 2.7868779 0.25745875 -0.60601646 3.0137048 1.6934247 -1.2668446 1.5421219 -3.3230388 0.97557044 -1.579223 -3.737863 3.7799065 2.3754394 1.5989673 -0.3915937 -3.1307328 1.5711673 3.0319324 1.5043397 -0.54409236 0.3850821 -5.0015383 -4.564583 -5.7370505 0.4853267 2.0457642 2.7900078 -0.6071925 1.1722528 -2.3795838 -1.5781895 0.12940636 0.5084559 -3.840606 -0.8163181 2.0329223 -1.243648 -2.1272998 -3.5616484 2.157782 0.032357752 -0.2694811 2.3580387 0.2780135 -2.034691 -1.6995533 0.05150242 0.6502761 -0.8371593 -1.312578 -2.787722 -2.9137876 1.591018 -2.8430173 -1.6627378
192 -0.9045898 2.8277824 -6.870168 1.9815868 -0.11211352 3.0879486 -1.7487898 2.0715396 3.568295 -2.5181887 1.6365037 -0.030749366 -0.2316318 1.8305985 2.899725 -1.7055846 1.1555364 1.4279132 3.0624154 0.14728421 -0.112845525 0.50407785 3.1127722 -5.353507 -1.0419246 -1.8540683 -2.9128942 2.6666827 -1.9153678 0.08469447 3.9773648 -1.3113014 2.93393 0.8939102 2.4988656 3.1814442 -6.5761023 -0.046824224 1.6829171 -2.3557816 1.6145849 -0.019271553 -0.6583827 1.6949313 2.9383926 0.5811311 -0.06652381 -2.72336 1.9258713 -0.7627602 0.67915887 -4.915742 1.0835613 0.68358916 -0.37441677 1.1440506 -0.2027401 -0.80249363 1.870848 2.660191 3.475421 0.13412994 -3.1214697 -4.3499064 -2.4392245 2.8363564 1.1030158 -1.0172443 0.09365061 1.3931065 6.630969 -1.5565033 -6.42616 0.4079974 1.2333184 2.0768058 1.123782 2.0668082 -1.6502378 0.944156 -0.60656244 0.25045735 0.23173909 -4.6483893 -2.9178104 -4.5667014 2.6618776 -1.8631985 -2.206683 0.6318349 3.7996697 -0.40264046 0.762783 -0.20061168 2.1539738 0.42240047 2.9786754 3.274653 -1.9970396 1.2518263
736 0.5127165 1.2342402 2.9145741 -0.4377383 -2.3281684 -0.2684337 -0.81703424 1.3356113 -1.7388023 1.2277515 1.2003926 -0.38721222 4.804129 4.2276654 1.1482253 -2.3562188 2.6450245 -1.2562802 0.59731257 0.670763 2.9742258 -6.3320937 0.77863246 -1.7369893 -1.6598215 -1.1870489 0.37183625 1.8308095 -2.4823766 5.749438 -2.8724778 4.6229315 -2.7993023 1.6804222 -3.1016889 -4.5507784 2.236129 0.43380433 -1.6956433 2.1569793 0.91082853 -2.840254 1.44345 -0.7056784 -0.5257567 -4.2534595 -0.32026288 -1.8422741 -2.5032947 -2.226607 -1.0580131 1.5234452 -2.3976269 1.1461488 2.7852874 2.041828 -2.3671682 -3.0733569 -3.8510547 0.78927344 -2.7584507 0.6560214 -2.4611344 2.5622368 -1.8943332 2.8328235 3.8859105 1.1029965 0.83750546 0.07033611 -1.7381903 -0.0822603 -1.9010286 -1.5489376 -0.6366209 -0.62081134 -1.4390554 2.7599294 2.3947845 -0.2907242 -1.4572986 2.1106083 2.9480956 -0.154318 2.480686 1.8381672 0.32423156 -1.1241541 0.45417258 -4.298159 -4.5534554 -4.509163 -4.088855 -0.6801383 0.5437517 -1.5066264 -3.0668666 1.7085651 3.3372972 0.6331598
907 1.4539651 4.357925 0.88363504 -1.6068194 -2.4452798 -2.231329 2.1007175 -0.938686 1.3780544 1.2572535 2.465668 4.6334667 0.9200031 -1.4260445 3.2377577 1.7967498 1.3923076 -0.24944963 -1.4179761 1.4022795 -1.8901378 4.561796 -0.5971915 3.6849644 2.5337155 6.7101717 -3.4968617 -1.8457694 -2.2069 1.1749519 -0.55494946 -0.97337353 1.3669411 1.2686749 -0.9537751 -2.7305434 -0.22310938 0.9610017 -1.8031987 3.2749379 -1.9723464 1.0583702 1.706941 0.40142104 0.5256991 -0.64793295 -1.4533072 0.3091941 0.40269697 -0.23782267 0.3581582 -1.735969 1.2526394 -4.4323406 1.6458653 2.4953632 1.5058206 0.9380551 0.5347009 0.046557102 -0.68123436 -2.8006816 1.0459347 1.945439 -3.3364394 -0.6312936 1.575698 -2.467061 0.08241455 -0.2828197 -0.8659518 0.8771691 -0.4271559 -3.8947628 0.28263864 -3.4117436 1.6824023 2.493735 0.32612085 2.1414356 3.559548 -0.011404617 -0.41257977 5.060291 0.09116459 -1.287598 0.90616965 -4.08213 3.1625495 -3.9439008 2.3860962 1.81548 -1.0897138 1.1101681 -0.42774582 -0.9200328 1.2541853 -2.6882937 3.9973178 1.3106122
830 3.0478158 -3.3303978 -3.0942 -0.21055885 2.1135628 -0.49269444 0.81651217 2.926806 2.4461226 -0.7307938 -0.100348204 -2.841678 3.2286053 -1.7427657 1.8540965 -1.0833067 -1.291788 0.0031126025 -0.547629 -2.684749 2.522652 2.3471148 -1.4984826 2.0547366 -1.8892142 -1.8514756 1.2369874 6.1405826 -5.173496 -6.487801 -0.93199855 2.8392193 0.56972396 -2.2049203 3.0745363 -0.453123 -1.394562 3.3676631 -1.5342606 -0.45072412 2.3609958 -0.27376735 -1.2659639 -0.19747375 2.3424091 0.7278538 3.9375508 0.63907576 -2.6201787 -0.16497262 1.717697 -1.0278059 -0.4357349 -1.7699634 0.9069399 1.4093393 2.0517793 -0.99615186 0.34700498 -0.79201084 4.4401865 -6.9630566 -4.849344 -3.7364185 1.2858988 -1.4810957 -0.5618829 -0.20782387 2.631208 0.044813927 6.9215655 -1.7711885 0.35327667 -1.366561 0.37742168 0.19871598 0.60285455 -2.7319665 1.7748631 0.7470082 1.4977579 0.94789976 -0.5417266 -1.3567773 0.030793447 -2.7536995 -0.2854132 -0.5921883 -3.9433148 -0.11543995 4.3427453 -2.9557943 -1.385145 0.5089111 4.010357 3.4102738 0.30928633 2.5471587 -1.8351381 0.8072146
390 0.7348511 3.8159301 1.466642 -0.54065585 0.051211994 -1.7296195 2.7163956 -3.6539755 1.8809854 0.8089409 2.4287372 2.2421956 0.8455652 -2.2457085 4.6751695 -1.2551316 2.3248653 0.94210345 0.020160357 0.8757547 -1.4457213 2.4216692 -4.650383 -0.3975435 -0.77646655 7.121012 -2.2784941 0.04791097 -1.4095523 1.9538202 -1.486143 -3.021508 0.1952806 -0.29981467 -2.7809198 -1.3838332 -1.0415 2.957383 -3.8925984 -0.5915403 -0.059853684 0.53881824 -0.45711562 3.3982832 -1.0626065 0.16988046 -1.3038212 1.3697635 -1.0030522 -1.61892 -0.8708085 -1.0503569 1.711347 -2.5245793 -2.7449017 1.6721971 3.2433252 0.8029874 2.2134433 -1.6962657 -0.34109792 -2.333984 0.09496594 3.7444258 -3.0215654 0.1342036 1.607807 1.3042357 0.031471852 -2.4190156 -2.1858633 -0.071257204 -0.91355324 0.6319109 2.1904802 -3.3150015 -0.22414361 2.9138029 2.7961795 -0.47519383 1.1060032 -0.20423557 -3.1152601 5.342026 0.21293686 0.64614767 1.5292898 -3.758137 0.14233734 0.8538871 2.0458643 1.9092174 0.6831435 -0.103156656 -0.95640945 1.8389907 0.8213544 -1.6315913 1.163971 3.4314895
52 2.6454015 2.0524862 -0.8421883 1.4557002 -0.5658472 -2.6608863 -0.18200327 2.8561118 2.6392143 -2.3906116 0.84525937 0.09066375 1.8842946 -4.1963363 1.1485927 4.0347714 -0.17384475 3.4062538 0.43574694 0.60723215 0.86665183 4.8220906 -6.047004 -2.5058055 0.35011727 3.713656 -4.5072713 0.6143339 2.6657577 1.8567255 -0.16938712 -1.1476667 0.95479167 2.700273 -2.1616704 -2.2182105 2.7141662 2.2281735 -1.356775 -1.9127088 3.3721323 4.073287 0.5646215 3.128796 1.5866066 1.1811829 -0.1704488 2.1734123 0.51764417 0.76210546 2.7959254 -2.7075646 -3.4390604 2.0187044 0.95101386 1.8862466 0.68143475 0.9665577 5.809843 -0.60703915 2.0855286 1.4747438 -0.024155902 1.821236 2.681129 -1.406933 5.3765492 2.66224 0.16154207 4.4952807 2.2011824 1.7029765 -1.0587531 -0.012531067 5.8671923 0.90463233 -0.81622833 3.1657631 -0.6413081 1.864102 -3.4380822 0.4712868 1.0229211 -2.3251717 -2.3991148 -1.2784265 -3.747017 1.0974177 -2.157164 -2.0125437 3.376735 3.392297 0.34973213 1.6605864 -0.08016138 2.7660809 2.131877 -1.446012 1.3674242 2.3351362
759 3.211076 -0.46423885 -2.3631642 -1.4753374 2.9739714 -2.2264376 -0.6571942 -2.810402 -1.2316068 1.2237545 -4.596107 -4.083342 -3.288502 1.6259817 -0.22561704 -2.4577398 -0.36153615 -1.8826166 0.8057901 0.17618944 2.7275386 2.9858112 0.5149412 -1.725424 0.3646624 -4.300526 5.086933 1.8832921 -1.9734831 -4.3137193 -0.33020088 -2.1982906 2.2597451 2.3873856 1.571756 -2.5214412 2.0200875 -2.247793 4.420354 -1.0923681 0.22656655 2.7711935 -1.3000662 -0.59747523 -3.355008 -1.0135677 1.7692398 1.3574009 0.13240857 1.886573 0.6126686 4.9261146 -1.4165951 -1.4505522 -3.4311998 -1.1648964 -3.3963106 4.0866055 0.9827793 1.0155824 2.0306776 3.3141053 1.9386586 -1.6683584 -2.0699074 0.9567299 -4.9611073 2.5480318 -1.9940444 1.4718387 1.1157612 3.9625485 -0.4255043 -1.4045881 0.50520813 -2.4643846 -1.1086696 1.8024857 -2.2942545 3.9987674 2.416931 0.89732826 -1.0375229 -3.1568584 1.582925 -1.1970816 -4.6134524 -0.6521448 -0.6648458 -0.82836956 0.44678536 -3.0316825 4.6854577 0.68308616 -1.3384998 1.3429006 -4.451545 2.8009741 -2.69247 0.84330493
612 -0.22700529 -4.5620136 -5.06992 1.7423171 -1.7796674 2.65612 0.5728168 -2.0720785 -2.54566 -0.088734865 -1.8813331 0.7510892 -2.137215 -3.4121222 -1.785759 3.9761524 -2.2315195 0.28326786 -1.8157951 -0.08636489 -4.0466022 -1.6735096 2.1776524 -0.6680081 -6.2468247 0.32038593 0.11898377 1.9216671 -2.957505 -2.659559 -1.0439987 0.9888539 2.7984622 -2.0892236 0.086898156 5.49689 -2.0277681 -3.1088188 -4.071008 0.98955446 1.5494725 -1.3870201 -0.16246551 -0.75267273 2.5031211 0.151697 -1.3930192 2.9887857 -1.8330909 -1.4312018 -0.026725579 -3.1494157 1.6947911 0.3743911 1.6351668 4.495317 -1.4323617 0.026351416 -2.5050478 -0.78850114 0.16649856 -6.335311 -0.075993136 3.212821 4.6674438 2.2027671 1.8612158 -1.4824637 0.8905782 2.413732 2.4329975 2.2002392 -0.7883694 0.14240769 3.4446728 3.475471 -2.5106196 -0.4981358 0.34748596 3.9125788 3.2082217 0.09546244 -2.9478316 0.21295668 0.5862761 0.004596449 -1.2787887 2.1096916 -2.696416 3.1006281 -0.20381546 1.5392755 4.7476377 -4.2572536 -2.200365 0.14034782 3.1766193 -1.9788677 0.4383004 1.1480818
868 1.5699866 0.9318543 0.3200777 -0.18583316 -2.079694 1.6854165 2.6493497 -2.950331 1.7139688 -2.072483 4.372555 -1.8917236 1.6610498 -0.9687824 2.4380004 -0.7251069 -0.94411755 2.340251 -0.6567447 -0.39755118 4.0928273 4.6267037 0.83067155 0.020207833 1.9692074 -1.7555208 1.4354967 4.035527 0.9772628 -2.4167874 0.00900898 -0.67916816 1.2665929 -0.37176967 -2.010501 -0.9953253 4.2053 0.7492198 3.1711977 -3.3019514 -3.056238 0.55381405 -3.0943797 -2.349752 3.8836021 -0.119900785 1.4437606 -3.3744915 2.2837334 6.1145315 4.069731 -0.25450754 -1.4545432 -2.5673056 0.41688427 1.2802352 1.909966 1.4911733 -2.3178608 1.9511745 -0.15209289 -1.5841398 2.435199 -2.5534134 -1.8510671 0.6771688 -0.69927704 -2.2082593 3.2916756 0.52311397 -0.040544562 1.081887 -3.9288998 -1.1891205 5.656987 -0.18952803 -1.3715831 0.26935595 4.4410667 0.5272642 -0.55874395 -1.0854796 2.2188053 0.15119787 -4.1699843 -1.5884773 -5.5544834 -3.122307 -2.855338 1.2265242 6.0194464 -1.3702443 1.2517972 -1.4612439 -1.1698664 5.5389743 0.08315828 1.125301 -0.3519143 -2.2903717
474 -0.6992994 2.2415192 -5.4626985 1.6254478 -1.5690677 0.30960277 -4.347281 0.37972045 -1.9196758 1.2035003 -1.2777783 0.764849 -1.6440952 -3.678342 2.6387744 1.7276783 -3.3847117 1.7926023 -3.2307591 -2.533227 -1.5064244 -1.1657376 0.23372926 -1.9696535 1.5676336 -1.7395024 1.4008391 3.6918437 1.1799287 -1.6674525 0.85797065 2.3858938 6.1213202 2.8383918 -2.3627267 2.2268486 -5.101332 -1.9198802 -0.4805422 0.031468846 1.2567817 0.31594437 -0.9420263 3.132071 4.779519 1.8727373 2.922105 -1.0080796 2.8379707 -1.0533872 1.1172847 0.26419696 1.1160796 0.30187592 1.7113256 1.3234191 -2.4088993 1.2971267 0.24928537 0.50592756 4.8629365 -0.3287906 -1.2070832 -0.9303229 1.7456415 -0.99777335 0.5240123 0.22000097 2.5719936 7.6115756 1.4616766 2.6566622 -0.23613848 0.71912557 -0.7386967 -2.2798362 -2.257987 0.9687647 -1.0260731 2.8404229 3.1315305 1.2532547 -3.7406714 -2.3058095 1.8675079 -0.90515375 2.614122 -2.743421 -1.0444759 1.8050456 1.4678828 1.9266309 0.5946964 -1.821599 2.4224286 -0.14973868 3.7218277 0.023739338 2.9333208 3.0431213
143 -0.86393976 2.2350295 2.5049152 -0.81462485 -0.8803912 -0.8672249 1.4257536 -1.2903223 1.8572375 -1.2439228 1.6359313 2.640717 1.5594167 -0.08103699 5.1153817 -0.69427013 1.7061577 2.1264756 -0.7767814 2.057984 -1.4297096 4.9594364 -3.632169 1.688556 1.3749502 4.463103 -3.7311883 -1.7084206 0.3961925 -1.3576542 -0.3299605 -3.5569923 3.47458 2.9945655 -0.68832725 -3.1252925 1.4372908 1.273401 -3.1313016 -2.0026128 0.8953591 3.2116537 -0.6094303 -0.5067991 -0.31102756 0.5066623 -4.0884027 1.1743517 0.45309392 2.7056499 1.5260702 -3.195763 1.2384808 -1.4810343 -2.523141 1.649714 -0.058840632 -1.39588 1.1737525 -2.4074602 -1.4757384 -0.8598522 1.1444137 3.5237038 -1.0781803 -1.1023902 2.8141968 2.9514132 0.032400463 -0.5732451 0.7377057 2.4138968 0.5127972 2.2183273 2.4000103 -1.8739889 0.196805 5.491473 4.070285 1.6409688 2.0164526 1.2225384 0.04399178 4.8725924 -2.6018255 -0.5334585 -1.3984873 0.27510867 -0.5167851 -1.4730225 1.8107327 1.3351399 -2.5150247 0.6453384 -3.3205378 1.977037 -0.85940737 -0.40276116 1.2856482 -0.23478511
